<?xml version="1.0"?>
<opencv_storage>
<stage35>
  <maxWeakCount>100</maxWeakCount>
  <stageThreshold>-8.4613162279129028e-01</stageThreshold>
  <weakClassifiers>
    <_>
      <internalNodes>
        0 -1 149557 -8.0764569342136383e-02</internalNodes>
      <leafValues>
        -4.0000000596046448e-01 3.5342466831207275e-01</leafValues></_>
    <_>
      <internalNodes>
        0 -1 150167 -2.9235541820526123e-02</internalNodes>
      <leafValues>
        1. 9.6228085458278656e-03</leafValues></_>
    <_>
      <internalNodes>
        0 -1 83537 3.2825297676026821e-03</internalNodes>
      <leafValues>
        -4.3260283768177032e-02 4.8424965143203735e-01</leafValues></_>
    <_>
      <internalNodes>
        0 -1 83537 3.1632771715521812e-03</internalNodes>
      <leafValues>
        4.8494739457964897e-03 -9.3358337879180908e-01</leafValues></_>
    <_>
      <internalNodes>
        0 -1 83537 3.1495548319071531e-03</internalNodes>
      <leafValues>
        -5.7270162506029010e-04 7.5709718465805054e-01</leafValues></_>
    <_>
      <internalNodes>
        0 -1 83537 3.1430921517312527e-03</internalNodes>
      <leafValues>
        -1.0147752240300179e-02 -9.0975868701934814e-01</leafValues></_>
    <_>
      <internalNodes>
        0 -1 83537 3.1399310100823641e-03</internalNodes>
      <leafValues>
        1.0096842423081398e-02 8.1694704294204712e-01</leafValues></_>
    <_>
      <internalNodes>
        0 -1 83537 3.1314874067902565e-03</internalNodes>
      <leafValues>
        -9.6670957282185555e-03 -8.6760568618774414e-01</leafValues></_>
    <_>
      <internalNodes>
        0 -1 83537 3.0616421718150377e-03</internalNodes>
      <leafValues>
        9.5653273165225983e-03 8.3728802204132080e-01</leafValues></_>
    <_>
      <internalNodes>
        0 -1 83537 3.0543848406523466e-03</internalNodes>
      <leafValues>
        -1.0213928297162056e-02 -8.6435604095458984e-01</leafValues></_>
    <_>
      <internalNodes>
        0 -1 83537 3.0412981286644936e-03</internalNodes>
      <leafValues>
        9.0046394616365433e-03 1.</leafValues></_>
    <_>
      <internalNodes>
        0 -1 83537 3.0342126265168190e-03</internalNodes>
      <leafValues>
        -1.0236326605081558e-02 -8.9776802062988281e-01</leafValues></_>
    <_>
      <internalNodes>
        0 -1 83537 2.9122023843228817e-03</internalNodes>
      <leafValues>
        8.4359692409634590e-03 8.1361073255538940e-01</leafValues></_>
    <_>
      <internalNodes>
        0 -1 83537 2.8318292461335659e-03</internalNodes>
      <leafValues>
        -7.0663690567016602e-03 -8.4567016363143921e-01</leafValues></_>
    <_>
      <internalNodes>
        0 -1 83537 2.8126961551606655e-03</internalNodes>
      <leafValues>
        9.7122779116034508e-03 8.3200001716613770e-01</leafValues></_>
    <_>
      <internalNodes>
        0 -1 83537 2.7920452412217855e-03</internalNodes>
      <leafValues>
        -6.0453321784734726e-03 -8.4936624765396118e-01</leafValues></_>
    <_>
      <internalNodes>
        0 -1 83537 2.7134288102388382e-03</internalNodes>
      <leafValues>
        5.2950885146856308e-03 8.2711768150329590e-01</leafValues></_>
    <_>
      <internalNodes>
        0 -1 43085 -2.0484955981373787e-02</internalNodes>
      <leafValues>
        7.4431848526000977e-01 -2.7830556035041809e-02</leafValues></_>
    <_>
      <internalNodes>
        0 -1 86891 -1.2403212487697601e-01</internalNodes>
      <leafValues>
        1. -2.4501744657754898e-02</leafValues></_>
    <_>
      <internalNodes>
        0 -1 128038 1.5205794945359230e-02</internalNodes>
      <leafValues>
        3.1473401933908463e-02 -5.7201993465423584e-01</leafValues></_>
    <_>
      <internalNodes>
        0 -1 10669 3.0674375593662262e-03</internalNodes>
      <leafValues>
        -4.8080909997224808e-02 3.2083013653755188e-01</leafValues></_>
    <_>
      <internalNodes>
        0 -1 36473 4.6912714838981628e-02</internalNodes>
      <leafValues>
        -4.6821989119052887e-02 4.0785047411918640e-01</leafValues></_>
    <_>
      <internalNodes>
        0 -1 86371 6.9842883385717869e-04</internalNodes>
      <leafValues>
        1.0065813362598419e-01 -1.8282309174537659e-01</leafValues></_>
    <_>
      <internalNodes>
        0 -1 2912 4.3083256483078003e-01</internalNodes>
      <leafValues>
        2.9683863744139671e-02 -5.0987106561660767e-01</leafValues></_>
    <_>
      <internalNodes>
        0 -1 4172 -3.7438079714775085e-02</internalNodes>
      <leafValues>
        -6.9504231214523315e-01 3.3981751650571823e-02</leafValues></_>
    <_>
      <internalNodes>
        0 -1 154669 1.3188549201004207e-04</internalNodes>
      <leafValues>
        -8.7559461593627930e-02 1.9428034126758575e-01</leafValues></_>
    <_>
      <internalNodes>
        0 -1 146615 -6.9347154349088669e-03</internalNodes>
      <leafValues>
        7.2971594333648682e-01 -3.0738847330212593e-02</leafValues></_>
    <_>
      <internalNodes>
        0 -1 28586 -1.0998389869928360e-01</internalNodes>
      <leafValues>
        -9.0166771411895752e-01 2.4247525259852409e-02</leafValues></_>
    <_>
      <internalNodes>
        0 -1 93639 -2.2754638921469450e-03</internalNodes>
      <leafValues>
        3.0658933520317078e-01 -6.9437459111213684e-02</leafValues></_>
    <_>
      <internalNodes>
        0 -1 68911 4.1117076762020588e-05</internalNodes>
      <leafValues>
        -1.5274006128311157e-01 1.2289561331272125e-01</leafValues></_>
    <_>
      <internalNodes>
        0 -1 129220 -7.2917749639600515e-04</internalNodes>
      <leafValues>
        -2.6391434669494629e-01 6.7138433456420898e-02</leafValues></_>
    <_>
      <internalNodes>
        0 -1 70582 -5.9556551277637482e-03</internalNodes>
      <leafValues>
        4.7723755240440369e-01 -3.4248087555170059e-02</leafValues></_>
    <_>
      <internalNodes>
        0 -1 125461 -5.7423915714025497e-03</internalNodes>
      <leafValues>
        -7.8703325986862183e-01 2.7202732861042023e-02</leafValues></_>
    <_>
      <internalNodes>
        0 -1 53751 -1.9334517419338226e-02</internalNodes>
      <leafValues>
        -6.9456315040588379e-01 2.1132430061697960e-02</leafValues></_>
    <_>
      <internalNodes>
        0 -1 76118 -2.2543347440660000e-03</internalNodes>
      <leafValues>
        3.0861455202102661e-01 -6.5517120063304901e-02</leafValues></_>
    <_>
      <internalNodes>
        0 -1 142415 -1.8235985189676285e-02</internalNodes>
      <leafValues>
        9.1117990016937256e-01 -1.8878249451518059e-02</leafValues></_>
    <_>
      <internalNodes>
        0 -1 42199 -4.3399333953857422e-02</internalNodes>
      <leafValues>
        -4.9078381061553955e-01 3.9305966347455978e-02</leafValues></_>
    <_>
      <internalNodes>
        0 -1 144164 1.1119785718619823e-02</internalNodes>
      <leafValues>
        -4.7489024698734283e-02 3.3728229999542236e-01</leafValues></_>
    <_>
      <internalNodes>
        0 -1 147213 8.3102896809577942e-02</internalNodes>
      <leafValues>
        -3.4565910696983337e-02 5.0097745656967163e-01</leafValues></_>
    <_>
      <internalNodes>
        0 -1 151518 -1.6981687396764755e-02</internalNodes>
      <leafValues>
        5.3525978326797485e-01 -2.9990559443831444e-02</leafValues></_>
    <_>
      <internalNodes>
        0 -1 160730 8.1434920430183411e-03</internalNodes>
      <leafValues>
        3.4512311220169067e-02 -5.8509641885757446e-01</leafValues></_>
    <_>
      <internalNodes>
        0 -1 129224 1.4124101027846336e-02</internalNodes>
      <leafValues>
        -6.0279086232185364e-02 3.3088403940200806e-01</leafValues></_>
    <_>
      <internalNodes>
        0 -1 135177 1.0433639399707317e-03</internalNodes>
      <leafValues>
        1.3019458949565887e-01 -1.8993696570396423e-01</leafValues></_>
    <_>
      <internalNodes>
        0 -1 29012 8.0452278256416321e-02</internalNodes>
      <leafValues>
        -2.4260157719254494e-02 7.6217448711395264e-01</leafValues></_>
    <_>
      <internalNodes>
        0 -1 25160 -1.0474225506186485e-02</internalNodes>
      <leafValues>
        6.4170229434967041e-01 -2.3176617920398712e-02</leafValues></_>
    <_>
      <internalNodes>
        0 -1 87967 1.7776219174265862e-02</internalNodes>
      <leafValues>
        4.1210621595382690e-02 -4.9907997250556946e-01</leafValues></_>
    <_>
      <internalNodes>
        0 -1 126860 1.6699214465916157e-03</internalNodes>
      <leafValues>
        -1.8843892961740494e-02 9.0820837020874023e-01</leafValues></_>
    <_>
      <internalNodes>
        0 -1 92025 2.6076713576912880e-02</internalNodes>
      <leafValues>
        -5.8173067867755890e-02 3.0867925286293030e-01</leafValues></_>
    <_>
      <internalNodes>
        0 -1 98716 -7.2418007766827941e-04</internalNodes>
      <leafValues>
        1.8200568854808807e-01 -1.1563356965780258e-01</leafValues></_>
    <_>
      <internalNodes>
        0 -1 9524 -1.1197752319276333e-03</internalNodes>
      <leafValues>
        -2.0316840708255768e-01 9.0555325150489807e-02</leafValues></_>
    <_>
      <internalNodes>
        0 -1 54505 -5.8301687240600586e-02</internalNodes>
      <leafValues>
        -8.1263834238052368e-01 2.3166270926594734e-02</leafValues></_>
    <_>
      <internalNodes>
        0 -1 92514 -8.6265674326568842e-04</internalNodes>
      <leafValues>
        4.2656841874122620e-01 -4.5534510165452957e-02</leafValues></_>
    <_>
      <internalNodes>
        0 -1 84259 -3.1267148442566395e-03</internalNodes>
      <leafValues>
        -2.8568270802497864e-01 7.1523740887641907e-02</leafValues></_>
    <_>
      <internalNodes>
        0 -1 184 2.1156113594770432e-02</internalNodes>
      <leafValues>
        -6.2263265252113342e-02 3.0875471234321594e-01</leafValues></_>
    <_>
      <internalNodes>
        0 -1 2215 -3.5121152177453041e-03</internalNodes>
      <leafValues>
        2.8024438023567200e-01 -6.6918052732944489e-02</leafValues></_>
    <_>
      <internalNodes>
        0 -1 99494 -3.0447149649262428e-02</internalNodes>
      <leafValues>
        6.4908331632614136e-01 -2.6397010311484337e-02</leafValues></_>
    <_>
      <internalNodes>
        0 -1 33195 6.7635953426361084e-02</internalNodes>
      <leafValues>
        -7.4784345924854279e-02 2.3051391541957855e-01</leafValues></_>
    <_>
      <internalNodes>
        0 -1 136603 8.7413843721151352e-03</internalNodes>
      <leafValues>
        9.5165580511093140e-02 -2.0802010595798492e-01</leafValues></_>
    <_>
      <internalNodes>
        0 -1 19223 4.8124197870492935e-02</internalNodes>
      <leafValues>
        4.7669529914855957e-02 -4.2182505130767822e-01</leafValues></_>
    <_>
      <internalNodes>
        0 -1 87153 3.7665732088498771e-04</internalNodes>
      <leafValues>
        7.0485465228557587e-02 -2.5341707468032837e-01</leafValues></_>
    <_>
      <internalNodes>
        0 -1 122026 1.4245331287384033e-02</internalNodes>
      <leafValues>
        -5.8050211519002914e-02 3.0692675709724426e-01</leafValues></_>
    <_>
      <internalNodes>
        0 -1 48185 5.1739029586315155e-03</internalNodes>
      <leafValues>
        -1.8111333250999451e-02 8.5804939270019531e-01</leafValues></_>
    <_>
      <internalNodes>
        0 -1 147717 -5.8205737732350826e-03</internalNodes>
      <leafValues>
        -3.4742501378059387e-01 5.4344959557056427e-02</leafValues></_>
    <_>
      <internalNodes>
        0 -1 146481 -2.7253594249486923e-02</internalNodes>
      <leafValues>
        7.7829968929290771e-01 -2.6182850822806358e-02</leafValues></_>
    <_>
      <internalNodes>
        0 -1 153458 -5.5920712649822235e-02</internalNodes>
      <leafValues>
        -5.5116617679595947e-01 3.8287885487079620e-02</leafValues></_>
    <_>
      <internalNodes>
        0 -1 138012 -2.2265210747718811e-02</internalNodes>
      <leafValues>
        1.4478483796119690e-01 -1.5599925816059113e-01</leafValues></_>
    <_>
      <internalNodes>
        0 -1 10578 -3.9890566840767860e-03</internalNodes>
      <leafValues>
        3.9457073807716370e-01 -4.5345939695835114e-02</leafValues></_>
    <_>
      <internalNodes>
        0 -1 133438 1.7027044668793678e-02</internalNodes>
      <leafValues>
        -1.7839098349213600e-02 9.5357078313827515e-01</leafValues></_>
    <_>
      <internalNodes>
        0 -1 151580 -3.6281403154134750e-03</internalNodes>
      <leafValues>
        -6.6559219360351563e-01 3.2275948673486710e-02</leafValues></_>
    <_>
      <internalNodes>
        0 -1 146937 5.1864836132153869e-04</internalNodes>
      <leafValues>
        -9.0933039784431458e-02 1.9997900724411011e-01</leafValues></_>
    <_>
      <internalNodes>
        0 -1 161985 -3.0390624888241291e-03</internalNodes>
      <leafValues>
        3.4993392229080200e-01 -5.2757330238819122e-02</leafValues></_>
    <_>
      <internalNodes>
        0 -1 18803 -4.8758933553472161e-04</internalNodes>
      <leafValues>
        -3.2514664530754089e-01 6.4897105097770691e-02</leafValues></_>
    <_>
      <internalNodes>
        0 -1 70780 1.1715331114828587e-02</internalNodes>
      <leafValues>
        -3.5230316221714020e-02 4.8626551032066345e-01</leafValues></_>
    <_>
      <internalNodes>
        0 -1 99413 -9.2738810926675797e-03</internalNodes>
      <leafValues>
        -4.4091171026229858e-01 4.4389162212610245e-02</leafValues></_>
    <_>
      <internalNodes>
        0 -1 50399 6.2213430646806955e-04</internalNodes>
      <leafValues>
        -1.1695021390914917e-01 1.5937925875186920e-01</leafValues></_>
    <_>
      <internalNodes>
        0 -1 44393 6.3672516262158751e-05</internalNodes>
      <leafValues>
        1.8342846632003784e-01 -9.9867478013038635e-02</leafValues></_>
    <_>
      <internalNodes>
        0 -1 95968 1.1599300429224968e-02</internalNodes>
      <leafValues>
        -2.0786084234714508e-02 8.8642770051956177e-01</leafValues></_>
    <_>
      <internalNodes>
        0 -1 60024 1.6585018485784531e-02</internalNodes>
      <leafValues>
        5.0117015838623047e-02 -4.0765157341957092e-01</leafValues></_>
    <_>
      <internalNodes>
        0 -1 138079 7.9847872257232666e-04</internalNodes>
      <leafValues>
        -5.2058968693017960e-02 3.5065686702728271e-01</leafValues></_>
    <_>
      <internalNodes>
        0 -1 161916 2.5788908824324608e-03</internalNodes>
      <leafValues>
        3.7697128951549530e-02 -5.4111921787261963e-01</leafValues></_>
    <_>
      <internalNodes>
        0 -1 86278 -5.9854041319340467e-04</internalNodes>
      <leafValues>
        2.5488317012786865e-01 -7.3616109788417816e-02</leafValues></_>
    <_>
      <internalNodes>
        0 -1 124462 -1.1962573230266571e-01</internalNodes>
      <leafValues>
        8.0972358584403992e-02 -2.4963778257369995e-01</leafValues></_>
    <_>
      <internalNodes>
        0 -1 21744 -2.6600975543260574e-02</internalNodes>
      <leafValues>
        -5.9402119368314743e-02 3.2179799675941467e-01</leafValues></_>
    <_>
      <internalNodes>
        0 -1 159812 -5.0830352120101452e-04</internalNodes>
      <leafValues>
        -2.7178153395652771e-01 7.0624157786369324e-02</leafValues></_>
    <_>
      <internalNodes>
        0 -1 24081 -1.1899882927536964e-02</internalNodes>
      <leafValues>
        6.3378095626831055e-01 -3.0865853652358055e-02</leafValues></_>
    <_>
      <internalNodes>
        0 -1 10679 -2.0497644320130348e-02</internalNodes>
      <leafValues>
        -4.3028742074966431e-01 4.7888997942209244e-02</leafValues></_>
    <_>
      <internalNodes>
        0 -1 137679 -1.3908367604017258e-02</internalNodes>
      <leafValues>
        -5.0878018140792847e-01 3.3462103456258774e-02</leafValues></_>
    <_>
      <internalNodes>
        0 -1 29532 -1.3078187592327595e-02</internalNodes>
      <leafValues>
        4.6147633343935013e-02 -4.1607919335365295e-01</leafValues></_>
    <_>
      <internalNodes>
        0 -1 47469 4.4255494140088558e-04</internalNodes>
      <leafValues>
        1.1514973640441895e-01 -1.7391605675220490e-01</leafValues></_>
    <_>
      <internalNodes>
        0 -1 125 7.6096944510936737e-02</internalNodes>
      <leafValues>
        4.4024702161550522e-02 -4.2837667465209961e-01</leafValues></_>
    <_>
      <internalNodes>
        0 -1 3377 -8.0026403069496155e-02</internalNodes>
      <leafValues>
        5.9824484586715698e-01 -3.5474687814712524e-02</leafValues></_>
    <_>
      <internalNodes>
        0 -1 89905 5.6786864297464490e-04</internalNodes>
      <leafValues>
        1.1686910688877106e-01 -1.5824975073337555e-01</leafValues></_>
    <_>
      <internalNodes>
        0 -1 1477 3.2841771841049194e-01</internalNodes>
      <leafValues>
        2.7430430054664612e-02 -7.5818067789077759e-01</leafValues></_>
    <_>
      <internalNodes>
        0 -1 79658 -9.4739382620900869e-04</internalNodes>
      <leafValues>
        -1.5343481302261353e-01 1.3783833384513855e-01</leafValues></_>
    <_>
      <internalNodes>
        0 -1 108969 7.6218977570533752e-02</internalNodes>
      <leafValues>
        3.4453030675649643e-02 -6.3801634311676025e-01</leafValues></_>
    <_>
      <internalNodes>
        0 -1 134778 6.5558496862649918e-03</internalNodes>
      <leafValues>
        -6.1905104666948318e-02 3.8672938942909241e-01</leafValues></_>
    <_>
      <internalNodes>
        0 -1 104678 4.8916883766651154e-02</internalNodes>
      <leafValues>
        5.2076820284128189e-02 -4.0868631005287170e-01</leafValues></_>
    <_>
      <internalNodes>
        0 -1 71007 -1.2937189638614655e-01</internalNodes>
      <leafValues>
        -7.1011239290237427e-01 2.8553092852234840e-02</leafValues></_>
    <_>
      <internalNodes>
        0 -1 88245 -9.9549852311611176e-03</internalNodes>
      <leafValues>
        3.7096288800239563e-01 -6.1117451637983322e-02</leafValues></_>
    <_>
      <internalNodes>
        0 -1 81990 -1.7066360451281071e-03</internalNodes>
      <leafValues>
        1.7926228046417236e-01 -1.0581916570663452e-01</leafValues></_></weakClassifiers></stage35>
</opencv_storage>
