<?xml version="1.0"?>
<opencv_storage>
<stage10>
  <maxWeakCount>77</maxWeakCount>
  <stageThreshold>-8.7845695018768311e-01</stageThreshold>
  <weakClassifiers>
    <_>
      <internalNodes>
        0 -1 136065 -4.7306947410106659e-02</internalNodes>
      <leafValues>
        5.7775253057479858e-01 -1.4539579860866070e-02</leafValues></_>
    <_>
      <internalNodes>
        0 -1 1170 -1.3269540667533875e-01</internalNodes>
      <leafValues>
        -1.3267444074153900e-01 5.5706596374511719e-01</leafValues></_>
    <_>
      <internalNodes>
        0 -1 230 2.7265276759862900e-02</internalNodes>
      <leafValues>
        -2.3821955919265747e-01 2.8982785344123840e-01</leafValues></_>
    <_>
      <internalNodes>
        0 -1 33729 -1.0371203534305096e-03</internalNodes>
      <leafValues>
        -3.5748410224914551e-01 1.4930552244186401e-01</leafValues></_>
    <_>
      <internalNodes>
        0 -1 81388 -3.9271201239898801e-04</internalNodes>
      <leafValues>
        -3.4002923965454102e-01 1.5183326601982117e-01</leafValues></_>
    <_>
      <internalNodes>
        0 -1 111706 4.4550593942403793e-02</internalNodes>
      <leafValues>
        -8.5140153765678406e-02 6.4326333999633789e-01</leafValues></_>
    <_>
      <internalNodes>
        0 -1 92321 -9.2208564281463623e-02</internalNodes>
      <leafValues>
        3.7048003077507019e-01 -1.0074482113122940e-01</leafValues></_>
    <_>
      <internalNodes>
        0 -1 106427 -4.2095325887203217e-02</internalNodes>
      <leafValues>
        3.4263789653778076e-01 -1.2623824179172516e-01</leafValues></_>
    <_>
      <internalNodes>
        0 -1 41060 -1.2011505663394928e-01</internalNodes>
      <leafValues>
        6.4320343732833862e-01 -6.9809027016162872e-02</leafValues></_>
    <_>
      <internalNodes>
        0 -1 37864 4.5915361493825912e-02</internalNodes>
      <leafValues>
        -9.7595505416393280e-02 4.1712868213653564e-01</leafValues></_>
    <_>
      <internalNodes>
        0 -1 112380 -2.6774629950523376e-02</internalNodes>
      <leafValues>
        3.6492401361465454e-01 -1.0952936857938766e-01</leafValues></_>
    <_>
      <internalNodes>
        0 -1 61805 -4.6961918473243713e-02</internalNodes>
      <leafValues>
        3.9997497200965881e-01 -1.0374305397272110e-01</leafValues></_>
    <_>
      <internalNodes>
        0 -1 104521 -1.1482862755656242e-03</internalNodes>
      <leafValues>
        -3.6660754680633545e-01 1.4182281494140625e-01</leafValues></_>
    <_>
      <internalNodes>
        0 -1 145020 2.2884646896272898e-03</internalNodes>
      <leafValues>
        -2.2230735421180725e-01 1.6934883594512939e-01</leafValues></_>
    <_>
      <internalNodes>
        0 -1 139638 2.8937456663697958e-03</internalNodes>
      <leafValues>
        9.4897709786891937e-02 -3.4677487611770630e-01</leafValues></_>
    <_>
      <internalNodes>
        0 -1 8471 -1.1427889764308929e-01</internalNodes>
      <leafValues>
        6.4484220743179321e-01 -5.2804265171289444e-02</leafValues></_>
    <_>
      <internalNodes>
        0 -1 133891 8.8246855884790421e-03</internalNodes>
      <leafValues>
        -1.1393366008996964e-01 2.9704561829566956e-01</leafValues></_>
    <_>
      <internalNodes>
        0 -1 129681 -5.6864791549742222e-03</internalNodes>
      <leafValues>
        -6.5181183815002441e-01 5.5935479700565338e-02</leafValues></_>
    <_>
      <internalNodes>
        0 -1 38518 1.2274491786956787e-01</internalNodes>
      <leafValues>
        -9.5890440046787262e-02 3.7507614493370056e-01</leafValues></_>
    <_>
      <internalNodes>
        0 -1 25778 -1.0647682473063469e-02</internalNodes>
      <leafValues>
        3.4686130285263062e-01 -8.6661167442798615e-02</leafValues></_>
    <_>
      <internalNodes>
        0 -1 61604 -1.1576664634048939e-02</internalNodes>
      <leafValues>
        2.4975320696830750e-01 -1.3509365916252136e-01</leafValues></_>
    <_>
      <internalNodes>
        0 -1 22815 2.8088258579373360e-02</internalNodes>
      <leafValues>
        -6.4304403960704803e-02 4.6258503198623657e-01</leafValues></_>
    <_>
      <internalNodes>
        0 -1 13089 1.1685511097311974e-02</internalNodes>
      <leafValues>
        -1.7445270717144012e-01 1.9352866709232330e-01</leafValues></_>
    <_>
      <internalNodes>
        0 -1 14966 5.3620800375938416e-02</internalNodes>
      <leafValues>
        -1.5820913016796112e-01 2.4963077902793884e-01</leafValues></_>
    <_>
      <internalNodes>
        0 -1 146965 2.0364437252283096e-02</internalNodes>
      <leafValues>
        -8.5971616208553314e-02 4.1245239973068237e-01</leafValues></_>
    <_>
      <internalNodes>
        0 -1 142469 -3.7860386073589325e-02</internalNodes>
      <leafValues>
        4.5603439211845398e-01 -6.4380250871181488e-02</leafValues></_>
    <_>
      <internalNodes>
        0 -1 63148 -6.7147731781005859e-02</internalNodes>
      <leafValues>
        6.0321509838104248e-01 -5.3982678800821304e-02</leafValues></_>
    <_>
      <internalNodes>
        0 -1 43531 -2.6051604747772217e-01</internalNodes>
      <leafValues>
        4.9938389658927917e-01 -6.4231485128402710e-02</leafValues></_>
    <_>
      <internalNodes>
        0 -1 96428 -3.5717961145564914e-04</internalNodes>
      <leafValues>
        -2.0362107455730438e-01 1.7468090355396271e-01</leafValues></_>
    <_>
      <internalNodes>
        0 -1 33601 7.0110253989696503e-02</internalNodes>
      <leafValues>
        -1.0137357562780380e-01 4.0326085686683655e-01</leafValues></_>
    <_>
      <internalNodes>
        0 -1 32731 -4.5469947159290314e-02</internalNodes>
      <leafValues>
        6.0001224279403687e-01 -6.3271343708038330e-02</leafValues></_>
    <_>
      <internalNodes>
        0 -1 158605 -8.3162505179643631e-03</internalNodes>
      <leafValues>
        2.9348078370094299e-01 -1.1072495579719543e-01</leafValues></_>
    <_>
      <internalNodes>
        0 -1 113184 -5.9276282787322998e-02</internalNodes>
      <leafValues>
        -4.5652154833078384e-02 7.6684546470642090e-01</leafValues></_>
    <_>
      <internalNodes>
        0 -1 157814 3.8220931310206652e-03</internalNodes>
      <leafValues>
        1.1409705877304077e-01 -3.5140427947044373e-01</leafValues></_>
    <_>
      <internalNodes>
        0 -1 136798 1.9491788407322019e-04</internalNodes>
      <leafValues>
        1.5108098089694977e-01 -2.1254058182239532e-01</leafValues></_>
    <_>
      <internalNodes>
        0 -1 56582 8.1961732357740402e-03</internalNodes>
      <leafValues>
        -1.5931916236877441e-01 2.3041424155235291e-01</leafValues></_>
    <_>
      <internalNodes>
        0 -1 1186 -1.1655165255069733e-01</internalNodes>
      <leafValues>
        -6.6104918718338013e-01 5.2989576011896133e-02</leafValues></_>
    <_>
      <internalNodes>
        0 -1 7011 9.1921761631965637e-02</internalNodes>
      <leafValues>
        4.2159106582403183e-02 -7.3749172687530518e-01</leafValues></_>
    <_>
      <internalNodes>
        0 -1 46127 2.2323921439237893e-04</internalNodes>
      <leafValues>
        1.5797196328639984e-01 -2.3001083731651306e-01</leafValues></_>
    <_>
      <internalNodes>
        0 -1 140003 -1.2845564633607864e-03</internalNodes>
      <leafValues>
        -6.4420586824417114e-01 5.6029409170150757e-02</leafValues></_>
    <_>
      <internalNodes>
        0 -1 142425 9.4701116904616356e-03</internalNodes>
      <leafValues>
        -5.2571773529052734e-02 7.3285967111587524e-01</leafValues></_>
    <_>
      <internalNodes>
        0 -1 135801 -2.2787675261497498e-03</internalNodes>
      <leafValues>
        -5.4456579685211182e-01 7.1575254201889038e-02</leafValues></_>
    <_>
      <internalNodes>
        0 -1 138727 -2.7640432119369507e-02</internalNodes>
      <leafValues>
        4.7305777668952942e-01 -8.3173148334026337e-02</leafValues></_>
    <_>
      <internalNodes>
        0 -1 140024 3.4302149433642626e-03</internalNodes>
      <leafValues>
        9.1882951557636261e-02 -4.2975521087646484e-01</leafValues></_>
    <_>
      <internalNodes>
        0 -1 52581 1.0673248767852783e-01</internalNodes>
      <leafValues>
        -8.6230732500553131e-02 4.7016051411628723e-01</leafValues></_>
    <_>
      <internalNodes>
        0 -1 10052 2.1176440641283989e-03</internalNodes>
      <leafValues>
        -5.7891663163900375e-02 5.4281669855117798e-01</leafValues></_>
    <_>
      <internalNodes>
        0 -1 147550 4.7674315283074975e-05</internalNodes>
      <leafValues>
        1.6633021831512451e-01 -2.0369623601436615e-01</leafValues></_>
    <_>
      <internalNodes>
        0 -1 27037 1.4078818494454026e-03</internalNodes>
      <leafValues>
        -1.1116060614585876e-01 2.8737172484397888e-01</leafValues></_>
    <_>
      <internalNodes>
        0 -1 151658 -7.3105259798467159e-04</internalNodes>
      <leafValues>
        4.2446586489677429e-01 -7.2757981717586517e-02</leafValues></_>
    <_>
      <internalNodes>
        0 -1 1180 -3.5243388265371323e-03</internalNodes>
      <leafValues>
        -8.5386109352111816e-01 4.3872080743312836e-02</leafValues></_>
    <_>
      <internalNodes>
        0 -1 55910 5.9698447585105896e-02</internalNodes>
      <leafValues>
        -7.1171700954437256e-02 5.4974448680877686e-01</leafValues></_>
    <_>
      <internalNodes>
        0 -1 157720 1.3340539298951626e-02</internalNodes>
      <leafValues>
        -9.0338572859764099e-02 3.5355025529861450e-01</leafValues></_>
    <_>
      <internalNodes>
        0 -1 9508 9.1945081949234009e-03</internalNodes>
      <leafValues>
        -1.4428463578224182e-01 2.0675438642501831e-01</leafValues></_>
    <_>
      <internalNodes>
        0 -1 121237 1.9644212443381548e-04</internalNodes>
      <leafValues>
        -1.2255154550075531e-01 2.5065323710441589e-01</leafValues></_>
    <_>
      <internalNodes>
        0 -1 29 3.2218452543020248e-03</internalNodes>
      <leafValues>
        9.7602382302284241e-02 -3.4463474154472351e-01</leafValues></_>
    <_>
      <internalNodes>
        0 -1 154049 -5.8872744441032410e-02</internalNodes>
      <leafValues>
        3.6437001824378967e-01 -9.6383929252624512e-02</leafValues></_>
    <_>
      <internalNodes>
        0 -1 11026 5.6867070496082306e-02</internalNodes>
      <leafValues>
        4.4084284454584122e-02 -8.2712656259536743e-01</leafValues></_>
    <_>
      <internalNodes>
        0 -1 31842 1.0366687178611755e-01</internalNodes>
      <leafValues>
        -1.2882688641548157e-01 3.2698348164558411e-01</leafValues></_>
    <_>
      <internalNodes>
        0 -1 98861 -8.7322518229484558e-02</internalNodes>
      <leafValues>
        7.8767400979995728e-01 -4.3776832520961761e-02</leafValues></_>
    <_>
      <internalNodes>
        0 -1 14382 6.2381207942962646e-02</internalNodes>
      <leafValues>
        -1.7586585879325867e-01 2.3069444298744202e-01</leafValues></_>
    <_>
      <internalNodes>
        0 -1 1088 1.5060269832611084e-01</internalNodes>
      <leafValues>
        6.0300096869468689e-02 -5.5283266305923462e-01</leafValues></_>
    <_>
      <internalNodes>
        0 -1 87617 9.3330373056232929e-04</internalNodes>
      <leafValues>
        1.1087232083082199e-01 -2.8336727619171143e-01</leafValues></_>
    <_>
      <internalNodes>
        0 -1 147942 5.3794501582160592e-04</internalNodes>
      <leafValues>
        1.3430513441562653e-01 -2.3959501087665558e-01</leafValues></_>
    <_>
      <internalNodes>
        0 -1 134823 3.8363642990589142e-02</internalNodes>
      <leafValues>
        -8.2117699086666107e-02 4.7326534986495972e-01</leafValues></_>
    <_>
      <internalNodes>
        0 -1 39577 6.0405872762203217e-02</internalNodes>
      <leafValues>
        -1.0186988115310669e-01 3.5167410969734192e-01</leafValues></_>
    <_>
      <internalNodes>
        0 -1 41953 -3.9575695991516113e-02</internalNodes>
      <leafValues>
        4.9096155166625977e-01 -6.5892346203327179e-02</leafValues></_>
    <_>
      <internalNodes>
        0 -1 120639 -1.4290425926446915e-02</internalNodes>
      <leafValues>
        3.0601951479911804e-01 -1.1375284194946289e-01</leafValues></_>
    <_>
      <internalNodes>
        0 -1 9084 2.1446733735501766e-03</internalNodes>
      <leafValues>
        -1.9445702433586121e-01 1.6696542501449585e-01</leafValues></_>
    <_>
      <internalNodes>
        0 -1 27137 -2.0506892353296280e-02</internalNodes>
      <leafValues>
        3.0861571431159973e-01 -1.1165235191583633e-01</leafValues></_>
    <_>
      <internalNodes>
        0 -1 13375 -4.6276234090328217e-02</internalNodes>
      <leafValues>
        -5.5225205421447754e-01 6.7890971899032593e-02</leafValues></_>
    <_>
      <internalNodes>
        0 -1 7493 2.9150670394301414e-02</internalNodes>
      <leafValues>
        -4.7863543033599854e-02 8.0903440713882446e-01</leafValues></_>
    <_>
      <internalNodes>
        0 -1 97723 -1.2606835924088955e-02</internalNodes>
      <leafValues>
        2.3647545278072357e-01 -1.3308905065059662e-01</leafValues></_>
    <_>
      <internalNodes>
        0 -1 9837 2.5411821901798248e-02</internalNodes>
      <leafValues>
        -7.9681932926177979e-02 4.2777189612388611e-01</leafValues></_>
    <_>
      <internalNodes>
        0 -1 50135 3.8720183074474335e-03</internalNodes>
      <leafValues>
        -1.3853825628757477e-01 2.3701785504817963e-01</leafValues></_>
    <_>
      <internalNodes>
        0 -1 26630 1.2260704534128308e-04</internalNodes>
      <leafValues>
        -2.5037962198257446e-01 1.2723280489444733e-01</leafValues></_>
    <_>
      <internalNodes>
        0 -1 136675 -4.2435057461261749e-02</internalNodes>
      <leafValues>
        4.4226819276809692e-01 -7.4127294123172760e-02</leafValues></_>
    <_>
      <internalNodes>
        0 -1 143939 8.5171917453408241e-03</internalNodes>
      <leafValues>
        -7.6300121843814850e-02 4.4608029723167419e-01</leafValues></_></weakClassifiers></stage10>
</opencv_storage>
