<?xml version="1.0"?>
<opencv_storage>
<stage14>
  <maxWeakCount>9</maxWeakCount>
  <stageThreshold>-2.8704838827252388e-02</stageThreshold>
  <weakClassifiers>
    <_>
      <internalNodes>
        0 -1 75747 3.2646120525896549e-03</internalNodes>
      <leafValues>
        -3.8297873735427856e-01 6.1538463830947876e-01</leafValues></_>
    <_>
      <internalNodes>
        0 -1 87974 -1.3926646206527948e-03</internalNodes>
      <leafValues>
        5.7379579544067383e-01 -3.5766363143920898e-01</leafValues></_>
    <_>
      <internalNodes>
        0 -1 147235 3.5635973326861858e-03</internalNodes>
      <leafValues>
        -2.3604045808315277e-01 8.9657968282699585e-01</leafValues></_>
    <_>
      <internalNodes>
        0 -1 162288 3.4269003663212061e-04</internalNodes>
      <leafValues>
        -3.2007092237472534e-01 5.9978532791137695e-01</leafValues></_>
    <_>
      <internalNodes>
        0 -1 160480 -4.0926076471805573e-03</internalNodes>
      <leafValues>
        -6.6160112619400024e-01 3.2286441326141357e-01</leafValues></_>
    <_>
      <internalNodes>
        0 -1 82984 -9.2115364968776703e-03</internalNodes>
      <leafValues>
        8.6364918947219849e-01 -2.6789721846580505e-01</leafValues></_>
    <_>
      <internalNodes>
        0 -1 78361 1.2621048837900162e-02</internalNodes>
      <leafValues>
        3.2800194621086121e-01 -8.6781454086303711e-01</leafValues></_>
    <_>
      <internalNodes>
        0 -1 138280 6.6810043063014746e-04</internalNodes>
      <leafValues>
        -3.3047002553939819e-01 7.1112018823623657e-01</leafValues></_>
    <_>
      <internalNodes>
        0 -1 119793 1.9336353987455368e-02</internalNodes>
      <leafValues>
        3.5888996720314026e-01 -7.8723019361495972e-01</leafValues></_></weakClassifiers></stage14>
</opencv_storage>
