<?xml version="1.0"?>
<opencv_storage>
<stage38>
  <maxWeakCount>100</maxWeakCount>
  <stageThreshold>-8.7566572427749634e-01</stageThreshold>
  <weakClassifiers>
    <_>
      <internalNodes>
        0 -1 131778 -1.7343929037451744e-02</internalNodes>
      <leafValues>
        -1. 3.4318333864212036e-01</leafValues></_>
    <_>
      <internalNodes>
        0 -1 140061 -7.3806360363960266e-02</internalNodes>
      <leafValues>
        -1.8024351447820663e-02 5.6594514846801758e-01</leafValues></_>
    <_>
      <internalNodes>
        0 -1 139694 -7.2407931089401245e-02</internalNodes>
      <leafValues>
        1.0591268539428711e-02 -1.</leafValues></_>
    <_>
      <internalNodes>
        0 -1 139694 -7.2694651782512665e-02</internalNodes>
      <leafValues>
        -1.6434395220130682e-03 7.8473824262619019e-01</leafValues></_>
    <_>
      <internalNodes>
        0 -1 140059 -7.1758747100830078e-02</internalNodes>
      <leafValues>
        4.8329951241612434e-03 -9.6660423278808594e-01</leafValues></_>
    <_>
      <internalNodes>
        0 -1 141068 -5.8186508715152740e-02</internalNodes>
      <leafValues>
        -1.7836734652519226e-02 7.4176871776580811e-01</leafValues></_>
    <_>
      <internalNodes>
        0 -1 90336 -9.2220827937126160e-03</internalNodes>
      <leafValues>
        -2.0531967282295227e-01 7.3263272643089294e-02</leafValues></_>
    <_>
      <internalNodes>
        0 -1 145084 -6.1597228050231934e-02</internalNodes>
      <leafValues>
        2.5704873725771904e-02 -6.1780393123626709e-01</leafValues></_>
    <_>
      <internalNodes>
        0 -1 149930 -1.6769982874393463e-02</internalNodes>
      <leafValues>
        -8.9889997616410255e-04 8.2954925298690796e-01</leafValues></_>
    <_>
      <internalNodes>
        0 -1 146101 -4.2006328701972961e-02</internalNodes>
      <leafValues>
        2.8267684392631054e-03 -7.1280908584594727e-01</leafValues></_>
    <_>
      <internalNodes>
        0 -1 123563 -1.6752973198890686e-01</internalNodes>
      <leafValues>
        -1.9926015287637711e-02 7.1582269668579102e-01</leafValues></_>
    <_>
      <internalNodes>
        0 -1 116286 -1.6767130792140961e-01</internalNodes>
      <leafValues>
        1.3703677803277969e-02 -6.8108707666397095e-01</leafValues></_>
    <_>
      <internalNodes>
        0 -1 145130 -4.3661452829837799e-02</internalNodes>
      <leafValues>
        -1.6651298850774765e-02 7.4371623992919922e-01</leafValues></_>
    <_>
      <internalNodes>
        0 -1 145961 -1.6661120578646660e-02</internalNodes>
      <leafValues>
        2.5692818686366081e-02 -8.1952619552612305e-01</leafValues></_>
    <_>
      <internalNodes>
        0 -1 136290 -8.7304249405860901e-02</internalNodes>
      <leafValues>
        -1.8806148320436478e-02 7.5335013866424561e-01</leafValues></_>
    <_>
      <internalNodes>
        0 -1 137191 -2.8847377747297287e-02</internalNodes>
      <leafValues>
        1.6523199155926704e-02 -6.1052697896957397e-01</leafValues></_>
    <_>
      <internalNodes>
        0 -1 143013 -4.3311178684234619e-02</internalNodes>
      <leafValues>
        -1.9338680431246758e-02 5.9424632787704468e-01</leafValues></_>
    <_>
      <internalNodes>
        0 -1 151243 -6.2380101531744003e-02</internalNodes>
      <leafValues>
        1.7836110666394234e-02 -7.0401322841644287e-01</leafValues></_>
    <_>
      <internalNodes>
        0 -1 105637 -2.3308484256267548e-01</internalNodes>
      <leafValues>
        -3.0810337513685226e-02 4.9314308166503906e-01</leafValues></_>
    <_>
      <internalNodes>
        0 -1 105889 -1.2280839495360851e-02</internalNodes>
      <leafValues>
        3.9400912821292877e-02 -3.8969397544860840e-01</leafValues></_>
    <_>
      <internalNodes>
        0 -1 50361 -7.0247694849967957e-02</internalNodes>
      <leafValues>
        -1.8407341092824936e-02 5.2084046602249146e-01</leafValues></_>
    <_>
      <internalNodes>
        0 -1 20527 -2.5244407355785370e-02</internalNodes>
      <leafValues>
        2.5293560698628426e-02 -5.0885421037673950e-01</leafValues></_>
    <_>
      <internalNodes>
        0 -1 28725 -3.2188328914344311e-03</internalNodes>
      <leafValues>
        8.1577289104461670e-01 -3.4794542007148266e-03</leafValues></_>
    <_>
      <internalNodes>
        0 -1 70599 -3.1543664634227753e-02</internalNodes>
      <leafValues>
        -6.5168835222721100e-02 3.2555958628654480e-01</leafValues></_>
    <_>
      <internalNodes>
        0 -1 143786 -8.1938549876213074e-02</internalNodes>
      <leafValues>
        3.8057636469602585e-02 -3.8599741458892822e-01</leafValues></_>
    <_>
      <internalNodes>
        0 -1 37925 -1.7873173579573631e-02</internalNodes>
      <leafValues>
        -2.7285844087600708e-02 5.2024829387664795e-01</leafValues></_>
    <_>
      <internalNodes>
        0 -1 59961 -2.2606970742344856e-03</internalNodes>
      <leafValues>
        5.8640545606613159e-01 -3.8535695523023605e-02</leafValues></_>
    <_>
      <internalNodes>
        0 -1 398 1.6343161463737488e-01</internalNodes>
      <leafValues>
        -8.2117490470409393e-02 2.3513206839561462e-01</leafValues></_>
    <_>
      <internalNodes>
        0 -1 69462 -1.1541411280632019e-01</internalNodes>
      <leafValues>
        6.0432976484298706e-01 -2.6651078835129738e-02</leafValues></_>
    <_>
      <internalNodes>
        0 -1 106660 1.1670932173728943e-02</internalNodes>
      <leafValues>
        3.2237105071544647e-02 -6.3852763175964355e-01</leafValues></_>
    <_>
      <internalNodes>
        0 -1 36761 -1.5763679146766663e-01</internalNodes>
      <leafValues>
        2.4817101657390594e-02 -6.1740422248840332e-01</leafValues></_>
    <_>
      <internalNodes>
        0 -1 28162 -2.2670111060142517e-01</internalNodes>
      <leafValues>
        -8.6791832000017166e-03 9.4560921192169189e-01</leafValues></_>
    <_>
      <internalNodes>
        0 -1 130983 -3.8483263924717903e-03</internalNodes>
      <leafValues>
        -1.3185024261474609e-01 1.3634665310382843e-01</leafValues></_>
    <_>
      <internalNodes>
        0 -1 161267 -2.1488097263500094e-04</internalNodes>
      <leafValues>
        -1.4926059544086456e-01 1.2720517814159393e-01</leafValues></_>
    <_>
      <internalNodes>
        0 -1 161235 -2.6783486828207970e-03</internalNodes>
      <leafValues>
        1.1643795669078827e-01 -1.6023232042789459e-01</leafValues></_>
    <_>
      <internalNodes>
        0 -1 143286 -1.4374882448464632e-03</internalNodes>
      <leafValues>
        9.8253495991230011e-02 -1.7877764999866486e-01</leafValues></_>
    <_>
      <internalNodes>
        0 -1 102200 1.8019378185272217e-01</internalNodes>
      <leafValues>
        -6.1499856412410736e-02 2.8216403722763062e-01</leafValues></_>
    <_>
      <internalNodes>
        0 -1 73562 1.2362573295831680e-01</internalNodes>
      <leafValues>
        8.6969606578350067e-02 -2.9050317406654358e-01</leafValues></_>
    <_>
      <internalNodes>
        0 -1 65240 2.9213018715381622e-02</internalNodes>
      <leafValues>
        -1.1511082947254181e-01 2.0545971393585205e-01</leafValues></_>
    <_>
      <internalNodes>
        0 -1 12659 4.3063253164291382e-02</internalNodes>
      <leafValues>
        -2.0360454916954041e-02 8.8661003112792969e-01</leafValues></_>
    <_>
      <internalNodes>
        0 -1 35515 -3.5899869544664398e-05</internalNodes>
      <leafValues>
        1.4615321159362793e-01 -1.2399493157863617e-01</leafValues></_>
    <_>
      <internalNodes>
        0 -1 87243 1.7683245241641998e-02</internalNodes>
      <leafValues>
        -3.8615468889474869e-02 4.6604296565055847e-01</leafValues></_>
    <_>
      <internalNodes>
        0 -1 10359 1.4645805582404137e-02</internalNodes>
      <leafValues>
        -1.5159939415752888e-02 8.1336706876754761e-01</leafValues></_>
    <_>
      <internalNodes>
        0 -1 147436 2.4760158266872168e-03</internalNodes>
      <leafValues>
        4.0251232683658600e-02 -5.0023978948593140e-01</leafValues></_>
    <_>
      <internalNodes>
        0 -1 151513 6.2885074876248837e-03</internalNodes>
      <leafValues>
        3.5786341875791550e-02 -4.7959461808204651e-01</leafValues></_>
    <_>
      <internalNodes>
        0 -1 41913 1.2515564262866974e-01</internalNodes>
      <leafValues>
        4.9595437943935394e-02 -4.0014016628265381e-01</leafValues></_>
    <_>
      <internalNodes>
        0 -1 53498 1.5366405248641968e-01</internalNodes>
      <leafValues>
        3.6219518631696701e-02 -6.2013226747512817e-01</leafValues></_>
    <_>
      <internalNodes>
        0 -1 95727 -1.6037605237215757e-03</internalNodes>
      <leafValues>
        2.8666764497756958e-01 -6.6133834421634674e-02</leafValues></_>
    <_>
      <internalNodes>
        0 -1 119785 -3.2203632872551680e-04</internalNodes>
      <leafValues>
        -1.2722070515155792e-01 1.3684646785259247e-01</leafValues></_>
    <_>
      <internalNodes>
        0 -1 148109 -4.9728630110621452e-03</internalNodes>
      <leafValues>
        2.9095202684402466e-01 -5.9995304793119431e-02</leafValues></_>
    <_>
      <internalNodes>
        0 -1 130944 2.9298444278538227e-03</internalNodes>
      <leafValues>
        3.4701850265264511e-02 -6.3156211376190186e-01</leafValues></_>
    <_>
      <internalNodes>
        0 -1 13447 1.3208050280809402e-02</internalNodes>
      <leafValues>
        -3.7662617862224579e-02 4.9186760187149048e-01</leafValues></_>
    <_>
      <internalNodes>
        0 -1 161944 -5.4329482372850180e-04</internalNodes>
      <leafValues>
        -1.3756254315376282e-01 1.3027366995811462e-01</leafValues></_>
    <_>
      <internalNodes>
        0 -1 160555 -2.8261067345738411e-03</internalNodes>
      <leafValues>
        3.3162385225296021e-01 -5.2196733653545380e-02</leafValues></_>
    <_>
      <internalNodes>
        0 -1 154764 -1.8147188238799572e-03</internalNodes>
      <leafValues>
        -3.6253270506858826e-01 5.0120215862989426e-02</leafValues></_>
    <_>
      <internalNodes>
        0 -1 42454 -5.5226786062121391e-03</internalNodes>
      <leafValues>
        2.3753675818443298e-01 -7.1737945079803467e-02</leafValues></_>
    <_>
      <internalNodes>
        0 -1 5365 1.2693361379206181e-02</internalNodes>
      <leafValues>
        -6.5317727625370026e-02 2.6464098691940308e-01</leafValues></_>
    <_>
      <internalNodes>
        0 -1 142372 2.0733712241053581e-02</internalNodes>
      <leafValues>
        4.1050616651773453e-02 -4.3020141124725342e-01</leafValues></_>
    <_>
      <internalNodes>
        0 -1 92584 -4.0886010974645615e-03</internalNodes>
      <leafValues>
        -6.7931509017944336e-01 2.6772143319249153e-02</leafValues></_>
    <_>
      <internalNodes>
        0 -1 152732 1.8595198635011911e-03</internalNodes>
      <leafValues>
        -7.3483303189277649e-02 2.5871023535728455e-01</leafValues></_>
    <_>
      <internalNodes>
        0 -1 136511 -3.0028740875422955e-03</internalNodes>
      <leafValues>
        -2.4865135550498962e-01 7.4049249291419983e-02</leafValues></_>
    <_>
      <internalNodes>
        0 -1 143455 4.6298548579216003e-02</internalNodes>
      <leafValues>
        2.7376852929592133e-02 -6.9922924041748047e-01</leafValues></_>
    <_>
      <internalNodes>
        0 -1 127659 7.6720624929293990e-04</internalNodes>
      <leafValues>
        -7.5004585087299347e-02 2.5688862800598145e-01</leafValues></_>
    <_>
      <internalNodes>
        0 -1 89374 -2.9874887317419052e-02</internalNodes>
      <leafValues>
        4.3519049882888794e-01 -3.9618119597434998e-02</leafValues></_>
    <_>
      <internalNodes>
        0 -1 83948 1.1767034418880939e-02</internalNodes>
      <leafValues>
        2.8211606666445732e-02 -6.9037389755249023e-01</leafValues></_>
    <_>
      <internalNodes>
        0 -1 134275 -3.9325114339590073e-03</internalNodes>
      <leafValues>
        1.8128351867198944e-01 -1.0188550502061844e-01</leafValues></_>
    <_>
      <internalNodes>
        0 -1 60356 -1.3310005888342857e-03</internalNodes>
      <leafValues>
        8.6081936955451965e-02 -2.0027348399162292e-01</leafValues></_>
    <_>
      <internalNodes>
        0 -1 123508 -3.2189956400543451e-03</internalNodes>
      <leafValues>
        -1.2914812564849854e-01 1.3792675733566284e-01</leafValues></_>
    <_>
      <internalNodes>
        0 -1 55834 -7.4410013854503632e-02</internalNodes>
      <leafValues>
        5.6694900989532471e-01 -3.1353741884231567e-02</leafValues></_>
    <_>
      <internalNodes>
        0 -1 47469 -6.5646218135952950e-03</internalNodes>
      <leafValues>
        -5.6508350372314453e-01 3.7699375301599503e-02</leafValues></_>
    <_>
      <internalNodes>
        0 -1 133661 -1.7738055437803268e-02</internalNodes>
      <leafValues>
        -1.8182687461376190e-01 1.0292449593544006e-01</leafValues></_>
    <_>
      <internalNodes>
        0 -1 60406 -4.0630318224430084e-02</internalNodes>
      <leafValues>
        6.7722076177597046e-01 -3.0083959922194481e-02</leafValues></_>
    <_>
      <internalNodes>
        0 -1 122447 3.8166090380400419e-03</internalNodes>
      <leafValues>
        6.9505169987678528e-02 -3.0121442675590515e-01</leafValues></_>
    <_>
      <internalNodes>
        0 -1 161695 1.4675010461360216e-03</internalNodes>
      <leafValues>
        -2.9990488663315773e-02 7.8576016426086426e-01</leafValues></_>
    <_>
      <internalNodes>
        0 -1 19058 2.2213680669665337e-02</internalNodes>
      <leafValues>
        -6.1908707022666931e-02 2.9056406021118164e-01</leafValues></_>
    <_>
      <internalNodes>
        0 -1 17538 1.1913995444774628e-01</internalNodes>
      <leafValues>
        3.2204929739236832e-02 -6.0847616195678711e-01</leafValues></_>
    <_>
      <internalNodes>
        0 -1 16315 -8.8873747736215591e-03</internalNodes>
      <leafValues>
        9.1387939453125000e-01 -2.0657371729612350e-02</leafValues></_>
    <_>
      <internalNodes>
        0 -1 1109 8.5177522851154208e-04</internalNodes>
      <leafValues>
        9.5496654510498047e-02 -2.0802836120128632e-01</leafValues></_>
    <_>
      <internalNodes>
        0 -1 21638 -2.5088028982281685e-02</internalNodes>
      <leafValues>
        -7.7997165918350220e-01 2.5397581979632378e-02</leafValues></_>
    <_>
      <internalNodes>
        0 -1 128516 -6.3294579740613699e-04</internalNodes>
      <leafValues>
        3.8599258661270142e-01 -5.1432620733976364e-02</leafValues></_>
    <_>
      <internalNodes>
        0 -1 67742 8.9554311707615852e-03</internalNodes>
      <leafValues>
        -4.9442052841186523e-02 3.4157809615135193e-01</leafValues></_>
    <_>
      <internalNodes>
        0 -1 121045 1.3786333147436380e-03</internalNodes>
      <leafValues>
        3.3810440450906754e-02 -5.3602457046508789e-01</leafValues></_>
    <_>
      <internalNodes>
        0 -1 80697 -2.3733736015856266e-03</internalNodes>
      <leafValues>
        4.1305634379386902e-01 -4.3596681207418442e-02</leafValues></_>
    <_>
      <internalNodes>
        0 -1 83561 7.6993131078779697e-03</internalNodes>
      <leafValues>
        -3.2509423792362213e-02 5.0687146186828613e-01</leafValues></_>
    <_>
      <internalNodes>
        0 -1 107123 -5.3811143152415752e-04</internalNodes>
      <leafValues>
        -1.4673326909542084e-01 1.2791582942008972e-01</leafValues></_>
    <_>
      <internalNodes>
        0 -1 51821 -1.4222744107246399e-01</internalNodes>
      <leafValues>
        6.5129113197326660e-01 -2.7845099568367004e-02</leafValues></_>
    <_>
      <internalNodes>
        0 -1 107433 -2.8743350412696600e-03</internalNodes>
      <leafValues>
        -5.5462557077407837e-01 4.0159337222576141e-02</leafValues></_>
    <_>
      <internalNodes>
        0 -1 152908 -1.5000638995843474e-05</internalNodes>
      <leafValues>
        1.5507371723651886e-01 -1.1789582669734955e-01</leafValues></_>
    <_>
      <internalNodes>
        0 -1 158979 5.5902674794197083e-03</internalNodes>
      <leafValues>
        2.8343422338366508e-02 -7.8748309612274170e-01</leafValues></_>
    <_>
      <internalNodes>
        0 -1 155208 2.9766892112093046e-05</internalNodes>
      <leafValues>
        -1.1615422368049622e-01 1.7420151829719543e-01</leafValues></_>
    <_>
      <internalNodes>
        0 -1 96800 4.7319214791059494e-03</internalNodes>
      <leafValues>
        -2.1624907851219177e-02 6.9393497705459595e-01</leafValues></_>
    <_>
      <internalNodes>
        0 -1 115518 -3.5959179513156414e-05</internalNodes>
      <leafValues>
        1.5244866907596588e-01 -1.1503721773624420e-01</leafValues></_>
    <_>
      <internalNodes>
        0 -1 39004 -3.0999665614217520e-04</internalNodes>
      <leafValues>
        -2.3474851250648499e-01 8.1921592354774475e-02</leafValues></_>
    <_>
      <internalNodes>
        0 -1 49963 2.3239970207214355e-02</internalNodes>
      <leafValues>
        -4.0797382593154907e-02 5.0454753637313843e-01</leafValues></_>
    <_>
      <internalNodes>
        0 -1 16507 6.3597504049539566e-03</internalNodes>
      <leafValues>
        3.3681947737932205e-02 -5.7814830541610718e-01</leafValues></_>
    <_>
      <internalNodes>
        0 -1 37788 -4.5460820547305048e-04</internalNodes>
      <leafValues>
        2.8487792611122131e-01 -6.8934194743633270e-02</leafValues></_>
    <_>
      <internalNodes>
        0 -1 162227 6.8329572677612305e-03</internalNodes>
      <leafValues>
        -7.5188159942626953e-02 2.7300417423248291e-01</leafValues></_>
    <_>
      <internalNodes>
        0 -1 112031 -1.0768212378025055e-03</internalNodes>
      <leafValues>
        1.5985623002052307e-01 -1.2326402962207794e-01</leafValues></_>
    <_>
      <internalNodes>
        0 -1 18079 1.9591199816204607e-05</internalNodes>
      <leafValues>
        -1.4367119967937469e-01 1.5407352149486542e-01</leafValues></_>
    <_>
      <internalNodes>
        0 -1 1477 2.1914115548133850e-01</internalNodes>
      <leafValues>
        -5.2625328302383423e-02 3.7067353725433350e-01</leafValues></_></weakClassifiers></stage38>
</opencv_storage>
