<?xml version="1.0"?>
<opencv_storage>
<stage17>
  <maxWeakCount>73</maxWeakCount>
  <stageThreshold>-4.7229495644569397e-01</stageThreshold>
  <weakClassifiers>
    <_>
      <internalNodes>
        0 -1 8144 -2.9880756512284279e-02</internalNodes>
      <leafValues>
        -2.3232322931289673e-01 5.3623187541961670e-01</leafValues></_>
    <_>
      <internalNodes>
        0 -1 161568 -1.0943930596113205e-02</internalNodes>
      <leafValues>
        4.9023151397705078e-01 -7.0615738630294800e-02</leafValues></_>
    <_>
      <internalNodes>
        0 -1 26654 6.9590412080287933e-02</internalNodes>
      <leafValues>
        -1.4849480986595154e-01 3.1708133220672607e-01</leafValues></_>
    <_>
      <internalNodes>
        0 -1 25721 -1.0887427255511284e-02</internalNodes>
      <leafValues>
        -1.1614708602428436e-01 4.1858276724815369e-01</leafValues></_>
    <_>
      <internalNodes>
        0 -1 152308 -3.3735953271389008e-02</internalNodes>
      <leafValues>
        3.7826308608055115e-01 -1.0677099972963333e-01</leafValues></_>
    <_>
      <internalNodes>
        0 -1 146629 -7.9065671889111400e-04</internalNodes>
      <leafValues>
        -4.6592640876770020e-01 7.0669054985046387e-02</leafValues></_>
    <_>
      <internalNodes>
        0 -1 111659 4.0880376473069191e-03</internalNodes>
      <leafValues>
        8.4646522998809814e-02 -4.1701245307922363e-01</leafValues></_>
    <_>
      <internalNodes>
        0 -1 144040 4.9225625116378069e-04</internalNodes>
      <leafValues>
        9.2187747359275818e-02 -3.8723108172416687e-01</leafValues></_>
    <_>
      <internalNodes>
        0 -1 13576 -7.7374386601150036e-03</internalNodes>
      <leafValues>
        3.3902874588966370e-01 -1.0756458342075348e-01</leafValues></_>
    <_>
      <internalNodes>
        0 -1 113986 4.5617725700139999e-03</internalNodes>
      <leafValues>
        7.6817326247692108e-02 -4.8382529616355896e-01</leafValues></_>
    <_>
      <internalNodes>
        0 -1 49284 -4.8590473830699921e-02</internalNodes>
      <leafValues>
        4.1120824217796326e-01 -9.0116523206233978e-02</leafValues></_>
    <_>
      <internalNodes>
        0 -1 9476 1.2484617531299591e-02</internalNodes>
      <leafValues>
        -5.4560534656047821e-02 5.6656259298324585e-01</leafValues></_>
    <_>
      <internalNodes>
        0 -1 25009 -3.8317294092848897e-04</internalNodes>
      <leafValues>
        -3.0502459406852722e-01 1.1647241562604904e-01</leafValues></_>
    <_>
      <internalNodes>
        0 -1 51295 1.2205610983073711e-03</internalNodes>
      <leafValues>
        9.8490715026855469e-02 -3.3700749278068542e-01</leafValues></_>
    <_>
      <internalNodes>
        0 -1 151258 -9.6780399326235056e-04</internalNodes>
      <leafValues>
        -4.6544885635375977e-01 5.7926304638385773e-02</leafValues></_>
    <_>
      <internalNodes>
        0 -1 143368 1.3932727742940187e-03</internalNodes>
      <leafValues>
        -8.3893917500972748e-02 3.6901959776878357e-01</leafValues></_>
    <_>
      <internalNodes>
        0 -1 30341 1.7964286962524056e-04</internalNodes>
      <leafValues>
        -1.6072185337543488e-01 1.9352631270885468e-01</leafValues></_>
    <_>
      <internalNodes>
        0 -1 26013 1.2788718938827515e-01</internalNodes>
      <leafValues>
        -3.9939206093549728e-02 8.0149573087692261e-01</leafValues></_>
    <_>
      <internalNodes>
        0 -1 11038 -7.5746315997093916e-04</internalNodes>
      <leafValues>
        2.6378592848777771e-01 -1.0454480350017548e-01</leafValues></_>
    <_>
      <internalNodes>
        0 -1 100090 -1.8024031817913055e-01</internalNodes>
      <leafValues>
        -2.9779177159070969e-02 1.</leafValues></_>
    <_>
      <internalNodes>
        0 -1 13397 9.3623690190725029e-05</internalNodes>
      <leafValues>
        -1.4503411948680878e-01 1.8895284831523895e-01</leafValues></_>
    <_>
      <internalNodes>
        0 -1 807 4.4619220495223999e-01</internalNodes>
      <leafValues>
        6.6130012273788452e-02 -4.3182936310768127e-01</leafValues></_>
    <_>
      <internalNodes>
        0 -1 72602 1.0235290229320526e-01</internalNodes>
      <leafValues>
        -7.5065121054649353e-02 4.6348354220390320e-01</leafValues></_>
    <_>
      <internalNodes>
        0 -1 76871 -2.1578005980700254e-03</internalNodes>
      <leafValues>
        -4.6744534373283386e-01 7.2098754346370697e-02</leafValues></_>
    <_>
      <internalNodes>
        0 -1 159730 -3.4252673387527466e-02</internalNodes>
      <leafValues>
        -6.9274014234542847e-01 3.9774022996425629e-02</leafValues></_>
    <_>
      <internalNodes>
        0 -1 113106 -2.1724421530961990e-03</internalNodes>
      <leafValues>
        -4.7191089391708374e-01 6.0010038316249847e-02</leafValues></_>
    <_>
      <internalNodes>
        0 -1 59269 3.2959602773189545e-02</internalNodes>
      <leafValues>
        -3.3835291862487793e-02 9.3339931964874268e-01</leafValues></_>
    <_>
      <internalNodes>
        0 -1 57718 5.7780174538493156e-03</internalNodes>
      <leafValues>
        -8.2101292908191681e-02 3.2857486605644226e-01</leafValues></_>
    <_>
      <internalNodes>
        0 -1 1213 1.8202434293925762e-03</internalNodes>
      <leafValues>
        -1.7659336328506470e-01 1.7184743285179138e-01</leafValues></_>
    <_>
      <internalNodes>
        0 -1 1066 4.7790370881557465e-02</internalNodes>
      <leafValues>
        -6.9186106324195862e-02 3.9131557941436768e-01</leafValues></_>
    <_>
      <internalNodes>
        0 -1 140076 2.2440871689468622e-03</internalNodes>
      <leafValues>
        6.6164225339889526e-02 -5.0822263956069946e-01</leafValues></_>
    <_>
      <internalNodes>
        0 -1 137857 1.8658798653632402e-03</internalNodes>
      <leafValues>
        -5.4517935961484909e-02 5.5728298425674438e-01</leafValues></_>
    <_>
      <internalNodes>
        0 -1 22118 -1.3431480620056391e-03</internalNodes>
      <leafValues>
        -2.2524398565292358e-01 1.3900741934776306e-01</leafValues></_>
    <_>
      <internalNodes>
        0 -1 78226 2.8773414669558406e-04</internalNodes>
      <leafValues>
        1.0483141988515854e-01 -2.7134832739830017e-01</leafValues></_>
    <_>
      <internalNodes>
        0 -1 3216 5.4639088921248913e-04</internalNodes>
      <leafValues>
        -1.8300768733024597e-01 1.5879179537296295e-01</leafValues></_>
    <_>
      <internalNodes>
        0 -1 4126 -1.1144752614200115e-02</internalNodes>
      <leafValues>
        9.8256599903106689e-01 -3.1901057809591293e-02</leafValues></_>
    <_>
      <internalNodes>
        0 -1 17056 1.2122983112931252e-02</internalNodes>
      <leafValues>
        7.9654842615127563e-02 -4.3523827195167542e-01</leafValues></_>
    <_>
      <internalNodes>
        0 -1 161171 -1.2577285990118980e-02</internalNodes>
      <leafValues>
        -9.0682014822959900e-02 3.1900754570960999e-01</leafValues></_>
    <_>
      <internalNodes>
        0 -1 150873 -1.7287324881181121e-03</internalNodes>
      <leafValues>
        -3.8831111788749695e-01 7.9210467636585236e-02</leafValues></_>
    <_>
      <internalNodes>
        0 -1 54777 -5.1743686199188232e-01</internalNodes>
      <leafValues>
        -9.2469084262847900e-01 3.2077703624963760e-02</leafValues></_>
    <_>
      <internalNodes>
        0 -1 125336 2.1691387519240379e-02</internalNodes>
      <leafValues>
        4.6939369291067123e-02 -5.5387544631958008e-01</leafValues></_>
    <_>
      <internalNodes>
        0 -1 114592 1.4127001166343689e-02</internalNodes>
      <leafValues>
        -7.6065085828304291e-02 3.7079021334648132e-01</leafValues></_>
    <_>
      <internalNodes>
        0 -1 90340 -1.7793499864637852e-03</internalNodes>
      <leafValues>
        1.6127306222915649e-01 -1.8595866858959198e-01</leafValues></_>
    <_>
      <internalNodes>
        0 -1 145710 -4.9493508413434029e-03</internalNodes>
      <leafValues>
        2.8318753838539124e-01 -1.0546665638685226e-01</leafValues></_>
    <_>
      <internalNodes>
        0 -1 153922 -3.1282007694244385e-04</internalNodes>
      <leafValues>
        -2.6514354348182678e-01 1.1594215780496597e-01</leafValues></_>
    <_>
      <internalNodes>
        0 -1 41559 -1.0352253913879395e-02</internalNodes>
      <leafValues>
        7.5117737054824829e-01 -3.5698894411325455e-02</leafValues></_>
    <_>
      <internalNodes>
        0 -1 87932 3.7276158109307289e-03</internalNodes>
      <leafValues>
        7.7857516705989838e-02 -3.7118843197822571e-01</leafValues></_>
    <_>
      <internalNodes>
        0 -1 97887 7.7689200639724731e-02</internalNodes>
      <leafValues>
        -4.2374040931463242e-02 7.4197882413864136e-01</leafValues></_>
    <_>
      <internalNodes>
        0 -1 36401 7.1098715066909790e-02</internalNodes>
      <leafValues>
        -2.0165802910923958e-02 9.5416426658630371e-01</leafValues></_>
    <_>
      <internalNodes>
        0 -1 40246 1.0724980384111404e-02</internalNodes>
      <leafValues>
        -2.6083901524543762e-02 7.8582078218460083e-01</leafValues></_>
    <_>
      <internalNodes>
        0 -1 159466 -1.5007136971689761e-04</internalNodes>
      <leafValues>
        1.3603718578815460e-01 -2.0943161845207214e-01</leafValues></_>
    <_>
      <internalNodes>
        0 -1 3205 3.4224549308419228e-03</internalNodes>
      <leafValues>
        3.7623662501573563e-02 -7.4010968208312988e-01</leafValues></_>
    <_>
      <internalNodes>
        0 -1 8948 -7.5485564768314362e-02</internalNodes>
      <leafValues>
        -3.1800878047943115e-01 8.7870344519615173e-02</leafValues></_>
    <_>
      <internalNodes>
        0 -1 50465 2.6135346852242947e-03</internalNodes>
      <leafValues>
        -1.1290654540061951e-01 2.5945818424224854e-01</leafValues></_>
    <_>
      <internalNodes>
        0 -1 91524 3.4020536113530397e-03</internalNodes>
      <leafValues>
        -1.3265544176101685e-01 2.3506911098957062e-01</leafValues></_>
    <_>
      <internalNodes>
        0 -1 1855 3.0147129297256470e-01</internalNodes>
      <leafValues>
        9.5230832695960999e-02 -3.6720654368400574e-01</leafValues></_>
    <_>
      <internalNodes>
        0 -1 157158 1.8527887761592865e-02</internalNodes>
      <leafValues>
        -4.5358136296272278e-02 7.2664779424667358e-01</leafValues></_>
    <_>
      <internalNodes>
        0 -1 70717 -5.8616389287635684e-04</internalNodes>
      <leafValues>
        -3.9274692535400391e-01 8.7194420397281647e-02</leafValues></_>
    <_>
      <internalNodes>
        0 -1 129517 -1.5122923068702221e-03</internalNodes>
      <leafValues>
        -4.3472480773925781e-01 7.1401916444301605e-02</leafValues></_>
    <_>
      <internalNodes>
        0 -1 125776 6.0906256549060345e-03</internalNodes>
      <leafValues>
        -4.9794957041740417e-02 6.6173452138900757e-01</leafValues></_>
    <_>
      <internalNodes>
        0 -1 1159 5.4345158860087395e-03</internalNodes>
      <leafValues>
        -8.7355278432369232e-02 3.1694552302360535e-01</leafValues></_>
    <_>
      <internalNodes>
        0 -1 134994 -7.6541796326637268e-02</internalNodes>
      <leafValues>
        6.5645021200180054e-01 -4.5213215053081512e-02</leafValues></_>
    <_>
      <internalNodes>
        0 -1 147824 4.6736933290958405e-04</internalNodes>
      <leafValues>
        1.0128771513700485e-01 -3.1643852591514587e-01</leafValues></_>
    <_>
      <internalNodes>
        0 -1 155416 8.2336172461509705e-02</internalNodes>
      <leafValues>
        -3.7977203726768494e-02 7.6688492298126221e-01</leafValues></_>
    <_>
      <internalNodes>
        0 -1 851 5.0098431110382080e-01</internalNodes>
      <leafValues>
        -2.2071750834584236e-02 9.3983769416809082e-01</leafValues></_>
    <_>
      <internalNodes>
        0 -1 38272 1.1212639510631561e-02</internalNodes>
      <leafValues>
        -1.5518678724765778e-01 1.7241305112838745e-01</leafValues></_>
    <_>
      <internalNodes>
        0 -1 83043 -3.4261703491210938e-02</internalNodes>
      <leafValues>
        -6.7995005846023560e-01 4.1619498282670975e-02</leafValues></_>
    <_>
      <internalNodes>
        0 -1 44620 -6.6431569866836071e-03</internalNodes>
      <leafValues>
        2.4265263974666595e-01 -1.2111564725637436e-01</leafValues></_>
    <_>
      <internalNodes>
        0 -1 119048 -4.3760120868682861e-02</internalNodes>
      <leafValues>
        5.6161284446716309e-01 -4.9471363425254822e-02</leafValues></_>
    <_>
      <internalNodes>
        0 -1 47568 4.0355645120143890e-02</internalNodes>
      <leafValues>
        -2.7194831520318985e-02 8.5163998603820801e-01</leafValues></_>
    <_>
      <internalNodes>
        0 -1 69296 3.5400060005486012e-03</internalNodes>
      <leafValues>
        1.1688958853483200e-01 -2.8227019309997559e-01</leafValues></_>
    <_>
      <internalNodes>
        0 -1 56891 -4.6338353306055069e-02</internalNodes>
      <leafValues>
        -4.3429797887802124e-01 6.3113540410995483e-02</leafValues></_>
    <_>
      <internalNodes>
        0 -1 10134 -3.7575469468720257e-04</internalNodes>
      <leafValues>
        1.9471444189548492e-01 -1.4833581447601318e-01</leafValues></_></weakClassifiers></stage17>
</opencv_storage>
