<?xml version="1.0"?>
<opencv_storage>
<stage33>
  <maxWeakCount>100</maxWeakCount>
  <stageThreshold>-6.7000269889831543e-01</stageThreshold>
  <weakClassifiers>
    <_>
      <internalNodes>
        0 -1 2758 4.2505806684494019e-01</internalNodes>
      <leafValues>
        3.6842104792594910e-01 -1.9148936867713928e-01</leafValues></_>
    <_>
      <internalNodes>
        0 -1 161833 -1.6483390936627984e-03</internalNodes>
      <leafValues>
        -7.7863568440079689e-03 8.5510826110839844e-01</leafValues></_>
    <_>
      <internalNodes>
        0 -1 156417 6.2798534054309130e-04</internalNodes>
      <leafValues>
        -7.4486933648586273e-02 3.2541710138320923e-01</leafValues></_>
    <_>
      <internalNodes>
        0 -1 13294 -1.0051906108856201e-02</internalNodes>
      <leafValues>
        1.9532643258571625e-01 -9.9470101296901703e-02</leafValues></_>
    <_>
      <internalNodes>
        0 -1 145248 -2.6656117290258408e-02</internalNodes>
      <leafValues>
        1.3690397143363953e-01 -1.5105594694614410e-01</leafValues></_>
    <_>
      <internalNodes>
        0 -1 161806 -8.6813922971487045e-03</internalNodes>
      <leafValues>
        7.0853561162948608e-01 -3.9288341999053955e-02</leafValues></_>
    <_>
      <internalNodes>
        0 -1 11345 9.8581872880458832e-03</internalNodes>
      <leafValues>
        -1.4685686677694321e-02 5.4162001609802246e-01</leafValues></_>
    <_>
      <internalNodes>
        0 -1 125779 -1.5499506844207644e-03</internalNodes>
      <leafValues>
        2.0825818181037903e-01 -1.2420634180307388e-01</leafValues></_>
    <_>
      <internalNodes>
        0 -1 10344 2.6113685220479965e-02</internalNodes>
      <leafValues>
        -1.3647127151489258e-01 1.3749174773693085e-01</leafValues></_>
    <_>
      <internalNodes>
        0 -1 41994 -1.2436659075319767e-02</internalNodes>
      <leafValues>
        9.0336298942565918e-01 -2.3797858506441116e-02</leafValues></_>
    <_>
      <internalNodes>
        0 -1 49144 1.8492066301405430e-03</internalNodes>
      <leafValues>
        3.7985943257808685e-02 -6.0405486822128296e-01</leafValues></_>
    <_>
      <internalNodes>
        0 -1 100315 -6.0329739935696125e-03</internalNodes>
      <leafValues>
        4.8181214928627014e-01 -3.6764897406101227e-02</leafValues></_>
    <_>
      <internalNodes>
        0 -1 151874 1.5057526528835297e-02</internalNodes>
      <leafValues>
        -1.1646048165857792e-02 8.1297719478607178e-01</leafValues></_>
    <_>
      <internalNodes>
        0 -1 28656 1.0244334407616407e-04</internalNodes>
      <leafValues>
        1.0734737664461136e-01 -1.6591005027294159e-01</leafValues></_>
    <_>
      <internalNodes>
        0 -1 26827 5.8561994228512049e-04</internalNodes>
      <leafValues>
        -1.0748358815908432e-01 1.6669602692127228e-01</leafValues></_>
    <_>
      <internalNodes>
        0 -1 17250 -5.4646031931042671e-03</internalNodes>
      <leafValues>
        4.4322299957275391e-01 -3.3277150243520737e-02</leafValues></_>
    <_>
      <internalNodes>
        0 -1 137664 -2.1940801525488496e-04</internalNodes>
      <leafValues>
        -1.4270171523094177e-01 1.1553137004375458e-01</leafValues></_>
    <_>
      <internalNodes>
        0 -1 31924 -8.0246794968843460e-03</internalNodes>
      <leafValues>
        -6.1367249488830566e-01 2.7345862239599228e-02</leafValues></_>
    <_>
      <internalNodes>
        0 -1 108605 6.8246079608798027e-03</internalNodes>
      <leafValues>
        -2.7101298794150352e-02 6.5057450532913208e-01</leafValues></_>
    <_>
      <internalNodes>
        0 -1 142539 -1.7276022583246231e-02</internalNodes>
      <leafValues>
        8.1453067064285278e-01 -1.7633585259318352e-02</leafValues></_>
    <_>
      <internalNodes>
        0 -1 156756 1.4698344748467207e-03</internalNodes>
      <leafValues>
        8.3730570971965790e-02 -2.1394227445125580e-01</leafValues></_>
    <_>
      <internalNodes>
        0 -1 152830 5.9795688837766647e-02</internalNodes>
      <leafValues>
        -4.7405671328306198e-02 3.8716647028923035e-01</leafValues></_>
    <_>
      <internalNodes>
        0 -1 64693 -1.5836505219340324e-02</internalNodes>
      <leafValues>
        1.7983455955982208e-01 -9.8918214440345764e-02</leafValues></_>
    <_>
      <internalNodes>
        0 -1 130545 1.2219729251228273e-04</internalNodes>
      <leafValues>
        -1.2998583912849426e-01 1.7378942668437958e-01</leafValues></_>
    <_>
      <internalNodes>
        0 -1 24713 8.6604477837681770e-03</internalNodes>
      <leafValues>
        -4.2143784463405609e-02 4.7996699810028076e-01</leafValues></_>
    <_>
      <internalNodes>
        0 -1 149708 -1.0145531967282295e-02</internalNodes>
      <leafValues>
        -5.1233285665512085e-01 4.0572520345449448e-02</leafValues></_>
    <_>
      <internalNodes>
        0 -1 35038 7.4774278327822685e-03</internalNodes>
      <leafValues>
        8.6874693632125854e-02 -2.1499022841453552e-01</leafValues></_>
    <_>
      <internalNodes>
        0 -1 10751 -2.0254833623766899e-02</internalNodes>
      <leafValues>
        2.4313595890998840e-01 -1.0283040255308151e-01</leafValues></_>
    <_>
      <internalNodes>
        0 -1 18920 -3.6641629412770271e-03</internalNodes>
      <leafValues>
        7.5170737504959106e-01 -2.3669617250561714e-02</leafValues></_>
    <_>
      <internalNodes>
        0 -1 118625 -8.8662316557019949e-05</internalNodes>
      <leafValues>
        -1.4351436495780945e-01 1.2899492681026459e-01</leafValues></_>
    <_>
      <internalNodes>
        0 -1 106936 -5.0004106014966965e-03</internalNodes>
      <leafValues>
        1.9437909126281738e-01 -1.0432539880275726e-01</leafValues></_>
    <_>
      <internalNodes>
        0 -1 14997 2.8830925002694130e-03</internalNodes>
      <leafValues>
        -1.4989918470382690e-01 1.3324028253555298e-01</leafValues></_>
    <_>
      <internalNodes>
        0 -1 128337 1.0013692080974579e-03</internalNodes>
      <leafValues>
        1.2928593158721924e-01 -1.3768346607685089e-01</leafValues></_>
    <_>
      <internalNodes>
        0 -1 157529 -7.9467172326985747e-05</internalNodes>
      <leafValues>
        1.2162996828556061e-01 -1.4547877013683319e-01</leafValues></_>
    <_>
      <internalNodes>
        0 -1 161065 -2.3153290385380387e-04</internalNodes>
      <leafValues>
        -1.3547655940055847e-01 1.5465401113033295e-01</leafValues></_>
    <_>
      <internalNodes>
        0 -1 159820 -1.5330374240875244e-02</internalNodes>
      <leafValues>
        -4.5950981974601746e-01 4.1364353150129318e-02</leafValues></_>
    <_>
      <internalNodes>
        0 -1 155601 -3.4978017210960388e-02</internalNodes>
      <leafValues>
        4.3521389365196228e-01 -4.9851607531309128e-02</leafValues></_>
    <_>
      <internalNodes>
        0 -1 28938 4.0050745010375977e-02</internalNodes>
      <leafValues>
        5.2488338202238083e-02 -3.8279500603675842e-01</leafValues></_>
    <_>
      <internalNodes>
        0 -1 13470 5.2636321634054184e-03</internalNodes>
      <leafValues>
        -1.4408038556575775e-01 1.3865631818771362e-01</leafValues></_>
    <_>
      <internalNodes>
        0 -1 94531 7.2954902425408363e-03</internalNodes>
      <leafValues>
        -3.9998907595872879e-02 5.0447785854339600e-01</leafValues></_>
    <_>
      <internalNodes>
        0 -1 141743 -1.0927180759608746e-02</internalNodes>
      <leafValues>
        -6.5007376670837402e-01 3.1592324376106262e-02</leafValues></_>
    <_>
      <internalNodes>
        0 -1 156647 -2.2616148926317692e-03</internalNodes>
      <leafValues>
        4.7846087813377380e-01 -3.9474878460168839e-02</leafValues></_>
    <_>
      <internalNodes>
        0 -1 159554 -3.6928144982084632e-04</internalNodes>
      <leafValues>
        1.3585987687110901e-01 -1.2974983453750610e-01</leafValues></_>
    <_>
      <internalNodes>
        0 -1 91888 -3.6826246976852417e-01</internalNodes>
      <leafValues>
        -4.1454967856407166e-01 4.6363789588212967e-02</leafValues></_>
    <_>
      <internalNodes>
        0 -1 92427 -1.9067142903804779e-01</internalNodes>
      <leafValues>
        5.7905954122543335e-01 -3.7900973111391068e-02</leafValues></_>
    <_>
      <internalNodes>
        0 -1 20367 7.2063507104758173e-05</internalNodes>
      <leafValues>
        -1.3791519403457642e-01 1.2958301603794098e-01</leafValues></_>
    <_>
      <internalNodes>
        0 -1 58997 2.8336377814412117e-02</internalNodes>
      <leafValues>
        -4.3550889939069748e-02 4.6002852916717529e-01</leafValues></_>
    <_>
      <internalNodes>
        0 -1 156000 -7.6163774356245995e-03</internalNodes>
      <leafValues>
        4.0637472271919250e-01 -4.2416848242282867e-02</leafValues></_>
    <_>
      <internalNodes>
        0 -1 74473 7.3937736451625824e-03</internalNodes>
      <leafValues>
        3.0261645093560219e-02 -7.4301975965499878e-01</leafValues></_>
    <_>
      <internalNodes>
        0 -1 15404 -6.4852726645767689e-03</internalNodes>
      <leafValues>
        6.6139352321624756e-01 -3.2467965036630630e-02</leafValues></_>
    <_>
      <internalNodes>
        0 -1 122199 -5.5246436968445778e-03</internalNodes>
      <leafValues>
        5.2476805448532104e-01 -3.1636346131563187e-02</leafValues></_>
    <_>
      <internalNodes>
        0 -1 151150 3.3138302387669683e-04</internalNodes>
      <leafValues>
        -1.1769437789916992e-01 1.4694961905479431e-01</leafValues></_>
    <_>
      <internalNodes>
        0 -1 160952 4.3391138315200806e-03</internalNodes>
      <leafValues>
        3.7251912057399750e-02 -5.2923226356506348e-01</leafValues></_>
    <_>
      <internalNodes>
        0 -1 157145 9.8320515826344490e-04</internalNodes>
      <leafValues>
        -7.1579776704311371e-02 2.5586068630218506e-01</leafValues></_>
    <_>
      <internalNodes>
        0 -1 140470 -3.4954890608787537e-02</internalNodes>
      <leafValues>
        -6.1315971612930298e-01 2.7177216485142708e-02</leafValues></_>
    <_>
      <internalNodes>
        0 -1 146840 -1.4519262313842773e-01</internalNodes>
      <leafValues>
        6.6143888235092163e-01 -2.6765828952193260e-02</leafValues></_>
    <_>
      <internalNodes>
        0 -1 115895 -1.0126502066850662e-01</internalNodes>
      <leafValues>
        -3.1752502918243408e-01 6.5525010228157043e-02</leafValues></_>
    <_>
      <internalNodes>
        0 -1 106399 -5.2587941288948059e-02</internalNodes>
      <leafValues>
        7.6091510057449341e-01 -2.2862248122692108e-02</leafValues></_>
    <_>
      <internalNodes>
        0 -1 74572 3.3414878998883069e-04</internalNodes>
      <leafValues>
        1.8613152205944061e-01 -9.3344420194625854e-02</leafValues></_>
    <_>
      <internalNodes>
        0 -1 129156 -7.7797643840312958e-02</internalNodes>
      <leafValues>
        5.3083574771881104e-01 -3.4223116934299469e-02</leafValues></_>
    <_>
      <internalNodes>
        0 -1 1041 -1.0919120907783508e-01</internalNodes>
      <leafValues>
        3.7129667401313782e-01 -4.5567553490400314e-02</leafValues></_>
    <_>
      <internalNodes>
        0 -1 71438 1.0727453231811523e-01</internalNodes>
      <leafValues>
        -1.8532358109951019e-01 1.0778439044952393e-01</leafValues></_>
    <_>
      <internalNodes>
        0 -1 10490 7.3912134394049644e-03</internalNodes>
      <leafValues>
        -5.4524406790733337e-02 3.2573023438453674e-01</leafValues></_>
    <_>
      <internalNodes>
        0 -1 143102 -1.3883119449019432e-02</internalNodes>
      <leafValues>
        -2.4201928079128265e-01 7.3380962014198303e-02</leafValues></_>
    <_>
      <internalNodes>
        0 -1 60399 4.3651647865772247e-03</internalNodes>
      <leafValues>
        4.0684554725885391e-02 -4.4654208421707153e-01</leafValues></_>
    <_>
      <internalNodes>
        0 -1 48313 5.6410944089293480e-03</internalNodes>
      <leafValues>
        -4.1536558419466019e-02 4.6150431036949158e-01</leafValues></_>
    <_>
      <internalNodes>
        0 -1 148929 -2.9747481457889080e-03</internalNodes>
      <leafValues>
        1.5626010298728943e-01 -1.1616277694702148e-01</leafValues></_>
    <_>
      <internalNodes>
        0 -1 24177 1.3558760285377502e-01</internalNodes>
      <leafValues>
        -1.8502458930015564e-02 8.8504135608673096e-01</leafValues></_>
    <_>
      <internalNodes>
        0 -1 139797 2.2336687892675400e-02</internalNodes>
      <leafValues>
        -2.1534912288188934e-02 6.3098555803298950e-01</leafValues></_>
    <_>
      <internalNodes>
        0 -1 94750 -4.9524076282978058e-02</internalNodes>
      <leafValues>
        -2.5294162333011627e-02 5.8756899833679199e-01</leafValues></_>
    <_>
      <internalNodes>
        0 -1 120289 -7.8824400901794434e-02</internalNodes>
      <leafValues>
        5.3089197725057602e-02 -5.3716593980789185e-01</leafValues></_>
    <_>
      <internalNodes>
        0 -1 162093 -5.0396267324686050e-03</internalNodes>
      <leafValues>
        -4.4288944453001022e-02 4.8104220628738403e-01</leafValues></_>
    <_>
      <internalNodes>
        0 -1 137141 -5.8441683650016785e-03</internalNodes>
      <leafValues>
        6.5014803409576416e-01 -2.9328269883990288e-02</leafValues></_>
    <_>
      <internalNodes>
        0 -1 139494 -9.4973400235176086e-02</internalNodes>
      <leafValues>
        6.3019618391990662e-02 -3.1680107116699219e-01</leafValues></_>
    <_>
      <internalNodes>
        0 -1 148239 -6.2525927205570042e-05</internalNodes>
      <leafValues>
        -1.2220744043588638e-01 1.6032348573207855e-01</leafValues></_>
    <_>
      <internalNodes>
        0 -1 152417 -3.4179334761574864e-04</internalNodes>
      <leafValues>
        -3.2580173015594482e-01 6.0856897383928299e-02</leafValues></_>
    <_>
      <internalNodes>
        0 -1 7465 3.3162801992148161e-03</internalNodes>
      <leafValues>
        3.0471419915556908e-02 -5.9743851423263550e-01</leafValues></_>
    <_>
      <internalNodes>
        0 -1 22674 -4.6323720016516745e-04</internalNodes>
      <leafValues>
        3.1725394725799561e-01 -5.9820830821990967e-02</leafValues></_>
    <_>
      <internalNodes>
        0 -1 103164 -7.5807154644280672e-04</internalNodes>
      <leafValues>
        4.5375499129295349e-01 -3.7444673478603363e-02</leafValues></_>
    <_>
      <internalNodes>
        0 -1 66336 1.7013592645525932e-02</internalNodes>
      <leafValues>
        3.2585803419351578e-02 -6.5086942911148071e-01</leafValues></_>
    <_>
      <internalNodes>
        0 -1 138152 -2.1193653810769320e-03</internalNodes>
      <leafValues>
        -2.9794910550117493e-01 5.6706245988607407e-02</leafValues></_>
    <_>
      <internalNodes>
        0 -1 40172 -2.0619761198759079e-02</internalNodes>
      <leafValues>
        -7.4045848846435547e-01 2.9426738619804382e-02</leafValues></_>
    <_>
      <internalNodes>
        0 -1 24429 -8.2246791571378708e-03</internalNodes>
      <leafValues>
        -7.8878259658813477e-01 1.7136489972472191e-02</leafValues></_>
    <_>
      <internalNodes>
        0 -1 21602 -6.3167028129100800e-03</internalNodes>
      <leafValues>
        5.4803323745727539e-01 -3.5689637064933777e-02</leafValues></_>
    <_>
      <internalNodes>
        0 -1 154427 3.2456274493597448e-04</internalNodes>
      <leafValues>
        1.1792902648448944e-01 -1.6446439921855927e-01</leafValues></_>
    <_>
      <internalNodes>
        0 -1 49292 -1.5489008510485291e-03</internalNodes>
      <leafValues>
        4.3266576528549194e-01 -4.0696464478969574e-02</leafValues></_>
    <_>
      <internalNodes>
        0 -1 12698 5.4771922528743744e-02</internalNodes>
      <leafValues>
        3.8476027548313141e-02 -5.4702693223953247e-01</leafValues></_>
    <_>
      <internalNodes>
        0 -1 114388 3.4561572829261422e-04</internalNodes>
      <leafValues>
        1.4447003602981567e-01 -1.2474571168422699e-01</leafValues></_>
    <_>
      <internalNodes>
        0 -1 46475 -1.0702363401651382e-01</internalNodes>
      <leafValues>
        -3.0215047299861908e-02 5.8000683784484863e-01</leafValues></_>
    <_>
      <internalNodes>
        0 -1 112882 -2.3225277662277222e-02</internalNodes>
      <leafValues>
        3.3730566501617432e-02 -7.0403629541397095e-01</leafValues></_>
    <_>
      <internalNodes>
        0 -1 149019 2.0342303905636072e-03</internalNodes>
      <leafValues>
        -5.2149388939142227e-02 3.9506974816322327e-01</leafValues></_>
    <_>
      <internalNodes>
        0 -1 35910 -1.3731231912970543e-02</internalNodes>
      <leafValues>
        -7.5449252128601074e-01 2.8187444433569908e-02</leafValues></_>
    <_>
      <internalNodes>
        0 -1 89692 -4.1102170944213867e-03</internalNodes>
      <leafValues>
        7.2351747751235962e-01 -2.8531741350889206e-02</leafValues></_>
    <_>
      <internalNodes>
        0 -1 71051 4.9530580639839172e-02</internalNodes>
      <leafValues>
        4.6345874667167664e-02 -4.5483872294425964e-01</leafValues></_>
    <_>
      <internalNodes>
        0 -1 100025 5.7295132428407669e-03</internalNodes>
      <leafValues>
        -4.9285322427749634e-02 4.1845315694808960e-01</leafValues></_>
    <_>
      <internalNodes>
        0 -1 53622 -4.3701837421394885e-04</internalNodes>
      <leafValues>
        -1.9500349462032318e-01 9.2150636017322540e-02</leafValues></_>
    <_>
      <internalNodes>
        0 -1 48516 1.3613535556942225e-03</internalNodes>
      <leafValues>
        -9.1983459889888763e-02 1.9493007659912109e-01</leafValues></_>
    <_>
      <internalNodes>
        0 -1 37899 1.5089085791260004e-03</internalNodes>
      <leafValues>
        9.8665364086627960e-02 -2.3307487368583679e-01</leafValues></_>
    <_>
      <internalNodes>
        0 -1 57642 -1.0084967315196991e-01</internalNodes>
      <leafValues>
        -8.1965458393096924e-01 2.2978577762842178e-02</leafValues></_>
    <_>
      <internalNodes>
        0 -1 121402 -4.7877705655992031e-03</internalNodes>
      <leafValues>
        2.9900875687599182e-01 -6.3141666352748871e-02</leafValues></_></weakClassifiers></stage33>
</opencv_storage>
