<?xml version="1.0"?>
<opencv_storage>
<stage48>
  <maxWeakCount>100</maxWeakCount>
  <stageThreshold>-8.0771291255950928e-01</stageThreshold>
  <weakClassifiers>
    <_>
      <internalNodes>
        0 -1 155753 6.2555866315960884e-04</internalNodes>
      <leafValues>
        1.7799352109432220e-01 4.4217687845230103e-01</leafValues></_>
    <_>
      <internalNodes>
        0 -1 159291 -3.0463198199868202e-03</internalNodes>
      <leafValues>
        6.9843602180480957e-01 -9.9356900900602341e-03</leafValues></_>
    <_>
      <internalNodes>
        0 -1 152175 -7.0816008374094963e-03</internalNodes>
      <leafValues>
        1. -3.0180688947439194e-02</leafValues></_>
    <_>
      <internalNodes>
        0 -1 134628 1.5962452162057161e-03</internalNodes>
      <leafValues>
        -3.2329808920621872e-02 5.7408422231674194e-01</leafValues></_>
    <_>
      <internalNodes>
        0 -1 134628 1.5051146037876606e-03</internalNodes>
      <leafValues>
        8.3044925704598427e-03 -8.0329030752182007e-01</leafValues></_>
    <_>
      <internalNodes>
        0 -1 134628 1.5010986244305968e-03</internalNodes>
      <leafValues>
        -1.2690942967310548e-03 7.4632400274276733e-01</leafValues></_>
    <_>
      <internalNodes>
        0 -1 134628 1.4947357121855021e-03</internalNodes>
      <leafValues>
        9.0125703718513250e-04 -7.8750056028366089e-01</leafValues></_>
    <_>
      <internalNodes>
        0 -1 134628 1.4723233180120587e-03</internalNodes>
      <leafValues>
        -1.8262234516441822e-03 7.6933652162551880e-01</leafValues></_>
    <_>
      <internalNodes>
        0 -1 53947 8.2465529441833496e-02</internalNodes>
      <leafValues>
        -4.9634698778390884e-02 5.2140545845031738e-01</leafValues></_>
    <_>
      <internalNodes>
        0 -1 22371 5.7675130665302277e-02</internalNodes>
      <leafValues>
        -3.9811898022890091e-02 4.6466976404190063e-01</leafValues></_>
    <_>
      <internalNodes>
        0 -1 33217 4.9906997010111809e-03</internalNodes>
      <leafValues>
        -4.1013602167367935e-02 4.6979323029518127e-01</leafValues></_>
    <_>
      <internalNodes>
        0 -1 93942 9.2987999320030212e-02</internalNodes>
      <leafValues>
        5.0188917666673660e-02 -4.8401993513107300e-01</leafValues></_>
    <_>
      <internalNodes>
        0 -1 70335 4.6627871692180634e-02</internalNodes>
      <leafValues>
        -3.5668928176164627e-02 6.0864561796188354e-01</leafValues></_>
    <_>
      <internalNodes>
        0 -1 141355 -1.6764022409915924e-02</internalNodes>
      <leafValues>
        -2.4836041033267975e-02 5.6201213598251343e-01</leafValues></_>
    <_>
      <internalNodes>
        0 -1 161955 4.2510051280260086e-03</internalNodes>
      <leafValues>
        -2.7059543877840042e-02 7.7233606576919556e-01</leafValues></_>
    <_>
      <internalNodes>
        0 -1 23226 3.8170628249645233e-03</internalNodes>
      <leafValues>
        6.0407511889934540e-02 -3.0150476098060608e-01</leafValues></_>
    <_>
      <internalNodes>
        0 -1 54434 -2.6608877815306187e-03</internalNodes>
      <leafValues>
        3.6024147272109985e-01 -5.3363073617219925e-02</leafValues></_>
    <_>
      <internalNodes>
        0 -1 2206 -8.5529228672385216e-03</internalNodes>
      <leafValues>
        9.4145727157592773e-01 -1.8513325601816177e-02</leafValues></_>
    <_>
      <internalNodes>
        0 -1 126695 3.4882524050772190e-03</internalNodes>
      <leafValues>
        -2.4082593619823456e-02 5.6806355714797974e-01</leafValues></_>
    <_>
      <internalNodes>
        0 -1 125433 1.4610486105084419e-02</internalNodes>
      <leafValues>
        2.9816238209605217e-02 -6.5655624866485596e-01</leafValues></_>
    <_>
      <internalNodes>
        0 -1 88233 3.2758613815531135e-04</internalNodes>
      <leafValues>
        -6.3633441925048828e-02 2.8827825188636780e-01</leafValues></_>
    <_>
      <internalNodes>
        0 -1 25810 -3.1344281160272658e-04</internalNodes>
      <leafValues>
        -2.0138251781463623e-01 8.3646178245544434e-02</leafValues></_>
    <_>
      <internalNodes>
        0 -1 157608 -3.7912554107606411e-03</internalNodes>
      <leafValues>
        3.5611487925052643e-02 -4.6719804406166077e-01</leafValues></_>
    <_>
      <internalNodes>
        0 -1 0 1.3344602848519571e-05</internalNodes>
      <leafValues>
        -1.3506570458412170e-01 1.2330631911754608e-01</leafValues></_>
    <_>
      <internalNodes>
        0 -1 37683 -1.5796411782503128e-02</internalNodes>
      <leafValues>
        -1.8315404653549194e-02 9.3718796968460083e-01</leafValues></_>
    <_>
      <internalNodes>
        0 -1 25515 -1.1975532397627831e-03</internalNodes>
      <leafValues>
        -1.1402446031570435e-01 1.5707592666149139e-01</leafValues></_>
    <_>
      <internalNodes>
        0 -1 158823 2.3734346032142639e-03</internalNodes>
      <leafValues>
        5.9834215790033340e-02 -3.0847135186195374e-01</leafValues></_>
    <_>
      <internalNodes>
        0 -1 95632 -1.2873502782895230e-05</internalNodes>
      <leafValues>
        1.7646035552024841e-01 -9.7736440598964691e-02</leafValues></_>
    <_>
      <internalNodes>
        0 -1 18290 -5.4918490350246429e-02</internalNodes>
      <leafValues>
        -4.2669919133186340e-01 5.1470011472702026e-02</leafValues></_>
    <_>
      <internalNodes>
        0 -1 68982 1.4246693812310696e-02</internalNodes>
      <leafValues>
        6.4880549907684326e-02 -3.0337628722190857e-01</leafValues></_>
    <_>
      <internalNodes>
        0 -1 78249 -5.0805341452360153e-03</internalNodes>
      <leafValues>
        3.8245192170143127e-01 -4.7736242413520813e-02</leafValues></_>
    <_>
      <internalNodes>
        0 -1 141361 5.9954663738608360e-03</internalNodes>
      <leafValues>
        4.2578253895044327e-02 -5.4000616073608398e-01</leafValues></_>
    <_>
      <internalNodes>
        0 -1 70573 -7.2093924973160028e-04</internalNodes>
      <leafValues>
        1.8046525120735168e-01 -1.0476073622703552e-01</leafValues></_>
    <_>
      <internalNodes>
        0 -1 154555 7.9887011088430882e-04</internalNodes>
      <leafValues>
        -8.2156240940093994e-02 2.3391175270080566e-01</leafValues></_>
    <_>
      <internalNodes>
        0 -1 156069 8.4248725324869156e-03</internalNodes>
      <leafValues>
        5.4694145917892456e-02 -3.3928513526916504e-01</leafValues></_>
    <_>
      <internalNodes>
        0 -1 136486 1.0168406879529357e-03</internalNodes>
      <leafValues>
        -2.7370564639568329e-02 6.6634953022003174e-01</leafValues></_>
    <_>
      <internalNodes>
        0 -1 127999 6.7588977981358767e-04</internalNodes>
      <leafValues>
        5.9363611042499542e-02 -3.1883022189140320e-01</leafValues></_>
    <_>
      <internalNodes>
        0 -1 6136 6.6505568102002144e-03</internalNodes>
      <leafValues>
        -3.5156875848770142e-02 4.4407662749290466e-01</leafValues></_>
    <_>
      <internalNodes>
        0 -1 86191 9.9777411669492722e-03</internalNodes>
      <leafValues>
        3.9156023412942886e-02 -4.7902837395668030e-01</leafValues></_>
    <_>
      <internalNodes>
        0 -1 79237 -1.1374179739505053e-03</internalNodes>
      <leafValues>
        1.6426381468772888e-01 -1.0344993323087692e-01</leafValues></_>
    <_>
      <internalNodes>
        0 -1 72886 1.5689635276794434e-01</internalNodes>
      <leafValues>
        4.1581619530916214e-02 -4.5423859357833862e-01</leafValues></_>
    <_>
      <internalNodes>
        0 -1 138883 -3.2861134968698025e-04</internalNodes>
      <leafValues>
        -1.7769345641136169e-01 9.3937300145626068e-02</leafValues></_>
    <_>
      <internalNodes>
        0 -1 32481 1.3154447078704834e-01</internalNodes>
      <leafValues>
        -2.4325741454958916e-02 6.9653272628784180e-01</leafValues></_>
    <_>
      <internalNodes>
        0 -1 100050 8.8483821600675583e-03</internalNodes>
      <leafValues>
        -5.8823373168706894e-02 2.6795440912246704e-01</leafValues></_>
    <_>
      <internalNodes>
        0 -1 73310 -3.5875499248504639e-02</internalNodes>
      <leafValues>
        -2.8331094980239868e-01 7.0584990084171295e-02</leafValues></_>
    <_>
      <internalNodes>
        0 -1 147194 -1.9363234969205223e-05</internalNodes>
      <leafValues>
        1.6963218152523041e-01 -1.2119392305612564e-01</leafValues></_>
    <_>
      <internalNodes>
        0 -1 89436 1.9887524103978649e-05</internalNodes>
      <leafValues>
        -1.2320674955844879e-01 1.6293072700500488e-01</leafValues></_>
    <_>
      <internalNodes>
        0 -1 149985 -5.9324759058654308e-04</internalNodes>
      <leafValues>
        1.8298445641994476e-01 -1.0042329132556915e-01</leafValues></_>
    <_>
      <internalNodes>
        0 -1 155261 8.6973269935697317e-04</internalNodes>
      <leafValues>
        -9.7971238195896149e-02 2.1321813762187958e-01</leafValues></_>
    <_>
      <internalNodes>
        0 -1 44402 -2.6745710056275129e-03</internalNodes>
      <leafValues>
        -2.6635172963142395e-01 6.7110963165760040e-02</leafValues></_>
    <_>
      <internalNodes>
        0 -1 30534 -2.9886053875088692e-02</internalNodes>
      <leafValues>
        -2.2306643426418304e-02 6.8627804517745972e-01</leafValues></_>
    <_>
      <internalNodes>
        0 -1 80769 6.4717972418293357e-04</internalNodes>
      <leafValues>
        -6.8008109927177429e-02 2.4392814934253693e-01</leafValues></_>
    <_>
      <internalNodes>
        0 -1 91903 2.4608511012047529e-04</internalNodes>
      <leafValues>
        -1.1542885005474091e-01 1.5887317061424255e-01</leafValues></_>
    <_>
      <internalNodes>
        0 -1 151811 -1.2191124260425568e-02</internalNodes>
      <leafValues>
        3.2447543740272522e-01 -5.5929042398929596e-02</leafValues></_>
    <_>
      <internalNodes>
        0 -1 83421 4.6451822854578495e-03</internalNodes>
      <leafValues>
        -9.2529021203517914e-02 1.8800346553325653e-01</leafValues></_>
    <_>
      <internalNodes>
        0 -1 50145 2.3192624747753143e-01</internalNodes>
      <leafValues>
        2.4094091728329659e-02 -7.4315673112869263e-01</leafValues></_>
    <_>
      <internalNodes>
        0 -1 81752 4.1874486953020096e-02</internalNodes>
      <leafValues>
        2.0560473203659058e-02 -7.2312766313552856e-01</leafValues></_>
    <_>
      <internalNodes>
        0 -1 90602 -1.3721882365643978e-02</internalNodes>
      <leafValues>
        6.5958607196807861e-01 -2.6950040832161903e-02</leafValues></_>
    <_>
      <internalNodes>
        0 -1 106095 -1.4851080486550927e-03</internalNodes>
      <leafValues>
        -6.5302419662475586e-01 3.4337416291236877e-02</leafValues></_>
    <_>
      <internalNodes>
        0 -1 127203 -5.2488838264252990e-05</internalNodes>
      <leafValues>
        1.2814967334270477e-01 -1.3272409141063690e-01</leafValues></_>
    <_>
      <internalNodes>
        0 -1 79362 4.1177088860422373e-04</internalNodes>
      <leafValues>
        -8.7285734713077545e-02 2.1631889045238495e-01</leafValues></_>
    <_>
      <internalNodes>
        0 -1 22737 -6.1767571605741978e-03</internalNodes>
      <leafValues>
        -1.6520203649997711e-01 1.0927975922822952e-01</leafValues></_>
    <_>
      <internalNodes>
        0 -1 37062 -4.6337209641933441e-03</internalNodes>
      <leafValues>
        -2.8848975896835327e-01 6.7305654287338257e-02</leafValues></_>
    <_>
      <internalNodes>
        0 -1 117451 -1.3909075642004609e-03</internalNodes>
      <leafValues>
        2.3695802688598633e-01 -7.9739168286323547e-02</leafValues></_>
    <_>
      <internalNodes>
        0 -1 118781 -1.1407383717596531e-02</internalNodes>
      <leafValues>
        -4.4775578379631042e-01 4.3347805738449097e-02</leafValues></_>
    <_>
      <internalNodes>
        0 -1 102761 3.9323288947343826e-03</internalNodes>
      <leafValues>
        -1.9567808136343956e-02 8.7041813135147095e-01</leafValues></_>
    <_>
      <internalNodes>
        0 -1 156367 1.9883774220943451e-03</internalNodes>
      <leafValues>
        6.5572097897529602e-02 -2.8125903010368347e-01</leafValues></_>
    <_>
      <internalNodes>
        0 -1 114744 -3.5053029656410217e-02</internalNodes>
      <leafValues>
        3.9810654520988464e-01 -4.4432319700717926e-02</leafValues></_>
    <_>
      <internalNodes>
        0 -1 134288 -6.7769400775432587e-03</internalNodes>
      <leafValues>
        -5.0515645742416382e-01 3.7487879395484924e-02</leafValues></_>
    <_>
      <internalNodes>
        0 -1 96177 -3.5970062017440796e-03</internalNodes>
      <leafValues>
        -2.2903969883918762e-01 8.0142162740230560e-02</leafValues></_>
    <_>
      <internalNodes>
        0 -1 117557 -7.1941916830837727e-03</internalNodes>
      <leafValues>
        2.8122836351394653e-01 -6.2202099710702896e-02</leafValues></_>
    <_>
      <internalNodes>
        0 -1 123918 4.9430588260293007e-03</internalNodes>
      <leafValues>
        -7.4397131800651550e-02 2.8820794820785522e-01</leafValues></_>
    <_>
      <internalNodes>
        0 -1 133760 1.4359859960677568e-05</internalNodes>
      <leafValues>
        -1.1118540167808533e-01 1.5522477030754089e-01</leafValues></_>
    <_>
      <internalNodes>
        0 -1 154760 -3.8918342906981707e-03</internalNodes>
      <leafValues>
        -6.3607001304626465e-01 2.9918290674686432e-02</leafValues></_>
    <_>
      <internalNodes>
        0 -1 142971 -4.4751431792974472e-02</internalNodes>
      <leafValues>
        1.5677130222320557e-01 -1.1710195988416672e-01</leafValues></_>
    <_>
      <internalNodes>
        0 -1 120682 3.0536435544490814e-02</internalNodes>
      <leafValues>
        -5.7173226028680801e-02 3.6276033520698547e-01</leafValues></_>
    <_>
      <internalNodes>
        0 -1 133143 3.6598155274987221e-03</internalNodes>
      <leafValues>
        2.4372611194849014e-02 -8.1913989782333374e-01</leafValues></_>
    <_>
      <internalNodes>
        0 -1 115860 -4.7870958223938942e-03</internalNodes>
      <leafValues>
        4.0035495162010193e-01 -4.6669572591781616e-02</leafValues></_>
    <_>
      <internalNodes>
        0 -1 147698 -1.5701047959737480e-04</internalNodes>
      <leafValues>
        1.9503176212310791e-01 -8.4960967302322388e-02</leafValues></_>
    <_>
      <internalNodes>
        0 -1 154733 -1.2846386060118675e-02</internalNodes>
      <leafValues>
        -4.2734435200691223e-01 4.4959466904401779e-02</leafValues></_>
    <_>
      <internalNodes>
        0 -1 126975 -5.5688038468360901e-02</internalNodes>
      <leafValues>
        6.6096735000610352e-01 -2.9493873938918114e-02</leafValues></_>
    <_>
      <internalNodes>
        0 -1 60163 -1.1327927932143211e-02</internalNodes>
      <leafValues>
        3.4072229266166687e-01 -4.6585194766521454e-02</leafValues></_>
    <_>
      <internalNodes>
        0 -1 106914 1.7334718722850084e-03</internalNodes>
      <leafValues>
        -1.1052712798118591e-01 1.6254757344722748e-01</leafValues></_>
    <_>
      <internalNodes>
        0 -1 98931 8.6580745875835419e-02</internalNodes>
      <leafValues>
        2.4032898247241974e-02 -7.6992106437683105e-01</leafValues></_>
    <_>
      <internalNodes>
        0 -1 26075 1.0398907214403152e-01</internalNodes>
      <leafValues>
        -3.4994147717952728e-02 5.4993969202041626e-01</leafValues></_>
    <_>
      <internalNodes>
        0 -1 146978 2.6337224990129471e-02</internalNodes>
      <leafValues>
        -1.9764054566621780e-02 7.5662320852279663e-01</leafValues></_>
    <_>
      <internalNodes>
        0 -1 129215 7.1139307692646980e-03</internalNodes>
      <leafValues>
        7.9410232603549957e-02 -2.2046305239200592e-01</leafValues></_>
    <_>
      <internalNodes>
        0 -1 130389 -8.0991148948669434e-02</internalNodes>
      <leafValues>
        -3.3673253655433655e-01 5.9628572314977646e-02</leafValues></_>
    <_>
      <internalNodes>
        0 -1 142039 -7.4826434254646301e-02</internalNodes>
      <leafValues>
        6.1405175924301147e-01 -3.2514836639165878e-02</leafValues></_>
    <_>
      <internalNodes>
        0 -1 139216 -3.3248667023144662e-04</internalNodes>
      <leafValues>
        -8.9866682887077332e-02 1.8766142427921295e-01</leafValues></_>
    <_>
      <internalNodes>
        0 -1 95635 5.3556832426693290e-05</internalNodes>
      <leafValues>
        -1.0583229362964630e-01 1.5582607686519623e-01</leafValues></_>
    <_>
      <internalNodes>
        0 -1 145548 -1.4001980423927307e-01</internalNodes>
      <leafValues>
        6.0627228021621704e-01 -2.5172781199216843e-02</leafValues></_>
    <_>
      <internalNodes>
        0 -1 162255 3.8772216066718102e-03</internalNodes>
      <leafValues>
        -9.3264862895011902e-02 1.8826273083686829e-01</leafValues></_>
    <_>
      <internalNodes>
        0 -1 58125 2.0247374195605516e-03</internalNodes>
      <leafValues>
        -3.9595004171133041e-02 4.1666176915168762e-01</leafValues></_>
    <_>
      <internalNodes>
        0 -1 147662 -9.2140748165547848e-05</internalNodes>
      <leafValues>
        1.3447672128677368e-01 -1.2621538341045380e-01</leafValues></_>
    <_>
      <internalNodes>
        0 -1 149703 -4.1412105783820152e-03</internalNodes>
      <leafValues>
        4.2783477902412415e-01 -3.8588687777519226e-02</leafValues></_>
    <_>
      <internalNodes>
        0 -1 127508 -3.9375582709908485e-03</internalNodes>
      <leafValues>
        -4.8598691821098328e-01 4.3448247015476227e-02</leafValues></_>
    <_>
      <internalNodes>
        0 -1 127609 1.0263581061735749e-03</internalNodes>
      <leafValues>
        -4.3485607951879501e-02 4.5959040522575378e-01</leafValues></_>
    <_>
      <internalNodes>
        0 -1 157687 1.5385280130431056e-04</internalNodes>
      <leafValues>
        -1.0190858691930771e-01 1.7907154560089111e-01</leafValues></_>
    <_>
      <internalNodes>
        0 -1 139786 7.4942858191207051e-05</internalNodes>
      <leafValues>
        -1.1614628881216049e-01 1.6768237948417664e-01</leafValues></_></weakClassifiers></stage48>
</opencv_storage>
