<?xml version="1.0"?>
<opencv_storage>
<stage8>
  <maxWeakCount>10</maxWeakCount>
  <stageThreshold>-1.1584802865982056e+00</stageThreshold>
  <weakClassifiers>
    <_>
      <internalNodes>
        0 -1 154994 1.5086014755070210e-02</internalNodes>
      <leafValues>
        -8.4162062406539917e-01 1.</leafValues></_>
    <_>
      <internalNodes>
        0 -1 28672 1.7944816499948502e-03</internalNodes>
      <leafValues>
        -6.0199284553527832e-01 1.0047815740108490e-01</leafValues></_>
    <_>
      <internalNodes>
        0 -1 137875 -1.7401137156412005e-03</internalNodes>
      <leafValues>
        -6.2264072895050049e-01 1.9781436026096344e-01</leafValues></_>
    <_>
      <internalNodes>
        0 -1 56705 -9.2089583631604910e-04</internalNodes>
      <leafValues>
        3.9608052372932434e-01 -3.6306518316268921e-01</leafValues></_>
    <_>
      <internalNodes>
        0 -1 120811 2.4512824602425098e-03</internalNodes>
      <leafValues>
        3.1989723443984985e-01 -5.7810908555984497e-01</leafValues></_>
    <_>
      <internalNodes>
        0 -1 7960 -2.3936416953802109e-02</internalNodes>
      <leafValues>
        5.3325790166854858e-01 -3.4557685256004333e-01</leafValues></_>
    <_>
      <internalNodes>
        0 -1 37980 -2.5199801893904805e-04</internalNodes>
      <leafValues>
        -6.7082697153091431e-01 2.4593602120876312e-01</leafValues></_>
    <_>
      <internalNodes>
        0 -1 50755 1.2846708297729492e-02</internalNodes>
      <leafValues>
        1.6632236540317535e-01 -9.0525370836257935e-01</leafValues></_>
    <_>
      <internalNodes>
        0 -1 65346 9.1235950589179993e-02</internalNodes>
      <leafValues>
        -2.5162467360496521e-01 7.8427511453628540e-01</leafValues></_>
    <_>
      <internalNodes>
        0 -1 70659 1.9098352640867233e-03</internalNodes>
      <leafValues>
        3.1542986631393433e-01 -5.0642371177673340e-01</leafValues></_></weakClassifiers></stage8>
</opencv_storage>
