<?xml version="1.0"?>
<opencv_storage>
<stage4>
  <maxWeakCount>5</maxWeakCount>
  <stageThreshold>-8.7686806917190552e-01</stageThreshold>
  <weakClassifiers>
    <_>
      <internalNodes>
        0 -1 26561 1.8142332136631012e-01</internalNodes>
      <leafValues>
        -5.5905508995056152e-01 8.8888889551162720e-01</leafValues></_>
    <_>
      <internalNodes>
        0 -1 37961 -7.1629821322858334e-03</internalNodes>
      <leafValues>
        5.5461466312408447e-01 -4.9573796987533569e-01</leafValues></_>
    <_>
      <internalNodes>
        0 -1 128040 -3.6606061621569097e-04</internalNodes>
      <leafValues>
        -9.2354011535644531e-01 3.1554690003395081e-01</leafValues></_>
    <_>
      <internalNodes>
        0 -1 107268 9.2177554965019226e-02</internalNodes>
      <leafValues>
        -4.8148298263549805e-01 6.4805936813354492e-01</leafValues></_>
    <_>
      <internalNodes>
        0 -1 43698 -3.4034828422591090e-04</internalNodes>
      <leafValues>
        -9.6569049358367920e-01 3.4386110305786133e-01</leafValues></_></weakClassifiers></stage4>
</opencv_storage>
