<?xml version="1.0"?>
<opencv_storage>
<stage6>
  <maxWeakCount>5</maxWeakCount>
  <stageThreshold>2.4941980838775635e-01</stageThreshold>
  <weakClassifiers>
    <_>
      <internalNodes>
        0 -1 80695 -1.4771845890209079e-03</internalNodes>
      <leafValues>
        6.9696968793869019e-01 -4.2857143282890320e-01</leafValues></_>
    <_>
      <internalNodes>
        0 -1 70279 -5.3623085841536522e-04</internalNodes>
      <leafValues>
        -7.8359842300415039e-01 3.6270707845687866e-01</leafValues></_>
    <_>
      <internalNodes>
        0 -1 154798 3.2036802731454372e-03</internalNodes>
      <leafValues>
        3.5946926474571228e-01 -5.8504998683929443e-01</leafValues></_>
    <_>
      <internalNodes>
        0 -1 8271 3.0222442001104355e-02</internalNodes>
      <leafValues>
        -4.3610075116157532e-01 5.7030516862869263e-01</leafValues></_>
    <_>
      <internalNodes>
        0 -1 152174 -5.3107144776731730e-04</internalNodes>
      <leafValues>
        -6.1449021100997925e-01 4.5298090577125549e-01</leafValues></_></weakClassifiers></stage6>
</opencv_storage>
