<?xml version="1.0"?>
<opencv_storage>
<stage0>
  <maxWeakCount>7</maxWeakCount>
  <stageThreshold>-4.5025566220283508e-01</stageThreshold>
  <weakClassifiers>
    <_>
      <internalNodes>
        0 -1 112737 -9.2796131968498230e-02</internalNodes>
      <leafValues>
        9.3166285753250122e-01 -5.1125401258468628e-01</leafValues></_>
    <_>
      <internalNodes>
        0 -1 26698 7.2864413261413574e-02</internalNodes>
      <leafValues>
        -3.3122009038925171e-01 8.5226988792419434e-01</leafValues></_>
    <_>
      <internalNodes>
        0 -1 69945 -7.2149910032749176e-02</internalNodes>
      <leafValues>
        9.3079525232315063e-01 -3.2162827253341675e-01</leafValues></_>
    <_>
      <internalNodes>
        0 -1 3240 -5.2643576636910439e-03</internalNodes>
      <leafValues>
        -7.4482965469360352e-01 4.2941534519195557e-01</leafValues></_>
    <_>
      <internalNodes>
        0 -1 70877 -8.2886929158121347e-04</internalNodes>
      <leafValues>
        -7.6480847597122192e-01 2.7540528774261475e-01</leafValues></_>
    <_>
      <internalNodes>
        0 -1 112475 -2.4079467356204987e-01</internalNodes>
      <leafValues>
        8.8738358020782471e-01 -3.2338267564773560e-01</leafValues></_>
    <_>
      <internalNodes>
        0 -1 60440 6.2092131702229381e-04</internalNodes>
      <leafValues>
        3.4509873390197754e-01 -8.5108119249343872e-01</leafValues></_></weakClassifiers></stage0>
</opencv_storage>
