<?xml version="1.0"?>
<opencv_storage>
<stage5>
  <maxWeakCount>6</maxWeakCount>
  <stageThreshold>-3.7453949451446533e-02</stageThreshold>
  <weakClassifiers>
    <_>
      <internalNodes>
        0 -1 1246 8.6963502690196037e-03</internalNodes>
      <leafValues>
        -3.7931033968925476e-01 6.0784316062927246e-01</leafValues></_>
    <_>
      <internalNodes>
        0 -1 2980 5.1196277141571045e-02</internalNodes>
      <leafValues>
        -4.4962957501411438e-01 6.3388061523437500e-01</leafValues></_>
    <_>
      <internalNodes>
        0 -1 62850 -1.9517922773957253e-03</internalNodes>
      <leafValues>
        -8.9769512414932251e-01 3.1020510196685791e-01</leafValues></_>
    <_>
      <internalNodes>
        0 -1 93746 -7.5568869709968567e-02</internalNodes>
      <leafValues>
        7.3110949993133545e-01 -4.2010486125946045e-01</leafValues></_>
    <_>
      <internalNodes>
        0 -1 49278 -1.9897606223821640e-02</internalNodes>
      <leafValues>
        6.6771149635314941e-01 -4.0818575024604797e-01</leafValues></_>
    <_>
      <internalNodes>
        0 -1 121042 5.2002293523401022e-04</internalNodes>
      <leafValues>
        3.7729111313819885e-01 -7.5347924232482910e-01</leafValues></_></weakClassifiers></stage5>
</opencv_storage>
