<?xml version="1.0"?>
<opencv_storage>
<stage9>
  <maxWeakCount>7</maxWeakCount>
  <stageThreshold>-6.7223620414733887e-01</stageThreshold>
  <weakClassifiers>
    <_>
      <internalNodes>
        0 -1 145055 -5.3677326068282127e-03</internalNodes>
      <leafValues>
        7.8947371244430542e-01 -4.9618321657180786e-01</leafValues></_>
    <_>
      <internalNodes>
        0 -1 119190 -1.6973834135569632e-04</internalNodes>
      <leafValues>
        -6.4689987897872925e-01 3.1318879127502441e-01</leafValues></_>
    <_>
      <internalNodes>
        0 -1 37969 -3.7700176239013672e-02</internalNodes>
      <leafValues>
        -7.1497482061386108e-01 2.9750519990921021e-01</leafValues></_>
    <_>
      <internalNodes>
        0 -1 7844 2.6375666260719299e-02</internalNodes>
      <leafValues>
        -4.9097162485122681e-01 5.1478433609008789e-01</leafValues></_>
    <_>
      <internalNodes>
        0 -1 37299 -7.0468103513121605e-04</internalNodes>
      <leafValues>
        -5.8951646089553833e-01 3.7752848863601685e-01</leafValues></_>
    <_>
      <internalNodes>
        0 -1 114789 -3.9703736547380686e-05</internalNodes>
      <leafValues>
        -6.9246828556060791e-01 3.4034559130668640e-01</leafValues></_>
    <_>
      <internalNodes>
        0 -1 146647 3.2487271819263697e-03</internalNodes>
      <leafValues>
        -3.7217274308204651e-01 8.1965565681457520e-01</leafValues></_></weakClassifiers></stage9>
</opencv_storage>
