<?xml version="1.0"?>
<opencv_storage>
<cascade>
  <stageType>BOOST</stageType>
  <featureType>HAAR</featureType>
  <height>24</height>
  <width>24</width>
  <stageParams>
    <boostType>GAB</boostType>
    <minHitRate>9.9999898672103882e-01</minHitRate>
    <maxFalseAlarm>1.0000000149011612e-01</maxFalseAlarm>
    <weightTrimRate>9.4999999999999996e-01</weightTrimRate>
    <maxDepth>1</maxDepth>
    <maxWeakCount>100</maxWeakCount></stageParams>
  <featureParams>
    <maxCatCount>0</maxCatCount>
    <featSize>1</featSize>
    <mode>BASIC</mode></featureParams>
  <stageNum>15</stageNum>
  <stages>
    <!-- stage 0 -->
    <_>
      <maxWeakCount>4</maxWeakCount>
      <stageThreshold>4.5733973383903503e-01</stageThreshold>
      <weakClassifiers>
        <_>
          <internalNodes>
            0 -1 99 -1.0469762980937958e-01</internalNodes>
          <leafValues>
            9.3258428573608398e-01 -6.0563379526138306e-01</leafValues></_>
        <_>
          <internalNodes>
            0 -1 33 7.1707367897033691e-02</internalNodes>
          <leafValues>
            -3.6370927095413208e-01 9.4926726818084717e-01</leafValues></_>
        <_>
          <internalNodes>
            0 -1 86 -4.4551678001880646e-02</internalNodes>
          <leafValues>
            8.0432325601577759e-01 -5.3269237279891968e-01</leafValues></_>
        <_>
          <internalNodes>
            0 -1 3 3.9397329092025757e-03</internalNodes>
          <leafValues>
            -8.0660891532897949e-01 6.4639860391616821e-01</leafValues></_></weakClassifiers></_>
    <!-- stage 1 -->
    <_>
      <maxWeakCount>7</maxWeakCount>
      <stageThreshold>-1.1277045309543610e-01</stageThreshold>
      <weakClassifiers>
        <_>
          <internalNodes>
            0 -1 112 -6.1080567538738251e-02</internalNodes>
          <leafValues>
            8.4090906381607056e-01 -4.7222220897674561e-01</leafValues></_>
        <_>
          <internalNodes>
            0 -1 17 -8.5357122588902712e-04</internalNodes>
          <leafValues>
            -8.5149979591369629e-01 5.4505139589309692e-01</leafValues></_>
        <_>
          <internalNodes>
            0 -1 64 -2.0427994895726442e-03</internalNodes>
          <leafValues>
            -9.2649793624877930e-01 3.7254685163497925e-01</leafValues></_>
        <_>
          <internalNodes>
            0 -1 46 3.1322084367275238e-02</internalNodes>
          <leafValues>
            -6.9853603839874268e-01 5.4394084215164185e-01</leafValues></_>
        <_>
          <internalNodes>
            0 -1 81 -4.3739974498748779e-02</internalNodes>
          <leafValues>
            9.5334994792938232e-01 -5.3887796401977539e-01</leafValues></_>
        <_>
          <internalNodes>
            0 -1 134 8.9432962704449892e-04</internalNodes>
          <leafValues>
            4.7235417366027832e-01 -9.7549593448638916e-01</leafValues></_>
        <_>
          <internalNodes>
            0 -1 44 -7.6220778282731771e-04</internalNodes>
          <leafValues>
            -8.9644175767898560e-01 3.6098763346672058e-01</leafValues></_></weakClassifiers></_>
    <!-- stage 2 -->
    <_>
      <maxWeakCount>7</maxWeakCount>
      <stageThreshold>5.0871229171752930e-01</stageThreshold>
      <weakClassifiers>
        <_>
          <internalNodes>
            0 -1 125 -8.9571293210610747e-04</internalNodes>
          <leafValues>
            6.9230771064758301e-01 -5.7142859697341919e-01</leafValues></_>
        <_>
          <internalNodes>
            0 -1 58 -2.1350026130676270e-01</internalNodes>
          <leafValues>
            9.4813174009323120e-01 -4.1785657405853271e-01</leafValues></_>
        <_>
          <internalNodes>
            0 -1 65 8.4872975945472717e-02</internalNodes>
          <leafValues>
            -5.3403037786483765e-01 7.2522991895675659e-01</leafValues></_>
        <_>
          <internalNodes>
            0 -1 74 6.4261135412380099e-04</internalNodes>
          <leafValues>
            5.5772489309310913e-01 -6.9648575782775879e-01</leafValues></_>
        <_>
          <internalNodes>
            0 -1 8 5.1312246359884739e-03</internalNodes>
          <leafValues>
            -7.8147065639495850e-01 4.9729758501052856e-01</leafValues></_>
        <_>
          <internalNodes>
            0 -1 36 8.3441464230418205e-03</internalNodes>
          <leafValues>
            4.3627983331680298e-01 -8.3481645584106445e-01</leafValues></_>
        <_>
          <internalNodes>
            0 -1 89 -4.6554562868550420e-04</internalNodes>
          <leafValues>
            -6.7064487934112549e-01 5.6023347377777100e-01</leafValues></_></weakClassifiers></_>
    <!-- stage 3 -->
    <_>
      <maxWeakCount>5</maxWeakCount>
      <stageThreshold>5.6731188297271729e-01</stageThreshold>
      <weakClassifiers>
        <_>
          <internalNodes>
            0 -1 66 -4.9040658632293344e-04</internalNodes>
          <leafValues>
            -6.5853661298751831e-01 5.6302523612976074e-01</leafValues></_>
        <_>
          <internalNodes>
            0 -1 32 1.2274292111396790e-01</internalNodes>
          <leafValues>
            -3.8288345932960510e-01 8.9055240154266357e-01</leafValues></_>
        <_>
          <internalNodes>
            0 -1 116 1.6514875460416079e-03</internalNodes>
          <leafValues>
            4.7009614109992981e-01 -8.2567203044891357e-01</leafValues></_>
        <_>
          <internalNodes>
            0 -1 107 -5.4875209927558899e-02</internalNodes>
          <leafValues>
            8.8053500652313232e-01 -4.6883890032768250e-01</leafValues></_>
        <_>
          <internalNodes>
            0 -1 61 -6.8033265415579081e-04</internalNodes>
          <leafValues>
            -9.4408702850341797e-01 4.0824517607688904e-01</leafValues></_></weakClassifiers></_>
    <!-- stage 4 -->
    <_>
      <maxWeakCount>8</maxWeakCount>
      <stageThreshold>3.0344676971435547e-01</stageThreshold>
      <weakClassifiers>
        <_>
          <internalNodes>
            0 -1 45 -6.7079358268529177e-04</internalNodes>
          <leafValues>
            -6.8750000000000000e-01 4.8437500000000000e-01</leafValues></_>
        <_>
          <internalNodes>
            0 -1 129 -2.9973695054650307e-03</internalNodes>
          <leafValues>
            4.3138107657432556e-01 -6.6821122169494629e-01</leafValues></_>
        <_>
          <internalNodes>
            0 -1 85 -6.8788649514317513e-04</internalNodes>
          <leafValues>
            -8.2355505228042603e-01 3.2798406481742859e-01</leafValues></_>
        <_>
          <internalNodes>
            0 -1 34 7.1750911884009838e-03</internalNodes>
          <leafValues>
            -6.0829013586044312e-01 4.1107562184333801e-01</leafValues></_>
        <_>
          <internalNodes>
            0 -1 95 2.8631847817450762e-04</internalNodes>
          <leafValues>
            5.5900460481643677e-01 -5.2219295501708984e-01</leafValues></_>
        <_>
          <internalNodes>
            0 -1 53 -2.1364938467741013e-02</internalNodes>
          <leafValues>
            8.1742393970489502e-01 -3.7017890810966492e-01</leafValues></_>
        <_>
          <internalNodes>
            0 -1 69 2.0177273545414209e-03</internalNodes>
          <leafValues>
            3.4009432792663574e-01 -9.1292828321456909e-01</leafValues></_>
        <_>
          <internalNodes>
            0 -1 110 -2.0330031402409077e-03</internalNodes>
          <leafValues>
            -7.9909139871597290e-01 3.9548721909523010e-01</leafValues></_></weakClassifiers></_>
    <!-- stage 5 -->
    <_>
      <maxWeakCount>9</maxWeakCount>
      <stageThreshold>-2.2106772661209106e-01</stageThreshold>
      <weakClassifiers>
        <_>
          <internalNodes>
            0 -1 55 1.0674965381622314e-01</internalNodes>
          <leafValues>
            -6.1946902424097061e-02 1.</leafValues></_>
        <_>
          <internalNodes>
            0 -1 30 -5.0165299326181412e-03</internalNodes>
          <leafValues>
            5.9530186653137207e-01 -3.2951071858406067e-01</leafValues></_>
        <_>
          <internalNodes>
            0 -1 48 3.7871813401579857e-03</internalNodes>
          <leafValues>
            -3.0588197708129883e-01 7.4384391307830811e-01</leafValues></_>
        <_>
          <internalNodes>
            0 -1 62 -4.5720225898548961e-04</internalNodes>
          <leafValues>
            -6.8517094850540161e-01 3.7728548049926758e-01</leafValues></_>
        <_>
          <internalNodes>
            0 -1 39 -2.5061713531613350e-03</internalNodes>
          <leafValues>
            -6.8902683258056641e-01 3.1050610542297363e-01</leafValues></_>
        <_>
          <internalNodes>
            0 -1 35 5.8030697982758284e-04</internalNodes>
          <leafValues>
            -6.3604122400283813e-01 3.8310524821281433e-01</leafValues></_>
        <_>
          <internalNodes>
            0 -1 113 4.0079286554828286e-04</internalNodes>
          <leafValues>
            3.1243541836738586e-01 -7.9046863317489624e-01</leafValues></_>
        <_>
          <internalNodes>
            0 -1 109 -2.9360557164181955e-05</internalNodes>
          <leafValues>
            -5.4423230886459351e-01 4.9218618869781494e-01</leafValues></_>
        <_>
          <internalNodes>
            0 -1 29 -4.1075579822063446e-02</internalNodes>
          <leafValues>
            9.3453860282897949e-01 -3.0964991450309753e-01</leafValues></_></weakClassifiers></_>
    <!-- stage 6 -->
    <_>
      <maxWeakCount>8</maxWeakCount>
      <stageThreshold>2.7561801671981812e-01</stageThreshold>
      <weakClassifiers>
        <_>
          <internalNodes>
            0 -1 13 -6.1862856149673462e-01</internalNodes>
          <leafValues>
            8.6666667461395264e-01 -1.1999999731779099e-01</leafValues></_>
        <_>
          <internalNodes>
            0 -1 22 1.7405516700819135e-03</internalNodes>
          <leafValues>
            -4.4994804263114929e-01 5.4945033788681030e-01</leafValues></_>
        <_>
          <internalNodes>
            0 -1 73 -3.3138650469481945e-03</internalNodes>
          <leafValues>
            -6.8881756067276001e-01 3.9905145764350891e-01</leafValues></_>
        <_>
          <internalNodes>
            0 -1 5 -3.6921989521943033e-04</internalNodes>
          <leafValues>
            -8.5484731197357178e-01 2.9799380898475647e-01</leafValues></_>
        <_>
          <internalNodes>
            0 -1 108 -5.9662558138370514e-02</internalNodes>
          <leafValues>
            4.4467160105705261e-01 -5.7247090339660645e-01</leafValues></_>
        <_>
          <internalNodes>
            0 -1 130 5.6358613073825836e-03</internalNodes>
          <leafValues>
            3.1082671880722046e-01 -9.0682625770568848e-01</leafValues></_>
        <_>
          <internalNodes>
            0 -1 49 -1.7046972643584013e-03</internalNodes>
          <leafValues>
            -7.8328758478164673e-01 2.5141420960426331e-01</leafValues></_>
        <_>
          <internalNodes>
            0 -1 60 2.0591929205693305e-04</internalNodes>
          <leafValues>
            4.1286700963973999e-01 -6.4013713598251343e-01</leafValues></_></weakClassifiers></_>
    <!-- stage 7 -->
    <_>
      <maxWeakCount>11</maxWeakCount>
      <stageThreshold>6.8818561732769012e-02</stageThreshold>
      <weakClassifiers>
        <_>
          <internalNodes>
            0 -1 20 1.0532179847359657e-02</internalNodes>
          <leafValues>
            4.8031497001647949e-01 -6.3636362552642822e-01</leafValues></_>
        <_>
          <internalNodes>
            0 -1 72 2.0541618578135967e-03</internalNodes>
          <leafValues>
            3.0087631940841675e-01 -7.1205675601959229e-01</leafValues></_>
        <_>
          <internalNodes>
            0 -1 114 -2.5403190404176712e-02</internalNodes>
          <leafValues>
            7.2140604257583618e-01 -3.6085116863250732e-01</leafValues></_>
        <_>
          <internalNodes>
            0 -1 123 -1.6591905150562525e-03</internalNodes>
          <leafValues>
            -6.9736665487289429e-01 3.6616542935371399e-01</leafValues></_>
        <_>
          <internalNodes>
            0 -1 43 -1.6864009667187929e-03</internalNodes>
          <leafValues>
            -6.1557930707931519e-01 4.1130200028419495e-01</leafValues></_>
        <_>
          <internalNodes>
            0 -1 98 1.7010441515594721e-03</internalNodes>
          <leafValues>
            -4.3236953020095825e-01 5.9689891338348389e-01</leafValues></_>
        <_>
          <internalNodes>
            0 -1 124 4.5428685843944550e-03</internalNodes>
          <leafValues>
            3.4677517414093018e-01 -7.0190262794494629e-01</leafValues></_>
        <_>
          <internalNodes>
            0 -1 41 -9.2444837093353271e-02</internalNodes>
          <leafValues>
            7.9938715696334839e-01 -3.1105557084083557e-01</leafValues></_>
        <_>
          <internalNodes>
            0 -1 47 1.4329944737255573e-02</internalNodes>
          <leafValues>
            3.1062239408493042e-01 -8.8094073534011841e-01</leafValues></_>
        <_>
          <internalNodes>
            0 -1 117 -5.6580081582069397e-03</internalNodes>
          <leafValues>
            8.2001030445098877e-01 -3.2021716237068176e-01</leafValues></_>
        <_>
          <internalNodes>
            0 -1 94 -1.3293398544192314e-02</internalNodes>
          <leafValues>
            -7.2513139247894287e-01 3.5468512773513794e-01</leafValues></_></weakClassifiers></_>
    <!-- stage 8 -->
    <_>
      <maxWeakCount>10</maxWeakCount>
      <stageThreshold>-9.2975929379463196e-02</stageThreshold>
      <weakClassifiers>
        <_>
          <internalNodes>
            0 -1 15 -5.4340052884072065e-04</internalNodes>
          <leafValues>
            -3.9130434393882751e-01 5.0877195596694946e-01</leafValues></_>
        <_>
          <internalNodes>
            0 -1 56 -8.7421946227550507e-03</internalNodes>
          <leafValues>
            -5.7417058944702148e-01 3.0184656381607056e-01</leafValues></_>
        <_>
          <internalNodes>
            0 -1 24 -7.7429473400115967e-02</internalNodes>
          <leafValues>
            6.7021322250366211e-01 -2.8967610001564026e-01</leafValues></_>
        <_>
          <internalNodes>
            0 -1 70 2.9530833126045763e-04</internalNodes>
          <leafValues>
            -3.2987266778945923e-01 5.8017820119857788e-01</leafValues></_>
        <_>
          <internalNodes>
            0 -1 79 -3.3486813306808472e-02</internalNodes>
          <leafValues>
            -9.4188922643661499e-01 2.6894077658653259e-01</leafValues></_>
        <_>
          <internalNodes>
            0 -1 84 -7.1238391101360321e-03</internalNodes>
          <leafValues>
            -5.3474408388137817e-01 3.8339900970458984e-01</leafValues></_>
        <_>
          <internalNodes>
            0 -1 9 2.6987018063664436e-03</internalNodes>
          <leafValues>
            -4.2909303307533264e-01 5.4865688085556030e-01</leafValues></_>
        <_>
          <internalNodes>
            0 -1 118 9.9973200121894479e-05</internalNodes>
          <leafValues>
            5.3072386980056763e-01 -4.2441713809967041e-01</leafValues></_>
        <_>
          <internalNodes>
            0 -1 10 -1.2388630420900881e-04</internalNodes>
          <leafValues>
            -4.7540709376335144e-01 4.8387891054153442e-01</leafValues></_>
        <_>
          <internalNodes>
            0 -1 131 -2.5557453045621514e-04</internalNodes>
          <leafValues>
            8.5135656595230103e-01 -3.2143685221672058e-01</leafValues></_></weakClassifiers></_>
    <!-- stage 9 -->
    <_>
      <maxWeakCount>12</maxWeakCount>
      <stageThreshold>1.9072312116622925e-01</stageThreshold>
      <weakClassifiers>
        <_>
          <internalNodes>
            0 -1 11 1.2439554557204247e-02</internalNodes>
          <leafValues>
            -3.3333334326744080e-01 5.4716980457305908e-01</leafValues></_>
        <_>
          <internalNodes>
            0 -1 52 -1.9592702388763428e-02</internalNodes>
          <leafValues>
            -6.4681947231292725e-01 3.0560451745986938e-01</leafValues></_>
        <_>
          <internalNodes>
            0 -1 102 -1.5846267342567444e-02</internalNodes>
          <leafValues>
            4.5719459652900696e-01 -4.6535745263099670e-01</leafValues></_>
        <_>
          <internalNodes>
            0 -1 59 -4.1757225990295410e-03</internalNodes>
          <leafValues>
            4.2344847321510315e-01 -4.9888041615486145e-01</leafValues></_>
        <_>
          <internalNodes>
            0 -1 21 1.1011426977347583e-04</internalNodes>
          <leafValues>
            -4.5247685909271240e-01 5.1034921407699585e-01</leafValues></_>
        <_>
          <internalNodes>
            0 -1 80 1.9783433526754379e-03</internalNodes>
          <leafValues>
            -3.1936392188072205e-01 7.4816018342971802e-01</leafValues></_>
        <_>
          <internalNodes>
            0 -1 71 2.9886025004088879e-03</internalNodes>
          <leafValues>
            3.2344916462898254e-01 -6.8390077352523804e-01</leafValues></_>
        <_>
          <internalNodes>
            0 -1 75 -2.7266051620244980e-02</internalNodes>
          <leafValues>
            -8.8595390319824219e-01 2.2949318587779999e-01</leafValues></_>
        <_>
          <internalNodes>
            0 -1 54 -7.0826354203745723e-05</internalNodes>
          <leafValues>
            -5.7303279638290405e-01 3.2581695914268494e-01</leafValues></_>
        <_>
          <internalNodes>
            0 -1 127 -4.1975639760494232e-04</internalNodes>
          <leafValues>
            5.6338185071945190e-01 -3.8715097308158875e-01</leafValues></_>
        <_>
          <internalNodes>
            0 -1 40 -1.6821611672639847e-02</internalNodes>
          <leafValues>
            -7.4061775207519531e-01 2.8684425354003906e-01</leafValues></_>
        <_>
          <internalNodes>
            0 -1 57 -1.8586646547191776e-05</internalNodes>
          <leafValues>
            -5.1392495632171631e-01 3.9008280634880066e-01</leafValues></_></weakClassifiers></_>
    <!-- stage 10 -->
    <_>
      <maxWeakCount>14</maxWeakCount>
      <stageThreshold>-2.5869777798652649e-01</stageThreshold>
      <weakClassifiers>
        <_>
          <internalNodes>
            0 -1 97 -9.3139275908470154e-02</internalNodes>
          <leafValues>
            8.0769228935241699e-01 -1.8518518656492233e-02</leafValues></_>
        <_>
          <internalNodes>
            0 -1 14 6.8129794672131538e-03</internalNodes>
          <leafValues>
            -1.6549715399742126e-01 7.3239642381668091e-01</leafValues></_>
        <_>
          <internalNodes>
            0 -1 103 -5.0143146654590964e-04</internalNodes>
          <leafValues>
            -5.6081646680831909e-01 3.6553272604942322e-01</leafValues></_>
        <_>
          <internalNodes>
            0 -1 115 1.0178245138376951e-03</internalNodes>
          <leafValues>
            -3.4404653310775757e-01 4.9411240220069885e-01</leafValues></_>
        <_>
          <internalNodes>
            0 -1 92 -1.3848991366103292e-03</internalNodes>
          <leafValues>
            -5.0787723064422607e-01 3.5250830650329590e-01</leafValues></_>
        <_>
          <internalNodes>
            0 -1 68 2.5968737900257111e-03</internalNodes>
          <leafValues>
            -2.2301793098449707e-01 8.0509585142135620e-01</leafValues></_>
        <_>
          <internalNodes>
            0 -1 50 -5.9081912040710449e-03</internalNodes>
          <leafValues>
            6.0055398941040039e-01 -2.8781890869140625e-01</leafValues></_>
        <_>
          <internalNodes>
            0 -1 51 1.7352092545479536e-03</internalNodes>
          <leafValues>
            3.7021037936210632e-01 -5.8567637205123901e-01</leafValues></_>
        <_>
          <internalNodes>
            0 -1 83 4.3273408664390445e-04</internalNodes>
          <leafValues>
            -2.3876893520355225e-01 7.1069878339767456e-01</leafValues></_>
        <_>
          <internalNodes>
            0 -1 105 -6.1366246081888676e-03</internalNodes>
          <leafValues>
            5.2209532260894775e-01 -3.5037481784820557e-01</leafValues></_>
        <_>
          <internalNodes>
            0 -1 120 -2.2622683900408447e-04</internalNodes>
          <leafValues>
            7.6307630538940430e-01 -2.4959209561347961e-01</leafValues></_>
        <_>
          <internalNodes>
            0 -1 90 6.8232030607759953e-03</internalNodes>
          <leafValues>
            2.9120531678199768e-01 -7.1376717090606689e-01</leafValues></_>
        <_>
          <internalNodes>
            0 -1 23 4.3626427650451660e-03</internalNodes>
          <leafValues>
            -4.3170139193534851e-01 4.7660392522811890e-01</leafValues></_>
        <_>
          <internalNodes>
            0 -1 42 2.5487632956355810e-04</internalNodes>
          <leafValues>
            -2.6511088013648987e-01 7.4785709381103516e-01</leafValues></_></weakClassifiers></_>
    <!-- stage 11 -->
    <_>
      <maxWeakCount>11</maxWeakCount>
      <stageThreshold>-3.5454204678535461e-01</stageThreshold>
      <weakClassifiers>
        <_>
          <internalNodes>
            0 -1 37 -2.9153283685445786e-04</internalNodes>
          <leafValues>
            1. 6.2500000000000000e-02</leafValues></_>
        <_>
          <internalNodes>
            0 -1 122 -1.3632326386868954e-02</internalNodes>
          <leafValues>
            -2.0286093652248383e-01 6.4132124185562134e-01</leafValues></_>
        <_>
          <internalNodes>
            0 -1 133 -2.0668475190177560e-04</internalNodes>
          <leafValues>
            7.7556985616683960e-01 -2.4316927790641785e-01</leafValues></_>
        <_>
          <internalNodes>
            0 -1 31 1.9824556075036526e-03</internalNodes>
          <leafValues>
            -6.1253613233566284e-01 3.3288159966468811e-01</leafValues></_>
        <_>
          <internalNodes>
            0 -1 91 2.6763573987409472e-04</internalNodes>
          <leafValues>
            -2.3489710688591003e-01 8.4452664852142334e-01</leafValues></_>
        <_>
          <internalNodes>
            0 -1 132 2.6163016445934772e-03</internalNodes>
          <leafValues>
            -1.7860293388366699e-01 9.2958295345306396e-01</leafValues></_>
        <_>
          <internalNodes>
            0 -1 119 1.4756100717931986e-03</internalNodes>
          <leafValues>
            4.5055863261222839e-01 -5.0901770591735840e-01</leafValues></_>
        <_>
          <internalNodes>
            0 -1 63 -1.6025120203266852e-05</internalNodes>
          <leafValues>
            5.5269086360931396e-01 -3.8756901025772095e-01</leafValues></_>
        <_>
          <internalNodes>
            0 -1 87 6.4100808231160045e-05</internalNodes>
          <leafValues>
            5.1153105497360229e-01 -4.8491713404655457e-01</leafValues></_>
        <_>
          <internalNodes>
            0 -1 96 -4.2743187805172056e-05</internalNodes>
          <leafValues>
            7.3810797929763794e-01 -3.0399310588836670e-01</leafValues></_>
        <_>
          <internalNodes>
            0 -1 18 1.4551705680787563e-03</internalNodes>
          <leafValues>
            -2.1666233241558075e-01 8.4871554374694824e-01</leafValues></_></weakClassifiers></_>
    <!-- stage 12 -->
    <_>
      <maxWeakCount>12</maxWeakCount>
      <stageThreshold>1.5713354945182800e-01</stageThreshold>
      <weakClassifiers>
        <_>
          <internalNodes>
            0 -1 16 -3.7657238543033600e-02</internalNodes>
          <leafValues>
            -5.6756758689880371e-01 4.9593496322631836e-01</leafValues></_>
        <_>
          <internalNodes>
            0 -1 138 -9.8117319867014885e-03</internalNodes>
          <leafValues>
            8.1744933128356934e-01 -2.0606191456317902e-01</leafValues></_>
        <_>
          <internalNodes>
            0 -1 82 -3.1129613518714905e-02</internalNodes>
          <leafValues>
            7.4282425642013550e-01 -1.9441358745098114e-01</leafValues></_>
        <_>
          <internalNodes>
            0 -1 101 -6.2060891650617123e-04</internalNodes>
          <leafValues>
            8.9225077629089355e-01 -1.6912178695201874e-01</leafValues></_>
        <_>
          <internalNodes>
            0 -1 1 -1.0543064773082733e-01</internalNodes>
          <leafValues>
            -1.6177578270435333e-01 1.</leafValues></_>
        <_>
          <internalNodes>
            0 -1 26 1.4887042343616486e-03</internalNodes>
          <leafValues>
            -1.6309389472007751e-01 9.0637660026550293e-01</leafValues></_>
        <_>
          <internalNodes>
            0 -1 27 9.8003912717103958e-03</internalNodes>
          <leafValues>
            2.9000174999237061e-01 -7.3508673906326294e-01</leafValues></_>
        <_>
          <internalNodes>
            0 -1 19 -5.7184342294931412e-03</internalNodes>
          <leafValues>
            -8.4335869550704956e-01 2.3538662493228912e-01</leafValues></_>
        <_>
          <internalNodes>
            0 -1 137 -6.3678193837404251e-03</internalNodes>
          <leafValues>
            9.1752201318740845e-01 -2.4728947877883911e-01</leafValues></_>
        <_>
          <internalNodes>
            0 -1 7 -1.3563346862792969e-01</internalNodes>
          <leafValues>
            -1. 2.5587794184684753e-01</leafValues></_>
        <_>
          <internalNodes>
            0 -1 77 -7.4166955891996622e-04</internalNodes>
          <leafValues>
            9.4055628776550293e-01 -2.5784075260162354e-01</leafValues></_>
        <_>
          <internalNodes>
            0 -1 78 -8.2336779450997710e-04</internalNodes>
          <leafValues>
            -7.2660893201828003e-01 3.0926483869552612e-01</leafValues></_></weakClassifiers></_>
    <!-- stage 13 -->
    <_>
      <maxWeakCount>9</maxWeakCount>
      <stageThreshold>3.5485750436782837e-01</stageThreshold>
      <weakClassifiers>
        <_>
          <internalNodes>
            0 -1 135 -2.9167480766773224e-02</internalNodes>
          <leafValues>
            -3.4285715222358704e-01 7.1111112833023071e-01</leafValues></_>
        <_>
          <internalNodes>
            0 -1 106 -7.4824854731559753e-02</internalNodes>
          <leafValues>
            6.3288569450378418e-01 -4.0638601779937744e-01</leafValues></_>
        <_>
          <internalNodes>
            0 -1 0 3.4407959319651127e-03</internalNodes>
          <leafValues>
            -4.8479360342025757e-01 5.6068021059036255e-01</leafValues></_>
        <_>
          <internalNodes>
            0 -1 121 -1.2839131057262421e-02</internalNodes>
          <leafValues>
            -2.5796929001808167e-01 9.4509416818618774e-01</leafValues></_>
        <_>
          <internalNodes>
            0 -1 2 2.1567147225141525e-02</internalNodes>
          <leafValues>
            -5.2777361869812012e-01 5.8596807718276978e-01</leafValues></_>
        <_>
          <internalNodes>
            0 -1 104 3.8348562084138393e-03</internalNodes>
          <leafValues>
            -3.1988674402236938e-01 8.0844533443450928e-01</leafValues></_>
        <_>
          <internalNodes>
            0 -1 6 -1.3431254774332047e-02</internalNodes>
          <leafValues>
            -7.6125675439834595e-01 4.1347482800483704e-01</leafValues></_>
        <_>
          <internalNodes>
            0 -1 126 -3.6977091804146767e-03</internalNodes>
          <leafValues>
            6.9070208072662354e-01 -4.8138239979743958e-01</leafValues></_>
        <_>
          <internalNodes>
            0 -1 88 9.1495681554079056e-03</internalNodes>
          <leafValues>
            -3.7628230452537537e-01 6.8465399742126465e-01</leafValues></_></weakClassifiers></_>
    <!-- stage 14 -->
    <_>
      <maxWeakCount>12</maxWeakCount>
      <stageThreshold>-3.5266489721834660e-03</stageThreshold>
      <weakClassifiers>
        <_>
          <internalNodes>
            0 -1 4 4.3388184159994125e-02</internalNodes>
          <leafValues>
            -1.8421052396297455e-01 6.4285713434219360e-01</leafValues></_>
        <_>
          <internalNodes>
            0 -1 128 -1.6224738210439682e-02</internalNodes>
          <leafValues>
            4.8945140838623047e-01 -3.7010967731475830e-01</leafValues></_>
        <_>
          <internalNodes>
            0 -1 93 -1.4339813962578773e-02</internalNodes>
          <leafValues>
            7.4899172782897949e-01 -2.0969636738300323e-01</leafValues></_>
        <_>
          <internalNodes>
            0 -1 12 2.2188571095466614e-01</internalNodes>
          <leafValues>
            -2.2157624363899231e-01 1.</leafValues></_>
        <_>
          <internalNodes>
            0 -1 136 6.4219711930491030e-05</internalNodes>
          <leafValues>
            -3.0628621578216553e-01 5.6770467758178711e-01</leafValues></_>
        <_>
          <internalNodes>
            0 -1 38 -1.2366601731628180e-03</internalNodes>
          <leafValues>
            -4.8551988601684570e-01 4.6418339014053345e-01</leafValues></_>
        <_>
          <internalNodes>
            0 -1 76 -2.8572294861078262e-02</internalNodes>
          <leafValues>
            6.6379100084304810e-01 -3.1624010205268860e-01</leafValues></_>
        <_>
          <internalNodes>
            0 -1 111 -9.9762022495269775e-02</internalNodes>
          <leafValues>
            3.7740865349769592e-01 -5.3413063287734985e-01</leafValues></_>
        <_>
          <internalNodes>
            0 -1 100 -7.5000559445470572e-04</internalNodes>
          <leafValues>
            -7.9571801424026489e-01 2.4567560851573944e-01</leafValues></_>
        <_>
          <internalNodes>
            0 -1 25 5.4815411567687988e-03</internalNodes>
          <leafValues>
            -6.0665535926818848e-01 3.8307920098304749e-01</leafValues></_>
        <_>
          <internalNodes>
            0 -1 28 -5.7600169384386390e-05</internalNodes>
          <leafValues>
            -5.1951873302459717e-01 5.4032808542251587e-01</leafValues></_>
        <_>
          <internalNodes>
            0 -1 67 2.3400731384754181e-02</internalNodes>
          <leafValues>
            -2.5078001618385315e-01 8.6589580774307251e-01</leafValues></_></weakClassifiers></_></stages>
  <features>
    <_>
      <rects>
        <_>
          0 0 2 24 -1.</_>
        <_>
          1 0 1 24 2.</_></rects>
      <tilted>0</tilted></_>
    <_>
      <rects>
        <_>
          0 0 3 24 -1.</_>
        <_>
          1 0 1 24 2.</_></rects>
      <tilted>0</tilted></_>
    <_>
      <rects>
        <_>
          0 0 24 4 -1.</_>
        <_>
          12 0 12 4 2.</_></rects>
      <tilted>0</tilted></_>
    <_>
      <rects>
        <_>
          0 0 14 8 -1.</_>
        <_>
          0 4 14 4 2.</_></rects>
      <tilted>0</tilted></_>
    <_>
      <rects>
        <_>
          0 0 16 8 -1.</_>
        <_>
          0 4 16 4 2.</_></rects>
      <tilted>0</tilted></_>
    <_>
      <rects>
        <_>
          0 1 1 2 -1.</_>
        <_>
          0 2 1 1 2.</_></rects>
      <tilted>0</tilted></_>
    <_>
      <rects>
        <_>
          0 1 1 3 -1.</_>
        <_>
          0 2 1 1 2.</_></rects>
      <tilted>0</tilted></_>
    <_>
      <rects>
        <_>
          0 1 24 1 -1.</_>
        <_>
          8 1 8 1 2.</_></rects>
      <tilted>0</tilted></_>
    <_>
      <rects>
        <_>
          0 2 4 22 -1.</_>
        <_>
          2 2 2 22 2.</_></rects>
      <tilted>0</tilted></_>
    <_>
      <rects>
        <_>
          0 2 10 2 -1.</_>
        <_>
          0 3 10 1 2.</_></rects>
      <tilted>0</tilted></_>
    <_>
      <rects>
        <_>
          0 4 2 4 -1.</_>
        <_>
          0 6 2 2 2.</_></rects>
      <tilted>0</tilted></_>
    <_>
      <rects>
        <_>
          0 4 6 12 -1.</_>
        <_>
          3 4 3 12 2.</_></rects>
      <tilted>0</tilted></_>
    <_>
      <rects>
        <_>
          0 4 24 18 -1.</_>
        <_>
          0 4 12 9 2.</_>
        <_>
          12 13 12 9 2.</_></rects>
      <tilted>0</tilted></_>
    <_>
      <rects>
        <_>
          0 6 18 12 -1.</_>
        <_>
          0 10 18 4 2.</_></rects>
      <tilted>0</tilted></_>
    <_>
      <rects>
        <_>
          0 9 2 15 -1.</_>
        <_>
          1 9 1 15 2.</_></rects>
      <tilted>0</tilted></_>
    <_>
      <rects>
        <_>
          0 11 2 3 -1.</_>
        <_>
          1 11 1 3 2.</_></rects>
      <tilted>0</tilted></_>
    <_>
      <rects>
        <_>
          0 12 3 3 -1.</_>
        <_>
          1 12 1 3 2.</_></rects>
      <tilted>0</tilted></_>
    <_>
      <rects>
        <_>
          0 15 2 2 -1.</_>
        <_>
          0 15 1 1 2.</_>
        <_>
          1 16 1 1 2.</_></rects>
      <tilted>0</tilted></_>
    <_>
      <rects>
        <_>
          0 18 2 3 -1.</_>
        <_>
          1 18 1 3 2.</_></rects>
      <tilted>0</tilted></_>
    <_>
      <rects>
        <_>
          0 19 10 1 -1.</_>
        <_>
          5 19 5 1 2.</_></rects>
      <tilted>0</tilted></_>
    <_>
      <rects>
        <_>
          0 19 18 4 -1.</_>
        <_>
          0 21 18 2 2.</_></rects>
      <tilted>0</tilted></_>
    <_>
      <rects>
        <_>
          1 0 2 18 -1.</_>
        <_>
          1 0 1 9 2.</_>
        <_>
          2 9 1 9 2.</_></rects>
      <tilted>0</tilted></_>
    <_>
      <rects>
        <_>
          1 0 23 2 -1.</_>
        <_>
          1 1 23 1 2.</_></rects>
      <tilted>0</tilted></_>
    <_>
      <rects>
        <_>
          1 1 2 23 -1.</_>
        <_>
          2 1 1 23 2.</_></rects>
      <tilted>0</tilted></_>
    <_>
      <rects>
        <_>
          1 1 22 16 -1.</_>
        <_>
          12 1 11 16 2.</_></rects>
      <tilted>0</tilted></_>
    <_>
      <rects>
        <_>
          1 3 16 4 -1.</_>
        <_>
          1 5 16 2 2.</_></rects>
      <tilted>0</tilted></_>
    <_>
      <rects>
        <_>
          1 5 2 6 -1.</_>
        <_>
          1 5 1 3 2.</_>
        <_>
          2 8 1 3 2.</_></rects>
      <tilted>0</tilted></_>
    <_>
      <rects>
        <_>
          1 12 6 8 -1.</_>
        <_>
          1 12 3 4 2.</_>
        <_>
          4 16 3 4 2.</_></rects>
      <tilted>0</tilted></_>
    <_>
      <rects>
        <_>
          1 16 2 2 -1.</_>
        <_>
          1 16 1 1 2.</_>
        <_>
          2 17 1 1 2.</_></rects>
      <tilted>0</tilted></_>
    <_>
      <rects>
        <_>
          1 20 22 4 -1.</_>
        <_>
          1 22 22 2 2.</_></rects>
      <tilted>0</tilted></_>
    <_>
      <rects>
        <_>
          1 22 23 2 -1.</_>
        <_>
          1 23 23 1 2.</_></rects>
      <tilted>0</tilted></_>
    <_>
      <rects>
        <_>
          2 0 4 14 -1.</_>
        <_>
          4 0 2 14 2.</_></rects>
      <tilted>0</tilted></_>
    <_>
      <rects>
        <_>
          2 0 11 18 -1.</_>
        <_>
          2 9 11 9 2.</_></rects>
      <tilted>0</tilted></_>
    <_>
      <rects>
        <_>
          2 0 12 16 -1.</_>
        <_>
          2 8 12 8 2.</_></rects>
      <tilted>0</tilted></_>
    <_>
      <rects>
        <_>
          2 0 14 4 -1.</_>
        <_>
          2 2 14 2 2.</_></rects>
      <tilted>0</tilted></_>
    <_>
      <rects>
        <_>
          2 1 2 11 -1.</_>
        <_>
          3 1 1 11 2.</_></rects>
      <tilted>0</tilted></_>
    <_>
      <rects>
        <_>
          2 8 22 2 -1.</_>
        <_>
          2 9 22 1 2.</_></rects>
      <tilted>0</tilted></_>
    <_>
      <rects>
        <_>
          2 9 2 2 -1.</_>
        <_>
          2 9 1 1 2.</_>
        <_>
          3 10 1 1 2.</_></rects>
      <tilted>0</tilted></_>
    <_>
      <rects>
        <_>
          2 9 4 6 -1.</_>
        <_>
          2 9 2 3 2.</_>
        <_>
          4 12 2 3 2.</_></rects>
      <tilted>0</tilted></_>
    <_>
      <rects>
        <_>
          2 11 1 6 -1.</_>
        <_>
          2 14 1 3 2.</_></rects>
      <tilted>0</tilted></_>
    <_>
      <rects>
        <_>
          2 14 10 6 -1.</_>
        <_>
          2 14 5 3 2.</_>
        <_>
          7 17 5 3 2.</_></rects>
      <tilted>0</tilted></_>
    <_>
      <rects>
        <_>
          2 16 20 8 -1.</_>
        <_>
          2 20 20 4 2.</_></rects>
      <tilted>0</tilted></_>
    <_>
      <rects>
        <_>
          2 18 2 2 -1.</_>
        <_>
          2 18 1 1 2.</_>
        <_>
          3 19 1 1 2.</_></rects>
      <tilted>0</tilted></_>
    <_>
      <rects>
        <_>
          2 20 6 3 -1.</_>
        <_>
          5 20 3 3 2.</_></rects>
      <tilted>0</tilted></_>
    <_>
      <rects>
        <_>
          2 21 2 1 -1.</_>
        <_>
          3 21 1 1 2.</_></rects>
      <tilted>0</tilted></_>
    <_>
      <rects>
        <_>
          3 0 2 2 -1.</_>
        <_>
          3 1 2 1 2.</_></rects>
      <tilted>0</tilted></_>
    <_>
      <rects>
        <_>
          3 0 17 8 -1.</_>
        <_>
          3 4 17 4 2.</_></rects>
      <tilted>0</tilted></_>
    <_>
      <rects>
        <_>
          3 1 2 21 -1.</_>
        <_>
          4 1 1 21 2.</_></rects>
      <tilted>0</tilted></_>
    <_>
      <rects>
        <_>
          3 2 2 6 -1.</_>
        <_>
          3 5 2 3 2.</_></rects>
      <tilted>0</tilted></_>
    <_>
      <rects>
        <_>
          3 6 2 8 -1.</_>
        <_>
          4 6 1 8 2.</_></rects>
      <tilted>0</tilted></_>
    <_>
      <rects>
        <_>
          3 6 4 14 -1.</_>
        <_>
          3 6 2 7 2.</_>
        <_>
          5 13 2 7 2.</_></rects>
      <tilted>0</tilted></_>
    <_>
      <rects>
        <_>
          3 16 4 8 -1.</_>
        <_>
          3 16 2 4 2.</_>
        <_>
          5 20 2 4 2.</_></rects>
      <tilted>0</tilted></_>
    <_>
      <rects>
        <_>
          3 16 4 6 -1.</_>
        <_>
          3 19 4 3 2.</_></rects>
      <tilted>0</tilted></_>
    <_>
      <rects>
        <_>
          3 20 13 4 -1.</_>
        <_>
          3 22 13 2 2.</_></rects>
      <tilted>0</tilted></_>
    <_>
      <rects>
        <_>
          4 0 2 1 -1.</_>
        <_>
          5 0 1 1 2.</_></rects>
      <tilted>0</tilted></_>
    <_>
      <rects>
        <_>
          4 0 8 14 -1.</_>
        <_>
          4 7 8 7 2.</_></rects>
      <tilted>0</tilted></_>
    <_>
      <rects>
        <_>
          4 2 4 11 -1.</_>
        <_>
          6 2 2 11 2.</_></rects>
      <tilted>0</tilted></_>
    <_>
      <rects>
        <_>
          4 4 2 8 -1.</_>
        <_>
          5 4 1 8 2.</_></rects>
      <tilted>0</tilted></_>
    <_>
      <rects>
        <_>
          4 11 12 7 -1.</_>
        <_>
          8 11 4 7 2.</_></rects>
      <tilted>0</tilted></_>
    <_>
      <rects>
        <_>
          4 22 20 2 -1.</_>
        <_>
          4 23 20 1 2.</_></rects>
      <tilted>0</tilted></_>
    <_>
      <rects>
        <_>
          5 2 2 1 -1.</_>
        <_>
          6 2 1 1 2.</_></rects>
      <tilted>0</tilted></_>
    <_>
      <rects>
        <_>
          5 4 2 2 -1.</_>
        <_>
          5 4 1 1 2.</_>
        <_>
          6 5 1 1 2.</_></rects>
      <tilted>0</tilted></_>
    <_>
      <rects>
        <_>
          5 19 2 2 -1.</_>
        <_>
          6 19 1 2 2.</_></rects>
      <tilted>0</tilted></_>
    <_>
      <rects>
        <_>
          5 20 2 2 -1.</_>
        <_>
          5 20 1 1 2.</_>
        <_>
          6 21 1 1 2.</_></rects>
      <tilted>0</tilted></_>
    <_>
      <rects>
        <_>
          6 0 4 2 -1.</_>
        <_>
          6 1 4 1 2.</_></rects>
      <tilted>0</tilted></_>
    <_>
      <rects>
        <_>
          6 0 16 14 -1.</_>
        <_>
          6 7 16 7 2.</_></rects>
      <tilted>0</tilted></_>
    <_>
      <rects>
        <_>
          6 1 2 2 -1.</_>
        <_>
          6 2 2 1 2.</_></rects>
      <tilted>0</tilted></_>
    <_>
      <rects>
        <_>
          6 3 16 8 -1.</_>
        <_>
          6 3 8 4 2.</_>
        <_>
          14 7 8 4 2.</_></rects>
      <tilted>0</tilted></_>
    <_>
      <rects>
        <_>
          6 10 10 2 -1.</_>
        <_>
          6 10 5 1 2.</_>
        <_>
          11 11 5 1 2.</_></rects>
      <tilted>0</tilted></_>
    <_>
      <rects>
        <_>
          6 13 2 4 -1.</_>
        <_>
          6 13 1 2 2.</_>
        <_>
          7 15 1 2 2.</_></rects>
      <tilted>0</tilted></_>
    <_>
      <rects>
        <_>
          6 18 6 2 -1.</_>
        <_>
          6 18 3 1 2.</_>
        <_>
          9 19 3 1 2.</_></rects>
      <tilted>0</tilted></_>
    <_>
      <rects>
        <_>
          6 19 4 4 -1.</_>
        <_>
          6 19 2 2 2.</_>
        <_>
          8 21 2 2 2.</_></rects>
      <tilted>0</tilted></_>
    <_>
      <rects>
        <_>
          7 0 4 1 -1.</_>
        <_>
          9 0 2 1 2.</_></rects>
      <tilted>0</tilted></_>
    <_>
      <rects>
        <_>
          7 3 2 11 -1.</_>
        <_>
          8 3 1 11 2.</_></rects>
      <tilted>0</tilted></_>
    <_>
      <rects>
        <_>
          7 4 2 1 -1.</_>
        <_>
          8 4 1 1 2.</_></rects>
      <tilted>0</tilted></_>
    <_>
      <rects>
        <_>
          7 4 4 15 -1.</_>
        <_>
          9 4 2 15 2.</_></rects>
      <tilted>0</tilted></_>
    <_>
      <rects>
        <_>
          7 4 14 12 -1.</_>
        <_>
          7 4 7 6 2.</_>
        <_>
          14 10 7 6 2.</_></rects>
      <tilted>0</tilted></_>
    <_>
      <rects>
        <_>
          7 9 2 4 -1.</_>
        <_>
          7 9 1 2 2.</_>
        <_>
          8 11 1 2 2.</_></rects>
      <tilted>0</tilted></_>
    <_>
      <rects>
        <_>
          7 9 2 2 -1.</_>
        <_>
          7 10 2 1 2.</_></rects>
      <tilted>0</tilted></_>
    <_>
      <rects>
        <_>
          8 0 12 8 -1.</_>
        <_>
          8 0 6 4 2.</_>
        <_>
          14 4 6 4 2.</_></rects>
      <tilted>0</tilted></_>
    <_>
      <rects>
        <_>
          8 6 10 2 -1.</_>
        <_>
          8 6 5 1 2.</_>
        <_>
          13 7 5 1 2.</_></rects>
      <tilted>0</tilted></_>
    <_>
      <rects>
        <_>
          8 13 6 3 -1.</_>
        <_>
          8 14 6 1 2.</_></rects>
      <tilted>0</tilted></_>
    <_>
      <rects>
        <_>
          8 17 14 3 -1.</_>
        <_>
          15 17 7 3 2.</_></rects>
      <tilted>0</tilted></_>
    <_>
      <rects>
        <_>
          8 22 2 2 -1.</_>
        <_>
          8 22 1 1 2.</_>
        <_>
          9 23 1 1 2.</_></rects>
      <tilted>0</tilted></_>
    <_>
      <rects>
        <_>
          9 0 4 22 -1.</_>
        <_>
          11 0 2 22 2.</_></rects>
      <tilted>0</tilted></_>
    <_>
      <rects>
        <_>
          9 1 2 1 -1.</_>
        <_>
          10 1 1 1 2.</_></rects>
      <tilted>0</tilted></_>
    <_>
      <rects>
        <_>
          9 7 4 6 -1.</_>
        <_>
          9 9 4 2 2.</_></rects>
      <tilted>0</tilted></_>
    <_>
      <rects>
        <_>
          9 8 8 2 -1.</_>
        <_>
          9 8 4 1 2.</_>
        <_>
          13 9 4 1 2.</_></rects>
      <tilted>0</tilted></_>
    <_>
      <rects>
        <_>
          9 9 8 13 -1.</_>
        <_>
          13 9 4 13 2.</_></rects>
      <tilted>0</tilted></_>
    <_>
      <rects>
        <_>
          9 9 9 2 -1.</_>
        <_>
          9 10 9 1 2.</_></rects>
      <tilted>0</tilted></_>
    <_>
      <rects>
        <_>
          9 14 3 6 -1.</_>
        <_>
          9 17 3 3 2.</_></rects>
      <tilted>0</tilted></_>
    <_>
      <rects>
        <_>
          10 13 2 2 -1.</_>
        <_>
          10 13 1 1 2.</_>
        <_>
          11 14 1 1 2.</_></rects>
      <tilted>0</tilted></_>
    <_>
      <rects>
        <_>
          11 12 6 1 -1.</_>
        <_>
          14 12 3 1 2.</_></rects>
      <tilted>0</tilted></_>
    <_>
      <rects>
        <_>
          11 18 8 4 -1.</_>
        <_>
          15 18 4 4 2.</_></rects>
      <tilted>0</tilted></_>
    <_>
      <rects>
        <_>
          11 20 8 3 -1.</_>
        <_>
          15 20 4 3 2.</_></rects>
      <tilted>0</tilted></_>
    <_>
      <rects>
        <_>
          12 0 4 4 -1.</_>
        <_>
          12 0 2 2 2.</_>
        <_>
          14 2 2 2 2.</_></rects>
      <tilted>0</tilted></_>
    <_>
      <rects>
        <_>
          12 2 2 2 -1.</_>
        <_>
          12 2 1 1 2.</_>
        <_>
          13 3 1 1 2.</_></rects>
      <tilted>0</tilted></_>
    <_>
      <rects>
        <_>
          12 5 10 17 -1.</_>
        <_>
          17 5 5 17 2.</_></rects>
      <tilted>0</tilted></_>
    <_>
      <rects>
        <_>
          12 6 8 2 -1.</_>
        <_>
          12 7 8 1 2.</_></rects>
      <tilted>0</tilted></_>
    <_>
      <rects>
        <_>
          12 14 7 9 -1.</_>
        <_>
          12 17 7 3 2.</_></rects>
      <tilted>0</tilted></_>
    <_>
      <rects>
        <_>
          13 0 3 2 -1.</_>
        <_>
          13 1 3 1 2.</_></rects>
      <tilted>0</tilted></_>
    <_>
      <rects>
        <_>
          13 1 4 2 -1.</_>
        <_>
          13 1 2 1 2.</_>
        <_>
          15 2 2 1 2.</_></rects>
      <tilted>0</tilted></_>
    <_>
      <rects>
        <_>
          13 5 10 7 -1.</_>
        <_>
          18 5 5 7 2.</_></rects>
      <tilted>0</tilted></_>
    <_>
      <rects>
        <_>
          13 10 3 2 -1.</_>
        <_>
          13 11 3 1 2.</_></rects>
      <tilted>0</tilted></_>
    <_>
      <rects>
        <_>
          13 14 8 4 -1.</_>
        <_>
          13 14 4 2 2.</_>
        <_>
          17 16 4 2 2.</_></rects>
      <tilted>0</tilted></_>
    <_>
      <rects>
        <_>
          14 2 4 19 -1.</_>
        <_>
          16 2 2 19 2.</_></rects>
      <tilted>0</tilted></_>
    <_>
      <rects>
        <_>
          14 3 10 21 -1.</_>
        <_>
          19 3 5 21 2.</_></rects>
      <tilted>0</tilted></_>
    <_>
      <rects>
        <_>
          14 12 6 3 -1.</_>
        <_>
          16 12 2 3 2.</_></rects>
      <tilted>0</tilted></_>
    <_>
      <rects>
        <_>
          14 18 10 3 -1.</_>
        <_>
          14 19 10 1 2.</_></rects>
      <tilted>0</tilted></_>
    <_>
      <rects>
        <_>
          15 6 2 2 -1.</_>
        <_>
          15 6 1 1 2.</_>
        <_>
          16 7 1 1 2.</_></rects>
      <tilted>0</tilted></_>
    <_>
      <rects>
        <_>
          15 9 2 8 -1.</_>
        <_>
          15 9 1 4 2.</_>
        <_>
          16 13 1 4 2.</_></rects>
      <tilted>0</tilted></_>
    <_>
      <rects>
        <_>
          15 10 5 9 -1.</_>
        <_>
          15 13 5 3 2.</_></rects>
      <tilted>0</tilted></_>
    <_>
      <rects>
        <_>
          15 16 6 5 -1.</_>
        <_>
          17 16 2 5 2.</_></rects>
      <tilted>0</tilted></_>
    <_>
      <rects>
        <_>
          16 2 2 1 -1.</_>
        <_>
          17 2 1 1 2.</_></rects>
      <tilted>0</tilted></_>
    <_>
      <rects>
        <_>
          16 9 6 10 -1.</_>
        <_>
          19 9 3 10 2.</_></rects>
      <tilted>0</tilted></_>
    <_>
      <rects>
        <_>
          17 2 4 12 -1.</_>
        <_>
          17 2 2 6 2.</_>
        <_>
          19 8 2 6 2.</_></rects>
      <tilted>0</tilted></_>
    <_>
      <rects>
        <_>
          17 4 2 5 -1.</_>
        <_>
          18 4 1 5 2.</_></rects>
      <tilted>0</tilted></_>
    <_>
      <rects>
        <_>
          17 5 4 10 -1.</_>
        <_>
          17 5 2 5 2.</_>
        <_>
          19 10 2 5 2.</_></rects>
      <tilted>0</tilted></_>
    <_>
      <rects>
        <_>
          17 6 6 2 -1.</_>
        <_>
          17 6 3 1 2.</_>
        <_>
          20 7 3 1 2.</_></rects>
      <tilted>0</tilted></_>
    <_>
      <rects>
        <_>
          18 16 4 6 -1.</_>
        <_>
          18 16 2 3 2.</_>
        <_>
          20 19 2 3 2.</_></rects>
      <tilted>0</tilted></_>
    <_>
      <rects>
        <_>
          18 21 2 2 -1.</_>
        <_>
          18 21 1 1 2.</_>
        <_>
          19 22 1 1 2.</_></rects>
      <tilted>0</tilted></_>
    <_>
      <rects>
        <_>
          18 21 6 1 -1.</_>
        <_>
          20 21 2 1 2.</_></rects>
      <tilted>0</tilted></_>
    <_>
      <rects>
        <_>
          18 21 2 3 -1.</_>
        <_>
          18 22 2 1 2.</_></rects>
      <tilted>0</tilted></_>
    <_>
      <rects>
        <_>
          19 0 1 6 -1.</_>
        <_>
          19 3 1 3 2.</_></rects>
      <tilted>0</tilted></_>
    <_>
      <rects>
        <_>
          19 0 4 4 -1.</_>
        <_>
          21 0 2 4 2.</_></rects>
      <tilted>0</tilted></_>
    <_>
      <rects>
        <_>
          19 4 4 20 -1.</_>
        <_>
          21 4 2 20 2.</_></rects>
      <tilted>0</tilted></_>
    <_>
      <rects>
        <_>
          19 17 4 3 -1.</_>
        <_>
          21 17 2 3 2.</_></rects>
      <tilted>0</tilted></_>
    <_>
      <rects>
        <_>
          19 20 2 4 -1.</_>
        <_>
          20 20 1 4 2.</_></rects>
      <tilted>0</tilted></_>
    <_>
      <rects>
        <_>
          20 2 4 21 -1.</_>
        <_>
          22 2 2 21 2.</_></rects>
      <tilted>0</tilted></_>
    <_>
      <rects>
        <_>
          20 3 4 21 -1.</_>
        <_>
          22 3 2 21 2.</_></rects>
      <tilted>0</tilted></_>
    <_>
      <rects>
        <_>
          20 5 4 19 -1.</_>
        <_>
          22 5 2 19 2.</_></rects>
      <tilted>0</tilted></_>
    <_>
      <rects>
        <_>
          20 12 2 2 -1.</_>
        <_>
          20 12 1 1 2.</_>
        <_>
          21 13 1 1 2.</_></rects>
      <tilted>0</tilted></_>
    <_>
      <rects>
        <_>
          20 12 4 4 -1.</_>
        <_>
          20 12 2 2 2.</_>
        <_>
          22 14 2 2 2.</_></rects>
      <tilted>0</tilted></_>
    <_>
      <rects>
        <_>
          20 19 2 2 -1.</_>
        <_>
          20 19 1 1 2.</_>
        <_>
          21 20 1 1 2.</_></rects>
      <tilted>0</tilted></_>
    <_>
      <rects>
        <_>
          21 3 1 2 -1.</_>
        <_>
          21 4 1 1 2.</_></rects>
      <tilted>0</tilted></_>
    <_>
      <rects>
        <_>
          21 8 3 3 -1.</_>
        <_>
          22 8 1 3 2.</_></rects>
      <tilted>0</tilted></_>
    <_>
      <rects>
        <_>
          22 0 2 6 -1.</_>
        <_>
          22 3 2 3 2.</_></rects>
      <tilted>0</tilted></_>
    <_>
      <rects>
        <_>
          22 9 2 9 -1.</_>
        <_>
          23 9 1 9 2.</_></rects>
      <tilted>0</tilted></_>
    <_>
      <rects>
        <_>
          22 9 2 15 -1.</_>
        <_>
          23 9 1 15 2.</_></rects>
      <tilted>0</tilted></_></features></cascade>
</opencv_storage>
