<?xml version="1.0"?>
<opencv_storage>
<cascade>
  <stageType>BOOST</stageType>
  <featureType>HAAR</featureType>
  <height>24</height>
  <width>24</width>
  <stageParams>
    <boostType>GAB</boostType>
    <minHitRate>9.9999898672103882e-01</minHitRate>
    <maxFalseAlarm>1.0000000149011612e-01</maxFalseAlarm>
    <weightTrimRate>9.4999999999999996e-01</weightTrimRate>
    <maxDepth>1</maxDepth>
    <maxWeakCount>100</maxWeakCount></stageParams>
  <featureParams>
    <maxCatCount>0</maxCatCount>
    <featSize>1</featSize>
    <mode>BASIC</mode></featureParams>
  <stageNum>15</stageNum>
  <stages>
    <!-- stage 0 -->
    <_>
      <maxWeakCount>7</maxWeakCount>
      <stageThreshold>3.3393037319183350e-01</stageThreshold>
      <weakClassifiers>
        <_>
          <internalNodes>
            0 -1 101 -3.0570315197110176e-02</internalNodes>
          <leafValues>
            9.5555555820465088e-01 -4.0000000596046448e-01</leafValues></_>
        <_>
          <internalNodes>
            0 -1 33 4.9908377230167389e-02</internalNodes>
          <leafValues>
            -2.7258539199829102e-01 8.8934057950973511e-01</leafValues></_>
        <_>
          <internalNodes>
            0 -1 134 -2.6617955416440964e-02</internalNodes>
          <leafValues>
            9.1600567102432251e-01 -3.9455908536911011e-01</leafValues></_>
        <_>
          <internalNodes>
            0 -1 158 7.8179792035371065e-04</internalNodes>
          <leafValues>
            5.8839517831802368e-01 -8.4519618749618530e-01</leafValues></_>
        <_>
          <internalNodes>
            0 -1 119 -2.9231581836938858e-02</internalNodes>
          <leafValues>
            7.6584482192993164e-01 -5.2540004253387451e-01</leafValues></_>
        <_>
          <internalNodes>
            0 -1 1 2.5108356028795242e-02</internalNodes>
          <leafValues>
            -4.7575795650482178e-01 9.1763663291931152e-01</leafValues></_>
        <_>
          <internalNodes>
            0 -1 21 -1.5865843743085861e-03</internalNodes>
          <leafValues>
            -7.3615503311157227e-01 6.5191161632537842e-01</leafValues></_></weakClassifiers></_>
    <!-- stage 1 -->
    <_>
      <maxWeakCount>7</maxWeakCount>
      <stageThreshold>-2.3249530792236328e-01</stageThreshold>
      <weakClassifiers>
        <_>
          <internalNodes>
            0 -1 94 -2.0118486881256104e-01</internalNodes>
          <leafValues>
            9.7500002384185791e-01 -1.5999999642372131e-01</leafValues></_>
        <_>
          <internalNodes>
            0 -1 46 1.2116022408008575e-03</internalNodes>
          <leafValues>
            5.8810126781463623e-01 -8.0073136091232300e-01</leafValues></_>
        <_>
          <internalNodes>
            0 -1 41 -5.5631525814533234e-02</internalNodes>
          <leafValues>
            9.3032872676849365e-01 -4.4483041763305664e-01</leafValues></_>
        <_>
          <internalNodes>
            0 -1 12 5.5472478270530701e-03</internalNodes>
          <leafValues>
            -6.6775727272033691e-01 5.9692531824111938e-01</leafValues></_>
        <_>
          <internalNodes>
            0 -1 112 4.3762600398622453e-04</internalNodes>
          <leafValues>
            4.8285037279129028e-01 -7.7900284528732300e-01</leafValues></_>
        <_>
          <internalNodes>
            0 -1 5 1.6631747782230377e-01</internalNodes>
          <leafValues>
            -4.5454975962638855e-01 9.6834093332290649e-01</leafValues></_>
        <_>
          <internalNodes>
            0 -1 111 3.2088735606521368e-03</internalNodes>
          <leafValues>
            4.2369046807289124e-01 -9.5206469297409058e-01</leafValues></_></weakClassifiers></_>
    <!-- stage 2 -->
    <_>
      <maxWeakCount>8</maxWeakCount>
      <stageThreshold>7.6865546405315399e-02</stageThreshold>
      <weakClassifiers>
        <_>
          <internalNodes>
            0 -1 121 1.1801081709563732e-03</internalNodes>
          <leafValues>
            7.2972971200942993e-01 -5.7894736528396606e-01</leafValues></_>
        <_>
          <internalNodes>
            0 -1 45 -4.3297067284584045e-01</internalNodes>
          <leafValues>
            9.1639220714569092e-01 -4.3578663468360901e-01</leafValues></_>
        <_>
          <internalNodes>
            0 -1 52 2.9182560741901398e-02</internalNodes>
          <leafValues>
            -4.7436147928237915e-01 7.9221546649932861e-01</leafValues></_>
        <_>
          <internalNodes>
            0 -1 47 -1.7800942296162248e-03</internalNodes>
          <leafValues>
            -7.5412851572036743e-01 4.7795438766479492e-01</leafValues></_>
        <_>
          <internalNodes>
            0 -1 125 8.5046840831637383e-04</internalNodes>
          <leafValues>
            4.0173014998435974e-01 -7.1591335535049438e-01</leafValues></_>
        <_>
          <internalNodes>
            0 -1 128 -3.8472697138786316e-02</internalNodes>
          <leafValues>
            7.0977646112442017e-01 -5.0104069709777832e-01</leafValues></_>
        <_>
          <internalNodes>
            0 -1 51 -1.5369288157671690e-03</internalNodes>
          <leafValues>
            -9.6435296535491943e-01 3.4510689973831177e-01</leafValues></_>
        <_>
          <internalNodes>
            0 -1 118 -1.6745227575302124e-01</internalNodes>
          <leafValues>
            1. -3.6782410740852356e-01</leafValues></_></weakClassifiers></_>
    <!-- stage 3 -->
    <_>
      <maxWeakCount>8</maxWeakCount>
      <stageThreshold>-6.1547435820102692e-02</stageThreshold>
      <weakClassifiers>
        <_>
          <internalNodes>
            0 -1 7 -1.3219345128163695e-03</internalNodes>
          <leafValues>
            -2.0000000298023224e-01 7.8461539745330811e-01</leafValues></_>
        <_>
          <internalNodes>
            0 -1 58 -3.7730664014816284e-01</internalNodes>
          <leafValues>
            8.4829705953598022e-01 -3.8979190587997437e-01</leafValues></_>
        <_>
          <internalNodes>
            0 -1 156 1.0337819112464786e-03</internalNodes>
          <leafValues>
            3.7943586707115173e-01 -8.3800452947616577e-01</leafValues></_>
        <_>
          <internalNodes>
            0 -1 132 -1.2057686690241098e-03</internalNodes>
          <leafValues>
            -8.3679592609405518e-01 3.1210568547248840e-01</leafValues></_>
        <_>
          <internalNodes>
            0 -1 6 -4.5945477904751897e-04</internalNodes>
          <leafValues>
            -6.0791015625000000e-01 4.7815936803817749e-01</leafValues></_>
        <_>
          <internalNodes>
            0 -1 95 -4.6654716134071350e-02</internalNodes>
          <leafValues>
            1. -3.0288341641426086e-01</leafValues></_>
        <_>
          <internalNodes>
            0 -1 39 -6.2392069958150387e-04</internalNodes>
          <leafValues>
            -8.4957253932952881e-01 4.1960451006889343e-01</leafValues></_>
        <_>
          <internalNodes>
            0 -1 161 8.6759997066110373e-04</internalNodes>
          <leafValues>
            3.2789197564125061e-01 -7.9749333858489990e-01</leafValues></_></weakClassifiers></_>
    <!-- stage 4 -->
    <_>
      <maxWeakCount>10</maxWeakCount>
      <stageThreshold>2.6573801040649414e-01</stageThreshold>
      <weakClassifiers>
        <_>
          <internalNodes>
            0 -1 89 -1.2632075697183609e-02</internalNodes>
          <leafValues>
            8.1318682432174683e-01 -1.0256410390138626e-01</leafValues></_>
        <_>
          <internalNodes>
            0 -1 72 3.4313879907131195e-02</internalNodes>
          <leafValues>
            -1.1496258527040482e-01 9.6550732851028442e-01</leafValues></_>
        <_>
          <internalNodes>
            0 -1 73 -1.0852315276861191e-01</internalNodes>
          <leafValues>
            9.0474522113800049e-01 -1.8202055990695953e-01</leafValues></_>
        <_>
          <internalNodes>
            0 -1 151 1.9159861840307713e-03</internalNodes>
          <leafValues>
            3.3645203709602356e-01 -9.0466380119323730e-01</leafValues></_>
        <_>
          <internalNodes>
            0 -1 160 1.3292103540152311e-03</internalNodes>
          <leafValues>
            2.6594379544258118e-01 -7.7928602695465088e-01</leafValues></_>
        <_>
          <internalNodes>
            0 -1 36 -2.2447675466537476e-02</internalNodes>
          <leafValues>
            7.2584754228591919e-01 -3.4863415360450745e-01</leafValues></_>
        <_>
          <internalNodes>
            0 -1 88 6.4934592228382826e-04</internalNodes>
          <leafValues>
            3.1802287697792053e-01 -7.5574356317520142e-01</leafValues></_>
        <_>
          <internalNodes>
            0 -1 85 3.9133228361606598e-02</internalNodes>
          <leafValues>
            -4.1653817892074585e-01 6.6978466510772705e-01</leafValues></_>
        <_>
          <internalNodes>
            0 -1 153 7.5191777432337403e-04</internalNodes>
          <leafValues>
            3.2203841209411621e-01 -9.1066855192184448e-01</leafValues></_>
        <_>
          <internalNodes>
            0 -1 87 -7.2687268257141113e-02</internalNodes>
          <leafValues>
            3.1983318924903870e-01 -7.2775048017501831e-01</leafValues></_></weakClassifiers></_>
    <!-- stage 5 -->
    <_>
      <maxWeakCount>10</maxWeakCount>
      <stageThreshold>-1.0935126990079880e-01</stageThreshold>
      <weakClassifiers>
        <_>
          <internalNodes>
            0 -1 107 -3.3132033422589302e-03</internalNodes>
          <leafValues>
            -5.8620691299438477e-01 6.7965370416641235e-01</leafValues></_>
        <_>
          <internalNodes>
            0 -1 133 7.6362467370927334e-04</internalNodes>
          <leafValues>
            4.1776433587074280e-01 -7.2181797027587891e-01</leafValues></_>
        <_>
          <internalNodes>
            0 -1 129 -5.7709566317498684e-04</internalNodes>
          <leafValues>
            -5.7254266738891602e-01 5.2085554599761963e-01</leafValues></_>
        <_>
          <internalNodes>
            0 -1 22 -1.0813437402248383e-03</internalNodes>
          <leafValues>
            -6.6501206159591675e-01 3.9820235967636108e-01</leafValues></_>
        <_>
          <internalNodes>
            0 -1 20 -6.5472885034978390e-04</internalNodes>
          <leafValues>
            -7.4996334314346313e-01 3.2583501935005188e-01</leafValues></_>
        <_>
          <internalNodes>
            0 -1 114 -2.1184168290346861e-03</internalNodes>
          <leafValues>
            -8.9508199691772461e-01 2.4127608537673950e-01</leafValues></_>
        <_>
          <internalNodes>
            0 -1 56 -4.8433511983603239e-04</internalNodes>
          <leafValues>
            -5.7413917779922485e-01 3.8741338253021240e-01</leafValues></_>
        <_>
          <internalNodes>
            0 -1 159 4.8930692719295621e-04</internalNodes>
          <leafValues>
            3.7410244345664978e-01 -6.0447412729263306e-01</leafValues></_>
        <_>
          <internalNodes>
            0 -1 115 -4.7637871466577053e-04</internalNodes>
          <leafValues>
            -7.2199130058288574e-01 3.4625855088233948e-01</leafValues></_>
        <_>
          <internalNodes>
            0 -1 157 7.8147940803319216e-04</internalNodes>
          <leafValues>
            3.7239703536033630e-01 -7.0201504230499268e-01</leafValues></_></weakClassifiers></_>
    <!-- stage 6 -->
    <_>
      <maxWeakCount>11</maxWeakCount>
      <stageThreshold>-7.3312252759933472e-02</stageThreshold>
      <weakClassifiers>
        <_>
          <internalNodes>
            0 -1 77 -2.1825663745403290e-02</internalNodes>
          <leafValues>
            7.8609627485275269e-01 -9.5890410244464874e-02</leafValues></_>
        <_>
          <internalNodes>
            0 -1 105 -3.7713977508246899e-04</internalNodes>
          <leafValues>
            -4.5430225133895874e-01 5.2370351552963257e-01</leafValues></_>
        <_>
          <internalNodes>
            0 -1 110 -8.0996923148632050e-02</internalNodes>
          <leafValues>
            8.1069207191467285e-01 -2.6056617498397827e-01</leafValues></_>
        <_>
          <internalNodes>
            0 -1 11 1.8938304856419563e-03</internalNodes>
          <leafValues>
            -4.2933189868927002e-01 5.4677039384841919e-01</leafValues></_>
        <_>
          <internalNodes>
            0 -1 37 -7.3875207453966141e-04</internalNodes>
          <leafValues>
            -7.1002745628356934e-01 3.0571448802947998e-01</leafValues></_>
        <_>
          <internalNodes>
            0 -1 96 -6.9860438816249371e-04</internalNodes>
          <leafValues>
            -5.2669179439544678e-01 4.5228222012519836e-01</leafValues></_>
        <_>
          <internalNodes>
            0 -1 32 1.3789868354797363e-01</internalNodes>
          <leafValues>
            -3.1823730468750000e-01 6.9920974969863892e-01</leafValues></_>
        <_>
          <internalNodes>
            0 -1 103 -3.1603404786437750e-03</internalNodes>
          <leafValues>
            -9.0951824188232422e-01 2.8999000787734985e-01</leafValues></_>
        <_>
          <internalNodes>
            0 -1 54 -6.8780571222305298e-02</internalNodes>
          <leafValues>
            8.3633965253829956e-01 -3.3243659138679504e-01</leafValues></_>
        <_>
          <internalNodes>
            0 -1 30 7.2239609435200691e-03</internalNodes>
          <leafValues>
            3.6019298434257507e-01 -7.7810883522033691e-01</leafValues></_>
        <_>
          <internalNodes>
            0 -1 9 2.2987496049609035e-04</internalNodes>
          <leafValues>
            4.1024088859558105e-01 -6.3216555118560791e-01</leafValues></_></weakClassifiers></_>
    <!-- stage 7 -->
    <_>
      <maxWeakCount>12</maxWeakCount>
      <stageThreshold>5.1103115081787109e-01</stageThreshold>
      <weakClassifiers>
        <_>
          <internalNodes>
            0 -1 123 -9.3051395379006863e-04</internalNodes>
          <leafValues>
            -1.9354838132858276e-01 7.6767677068710327e-01</leafValues></_>
        <_>
          <internalNodes>
            0 -1 131 9.5298439264297485e-03</internalNodes>
          <leafValues>
            3.5925081372261047e-01 -8.2353430986404419e-01</leafValues></_>
        <_>
          <internalNodes>
            0 -1 57 -1.7621149308979511e-03</internalNodes>
          <leafValues>
            -5.0054216384887695e-01 4.3523600697517395e-01</leafValues></_>
        <_>
          <internalNodes>
            0 -1 127 -4.9013178795576096e-03</internalNodes>
          <leafValues>
            5.4512333869934082e-01 -3.9596343040466309e-01</leafValues></_>
        <_>
          <internalNodes>
            0 -1 145 -8.0406107008457184e-04</internalNodes>
          <leafValues>
            -5.2341973781585693e-01 3.9463520050048828e-01</leafValues></_>
        <_>
          <internalNodes>
            0 -1 93 4.1982866241596639e-04</internalNodes>
          <leafValues>
            -4.2997208237648010e-01 5.1746803522109985e-01</leafValues></_>
        <_>
          <internalNodes>
            0 -1 91 1.6329560894519091e-03</internalNodes>
          <leafValues>
            3.4585329890251160e-01 -6.8791884183883667e-01</leafValues></_>
        <_>
          <internalNodes>
            0 -1 139 -1.7163209617137909e-02</internalNodes>
          <leafValues>
            -8.4518551826477051e-01 2.4926237761974335e-01</leafValues></_>
        <_>
          <internalNodes>
            0 -1 163 3.4126621903851628e-04</internalNodes>
          <leafValues>
            3.8357645273208618e-01 -5.4514247179031372e-01</leafValues></_>
        <_>
          <internalNodes>
            0 -1 126 -2.7758266776800156e-02</internalNodes>
          <leafValues>
            5.8085799217224121e-01 -3.8248467445373535e-01</leafValues></_>
        <_>
          <internalNodes>
            0 -1 155 -2.3487571161240339e-04</internalNodes>
          <leafValues>
            -6.4857560396194458e-01 3.6927986145019531e-01</leafValues></_>
        <_>
          <internalNodes>
            0 -1 13 1.5092439018189907e-02</internalNodes>
          <leafValues>
            -5.7671082019805908e-01 4.7333928942680359e-01</leafValues></_></weakClassifiers></_>
    <!-- stage 8 -->
    <_>
      <maxWeakCount>11</maxWeakCount>
      <stageThreshold>4.2147514224052429e-01</stageThreshold>
      <weakClassifiers>
        <_>
          <internalNodes>
            0 -1 66 -7.5556598603725433e-03</internalNodes>
          <leafValues>
            -5.6521737575531006e-01 6.4556962251663208e-01</leafValues></_>
        <_>
          <internalNodes>
            0 -1 78 -1.2427255511283875e-01</internalNodes>
          <leafValues>
            6.8334954977035522e-01 -2.5562265515327454e-01</leafValues></_>
        <_>
          <internalNodes>
            0 -1 3 3.1210035085678101e-03</internalNodes>
          <leafValues>
            -5.4668658971786499e-01 3.9732450246810913e-01</leafValues></_>
        <_>
          <internalNodes>
            0 -1 29 -6.4268442802131176e-03</internalNodes>
          <leafValues>
            -7.6497882604598999e-01 2.7498242259025574e-01</leafValues></_>
        <_>
          <internalNodes>
            0 -1 144 -9.1484058648347855e-03</internalNodes>
          <leafValues>
            3.5728555917739868e-01 -5.1317608356475830e-01</leafValues></_>
        <_>
          <internalNodes>
            0 -1 130 4.0247722063213587e-04</internalNodes>
          <leafValues>
            2.4400807917118073e-01 -6.8826591968536377e-01</leafValues></_>
        <_>
          <internalNodes>
            0 -1 154 -4.1738990694284439e-03</internalNodes>
          <leafValues>
            -5.9888213872909546e-01 3.1491240859031677e-01</leafValues></_>
        <_>
          <internalNodes>
            0 -1 116 -1.6226854175329208e-02</internalNodes>
          <leafValues>
            -4.0079069137573242e-01 5.8919739723205566e-01</leafValues></_>
        <_>
          <internalNodes>
            0 -1 68 -5.7128127664327621e-03</internalNodes>
          <leafValues>
            -6.5135878324508667e-01 3.2717803120613098e-01</leafValues></_>
        <_>
          <internalNodes>
            0 -1 42 -3.1919046305119991e-03</internalNodes>
          <leafValues>
            4.0713191032409668e-01 -5.2279180288314819e-01</leafValues></_>
        <_>
          <internalNodes>
            0 -1 120 8.8958404958248138e-03</internalNodes>
          <leafValues>
            2.9881975054740906e-01 -6.8815338611602783e-01</leafValues></_></weakClassifiers></_>
    <!-- stage 9 -->
    <_>
      <maxWeakCount>11</maxWeakCount>
      <stageThreshold>-4.6384543180465698e-02</stageThreshold>
      <weakClassifiers>
        <_>
          <internalNodes>
            0 -1 124 7.4630794115364552e-03</internalNodes>
          <leafValues>
            7.2164945304393768e-02 8.1595093011856079e-01</leafValues></_>
        <_>
          <internalNodes>
            0 -1 80 -9.8347499966621399e-02</internalNodes>
          <leafValues>
            7.2092896699905396e-01 -2.7239492535591125e-01</leafValues></_>
        <_>
          <internalNodes>
            0 -1 4 2.0590105559676886e-03</internalNodes>
          <leafValues>
            -4.1473081707954407e-01 6.1937081813812256e-01</leafValues></_>
        <_>
          <internalNodes>
            0 -1 53 9.5969345420598984e-03</internalNodes>
          <leafValues>
            2.6419043540954590e-01 -7.7075386047363281e-01</leafValues></_>
        <_>
          <internalNodes>
            0 -1 109 -7.9410336911678314e-03</internalNodes>
          <leafValues>
            -7.8205865621566772e-01 1.9237716495990753e-01</leafValues></_>
        <_>
          <internalNodes>
            0 -1 147 -1.6860619187355042e-02</internalNodes>
          <leafValues>
            4.6672987937927246e-01 -4.3599334359169006e-01</leafValues></_>
        <_>
          <internalNodes>
            0 -1 60 2.1694637835025787e-03</internalNodes>
          <leafValues>
            3.4133583307266235e-01 -6.0191768407821655e-01</leafValues></_>
        <_>
          <internalNodes>
            0 -1 106 -7.6843854039907455e-03</internalNodes>
          <leafValues>
            -6.9320631027221680e-01 2.3609030246734619e-01</leafValues></_>
        <_>
          <internalNodes>
            0 -1 108 -2.1054875105619431e-03</internalNodes>
          <leafValues>
            -7.0476293563842773e-01 2.5626832246780396e-01</leafValues></_>
        <_>
          <internalNodes>
            0 -1 27 -1.3098370982334018e-03</internalNodes>
          <leafValues>
            -6.5603876113891602e-01 2.1152266860008240e-01</leafValues></_>
        <_>
          <internalNodes>
            0 -1 38 -1.1255836114287376e-02</internalNodes>
          <leafValues>
            -5.4371219873428345e-01 3.8254892826080322e-01</leafValues></_></weakClassifiers></_>
    <!-- stage 10 -->
    <_>
      <maxWeakCount>15</maxWeakCount>
      <stageThreshold>-1.5679389238357544e-01</stageThreshold>
      <weakClassifiers>
        <_>
          <internalNodes>
            0 -1 83 1.4478544890880585e-01</internalNodes>
          <leafValues>
            6.0000002384185791e-01 -1.</leafValues></_>
        <_>
          <internalNodes>
            0 -1 23 -3.3752596937119961e-03</internalNodes>
          <leafValues>
            6.0391247272491455e-01 -2.6554259657859802e-01</leafValues></_>
        <_>
          <internalNodes>
            0 -1 55 9.9567975848913193e-04</internalNodes>
          <leafValues>
            -3.0627542734146118e-01 5.3165394067764282e-01</leafValues></_>
        <_>
          <internalNodes>
            0 -1 63 -3.3483310835435987e-04</internalNodes>
          <leafValues>
            -4.0000259876251221e-01 4.2199903726577759e-01</leafValues></_>
        <_>
          <internalNodes>
            0 -1 50 -3.3354100584983826e-01</internalNodes>
          <leafValues>
            7.9926353693008423e-01 -2.3572954535484314e-01</leafValues></_>
        <_>
          <internalNodes>
            0 -1 65 -1.3559400103986263e-03</internalNodes>
          <leafValues>
            5.9549391269683838e-01 -2.3370142281055450e-01</leafValues></_>
        <_>
          <internalNodes>
            0 -1 102 -4.0544597432017326e-03</internalNodes>
          <leafValues>
            -6.0354453325271606e-01 3.2064315676689148e-01</leafValues></_>
        <_>
          <internalNodes>
            0 -1 137 5.2862800657749176e-04</internalNodes>
          <leafValues>
            4.0364819765090942e-01 -4.6471092104911804e-01</leafValues></_>
        <_>
          <internalNodes>
            0 -1 40 -2.0462027192115784e-01</internalNodes>
          <leafValues>
            7.8437590599060059e-01 -2.3069761693477631e-01</leafValues></_>
        <_>
          <internalNodes>
            0 -1 61 -1.6125705093145370e-02</internalNodes>
          <leafValues>
            -5.4742014408111572e-01 3.6122384667396545e-01</leafValues></_>
        <_>
          <internalNodes>
            0 -1 26 8.1143155694007874e-04</internalNodes>
          <leafValues>
            -4.5281085371971130e-01 4.0118584036827087e-01</leafValues></_>
        <_>
          <internalNodes>
            0 -1 143 3.6312470911070704e-05</internalNodes>
          <leafValues>
            3.2335126399993896e-01 -6.2891155481338501e-01</leafValues></_>
        <_>
          <internalNodes>
            0 -1 25 -1.3606540858745575e-02</internalNodes>
          <leafValues>
            -8.4681355953216553e-01 1.9233757257461548e-01</leafValues></_>
        <_>
          <internalNodes>
            0 -1 104 2.2933786385692656e-04</internalNodes>
          <leafValues>
            -2.7412271499633789e-01 7.1913552284240723e-01</leafValues></_>
        <_>
          <internalNodes>
            0 -1 92 -1.1865220963954926e-01</internalNodes>
          <leafValues>
            6.8474858999252319e-01 -2.3217867314815521e-01</leafValues></_></weakClassifiers></_>
    <!-- stage 11 -->
    <_>
      <maxWeakCount>11</maxWeakCount>
      <stageThreshold>1.7501176893711090e-01</stageThreshold>
      <weakClassifiers>
        <_>
          <internalNodes>
            0 -1 75 -2.5308553129434586e-02</internalNodes>
          <leafValues>
            -4.3999999761581421e-01 6.4255321025848389e-01</leafValues></_>
        <_>
          <internalNodes>
            0 -1 44 5.8250043541193008e-02</internalNodes>
          <leafValues>
            -1.4923185110092163e-01 9.4509476423263550e-01</leafValues></_>
        <_>
          <internalNodes>
            0 -1 0 3.3189679961651564e-03</internalNodes>
          <leafValues>
            -2.3621574044227600e-01 6.0435348749160767e-01</leafValues></_>
        <_>
          <internalNodes>
            0 -1 34 -1.1543862055987120e-03</internalNodes>
          <leafValues>
            5.3482836484909058e-01 -3.3971220254898071e-01</leafValues></_>
        <_>
          <internalNodes>
            0 -1 90 -1.3635425129905343e-03</internalNodes>
          <leafValues>
            -4.8812398314476013e-01 4.0887466073036194e-01</leafValues></_>
        <_>
          <internalNodes>
            0 -1 31 -3.7137870676815510e-03</internalNodes>
          <leafValues>
            -7.3684531450271606e-01 2.4102790653705597e-01</leafValues></_>
        <_>
          <internalNodes>
            0 -1 138 1.1599306948482990e-02</internalNodes>
          <leafValues>
            3.5146671533584595e-01 -5.1459103822708130e-01</leafValues></_>
        <_>
          <internalNodes>
            0 -1 97 5.5781548144295812e-04</internalNodes>
          <leafValues>
            -2.1161882579326630e-01 8.5824471712112427e-01</leafValues></_>
        <_>
          <internalNodes>
            0 -1 64 1.0806797072291374e-02</internalNodes>
          <leafValues>
            3.6152103543281555e-01 -5.2354884147644043e-01</leafValues></_>
        <_>
          <internalNodes>
            0 -1 150 4.4406168162822723e-03</internalNodes>
          <leafValues>
            2.7837416529655457e-01 -5.8270698785781860e-01</leafValues></_>
        <_>
          <internalNodes>
            0 -1 24 3.6326854024082422e-04</internalNodes>
          <leafValues>
            -2.4954012036323547e-01 6.8928325176239014e-01</leafValues></_></weakClassifiers></_>
    <!-- stage 12 -->
    <_>
      <maxWeakCount>13</maxWeakCount>
      <stageThreshold>5.8912720531225204e-02</stageThreshold>
      <weakClassifiers>
        <_>
          <internalNodes>
            0 -1 79 -7.4907064437866211e-02</internalNodes>
          <leafValues>
            8.1176471710205078e-01 2.2222222760319710e-02</leafValues></_>
        <_>
          <internalNodes>
            0 -1 59 -1.6194274940062314e-04</internalNodes>
          <leafValues>
            -2.3974084854125977e-01 6.4314550161361694e-01</leafValues></_>
        <_>
          <internalNodes>
            0 -1 19 -3.6421904223971069e-04</internalNodes>
          <leafValues>
            8.6041659116744995e-01 -1.6123355925083160e-01</leafValues></_>
        <_>
          <internalNodes>
            0 -1 62 -1.9989174325019121e-03</internalNodes>
          <leafValues>
            -5.3697031736373901e-01 3.2501414418220520e-01</leafValues></_>
        <_>
          <internalNodes>
            0 -1 76 -3.7747138738632202e-01</internalNodes>
          <leafValues>
            6.3729578256607056e-01 -3.3843982219696045e-01</leafValues></_>
        <_>
          <internalNodes>
            0 -1 71 -9.3194581568241119e-03</internalNodes>
          <leafValues>
            -2.8556481003761292e-01 7.5475239753723145e-01</leafValues></_>
        <_>
          <internalNodes>
            0 -1 136 -2.2459949832409620e-03</internalNodes>
          <leafValues>
            -4.4449287652969360e-01 4.6591958403587341e-01</leafValues></_>
        <_>
          <internalNodes>
            0 -1 86 -6.8188086152076721e-03</internalNodes>
          <leafValues>
            -5.1717478036880493e-01 3.8184875249862671e-01</leafValues></_>
        <_>
          <internalNodes>
            0 -1 164 -1.1247093789279461e-03</internalNodes>
          <leafValues>
            7.4300652742385864e-01 -2.5034138560295105e-01</leafValues></_>
        <_>
          <internalNodes>
            0 -1 28 2.8641005046665668e-03</internalNodes>
          <leafValues>
            4.0690255165100098e-01 -4.9250274896621704e-01</leafValues></_>
        <_>
          <internalNodes>
            0 -1 82 -7.8523007687181234e-04</internalNodes>
          <leafValues>
            -8.5316127538681030e-01 2.5824949145317078e-01</leafValues></_>
        <_>
          <internalNodes>
            0 -1 67 -4.0782980620861053e-02</internalNodes>
          <leafValues>
            5.8157432079315186e-01 -3.9358064532279968e-01</leafValues></_>
        <_>
          <internalNodes>
            0 -1 141 -6.2430091202259064e-02</internalNodes>
          <leafValues>
            -3.5293632745742798e-01 6.3715755939483643e-01</leafValues></_></weakClassifiers></_>
    <!-- stage 13 -->
    <_>
      <maxWeakCount>15</maxWeakCount>
      <stageThreshold>2.1625183522701263e-01</stageThreshold>
      <weakClassifiers>
        <_>
          <internalNodes>
            0 -1 14 4.3669536709785461e-02</internalNodes>
          <leafValues>
            6.6210043430328369e-01 -1.2195122241973877e-01</leafValues></_>
        <_>
          <internalNodes>
            0 -1 148 3.8923957617953420e-04</internalNodes>
          <leafValues>
            -2.1958808600902557e-01 5.7804924249649048e-01</leafValues></_>
        <_>
          <internalNodes>
            0 -1 152 -2.5051817297935486e-02</internalNodes>
          <leafValues>
            5.2419853210449219e-01 -2.6934397220611572e-01</leafValues></_>
        <_>
          <internalNodes>
            0 -1 146 -6.2160501256585121e-03</internalNodes>
          <leafValues>
            9.0852963924407959e-01 -1.4200539886951447e-01</leafValues></_>
        <_>
          <internalNodes>
            0 -1 43 1.8182161729782820e-03</internalNodes>
          <leafValues>
            3.2365792989730835e-01 -4.6797919273376465e-01</leafValues></_>
        <_>
          <internalNodes>
            0 -1 18 3.4610345028340816e-03</internalNodes>
          <leafValues>
            -2.0784610509872437e-01 7.3307806253433228e-01</leafValues></_>
        <_>
          <internalNodes>
            0 -1 142 6.2022260390222073e-03</internalNodes>
          <leafValues>
            2.1190886199474335e-01 -7.9054367542266846e-01</leafValues></_>
        <_>
          <internalNodes>
            0 -1 17 3.2163366675376892e-02</internalNodes>
          <leafValues>
            -3.8867703080177307e-01 4.5234692096710205e-01</leafValues></_>
        <_>
          <internalNodes>
            0 -1 99 -1.9533708691596985e-03</internalNodes>
          <leafValues>
            4.9630340933799744e-01 -3.2164478302001953e-01</leafValues></_>
        <_>
          <internalNodes>
            0 -1 48 3.8177494425326586e-03</internalNodes>
          <leafValues>
            2.8105044364929199e-01 -6.0965114831924438e-01</leafValues></_>
        <_>
          <internalNodes>
            0 -1 162 -3.4338259138166904e-04</internalNodes>
          <leafValues>
            4.6319288015365601e-01 -3.7542054057121277e-01</leafValues></_>
        <_>
          <internalNodes>
            0 -1 98 -2.1129767410457134e-03</internalNodes>
          <leafValues>
            -7.1077144145965576e-01 2.5140354037284851e-01</leafValues></_>
        <_>
          <internalNodes>
            0 -1 8 1.4580339193344116e-03</internalNodes>
          <leafValues>
            -4.6213263273239136e-01 3.3365660905838013e-01</leafValues></_>
        <_>
          <internalNodes>
            0 -1 15 -1.7316031153313816e-04</internalNodes>
          <leafValues>
            -3.7567922472953796e-01 4.4572788476943970e-01</leafValues></_>
        <_>
          <internalNodes>
            0 -1 140 1.2418424012139440e-04</internalNodes>
          <leafValues>
            -3.2102715969085693e-01 5.1645421981811523e-01</leafValues></_></weakClassifiers></_>
    <!-- stage 14 -->
    <_>
      <maxWeakCount>16</maxWeakCount>
      <stageThreshold>1.3805360533297062e-02</stageThreshold>
      <weakClassifiers>
        <_>
          <internalNodes>
            0 -1 10 2.5657027959823608e-01</internalNodes>
          <leafValues>
            6.0642570257186890e-01 -1.</leafValues></_>
        <_>
          <internalNodes>
            0 -1 117 -3.2565132714807987e-03</internalNodes>
          <leafValues>
            6.8267619609832764e-01 -2.1720993518829346e-01</leafValues></_>
        <_>
          <internalNodes>
            0 -1 113 -4.1181050240993500e-02</internalNodes>
          <leafValues>
            4.3854317069053650e-01 -3.4185189008712769e-01</leafValues></_>
        <_>
          <internalNodes>
            0 -1 122 6.8630406167358160e-04</internalNodes>
          <leafValues>
            2.7504244446754456e-01 -5.2851331233978271e-01</leafValues></_>
        <_>
          <internalNodes>
            0 -1 16 -3.6199379246681929e-04</internalNodes>
          <leafValues>
            -4.9339464306831360e-01 3.4576472640037537e-01</leafValues></_>
        <_>
          <internalNodes>
            0 -1 135 -1.4178780838847160e-03</internalNodes>
          <leafValues>
            -5.7815074920654297e-01 2.9115280508995056e-01</leafValues></_>
        <_>
          <internalNodes>
            0 -1 49 -1.7192700397572480e-05</internalNodes>
          <leafValues>
            5.3691864013671875e-01 -3.2470130920410156e-01</leafValues></_>
        <_>
          <internalNodes>
            0 -1 81 -5.9062696527689695e-04</internalNodes>
          <leafValues>
            -4.5842176675796509e-01 3.5292342305183411e-01</leafValues></_>
        <_>
          <internalNodes>
            0 -1 149 -8.7063679529819638e-05</internalNodes>
          <leafValues>
            4.3765896558761597e-01 -3.6896079778671265e-01</leafValues></_>
        <_>
          <internalNodes>
            0 -1 35 3.4708768362179399e-04</internalNodes>
          <leafValues>
            -2.1723568439483643e-01 8.2136631011962891e-01</leafValues></_>
        <_>
          <internalNodes>
            0 -1 2 3.6853425204753876e-02</internalNodes>
          <leafValues>
            -1.7987452447414398e-01 8.1656014919281006e-01</leafValues></_>
        <_>
          <internalNodes>
            0 -1 100 6.6521455300971866e-04</internalNodes>
          <leafValues>
            -4.5523691177368164e-01 4.5289316773414612e-01</leafValues></_>
        <_>
          <internalNodes>
            0 -1 74 8.9569475676398724e-05</internalNodes>
          <leafValues>
            4.5598450303077698e-01 -4.4416111707687378e-01</leafValues></_>
        <_>
          <internalNodes>
            0 -1 70 9.6635572845116258e-04</internalNodes>
          <leafValues>
            3.3709388971328735e-01 -5.3027379512786865e-01</leafValues></_>
        <_>
          <internalNodes>
            0 -1 69 1.2137761805206537e-03</internalNodes>
          <leafValues>
            -3.2101917266845703e-01 6.0282289981842041e-01</leafValues></_>
        <_>
          <internalNodes>
            0 -1 84 3.3709630952216685e-04</internalNodes>
          <leafValues>
            4.8093655705451965e-01 -4.1576141119003296e-01</leafValues></_></weakClassifiers></_></stages>
  <features>
    <_>
      <rects>
        <_>
          0 0 2 16 -1.</_>
        <_>
          1 0 1 16 2.</_></rects>
      <tilted>0</tilted></_>
    <_>
      <rects>
        <_>
          0 0 6 24 -1.</_>
        <_>
          0 12 6 12 2.</_></rects>
      <tilted>0</tilted></_>
    <_>
      <rects>
        <_>
          0 0 14 5 -1.</_>
        <_>
          7 0 7 5 2.</_></rects>
      <tilted>0</tilted></_>
    <_>
      <rects>
        <_>
          0 0 9 10 -1.</_>
        <_>
          0 5 9 5 2.</_></rects>
      <tilted>0</tilted></_>
    <_>
      <rects>
        <_>
          0 0 20 2 -1.</_>
        <_>
          0 1 20 1 2.</_></rects>
      <tilted>0</tilted></_>
    <_>
      <rects>
        <_>
          0 0 20 16 -1.</_>
        <_>
          0 8 20 8 2.</_></rects>
      <tilted>0</tilted></_>
    <_>
      <rects>
        <_>
          0 1 9 2 -1.</_>
        <_>
          0 2 9 1 2.</_></rects>
      <tilted>0</tilted></_>
    <_>
      <rects>
        <_>
          0 1 11 2 -1.</_>
        <_>
          0 2 11 1 2.</_></rects>
      <tilted>0</tilted></_>
    <_>
      <rects>
        <_>
          0 1 14 2 -1.</_>
        <_>
          0 2 14 1 2.</_></rects>
      <tilted>0</tilted></_>
    <_>
      <rects>
        <_>
          0 2 1 2 -1.</_>
        <_>
          0 3 1 1 2.</_></rects>
      <tilted>0</tilted></_>
    <_>
      <rects>
        <_>
          0 3 16 12 -1.</_>
        <_>
          0 9 16 6 2.</_></rects>
      <tilted>0</tilted></_>
    <_>
      <rects>
        <_>
          0 4 2 20 -1.</_>
        <_>
          1 4 1 20 2.</_></rects>
      <tilted>0</tilted></_>
    <_>
      <rects>
        <_>
          0 4 6 13 -1.</_>
        <_>
          3 4 3 13 2.</_></rects>
      <tilted>0</tilted></_>
    <_>
      <rects>
        <_>
          0 5 6 19 -1.</_>
        <_>
          3 5 3 19 2.</_></rects>
      <tilted>0</tilted></_>
    <_>
      <rects>
        <_>
          0 5 22 4 -1.</_>
        <_>
          0 7 22 2 2.</_></rects>
      <tilted>0</tilted></_>
    <_>
      <rects>
        <_>
          0 6 2 6 -1.</_>
        <_>
          0 6 1 3 2.</_>
        <_>
          1 9 1 3 2.</_></rects>
      <tilted>0</tilted></_>
    <_>
      <rects>
        <_>
          0 7 4 1 -1.</_>
        <_>
          2 7 2 1 2.</_></rects>
      <tilted>0</tilted></_>
    <_>
      <rects>
        <_>
          0 9 16 5 -1.</_>
        <_>
          8 9 8 5 2.</_></rects>
      <tilted>0</tilted></_>
    <_>
      <rects>
        <_>
          0 10 2 6 -1.</_>
        <_>
          1 10 1 6 2.</_></rects>
      <tilted>0</tilted></_>
    <_>
      <rects>
        <_>
          0 16 2 2 -1.</_>
        <_>
          0 16 1 1 2.</_>
        <_>
          1 17 1 1 2.</_></rects>
      <tilted>0</tilted></_>
    <_>
      <rects>
        <_>
          0 16 2 3 -1.</_>
        <_>
          1 16 1 3 2.</_></rects>
      <tilted>0</tilted></_>
    <_>
      <rects>
        <_>
          0 17 2 6 -1.</_>
        <_>
          1 17 1 6 2.</_></rects>
      <tilted>0</tilted></_>
    <_>
      <rects>
        <_>
          0 19 4 2 -1.</_>
        <_>
          0 19 2 1 2.</_>
        <_>
          2 20 2 1 2.</_></rects>
      <tilted>0</tilted></_>
    <_>
      <rects>
        <_>
          0 20 24 2 -1.</_>
        <_>
          0 21 24 1 2.</_></rects>
      <tilted>0</tilted></_>
    <_>
      <rects>
        <_>
          0 21 2 2 -1.</_>
        <_>
          0 21 1 1 2.</_>
        <_>
          1 22 1 1 2.</_></rects>
      <tilted>0</tilted></_>
    <_>
      <rects>
        <_>
          0 22 8 2 -1.</_>
        <_>
          4 22 4 2 2.</_></rects>
      <tilted>0</tilted></_>
    <_>
      <rects>
        <_>
          1 2 13 2 -1.</_>
        <_>
          1 3 13 1 2.</_></rects>
      <tilted>0</tilted></_>
    <_>
      <rects>
        <_>
          1 3 1 6 -1.</_>
        <_>
          1 6 1 3 2.</_></rects>
      <tilted>0</tilted></_>
    <_>
      <rects>
        <_>
          1 3 4 2 -1.</_>
        <_>
          3 3 2 2 2.</_></rects>
      <tilted>0</tilted></_>
    <_>
      <rects>
        <_>
          1 6 4 6 -1.</_>
        <_>
          1 6 2 3 2.</_>
        <_>
          3 9 2 3 2.</_></rects>
      <tilted>0</tilted></_>
    <_>
      <rects>
        <_>
          1 17 6 4 -1.</_>
        <_>
          1 17 3 2 2.</_>
        <_>
          4 19 3 2 2.</_></rects>
      <tilted>0</tilted></_>
    <_>
      <rects>
        <_>
          2 0 4 2 -1.</_>
        <_>
          4 0 2 2 2.</_></rects>
      <tilted>0</tilted></_>
    <_>
      <rects>
        <_>
          2 0 11 18 -1.</_>
        <_>
          2 9 11 9 2.</_></rects>
      <tilted>0</tilted></_>
    <_>
      <rects>
        <_>
          2 0 22 16 -1.</_>
        <_>
          2 8 22 8 2.</_></rects>
      <tilted>0</tilted></_>
    <_>
      <rects>
        <_>
          2 18 20 2 -1.</_>
        <_>
          2 19 20 1 2.</_></rects>
      <tilted>0</tilted></_>
    <_>
      <rects>
        <_>
          2 20 2 2 -1.</_>
        <_>
          2 20 1 1 2.</_>
        <_>
          3 21 1 1 2.</_></rects>
      <tilted>0</tilted></_>
    <_>
      <rects>
        <_>
          2 20 22 4 -1.</_>
        <_>
          2 22 22 2 2.</_></rects>
      <tilted>0</tilted></_>
    <_>
      <rects>
        <_>
          2 21 2 2 -1.</_>
        <_>
          3 21 1 2 2.</_></rects>
      <tilted>0</tilted></_>
    <_>
      <rects>
        <_>
          3 1 12 6 -1.</_>
        <_>
          3 1 6 3 2.</_>
        <_>
          9 4 6 3 2.</_></rects>
      <tilted>0</tilted></_>
    <_>
      <rects>
        <_>
          3 7 2 1 -1.</_>
        <_>
          4 7 1 1 2.</_></rects>
      <tilted>0</tilted></_>
    <_>
      <rects>
        <_>
          3 10 21 14 -1.</_>
        <_>
          3 17 21 7 2.</_></rects>
      <tilted>0</tilted></_>
    <_>
      <rects>
        <_>
          3 12 9 3 -1.</_>
        <_>
          6 12 3 3 2.</_></rects>
      <tilted>0</tilted></_>
    <_>
      <rects>
        <_>
          3 22 18 2 -1.</_>
        <_>
          3 23 18 1 2.</_></rects>
      <tilted>0</tilted></_>
    <_>
      <rects>
        <_>
          4 0 4 2 -1.</_>
        <_>
          6 0 2 2 2.</_></rects>
      <tilted>0</tilted></_>
    <_>
      <rects>
        <_>
          4 0 17 6 -1.</_>
        <_>
          4 3 17 3 2.</_></rects>
      <tilted>0</tilted></_>
    <_>
      <rects>
        <_>
          4 2 15 13 -1.</_>
        <_>
          9 2 5 13 2.</_></rects>
      <tilted>0</tilted></_>
    <_>
      <rects>
        <_>
          4 3 2 2 -1.</_>
        <_>
          4 3 1 1 2.</_>
        <_>
          5 4 1 1 2.</_></rects>
      <tilted>0</tilted></_>
    <_>
      <rects>
        <_>
          4 8 2 4 -1.</_>
        <_>
          4 8 1 2 2.</_>
        <_>
          5 10 1 2 2.</_></rects>
      <tilted>0</tilted></_>
    <_>
      <rects>
        <_>
          4 8 4 2 -1.</_>
        <_>
          6 8 2 2 2.</_></rects>
      <tilted>0</tilted></_>
    <_>
      <rects>
        <_>
          4 10 2 2 -1.</_>
        <_>
          4 10 1 1 2.</_>
        <_>
          5 11 1 1 2.</_></rects>
      <tilted>0</tilted></_>
    <_>
      <rects>
        <_>
          4 16 12 7 -1.</_>
        <_>
          8 16 4 7 2.</_></rects>
      <tilted>0</tilted></_>
    <_>
      <rects>
        <_>
          4 21 2 2 -1.</_>
        <_>
          4 21 1 1 2.</_>
        <_>
          5 22 1 1 2.</_></rects>
      <tilted>0</tilted></_>
    <_>
      <rects>
        <_>
          5 0 16 8 -1.</_>
        <_>
          5 4 16 4 2.</_></rects>
      <tilted>0</tilted></_>
    <_>
      <rects>
        <_>
          5 2 8 4 -1.</_>
        <_>
          5 2 4 2 2.</_>
        <_>
          9 4 4 2 2.</_></rects>
      <tilted>0</tilted></_>
    <_>
      <rects>
        <_>
          5 2 6 22 -1.</_>
        <_>
          5 13 6 11 2.</_></rects>
      <tilted>0</tilted></_>
    <_>
      <rects>
        <_>
          5 4 7 2 -1.</_>
        <_>
          5 5 7 1 2.</_></rects>
      <tilted>0</tilted></_>
    <_>
      <rects>
        <_>
          5 9 2 4 -1.</_>
        <_>
          5 9 1 2 2.</_>
        <_>
          6 11 1 2 2.</_></rects>
      <tilted>0</tilted></_>
    <_>
      <rects>
        <_>
          5 9 6 4 -1.</_>
        <_>
          5 9 3 2 2.</_>
        <_>
          8 11 3 2 2.</_></rects>
      <tilted>0</tilted></_>
    <_>
      <rects>
        <_>
          5 10 18 9 -1.</_>
        <_>
          11 10 6 9 2.</_></rects>
      <tilted>0</tilted></_>
    <_>
      <rects>
        <_>
          5 10 9 2 -1.</_>
        <_>
          5 11 9 1 2.</_></rects>
      <tilted>0</tilted></_>
    <_>
      <rects>
        <_>
          5 12 7 2 -1.</_>
        <_>
          5 13 7 1 2.</_></rects>
      <tilted>0</tilted></_>
    <_>
      <rects>
        <_>
          5 13 17 4 -1.</_>
        <_>
          5 15 17 2 2.</_></rects>
      <tilted>0</tilted></_>
    <_>
      <rects>
        <_>
          5 21 4 2 -1.</_>
        <_>
          7 21 2 2 2.</_></rects>
      <tilted>0</tilted></_>
    <_>
      <rects>
        <_>
          6 0 8 2 -1.</_>
        <_>
          10 0 4 2 2.</_></rects>
      <tilted>0</tilted></_>
    <_>
      <rects>
        <_>
          6 1 4 8 -1.</_>
        <_>
          8 1 2 8 2.</_></rects>
      <tilted>0</tilted></_>
    <_>
      <rects>
        <_>
          6 1 12 2 -1.</_>
        <_>
          6 1 6 1 2.</_>
        <_>
          12 2 6 1 2.</_></rects>
      <tilted>0</tilted></_>
    <_>
      <rects>
        <_>
          6 11 2 12 -1.</_>
        <_>
          6 11 1 6 2.</_>
        <_>
          7 17 1 6 2.</_></rects>
      <tilted>0</tilted></_>
    <_>
      <rects>
        <_>
          6 14 18 1 -1.</_>
        <_>
          12 14 6 1 2.</_></rects>
      <tilted>0</tilted></_>
    <_>
      <rects>
        <_>
          6 16 4 3 -1.</_>
        <_>
          8 16 2 3 2.</_></rects>
      <tilted>0</tilted></_>
    <_>
      <rects>
        <_>
          6 17 18 2 -1.</_>
        <_>
          6 17 9 1 2.</_>
        <_>
          15 18 9 1 2.</_></rects>
      <tilted>0</tilted></_>
    <_>
      <rects>
        <_>
          6 21 14 2 -1.</_>
        <_>
          6 22 14 1 2.</_></rects>
      <tilted>0</tilted></_>
    <_>
      <rects>
        <_>
          7 0 9 1 -1.</_>
        <_>
          10 0 3 1 2.</_></rects>
      <tilted>0</tilted></_>
    <_>
      <rects>
        <_>
          7 0 11 6 -1.</_>
        <_>
          7 3 11 3 2.</_></rects>
      <tilted>0</tilted></_>
    <_>
      <rects>
        <_>
          7 13 6 6 -1.</_>
        <_>
          7 15 6 2 2.</_></rects>
      <tilted>0</tilted></_>
    <_>
      <rects>
        <_>
          7 14 12 2 -1.</_>
        <_>
          7 14 6 1 2.</_>
        <_>
          13 15 6 1 2.</_></rects>
      <tilted>0</tilted></_>
    <_>
      <rects>
        <_>
          7 16 6 8 -1.</_>
        <_>
          7 16 3 4 2.</_>
        <_>
          10 20 3 4 2.</_></rects>
      <tilted>0</tilted></_>
    <_>
      <rects>
        <_>
          8 6 15 10 -1.</_>
        <_>
          13 6 5 10 2.</_></rects>
      <tilted>0</tilted></_>
    <_>
      <rects>
        <_>
          8 8 3 4 -1.</_>
        <_>
          9 8 1 4 2.</_></rects>
      <tilted>0</tilted></_>
    <_>
      <rects>
        <_>
          8 9 7 6 -1.</_>
        <_>
          8 11 7 2 2.</_></rects>
      <tilted>0</tilted></_>
    <_>
      <rects>
        <_>
          8 13 4 9 -1.</_>
        <_>
          8 16 4 3 2.</_></rects>
      <tilted>0</tilted></_>
    <_>
      <rects>
        <_>
          8 14 6 6 -1.</_>
        <_>
          10 14 2 6 2.</_></rects>
      <tilted>0</tilted></_>
    <_>
      <rects>
        <_>
          8 18 2 4 -1.</_>
        <_>
          8 18 1 2 2.</_>
        <_>
          9 20 1 2 2.</_></rects>
      <tilted>0</tilted></_>
    <_>
      <rects>
        <_>
          9 0 1 2 -1.</_>
        <_>
          9 1 1 1 2.</_></rects>
      <tilted>0</tilted></_>
    <_>
      <rects>
        <_>
          9 0 8 22 -1.</_>
        <_>
          13 0 4 22 2.</_></rects>
      <tilted>0</tilted></_>
    <_>
      <rects>
        <_>
          9 1 2 8 -1.</_>
        <_>
          10 1 1 8 2.</_></rects>
      <tilted>0</tilted></_>
    <_>
      <rects>
        <_>
          9 1 15 10 -1.</_>
        <_>
          9 6 15 5 2.</_></rects>
      <tilted>0</tilted></_>
    <_>
      <rects>
        <_>
          9 7 4 14 -1.</_>
        <_>
          9 7 2 7 2.</_>
        <_>
          11 14 2 7 2.</_></rects>
      <tilted>0</tilted></_>
    <_>
      <rects>
        <_>
          9 8 9 6 -1.</_>
        <_>
          12 8 3 6 2.</_></rects>
      <tilted>0</tilted></_>
    <_>
      <rects>
        <_>
          9 11 2 2 -1.</_>
        <_>
          9 11 1 1 2.</_>
        <_>
          10 12 1 1 2.</_></rects>
      <tilted>0</tilted></_>
    <_>
      <rects>
        <_>
          9 14 6 1 -1.</_>
        <_>
          11 14 2 1 2.</_></rects>
      <tilted>0</tilted></_>
    <_>
      <rects>
        <_>
          9 16 3 4 -1.</_>
        <_>
          9 18 3 2 2.</_></rects>
      <tilted>0</tilted></_>
    <_>
      <rects>
        <_>
          10 7 2 6 -1.</_>
        <_>
          10 7 1 3 2.</_>
        <_>
          11 10 1 3 2.</_></rects>
      <tilted>0</tilted></_>
    <_>
      <rects>
        <_>
          10 7 14 12 -1.</_>
        <_>
          17 7 7 12 2.</_></rects>
      <tilted>0</tilted></_>
    <_>
      <rects>
        <_>
          10 8 14 2 -1.</_>
        <_>
          10 9 14 1 2.</_></rects>
      <tilted>0</tilted></_>
    <_>
      <rects>
        <_>
          10 11 11 9 -1.</_>
        <_>
          10 14 11 3 2.</_></rects>
      <tilted>0</tilted></_>
    <_>
      <rects>
        <_>
          10 13 5 3 -1.</_>
        <_>
          10 14 5 1 2.</_></rects>
      <tilted>0</tilted></_>
    <_>
      <rects>
        <_>
          10 15 2 8 -1.</_>
        <_>
          10 15 1 4 2.</_>
        <_>
          11 19 1 4 2.</_></rects>
      <tilted>0</tilted></_>
    <_>
      <rects>
        <_>
          10 19 3 2 -1.</_>
        <_>
          10 20 3 1 2.</_></rects>
      <tilted>0</tilted></_>
    <_>
      <rects>
        <_>
          10 19 8 2 -1.</_>
        <_>
          10 19 4 1 2.</_>
        <_>
          14 20 4 1 2.</_></rects>
      <tilted>0</tilted></_>
    <_>
      <rects>
        <_>
          10 20 13 2 -1.</_>
        <_>
          10 21 13 1 2.</_></rects>
      <tilted>0</tilted></_>
    <_>
      <rects>
        <_>
          11 5 3 4 -1.</_>
        <_>
          11 7 3 2 2.</_></rects>
      <tilted>0</tilted></_>
    <_>
      <rects>
        <_>
          11 12 3 6 -1.</_>
        <_>
          11 14 3 2 2.</_></rects>
      <tilted>0</tilted></_>
    <_>
      <rects>
        <_>
          11 18 8 4 -1.</_>
        <_>
          11 18 4 2 2.</_>
        <_>
          15 20 4 2 2.</_></rects>
      <tilted>0</tilted></_>
    <_>
      <rects>
        <_>
          11 19 6 2 -1.</_>
        <_>
          11 19 3 1 2.</_>
        <_>
          14 20 3 1 2.</_></rects>
      <tilted>0</tilted></_>
    <_>
      <rects>
        <_>
          11 20 2 2 -1.</_>
        <_>
          11 20 1 1 2.</_>
        <_>
          12 21 1 1 2.</_></rects>
      <tilted>0</tilted></_>
    <_>
      <rects>
        <_>
          12 0 4 2 -1.</_>
        <_>
          12 1 4 1 2.</_></rects>
      <tilted>0</tilted></_>
    <_>
      <rects>
        <_>
          12 0 8 4 -1.</_>
        <_>
          12 0 4 2 2.</_>
        <_>
          16 2 4 2 2.</_></rects>
      <tilted>0</tilted></_>
    <_>
      <rects>
        <_>
          12 2 2 6 -1.</_>
        <_>
          12 2 1 3 2.</_>
        <_>
          13 5 1 3 2.</_></rects>
      <tilted>0</tilted></_>
    <_>
      <rects>
        <_>
          12 5 2 3 -1.</_>
        <_>
          13 5 1 3 2.</_></rects>
      <tilted>0</tilted></_>
    <_>
      <rects>
        <_>
          12 11 6 2 -1.</_>
        <_>
          15 11 3 2 2.</_></rects>
      <tilted>0</tilted></_>
    <_>
      <rects>
        <_>
          12 12 9 3 -1.</_>
        <_>
          15 12 3 3 2.</_></rects>
      <tilted>0</tilted></_>
    <_>
      <rects>
        <_>
          12 16 2 6 -1.</_>
        <_>
          12 16 1 3 2.</_>
        <_>
          13 19 1 3 2.</_></rects>
      <tilted>0</tilted></_>
    <_>
      <rects>
        <_>
          13 0 2 2 -1.</_>
        <_>
          13 0 1 1 2.</_>
        <_>
          14 1 1 1 2.</_></rects>
      <tilted>0</tilted></_>
    <_>
      <rects>
        <_>
          13 0 10 17 -1.</_>
        <_>
          18 0 5 17 2.</_></rects>
      <tilted>0</tilted></_>
    <_>
      <rects>
        <_>
          13 4 2 2 -1.</_>
        <_>
          13 5 2 1 2.</_></rects>
      <tilted>0</tilted></_>
    <_>
      <rects>
        <_>
          13 7 2 2 -1.</_>
        <_>
          13 7 1 1 2.</_>
        <_>
          14 8 1 1 2.</_></rects>
      <tilted>0</tilted></_>
    <_>
      <rects>
        <_>
          13 8 8 16 -1.</_>
        <_>
          13 16 8 8 2.</_></rects>
      <tilted>0</tilted></_>
    <_>
      <rects>
        <_>
          13 9 1 14 -1.</_>
        <_>
          13 16 1 7 2.</_></rects>
      <tilted>0</tilted></_>
    <_>
      <rects>
        <_>
          13 12 7 9 -1.</_>
        <_>
          13 15 7 3 2.</_></rects>
      <tilted>0</tilted></_>
    <_>
      <rects>
        <_>
          13 13 3 6 -1.</_>
        <_>
          14 13 1 6 2.</_></rects>
      <tilted>0</tilted></_>
    <_>
      <rects>
        <_>
          13 17 10 4 -1.</_>
        <_>
          13 17 5 2 2.</_>
        <_>
          18 19 5 2 2.</_></rects>
      <tilted>0</tilted></_>
    <_>
      <rects>
        <_>
          14 0 2 2 -1.</_>
        <_>
          14 0 1 1 2.</_>
        <_>
          15 1 1 1 2.</_></rects>
      <tilted>0</tilted></_>
    <_>
      <rects>
        <_>
          14 0 2 2 -1.</_>
        <_>
          15 0 1 2 2.</_></rects>
      <tilted>0</tilted></_>
    <_>
      <rects>
        <_>
          14 0 5 2 -1.</_>
        <_>
          14 1 5 1 2.</_></rects>
      <tilted>0</tilted></_>
    <_>
      <rects>
        <_>
          14 0 10 8 -1.</_>
        <_>
          14 4 10 4 2.</_></rects>
      <tilted>0</tilted></_>
    <_>
      <rects>
        <_>
          14 1 2 2 -1.</_>
        <_>
          14 1 1 1 2.</_>
        <_>
          15 2 1 1 2.</_></rects>
      <tilted>0</tilted></_>
    <_>
      <rects>
        <_>
          14 6 1 9 -1.</_>
        <_>
          14 9 1 3 2.</_></rects>
      <tilted>0</tilted></_>
    <_>
      <rects>
        <_>
          14 7 10 2 -1.</_>
        <_>
          19 7 5 2 2.</_></rects>
      <tilted>0</tilted></_>
    <_>
      <rects>
        <_>
          14 7 10 9 -1.</_>
        <_>
          19 7 5 9 2.</_></rects>
      <tilted>0</tilted></_>
    <_>
      <rects>
        <_>
          14 10 2 2 -1.</_>
        <_>
          14 11 2 1 2.</_></rects>
      <tilted>0</tilted></_>
    <_>
      <rects>
        <_>
          15 5 2 2 -1.</_>
        <_>
          15 5 1 1 2.</_>
        <_>
          16 6 1 1 2.</_></rects>
      <tilted>0</tilted></_>
    <_>
      <rects>
        <_>
          15 5 6 4 -1.</_>
        <_>
          15 5 3 2 2.</_>
        <_>
          18 7 3 2 2.</_></rects>
      <tilted>0</tilted></_>
    <_>
      <rects>
        <_>
          15 8 2 2 -1.</_>
        <_>
          15 8 1 1 2.</_>
        <_>
          16 9 1 1 2.</_></rects>
      <tilted>0</tilted></_>
    <_>
      <rects>
        <_>
          15 9 2 1 -1.</_>
        <_>
          16 9 1 1 2.</_></rects>
      <tilted>0</tilted></_>
    <_>
      <rects>
        <_>
          15 9 1 15 -1.</_>
        <_>
          15 14 1 5 2.</_></rects>
      <tilted>0</tilted></_>
    <_>
      <rects>
        <_>
          15 15 2 3 -1.</_>
        <_>
          16 15 1 3 2.</_></rects>
      <tilted>0</tilted></_>
    <_>
      <rects>
        <_>
          15 18 6 6 -1.</_>
        <_>
          15 18 3 3 2.</_>
        <_>
          18 21 3 3 2.</_></rects>
      <tilted>0</tilted></_>
    <_>
      <rects>
        <_>
          15 20 2 3 -1.</_>
        <_>
          16 20 1 3 2.</_></rects>
      <tilted>0</tilted></_>
    <_>
      <rects>
        <_>
          16 8 8 8 -1.</_>
        <_>
          16 8 4 4 2.</_>
        <_>
          20 12 4 4 2.</_></rects>
      <tilted>0</tilted></_>
    <_>
      <rects>
        <_>
          16 12 4 12 -1.</_>
        <_>
          16 12 2 6 2.</_>
        <_>
          18 18 2 6 2.</_></rects>
      <tilted>0</tilted></_>
    <_>
      <rects>
        <_>
          16 16 2 2 -1.</_>
        <_>
          16 16 1 1 2.</_>
        <_>
          17 17 1 1 2.</_></rects>
      <tilted>0</tilted></_>
    <_>
      <rects>
        <_>
          17 1 2 21 -1.</_>
        <_>
          17 8 2 7 2.</_></rects>
      <tilted>0</tilted></_>
    <_>
      <rects>
        <_>
          17 5 2 16 -1.</_>
        <_>
          17 5 1 8 2.</_>
        <_>
          18 13 1 8 2.</_></rects>
      <tilted>0</tilted></_>
    <_>
      <rects>
        <_>
          17 22 7 2 -1.</_>
        <_>
          17 23 7 1 2.</_></rects>
      <tilted>0</tilted></_>
    <_>
      <rects>
        <_>
          18 0 6 19 -1.</_>
        <_>
          21 0 3 19 2.</_></rects>
      <tilted>0</tilted></_>
    <_>
      <rects>
        <_>
          18 1 3 4 -1.</_>
        <_>
          18 3 3 2 2.</_></rects>
      <tilted>0</tilted></_>
    <_>
      <rects>
        <_>
          18 4 3 8 -1.</_>
        <_>
          18 8 3 4 2.</_></rects>
      <tilted>0</tilted></_>
    <_>
      <rects>
        <_>
          18 4 6 16 -1.</_>
        <_>
          21 4 3 16 2.</_></rects>
      <tilted>0</tilted></_>
    <_>
      <rects>
        <_>
          18 9 4 8 -1.</_>
        <_>
          18 9 2 4 2.</_>
        <_>
          20 13 2 4 2.</_></rects>
      <tilted>0</tilted></_>
    <_>
      <rects>
        <_>
          19 12 4 2 -1.</_>
        <_>
          19 12 2 1 2.</_>
        <_>
          21 13 2 1 2.</_></rects>
      <tilted>0</tilted></_>
    <_>
      <rects>
        <_>
          19 14 4 6 -1.</_>
        <_>
          19 14 2 3 2.</_>
        <_>
          21 17 2 3 2.</_></rects>
      <tilted>0</tilted></_>
    <_>
      <rects>
        <_>
          20 1 4 2 -1.</_>
        <_>
          20 1 2 1 2.</_>
        <_>
          22 2 2 1 2.</_></rects>
      <tilted>0</tilted></_>
    <_>
      <rects>
        <_>
          20 1 4 23 -1.</_>
        <_>
          22 1 2 23 2.</_></rects>
      <tilted>0</tilted></_>
    <_>
      <rects>
        <_>
          20 3 2 2 -1.</_>
        <_>
          20 3 1 1 2.</_>
        <_>
          21 4 1 1 2.</_></rects>
      <tilted>0</tilted></_>
    <_>
      <rects>
        <_>
          20 11 4 6 -1.</_>
        <_>
          20 11 2 3 2.</_>
        <_>
          22 14 2 3 2.</_></rects>
      <tilted>0</tilted></_>
    <_>
      <rects>
        <_>
          21 0 1 2 -1.</_>
        <_>
          21 1 1 1 2.</_></rects>
      <tilted>0</tilted></_>
    <_>
      <rects>
        <_>
          21 3 2 2 -1.</_>
        <_>
          21 3 1 1 2.</_>
        <_>
          22 4 1 1 2.</_></rects>
      <tilted>0</tilted></_>
    <_>
      <rects>
        <_>
          21 10 2 4 -1.</_>
        <_>
          22 10 1 4 2.</_></rects>
      <tilted>0</tilted></_>
    <_>
      <rects>
        <_>
          21 15 2 2 -1.</_>
        <_>
          21 15 1 1 2.</_>
        <_>
          22 16 1 1 2.</_></rects>
      <tilted>0</tilted></_>
    <_>
      <rects>
        <_>
          22 1 2 4 -1.</_>
        <_>
          23 1 1 4 2.</_></rects>
      <tilted>0</tilted></_>
    <_>
      <rects>
        <_>
          22 6 2 4 -1.</_>
        <_>
          22 6 1 2 2.</_>
        <_>
          23 8 1 2 2.</_></rects>
      <tilted>0</tilted></_>
    <_>
      <rects>
        <_>
          22 10 2 2 -1.</_>
        <_>
          23 10 1 2 2.</_></rects>
      <tilted>0</tilted></_>
    <_>
      <rects>
        <_>
          22 13 2 3 -1.</_>
        <_>
          23 13 1 3 2.</_></rects>
      <tilted>0</tilted></_>
    <_>
      <rects>
        <_>
          22 18 2 2 -1.</_>
        <_>
          23 18 1 2 2.</_></rects>
      <tilted>0</tilted></_>
    <_>
      <rects>
        <_>
          22 22 2 2 -1.</_>
        <_>
          22 23 2 1 2.</_></rects>
      <tilted>0</tilted></_></features></cascade>
</opencv_storage>
