<?xml version="1.0"?>
<opencv_storage>
<stage13>
  <maxWeakCount>73</maxWeakCount>
  <stageThreshold>-5.7628685235977173e-01</stageThreshold>
  <weakClassifiers>
    <_>
      <internalNodes>
        0 -1 42319 1.1212548706680536e-03</internalNodes>
      <leafValues>
        8.3202511072158813e-02 5.1796060800552368e-01</leafValues></_>
    <_>
      <internalNodes>
        0 -1 91835 1.4836746267974377e-03</internalNodes>
      <leafValues>
        -2.1514375507831573e-01 2.2832982242107391e-01</leafValues></_>
    <_>
      <internalNodes>
        0 -1 148236 -8.1420387141406536e-04</internalNodes>
      <leafValues>
        6.6213887929916382e-01 -5.9966728091239929e-02</leafValues></_>
    <_>
      <internalNodes>
        0 -1 116734 -4.8561450093984604e-03</internalNodes>
      <leafValues>
        -3.7552818655967712e-01 9.6607796847820282e-02</leafValues></_>
    <_>
      <internalNodes>
        0 -1 68534 8.2005572039633989e-04</internalNodes>
      <leafValues>
        -1.8092289566993713e-01 2.4478492140769958e-01</leafValues></_>
    <_>
      <internalNodes>
        0 -1 13371 -4.6016843989491463e-03</internalNodes>
      <leafValues>
        2.0226004719734192e-01 -1.7916283011436462e-01</leafValues></_>
    <_>
      <internalNodes>
        0 -1 17218 2.5076339021325111e-02</internalNodes>
      <leafValues>
        -8.5815005004405975e-02 5.5561792850494385e-01</leafValues></_>
    <_>
      <internalNodes>
        0 -1 60120 -8.2676089368760586e-04</internalNodes>
      <leafValues>
        5.7432746887207031e-01 -6.5881595015525818e-02</leafValues></_>
    <_>
      <internalNodes>
        0 -1 34824 1.1696977540850639e-02</internalNodes>
      <leafValues>
        8.0169394612312317e-02 -5.7630330324172974e-01</leafValues></_>
    <_>
      <internalNodes>
        0 -1 41607 5.4728180170059204e-02</internalNodes>
      <leafValues>
        3.8858268409967422e-02 -6.7300015687942505e-01</leafValues></_>
    <_>
      <internalNodes>
        0 -1 160540 -3.4612594754435122e-04</internalNodes>
      <leafValues>
        3.4040406346321106e-01 -8.6159594357013702e-02</leafValues></_>
    <_>
      <internalNodes>
        0 -1 156648 -6.3182041049003601e-02</internalNodes>
      <leafValues>
        3.9263603091239929e-01 -8.0156333744525909e-02</leafValues></_>
    <_>
      <internalNodes>
        0 -1 67194 -3.0895611643791199e-01</internalNodes>
      <leafValues>
        -4.6277485787868500e-02 6.9797575473785400e-01</leafValues></_>
    <_>
      <internalNodes>
        0 -1 144792 -4.4746864587068558e-03</internalNodes>
      <leafValues>
        -3.3976882696151733e-01 9.1034457087516785e-02</leafValues></_>
    <_>
      <internalNodes>
        0 -1 148921 -1.2553536798804998e-03</internalNodes>
      <leafValues>
        1.8506033718585968e-01 -1.7673963308334351e-01</leafValues></_>
    <_>
      <internalNodes>
        0 -1 47708 -9.1238413006067276e-03</internalNodes>
      <leafValues>
        -5.3090953826904297e-01 5.8351490646600723e-02</leafValues></_>
    <_>
      <internalNodes>
        0 -1 126530 1.4609691686928272e-02</internalNodes>
      <leafValues>
        -8.5012450814247131e-02 3.4046912193298340e-01</leafValues></_>
    <_>
      <internalNodes>
        0 -1 142860 -1.1901264078915119e-03</internalNodes>
      <leafValues>
        2.1723230183124542e-01 -1.7442455887794495e-01</leafValues></_>
    <_>
      <internalNodes>
        0 -1 143847 -1.0212620720267296e-02</internalNodes>
      <leafValues>
        6.4917576313018799e-01 -4.3108642101287842e-02</leafValues></_>
    <_>
      <internalNodes>
        0 -1 60445 1.8085787814925425e-05</internalNodes>
      <leafValues>
        -1.5069380402565002e-01 1.7968265712261200e-01</leafValues></_>
    <_>
      <internalNodes>
        0 -1 161100 -1.4881168026477098e-03</internalNodes>
      <leafValues>
        4.5037335157394409e-01 -6.0439959168434143e-02</leafValues></_>
    <_>
      <internalNodes>
        0 -1 41091 -5.1682725548744202e-02</internalNodes>
      <leafValues>
        5.5170197039842606e-02 -5.2791941165924072e-01</leafValues></_>
    <_>
      <internalNodes>
        0 -1 26884 -1.4402964734472334e-04</internalNodes>
      <leafValues>
        -2.2696262598037720e-01 1.2111124396324158e-01</leafValues></_>
    <_>
      <internalNodes>
        0 -1 80836 1.2477934360504150e-03</internalNodes>
      <leafValues>
        -1.6563434898853302e-01 1.6694447398185730e-01</leafValues></_>
    <_>
      <internalNodes>
        0 -1 70848 -2.2796229459345341e-03</internalNodes>
      <leafValues>
        2.3138245940208435e-01 -1.3631257414817810e-01</leafValues></_>
    <_>
      <internalNodes>
        0 -1 6428 -2.4707150459289551e-01</internalNodes>
      <leafValues>
        5.5906611680984497e-01 -4.9019999802112579e-02</leafValues></_>
    <_>
      <internalNodes>
        0 -1 127750 -8.1971590407192707e-04</internalNodes>
      <leafValues>
        5.4433661699295044e-01 -4.8236336559057236e-02</leafValues></_>
    <_>
      <internalNodes>
        0 -1 127613 2.5613631587475538e-03</internalNodes>
      <leafValues>
        5.5920746177434921e-02 -5.8032298088073730e-01</leafValues></_>
    <_>
      <internalNodes>
        0 -1 114370 -1.0281556751579046e-03</internalNodes>
      <leafValues>
        -2.1152223646640778e-01 1.3034632802009583e-01</leafValues></_>
    <_>
      <internalNodes>
        0 -1 49295 5.6212197523564100e-04</internalNodes>
      <leafValues>
        -5.6680932641029358e-02 4.8648300766944885e-01</leafValues></_>
    <_>
      <internalNodes>
        0 -1 8097 9.1150612570345402e-04</internalNodes>
      <leafValues>
        -1.9046571850776672e-01 1.4744110405445099e-01</leafValues></_>
    <_>
      <internalNodes>
        0 -1 37633 -1.0872476268559694e-03</internalNodes>
      <leafValues>
        -3.4190467000007629e-01 8.3484858274459839e-02</leafValues></_>
    <_>
      <internalNodes>
        0 -1 325 9.0859262272715569e-03</internalNodes>
      <leafValues>
        1.2723189592361450e-01 -2.3579011857509613e-01</leafValues></_>
    <_>
      <internalNodes>
        0 -1 50410 5.6982540991157293e-04</internalNodes>
      <leafValues>
        -1.8128435313701630e-01 1.9753065705299377e-01</leafValues></_>
    <_>
      <internalNodes>
        0 -1 48196 -8.6887530051171780e-04</internalNodes>
      <leafValues>
        2.1915085613727570e-01 -1.3359701633453369e-01</leafValues></_>
    <_>
      <internalNodes>
        0 -1 50316 -1.5455678105354309e-01</internalNodes>
      <leafValues>
        5.7460796833038330e-01 -5.3567979484796524e-02</leafValues></_>
    <_>
      <internalNodes>
        0 -1 125754 -1.4793484006077051e-03</internalNodes>
      <leafValues>
        -3.5518139600753784e-01 1.0585883259773254e-01</leafValues></_>
    <_>
      <internalNodes>
        0 -1 24735 -4.1998102096840739e-04</internalNodes>
      <leafValues>
        3.5026711225509644e-01 -8.0219238996505737e-02</leafValues></_>
    <_>
      <internalNodes>
        0 -1 47490 -6.1881421133875847e-03</internalNodes>
      <leafValues>
        -3.8634115457534790e-01 6.9288462400436401e-02</leafValues></_>
    <_>
      <internalNodes>
        0 -1 80748 -4.1863042861223221e-03</internalNodes>
      <leafValues>
        -3.9737805724143982e-02 7.7531307935714722e-01</leafValues></_>
    <_>
      <internalNodes>
        0 -1 157250 -3.3953621983528137e-02</internalNodes>
      <leafValues>
        1.6752453148365021e-01 -1.6897660493850708e-01</leafValues></_>
    <_>
      <internalNodes>
        0 -1 135103 -4.3161753565073013e-03</internalNodes>
      <leafValues>
        2.7961847186088562e-01 -1.1262714862823486e-01</leafValues></_>
    <_>
      <internalNodes>
        0 -1 157782 -3.5117368679493666e-03</internalNodes>
      <leafValues>
        -5.8830511569976807e-01 4.6315021812915802e-02</leafValues></_>
    <_>
      <internalNodes>
        0 -1 161095 -1.3506195973604918e-03</internalNodes>
      <leafValues>
        8.8955670595169067e-01 -3.7350803613662720e-02</leafValues></_>
    <_>
      <internalNodes>
        0 -1 155846 -1.0238752001896501e-03</internalNodes>
      <leafValues>
        1.4384038746356964e-01 -1.9783145189285278e-01</leafValues></_>
    <_>
      <internalNodes>
        0 -1 152489 -7.9179072054103017e-04</internalNodes>
      <leafValues>
        -2.0298266410827637e-01 1.5180082619190216e-01</leafValues></_>
    <_>
      <internalNodes>
        0 -1 49439 6.0527808964252472e-02</internalNodes>
      <leafValues>
        -2.9509637504816055e-02 8.5685122013092041e-01</leafValues></_>
    <_>
      <internalNodes>
        0 -1 99166 4.3946143239736557e-02</internalNodes>
      <leafValues>
        -2.4141006171703339e-02 8.0719685554504395e-01</leafValues></_>
    <_>
      <internalNodes>
        0 -1 112169 -9.8370283376425505e-04</internalNodes>
      <leafValues>
        6.3216722011566162e-01 -3.5914141684770584e-02</leafValues></_>
    <_>
      <internalNodes>
        0 -1 75099 -6.3494069036096334e-04</internalNodes>
      <leafValues>
        2.8283005952835083e-01 -8.5753552615642548e-02</leafValues></_>
    <_>
      <internalNodes>
        0 -1 42392 -8.1049231812357903e-03</internalNodes>
      <leafValues>
        -4.7351723909378052e-01 6.6289611160755157e-02</leafValues></_>
    <_>
      <internalNodes>
        0 -1 30399 -2.7180899633094668e-04</internalNodes>
      <leafValues>
        -2.5409874320030212e-01 1.1225938051939011e-01</leafValues></_>
    <_>
      <internalNodes>
        0 -1 42099 1.5369300730526447e-02</internalNodes>
      <leafValues>
        3.4181665629148483e-02 -7.9975998401641846e-01</leafValues></_>
    <_>
      <internalNodes>
        0 -1 64918 -8.3380186697468162e-04</internalNodes>
      <leafValues>
        5.8200824260711670e-01 -5.8702018111944199e-02</leafValues></_>
    <_>
      <internalNodes>
        0 -1 158376 5.1276661455631256e-02</internalNodes>
      <leafValues>
        -7.0205487310886383e-02 3.9565283060073853e-01</leafValues></_>
    <_>
      <internalNodes>
        0 -1 93768 -5.3743049502372742e-02</internalNodes>
      <leafValues>
        5.1859527826309204e-01 -4.7474831342697144e-02</leafValues></_>
    <_>
      <internalNodes>
        0 -1 161873 5.3313479293137789e-04</internalNodes>
      <leafValues>
        -5.7835798710584641e-02 4.3498861789703369e-01</leafValues></_>
    <_>
      <internalNodes>
        0 -1 129784 -9.2378119006752968e-04</internalNodes>
      <leafValues>
        -4.5169100165367126e-01 6.1260424554347992e-02</leafValues></_>
    <_>
      <internalNodes>
        0 -1 139868 2.9174238443374634e-02</internalNodes>
      <leafValues>
        -3.4079756587743759e-02 8.0825811624526978e-01</leafValues></_>
    <_>
      <internalNodes>
        0 -1 89608 3.4437105059623718e-03</internalNodes>
      <leafValues>
        1.5427424013614655e-01 -1.7690706253051758e-01</leafValues></_>
    <_>
      <internalNodes>
        0 -1 112342 -2.1713472902774811e-02</internalNodes>
      <leafValues>
        -4.2052099108695984e-01 7.4094995856285095e-02</leafValues></_>
    <_>
      <internalNodes>
        0 -1 55270 -7.6383024454116821e-02</internalNodes>
      <leafValues>
        -6.4680451154708862e-01 4.1324604302644730e-02</leafValues></_>
    <_>
      <internalNodes>
        0 -1 161834 -1.5000638995843474e-05</internalNodes>
      <leafValues>
        1.9223847985267639e-01 -1.4856909215450287e-01</leafValues></_>
    <_>
      <internalNodes>
        0 -1 105468 -5.7164747267961502e-03</internalNodes>
      <leafValues>
        -6.5035629272460938e-01 4.3109890073537827e-02</leafValues></_>
    <_>
      <internalNodes>
        0 -1 162055 -1.5211832942441106e-04</internalNodes>
      <leafValues>
        1.3370499014854431e-01 -1.9589079916477203e-01</leafValues></_>
    <_>
      <internalNodes>
        0 -1 159707 -3.6331347655504942e-04</internalNodes>
      <leafValues>
        -1.5020748972892761e-01 1.9468727707862854e-01</leafValues></_>
    <_>
      <internalNodes>
        0 -1 155279 -5.3163187112659216e-04</internalNodes>
      <leafValues>
        1.7339564859867096e-01 -1.6104321181774139e-01</leafValues></_>
    <_>
      <internalNodes>
        0 -1 8289 9.5582883805036545e-03</internalNodes>
      <leafValues>
        7.1606822311878204e-02 -3.8201701641082764e-01</leafValues></_>
    <_>
      <internalNodes>
        0 -1 147824 -9.4677601009607315e-04</internalNodes>
      <leafValues>
        5.9014463424682617e-01 -4.3127778917551041e-02</leafValues></_>
    <_>
      <internalNodes>
        0 -1 156935 -8.7975971400737762e-03</internalNodes>
      <leafValues>
        -4.6831735968589783e-01 6.1758160591125488e-02</leafValues></_>
    <_>
      <internalNodes>
        0 -1 146226 -3.3239975571632385e-02</internalNodes>
      <leafValues>
        8.2378558814525604e-02 -3.6411312222480774e-01</leafValues></_>
    <_>
      <internalNodes>
        0 -1 93549 8.7232328951358795e-04</internalNodes>
      <leafValues>
        -1.6201846301555634e-01 1.7627631127834320e-01</leafValues></_>
    <_>
      <internalNodes>
        0 -1 155089 -7.3470512870699167e-04</internalNodes>
      <leafValues>
        5.0629186630249023e-01 -6.3993826508522034e-02</leafValues></_></weakClassifiers></stage13>
</opencv_storage>
