<?xml version="1.0"?>
<opencv_storage>
<stage4>
  <maxWeakCount>10</maxWeakCount>
  <stageThreshold>2.6573801040649414e-01</stageThreshold>
  <weakClassifiers>
    <_>
      <internalNodes>
        0 -1 105400 -1.2632075697183609e-02</internalNodes>
      <leafValues>
        8.1318682432174683e-01 -1.0256410390138626e-01</leafValues></_>
    <_>
      <internalNodes>
        0 -1 81372 3.4313879907131195e-02</internalNodes>
      <leafValues>
        -1.1496258527040482e-01 9.6550732851028442e-01</leafValues></_>
    <_>
      <internalNodes>
        0 -1 88091 -1.0852315276861191e-01</internalNodes>
      <leafValues>
        9.0474522113800049e-01 -1.8202055990695953e-01</leafValues></_>
    <_>
      <internalNodes>
        0 -1 157854 1.9159861840307713e-03</internalNodes>
      <leafValues>
        3.3645203709602356e-01 -9.0466380119323730e-01</leafValues></_>
    <_>
      <internalNodes>
        0 -1 161591 1.3292103540152311e-03</internalNodes>
      <leafValues>
        2.6594379544258118e-01 -7.7928602695465088e-01</leafValues></_>
    <_>
      <internalNodes>
        0 -1 37783 -2.2447675466537476e-02</internalNodes>
      <leafValues>
        7.2584754228591919e-01 -3.4863415360450745e-01</leafValues></_>
    <_>
      <internalNodes>
        0 -1 104398 6.4934592228382826e-04</internalNodes>
      <leafValues>
        3.1802287697792053e-01 -7.5574356317520142e-01</leafValues></_>
    <_>
      <internalNodes>
        0 -1 99937 3.9133228361606598e-02</internalNodes>
      <leafValues>
        -4.1653817892074585e-01 6.6978466510772705e-01</leafValues></_>
    <_>
      <internalNodes>
        0 -1 158103 7.5191777432337403e-04</internalNodes>
      <leafValues>
        3.2203841209411621e-01 -9.1066855192184448e-01</leafValues></_>
    <_>
      <internalNodes>
        0 -1 103293 -7.2687268257141113e-02</internalNodes>
      <leafValues>
        3.1983318924903870e-01 -7.2775048017501831e-01</leafValues></_></weakClassifiers></stage4>
</opencv_storage>
