<?xml version="1.0"?>
<opencv_storage>
<stage2>
  <maxWeakCount>8</maxWeakCount>
  <stageThreshold>7.6865546405315399e-02</stageThreshold>
  <weakClassifiers>
    <_>
      <internalNodes>
        0 -1 133760 1.1801081709563732e-03</internalNodes>
      <leafValues>
        7.2972971200942993e-01 -5.7894736528396606e-01</leafValues></_>
    <_>
      <internalNodes>
        0 -1 51564 -4.3297067284584045e-01</internalNodes>
      <leafValues>
        9.1639220714569092e-01 -4.3578663468360901e-01</leafValues></_>
    <_>
      <internalNodes>
        0 -1 61210 2.9182560741901398e-02</internalNodes>
      <leafValues>
        -4.7436147928237915e-01 7.9221546649932861e-01</leafValues></_>
    <_>
      <internalNodes>
        0 -1 55549 -1.7800942296162248e-03</internalNodes>
      <leafValues>
        -7.5412851572036743e-01 4.7795438766479492e-01</leafValues></_>
    <_>
      <internalNodes>
        0 -1 134212 8.5046840831637383e-04</internalNodes>
      <leafValues>
        4.0173014998435974e-01 -7.1591335535049438e-01</leafValues></_>
    <_>
      <internalNodes>
        0 -1 136714 -3.8472697138786316e-02</internalNodes>
      <leafValues>
        7.0977646112442017e-01 -5.0104069709777832e-01</leafValues></_>
    <_>
      <internalNodes>
        0 -1 60264 -1.5369288157671690e-03</internalNodes>
      <leafValues>
        -9.6435296535491943e-01 3.4510689973831177e-01</leafValues></_>
    <_>
      <internalNodes>
        0 -1 132505 -1.6745227575302124e-01</internalNodes>
      <leafValues>
        1. -3.6782410740852356e-01</leafValues></_></weakClassifiers></stage2>
</opencv_storage>
