<?xml version="1.0"?>
<opencv_storage>
<stage1>
  <maxWeakCount>7</maxWeakCount>
  <stageThreshold>-1.1277045309543610e-01</stageThreshold>
  <weakClassifiers>
    <_>
      <internalNodes>
        0 -1 143540 -6.1080567538738251e-02</internalNodes>
      <leafValues>
        8.4090906381607056e-01 -4.7222220897674561e-01</leafValues></_>
    <_>
      <internalNodes>
        0 -1 11488 -8.5357122588902712e-04</internalNodes>
      <leafValues>
        -8.5149979591369629e-01 5.4505139589309692e-01</leafValues></_>
    <_>
      <internalNodes>
        0 -1 70957 -2.0427994895726442e-03</internalNodes>
      <leafValues>
        -9.2649793624877930e-01 3.7254685163497925e-01</leafValues></_>
    <_>
      <internalNodes>
        0 -1 38834 3.1322084367275238e-02</internalNodes>
      <leafValues>
        -6.9853603839874268e-01 5.4394084215164185e-01</leafValues></_>
    <_>
      <internalNodes>
        0 -1 96963 -4.3739974498748779e-02</internalNodes>
      <leafValues>
        9.5334994792938232e-01 -5.3887796401977539e-01</leafValues></_>
    <_>
      <internalNodes>
        0 -1 160073 8.9432962704449892e-04</internalNodes>
      <leafValues>
        4.7235417366027832e-01 -9.7549593448638916e-01</leafValues></_>
    <_>
      <internalNodes>
        0 -1 37784 -7.6220778282731771e-04</internalNodes>
      <leafValues>
        -8.9644175767898560e-01 3.6098763346672058e-01</leafValues></_></weakClassifiers></stage1>
</opencv_storage>
