<?xml version="1.0"?>
<opencv_storage>
<stage6>
  <maxWeakCount>8</maxWeakCount>
  <stageThreshold>2.7561801671981812e-01</stageThreshold>
  <weakClassifiers>
    <_>
      <internalNodes>
        0 -1 6562 -6.1862856149673462e-01</internalNodes>
      <leafValues>
        8.6666667461395264e-01 -1.1999999731779099e-01</leafValues></_>
    <_>
      <internalNodes>
        0 -1 14396 1.7405516700819135e-03</internalNodes>
      <leafValues>
        -4.4994804263114929e-01 5.4945033788681030e-01</leafValues></_>
    <_>
      <internalNodes>
        0 -1 82928 -3.3138650469481945e-03</internalNodes>
      <leafValues>
        -6.8881756067276001e-01 3.9905145764350891e-01</leafValues></_>
    <_>
      <internalNodes>
        0 -1 1105 -3.6921989521943033e-04</internalNodes>
      <leafValues>
        -8.5484731197357178e-01 2.9799380898475647e-01</leafValues></_>
    <_>
      <internalNodes>
        0 -1 138992 -5.9662558138370514e-02</internalNodes>
      <leafValues>
        4.4467160105705261e-01 -5.7247090339660645e-01</leafValues></_>
    <_>
      <internalNodes>
        0 -1 158498 5.6358613073825836e-03</internalNodes>
      <leafValues>
        3.1082671880722046e-01 -9.0682625770568848e-01</leafValues></_>
    <_>
      <internalNodes>
        0 -1 43021 -1.7046972643584013e-03</internalNodes>
      <leafValues>
        -7.8328758478164673e-01 2.5141420960426331e-01</leafValues></_>
    <_>
      <internalNodes>
        0 -1 62070 2.0591929205693305e-04</internalNodes>
      <leafValues>
        4.1286700963973999e-01 -6.4013713598251343e-01</leafValues></_></weakClassifiers></stage6>
</opencv_storage>
