<?xml version="1.0"?>
<opencv_storage>
<stage49>
  <maxWeakCount>100</maxWeakCount>
  <stageThreshold>-5.1129990816116333e-01</stageThreshold>
  <weakClassifiers>
    <_>
      <internalNodes>
        0 -1 132323 4.9564288929104805e-04</internalNodes>
      <leafValues>
        2.4976614117622375e-01 5.4060322046279907e-01</leafValues></_>
    <_>
      <internalNodes>
        0 -1 18979 -1.6218407545238733e-03</internalNodes>
      <leafValues>
        3.1292039155960083e-01 -4.4617436826229095e-02</leafValues></_>
    <_>
      <internalNodes>
        0 -1 133736 5.7625095359981060e-03</internalNodes>
      <leafValues>
        -5.8718580752611160e-02 5.2027195692062378e-01</leafValues></_>
    <_>
      <internalNodes>
        0 -1 76406 2.1586608141660690e-02</internalNodes>
      <leafValues>
        -6.0143388807773590e-02 3.3519467711448669e-01</leafValues></_>
    <_>
      <internalNodes>
        0 -1 105901 -3.3739036880433559e-03</internalNodes>
      <leafValues>
        3.9305743575096130e-01 -6.3458912074565887e-02</leafValues></_>
    <_>
      <internalNodes>
        0 -1 159724 5.0930826546391472e-05</internalNodes>
      <leafValues>
        9.9478334188461304e-02 -1.7323614656925201e-01</leafValues></_>
    <_>
      <internalNodes>
        0 -1 133143 -3.2782554626464844e-03</internalNodes>
      <leafValues>
        -5.8756172657012939e-01 2.4795964360237122e-02</leafValues></_>
    <_>
      <internalNodes>
        0 -1 132987 -3.2044327817857265e-03</internalNodes>
      <leafValues>
        2.4217216670513153e-01 -7.0524893701076508e-02</leafValues></_>
    <_>
      <internalNodes>
        0 -1 78204 -4.0657561272382736e-02</internalNodes>
      <leafValues>
        -5.7841807603836060e-01 3.3489979803562164e-02</leafValues></_>
    <_>
      <internalNodes>
        0 -1 75827 1.1028775945305824e-02</internalNodes>
      <leafValues>
        -3.8116376847028732e-02 5.1629447937011719e-01</leafValues></_>
    <_>
      <internalNodes>
        0 -1 100906 -7.8492816537618637e-03</internalNodes>
      <leafValues>
        7.2267603874206543e-01 -2.3911675438284874e-02</leafValues></_>
    <_>
      <internalNodes>
        0 -1 48735 -3.4802776644937694e-04</internalNodes>
      <leafValues>
        -2.7339404821395874e-01 7.5240939855575562e-02</leafValues></_>
    <_>
      <internalNodes>
        0 -1 241 -1.1145511234644800e-04</internalNodes>
      <leafValues>
        -1.7428933084011078e-01 9.5221377909183502e-02</leafValues></_>
    <_>
      <internalNodes>
        0 -1 32514 1.8030174076557159e-02</internalNodes>
      <leafValues>
        3.1937532126903534e-02 -5.2859818935394287e-01</leafValues></_>
    <_>
      <internalNodes>
        0 -1 97563 -3.4147477708756924e-03</internalNodes>
      <leafValues>
        2.8245785832405090e-01 -6.3282154500484467e-02</leafValues></_>
    <_>
      <internalNodes>
        0 -1 147249 1.7017830163240433e-02</internalNodes>
      <leafValues>
        -1.6908302903175354e-02 8.0645245313644409e-01</leafValues></_>
    <_>
      <internalNodes>
        0 -1 117723 -2.0324293524026871e-02</internalNodes>
      <leafValues>
        -4.6338987350463867e-01 4.6156823635101318e-02</leafValues></_>
    <_>
      <internalNodes>
        0 -1 123518 -4.4099027290940285e-03</internalNodes>
      <leafValues>
        -2.0394681021571159e-02 8.4740126132965088e-01</leafValues></_>
    <_>
      <internalNodes>
        0 -1 13873 1.1773617006838322e-03</internalNodes>
      <leafValues>
        1.3347451388835907e-01 -1.2786251306533813e-01</leafValues></_>
    <_>
      <internalNodes>
        0 -1 27004 1.3397391885519028e-02</internalNodes>
      <leafValues>
        1.0204203426837921e-01 -1.6542553901672363e-01</leafValues></_>
    <_>
      <internalNodes>
        0 -1 117281 -1.6308704018592834e-01</internalNodes>
      <leafValues>
        4.0174338221549988e-01 -3.8022287189960480e-02</leafValues></_>
    <_>
      <internalNodes>
        0 -1 13008 2.5795262772589922e-03</internalNodes>
      <leafValues>
        -3.3157441765069962e-02 4.5638331770896912e-01</leafValues></_>
    <_>
      <internalNodes>
        0 -1 135349 9.8711930215358734e-02</internalNodes>
      <leafValues>
        -1.9321976229548454e-02 7.2431755065917969e-01</leafValues></_>
    <_>
      <internalNodes>
        0 -1 62118 -3.2991655170917511e-02</internalNodes>
      <leafValues>
        4.9300533533096313e-01 -2.9035136103630066e-02</leafValues></_>
    <_>
      <internalNodes>
        0 -1 113082 -6.7298923386260867e-04</internalNodes>
      <leafValues>
        2.3747397959232330e-01 -7.6981768012046814e-02</leafValues></_>
    <_>
      <internalNodes>
        0 -1 100751 -8.9912839233875275e-02</internalNodes>
      <leafValues>
        -8.7772947549819946e-01 1.9837277010083199e-02</leafValues></_>
    <_>
      <internalNodes>
        0 -1 77719 -3.2890653610229492e-01</internalNodes>
      <leafValues>
        2.0966735482215881e-01 -8.5153885185718536e-02</leafValues></_>
    <_>
      <internalNodes>
        0 -1 111439 -3.0778462067246437e-02</internalNodes>
      <leafValues>
        -1.1891190707683563e-01 1.3756692409515381e-01</leafValues></_>
    <_>
      <internalNodes>
        0 -1 149598 -1.0367397964000702e-01</internalNodes>
      <leafValues>
        4.0716972202062607e-02 -3.9447650313377380e-01</leafValues></_>
    <_>
      <internalNodes>
        0 -1 49468 -1.6856383532285690e-02</internalNodes>
      <leafValues>
        -4.6735040843486786e-02 3.3853930234909058e-01</leafValues></_>
    <_>
      <internalNodes>
        0 -1 137861 3.9603365585207939e-03</internalNodes>
      <leafValues>
        2.2769594565033913e-02 -7.4448215961456299e-01</leafValues></_>
    <_>
      <internalNodes>
        0 -1 82390 -3.5604238510131836e-02</internalNodes>
      <leafValues>
        5.1546436548233032e-01 -3.2704684883356094e-02</leafValues></_>
    <_>
      <internalNodes>
        0 -1 60855 2.1505068987607956e-02</internalNodes>
      <leafValues>
        -7.1428969502449036e-02 2.5415167212486267e-01</leafValues></_>
    <_>
      <internalNodes>
        0 -1 40384 -2.9058916494250298e-02</internalNodes>
      <leafValues>
        2.0460705459117889e-01 -7.9960748553276062e-02</leafValues></_>
    <_>
      <internalNodes>
        0 -1 144340 -9.9617121741175652e-03</internalNodes>
      <leafValues>
        -2.4671716988086700e-01 6.8275682628154755e-02</leafValues></_>
    <_>
      <internalNodes>
        0 -1 4940 2.7278352528810501e-02</internalNodes>
      <leafValues>
        1.7299313843250275e-01 -1.1264009773731232e-01</leafValues></_>
    <_>
      <internalNodes>
        0 -1 60262 -2.5578141212463379e-03</internalNodes>
      <leafValues>
        3.8359664380550385e-02 -4.4248366355895996e-01</leafValues></_>
    <_>
      <internalNodes>
        0 -1 38333 -7.0252642035484314e-02</internalNodes>
      <leafValues>
        -2.7616225183010101e-02 6.4408081769943237e-01</leafValues></_>
    <_>
      <internalNodes>
        0 -1 113887 4.2216363362967968e-03</internalNodes>
      <leafValues>
        4.8631925135850906e-02 -3.5681420564651489e-01</leafValues></_>
    <_>
      <internalNodes>
        0 -1 79333 4.0427758358418941e-04</internalNodes>
      <leafValues>
        -5.5153798311948776e-02 2.9960834980010986e-01</leafValues></_>
    <_>
      <internalNodes>
        0 -1 13323 2.9503670521080494e-03</internalNodes>
      <leafValues>
        5.5196095257997513e-02 -2.7749359607696533e-01</leafValues></_>
    <_>
      <internalNodes>
        0 -1 12913 -1.1466447263956070e-02</internalNodes>
      <leafValues>
        6.6965824365615845e-01 -2.2659854963421822e-02</leafValues></_>
    <_>
      <internalNodes>
        0 -1 58642 6.1028813943266869e-03</internalNodes>
      <leafValues>
        3.6658875644207001e-02 -5.2968055009841919e-01</leafValues></_>
    <_>
      <internalNodes>
        0 -1 80721 -7.0714514004066586e-04</internalNodes>
      <leafValues>
        1.4743435382843018e-01 -1.1321554332971573e-01</leafValues></_>
    <_>
      <internalNodes>
        0 -1 13137 1.6751214861869812e-02</internalNodes>
      <leafValues>
        -6.9378606975078583e-02 2.4011449515819550e-01</leafValues></_>
    <_>
      <internalNodes>
        0 -1 106478 -1.4054855331778526e-02</internalNodes>
      <leafValues>
        -5.2562218904495239e-01 3.4820679575204849e-02</leafValues></_>
    <_>
      <internalNodes>
        0 -1 130179 -1.6589879523962736e-03</internalNodes>
      <leafValues>
        3.0687129497528076e-01 -5.8555405586957932e-02</leafValues></_>
    <_>
      <internalNodes>
        0 -1 880 1.3439539074897766e-01</internalNodes>
      <leafValues>
        -1.4437797665596008e-01 1.2320055067539215e-01</leafValues></_>
    <_>
      <internalNodes>
        0 -1 4115 2.4808093905448914e-02</internalNodes>
      <leafValues>
        5.3617425262928009e-02 -4.0454739332199097e-01</leafValues></_>
    <_>
      <internalNodes>
        0 -1 23657 1.8608814571052790e-03</internalNodes>
      <leafValues>
        1.5437728166580200e-01 -1.3604451715946198e-01</leafValues></_>
    <_>
      <internalNodes>
        0 -1 151365 -8.2602456212043762e-02</internalNodes>
      <leafValues>
        -7.0428717136383057e-01 2.5787509977817535e-02</leafValues></_>
    <_>
      <internalNodes>
        0 -1 151183 -1.2564079836010933e-02</internalNodes>
      <leafValues>
        1.9805845618247986e-01 -1.1232651770114899e-01</leafValues></_>
    <_>
      <internalNodes>
        0 -1 156139 -1.2986672809347510e-03</internalNodes>
      <leafValues>
        -1.7907412350177765e-01 1.0297386348247528e-01</leafValues></_>
    <_>
      <internalNodes>
        0 -1 68623 -1.2887515127658844e-02</internalNodes>
      <leafValues>
        -6.1477828025817871e-01 2.8161412104964256e-02</leafValues></_>
    <_>
      <internalNodes>
        0 -1 40736 9.5846811309456825e-03</internalNodes>
      <leafValues>
        -7.7607981860637665e-02 2.2795788943767548e-01</leafValues></_>
    <_>
      <internalNodes>
        0 -1 153613 -7.9030805500224233e-04</internalNodes>
      <leafValues>
        1.6750888526439667e-01 -1.0203016549348831e-01</leafValues></_>
    <_>
      <internalNodes>
        0 -1 128625 -2.4657454341650009e-02</internalNodes>
      <leafValues>
        5.0088518857955933e-01 -3.3876370638608932e-02</leafValues></_>
    <_>
      <internalNodes>
        0 -1 160685 -1.9752532243728638e-01</internalNodes>
      <leafValues>
        2.7136623859405518e-01 -6.9547861814498901e-02</leafValues></_>
    <_>
      <internalNodes>
        0 -1 59585 3.3101087901741266e-03</internalNodes>
      <leafValues>
        -8.6562663316726685e-02 2.0103731751441956e-01</leafValues></_>
    <_>
      <internalNodes>
        0 -1 8156 -3.6150729283690453e-03</internalNodes>
      <leafValues>
        -4.7740557789802551e-01 3.7932343780994415e-02</leafValues></_>
    <_>
      <internalNodes>
        0 -1 12232 3.3383705886080861e-04</internalNodes>
      <leafValues>
        1.2468738108873367e-01 -1.4157959818840027e-01</leafValues></_>
    <_>
      <internalNodes>
        0 -1 11507 -1.1623522732406855e-03</internalNodes>
      <leafValues>
        -3.1424820423126221e-01 6.4892299473285675e-02</leafValues></_>
    <_>
      <internalNodes>
        0 -1 100034 2.6430394500494003e-03</internalNodes>
      <leafValues>
        -7.9982869327068329e-02 2.3861463367938995e-01</leafValues></_>
    <_>
      <internalNodes>
        0 -1 108092 -2.3177885450422764e-03</internalNodes>
      <leafValues>
        2.4588742852210999e-01 -7.5612969696521759e-02</leafValues></_>
    <_>
      <internalNodes>
        0 -1 116040 4.7074991744011641e-04</internalNodes>
      <leafValues>
        1.7351514101028442e-01 -1.2110343575477600e-01</leafValues></_>
    <_>
      <internalNodes>
        0 -1 109121 -3.3004663418978453e-04</internalNodes>
      <leafValues>
        -2.7345088124275208e-01 7.0630460977554321e-02</leafValues></_>
    <_>
      <internalNodes>
        0 -1 79510 -1.6153257340192795e-02</internalNodes>
      <leafValues>
        3.6910563707351685e-01 -4.3430559337139130e-02</leafValues></_>
    <_>
      <internalNodes>
        0 -1 45364 -1.6576012969017029e-01</internalNodes>
      <leafValues>
        -5.0709605216979980e-01 3.6216188222169876e-02</leafValues></_>
    <_>
      <internalNodes>
        0 -1 112524 -2.0700260065495968e-03</internalNodes>
      <leafValues>
        2.4750296771526337e-01 -7.8547537326812744e-02</leafValues></_>
    <_>
      <internalNodes>
        0 -1 113082 -3.5715699195861816e-03</internalNodes>
      <leafValues>
        -6.5886068344116211e-01 3.4400768578052521e-02</leafValues></_>
    <_>
      <internalNodes>
        0 -1 162085 -2.3027438146527857e-04</internalNodes>
      <leafValues>
        1.1428399384021759e-01 -1.5984652936458588e-01</leafValues></_>
    <_>
      <internalNodes>
        0 -1 36939 3.6909822374582291e-03</internalNodes>
      <leafValues>
        -3.4107387065887451e-02 4.7251695394515991e-01</leafValues></_>
    <_>
      <internalNodes>
        0 -1 129429 9.2557375319302082e-04</internalNodes>
      <leafValues>
        -9.4474449753761292e-02 1.7081597447395325e-01</leafValues></_>
    <_>
      <internalNodes>
        0 -1 140013 -5.6278151459991932e-03</internalNodes>
      <leafValues>
        -8.1595885753631592e-01 2.4281736463308334e-02</leafValues></_>
    <_>
      <internalNodes>
        0 -1 28656 -1.6106830444186926e-03</internalNodes>
      <leafValues>
        -7.5876873731613159e-01 2.0756745710968971e-02</leafValues></_>
    <_>
      <internalNodes>
        0 -1 156295 -1.1304826475679874e-02</internalNodes>
      <leafValues>
        -7.2417354583740234e-01 2.0443987101316452e-02</leafValues></_>
    <_>
      <internalNodes>
        0 -1 112179 -4.4710012152791023e-03</internalNodes>
      <leafValues>
        7.1636480093002319e-01 -2.8612911701202393e-02</leafValues></_>
    <_>
      <internalNodes>
        0 -1 101134 3.0902439355850220e-01</internalNodes>
      <leafValues>
        -3.9547614753246307e-02 3.7602764368057251e-01</leafValues></_>
    <_>
      <internalNodes>
        0 -1 131445 6.2174700200557709e-02</internalNodes>
      <leafValues>
        4.7302778810262680e-02 -4.3767666816711426e-01</leafValues></_>
    <_>
      <internalNodes>
        0 -1 92283 -8.5088203195482492e-04</internalNodes>
      <leafValues>
        2.9240238666534424e-01 -5.8038793504238129e-02</leafValues></_>
    <_>
      <internalNodes>
        0 -1 151337 1.2762811034917831e-02</internalNodes>
      <leafValues>
        -7.9683348536491394e-02 2.1108679473400116e-01</leafValues></_>
    <_>
      <internalNodes>
        0 -1 151806 -1.0580240632407367e-04</internalNodes>
      <leafValues>
        1.0163345187902451e-01 -1.9932846724987030e-01</leafValues></_>
    <_>
      <internalNodes>
        0 -1 154978 -8.8952770456671715e-03</internalNodes>
      <leafValues>
        -2.3050425946712494e-01 8.2435585558414459e-02</leafValues></_>
    <_>
      <internalNodes>
        0 -1 49415 4.7190347686409950e-03</internalNodes>
      <leafValues>
        4.0188748389482498e-02 -4.0607601404190063e-01</leafValues></_>
    <_>
      <internalNodes>
        0 -1 110182 4.8037096858024597e-03</internalNodes>
      <leafValues>
        6.7745931446552277e-02 -2.6765766739845276e-01</leafValues></_>
    <_>
      <internalNodes>
        0 -1 12373 -1.4934490434825420e-02</internalNodes>
      <leafValues>
        3.0357965826988220e-01 -5.7579711079597473e-02</leafValues></_>
    <_>
      <internalNodes>
        0 -1 13294 -3.7005987018346786e-02</internalNodes>
      <leafValues>
        -6.1724299192428589e-01 2.9363689944148064e-02</leafValues></_>
    <_>
      <internalNodes>
        0 -1 60377 -9.3862060457468033e-03</internalNodes>
      <leafValues>
        6.0497993230819702e-01 -3.3771567046642303e-02</leafValues></_>
    <_>
      <internalNodes>
        0 -1 137366 2.6170602068305016e-03</internalNodes>
      <leafValues>
        -1.6664266586303711e-02 7.9628998041152954e-01</leafValues></_>
    <_>
      <internalNodes>
        0 -1 131853 7.1014673449099064e-04</internalNodes>
      <leafValues>
        9.5329672098159790e-02 -2.1286316215991974e-01</leafValues></_>
    <_>
      <internalNodes>
        0 -1 130235 -1.4404098037630320e-03</internalNodes>
      <leafValues>
        3.5013109445571899e-01 -4.7805696725845337e-02</leafValues></_>
    <_>
      <internalNodes>
        0 -1 161974 1.8604012439027429e-04</internalNodes>
      <leafValues>
        9.1892875730991364e-02 -2.0392958819866180e-01</leafValues></_>
    <_>
      <internalNodes>
        0 -1 75243 3.6533530801534653e-02</internalNodes>
      <leafValues>
        -3.2691519707441330e-02 5.4206633567810059e-01</leafValues></_>
    <_>
      <internalNodes>
        0 -1 78986 5.9326998889446259e-02</internalNodes>
      <leafValues>
        3.5851348191499710e-02 -4.6660363674163818e-01</leafValues></_>
    <_>
      <internalNodes>
        0 -1 97335 2.7032651007175446e-02</internalNodes>
      <leafValues>
        -4.1247509419918060e-02 4.3523925542831421e-01</leafValues></_>
    <_>
      <internalNodes>
        0 -1 80617 -2.3504745331592858e-04</internalNodes>
      <leafValues>
        1.1560522019863129e-01 -1.4574123919010162e-01</leafValues></_>
    <_>
      <internalNodes>
        0 -1 37879 6.0322851641103625e-04</internalNodes>
      <leafValues>
        -7.1939557790756226e-02 2.5844720005989075e-01</leafValues></_>
    <_>
      <internalNodes>
        0 -1 139108 8.4369499236345291e-03</internalNodes>
      <leafValues>
        3.6793623119592667e-02 -6.0657918453216553e-01</leafValues></_>
    <_>
      <internalNodes>
        0 -1 47473 7.3684086091816425e-03</internalNodes>
      <leafValues>
        -2.8224444016814232e-02 6.3035500049591064e-01</leafValues></_>
    <_>
      <internalNodes>
        0 -1 70442 5.4393373429775238e-03</internalNodes>
      <leafValues>
        5.7593625038862228e-02 -2.9808107018470764e-01</leafValues></_></weakClassifiers></stage49>
</opencv_storage>
