<?xml version="1.0"?>
<opencv_storage>
<stage12>
  <maxWeakCount>59</maxWeakCount>
  <stageThreshold>-9.8303484916687012e-01</stageThreshold>
  <weakClassifiers>
    <_>
      <internalNodes>
        0 -1 13470 3.5787816159427166e-03</internalNodes>
      <leafValues>
        5.0821976835258020e-18 6.2814068794250488e-01</leafValues></_>
    <_>
      <internalNodes>
        0 -1 161238 -2.0833192393183708e-03</internalNodes>
      <leafValues>
        3.7123209238052368e-01 -2.9313269257545471e-01</leafValues></_>
    <_>
      <internalNodes>
        0 -1 146207 -2.3352866992354393e-03</internalNodes>
      <leafValues>
        3.8020193576812744e-01 -2.1621228754520416e-01</leafValues></_>
    <_>
      <internalNodes>
        0 -1 15434 -1.2045116163790226e-03</internalNodes>
      <leafValues>
        4.6956324577331543e-01 -1.8325559794902802e-01</leafValues></_>
    <_>
      <internalNodes>
        0 -1 32579 2.6429365389049053e-03</internalNodes>
      <leafValues>
        -1.7467634379863739e-01 4.2633125185966492e-01</leafValues></_>
    <_>
      <internalNodes>
        0 -1 143222 7.4841897003352642e-04</internalNodes>
      <leafValues>
        -1.7486163973808289e-01 3.4316188097000122e-01</leafValues></_>
    <_>
      <internalNodes>
        0 -1 143053 -7.8418350312858820e-04</internalNodes>
      <leafValues>
        2.9152059555053711e-01 -1.9767118990421295e-01</leafValues></_>
    <_>
      <internalNodes>
        0 -1 76323 2.1480722352862358e-03</internalNodes>
      <leafValues>
        -1.6366760432720184e-01 2.9752400517463684e-01</leafValues></_>
    <_>
      <internalNodes>
        0 -1 142182 1.3449925463646650e-03</internalNodes>
      <leafValues>
        -1.4777812361717224e-01 4.1203808784484863e-01</leafValues></_>
    <_>
      <internalNodes>
        0 -1 161789 -1.2596389278769493e-03</internalNodes>
      <leafValues>
        -6.9179081916809082e-01 9.0420238673686981e-02</leafValues></_>
    <_>
      <internalNodes>
        0 -1 6699 2.7060890570282936e-03</internalNodes>
      <leafValues>
        -1.6481290757656097e-01 2.9099628329277039e-01</leafValues></_>
    <_>
      <internalNodes>
        0 -1 22697 9.8547199741005898e-04</internalNodes>
      <leafValues>
        -1.6408698260784149e-01 3.7037679553031921e-01</leafValues></_>
    <_>
      <internalNodes>
        0 -1 13294 -4.6021216548979282e-03</internalNodes>
      <leafValues>
        2.5855681300163269e-01 -2.1073785424232483e-01</leafValues></_>
    <_>
      <internalNodes>
        0 -1 158164 -3.8661514408886433e-03</internalNodes>
      <leafValues>
        2.7537786960601807e-01 -1.7641068994998932e-01</leafValues></_>
    <_>
      <internalNodes>
        0 -1 158314 3.1291865743696690e-03</internalNodes>
      <leafValues>
        -1.1114040017127991e-01 5.0156873464584351e-01</leafValues></_>
    <_>
      <internalNodes>
        0 -1 36896 9.8662674427032471e-03</internalNodes>
      <leafValues>
        1.0212072730064392e-01 -5.9243470430374146e-01</leafValues></_>
    <_>
      <internalNodes>
        0 -1 118295 1.1076510418206453e-03</internalNodes>
      <leafValues>
        -1.8143112957477570e-01 2.8837448358535767e-01</leafValues></_>
    <_>
      <internalNodes>
        0 -1 116587 -1.2042899616062641e-03</internalNodes>
      <leafValues>
        3.2893723249435425e-01 -1.9679903984069824e-01</leafValues></_>
    <_>
      <internalNodes>
        0 -1 148356 -2.1750400774180889e-03</internalNodes>
      <leafValues>
        2.8067404031753540e-01 -1.4610065519809723e-01</leafValues></_>
    <_>
      <internalNodes>
        0 -1 153961 1.5983567573130131e-03</internalNodes>
      <leafValues>
        -1.1027398705482483e-01 4.0327087044715881e-01</leafValues></_>
    <_>
      <internalNodes>
        0 -1 159925 -1.0081840446218848e-03</internalNodes>
      <leafValues>
        1.9845092296600342e-01 -2.3301038146018982e-01</leafValues></_>
    <_>
      <internalNodes>
        0 -1 125080 2.6681099552661180e-03</internalNodes>
      <leafValues>
        -1.0972540080547333e-01 4.4514071941375732e-01</leafValues></_>
    <_>
      <internalNodes>
        0 -1 431 8.9511806145310402e-03</internalNodes>
      <leafValues>
        -2.7926090359687805e-01 1.7518389225006104e-01</leafValues></_>
    <_>
      <internalNodes>
        0 -1 131154 -1.2490755878388882e-02</internalNodes>
      <leafValues>
        -5.3857332468032837e-01 8.2005850970745087e-02</leafValues></_>
    <_>
      <internalNodes>
        0 -1 90607 -1.0323890019208193e-03</internalNodes>
      <leafValues>
        3.1208667159080505e-01 -1.4176119863986969e-01</leafValues></_>
    <_>
      <internalNodes>
        0 -1 102738 7.0191780105233192e-04</internalNodes>
      <leafValues>
        -1.8723785877227783e-01 3.3912837505340576e-01</leafValues></_>
    <_>
      <internalNodes>
        0 -1 147572 -1.3999587390571833e-03</internalNodes>
      <leafValues>
        3.9232510328292847e-01 -1.0211967676877975e-01</leafValues></_>
    <_>
      <internalNodes>
        0 -1 98681 -6.9117639213800430e-04</internalNodes>
      <leafValues>
        2.5388795137405396e-01 -1.6364438831806183e-01</leafValues></_>
    <_>
      <internalNodes>
        0 -1 58269 1.0355316102504730e-02</internalNodes>
      <leafValues>
        9.6990659832954407e-02 -4.4748604297637939e-01</leafValues></_>
    <_>
      <internalNodes>
        0 -1 147573 -5.3748243954032660e-04</internalNodes>
      <leafValues>
        2.4508072435855865e-01 -1.9353105127811432e-01</leafValues></_>
    <_>
      <internalNodes>
        0 -1 54302 1.5620316844433546e-03</internalNodes>
      <leafValues>
        -2.0119595527648926e-01 2.3833020031452179e-01</leafValues></_>
    <_>
      <internalNodes>
        0 -1 48740 -1.7799758643377572e-04</internalNodes>
      <leafValues>
        3.3998247981071472e-01 -1.4561991393566132e-01</leafValues></_>
    <_>
      <internalNodes>
        0 -1 3927 1.6272015869617462e-02</internalNodes>
      <leafValues>
        8.0129407346248627e-02 -6.3297426700592041e-01</leafValues></_>
    <_>
      <internalNodes>
        0 -1 16339 8.9452054817229509e-04</internalNodes>
      <leafValues>
        -2.3017503321170807e-01 1.8691904842853546e-01</leafValues></_>
    <_>
      <internalNodes>
        0 -1 21610 -2.8116770554333925e-03</internalNodes>
      <leafValues>
        -3.9893430471420288e-01 1.1102519184350967e-01</leafValues></_>
    <_>
      <internalNodes>
        0 -1 135436 -3.5057964269071817e-03</internalNodes>
      <leafValues>
        -6.7723959684371948e-01 6.6066727042198181e-02</leafValues></_>
    <_>
      <internalNodes>
        0 -1 53091 3.8860365748405457e-02</internalNodes>
      <leafValues>
        5.3670540452003479e-02 -7.6266330480575562e-01</leafValues></_>
    <_>
      <internalNodes>
        0 -1 80779 5.5267976131290197e-04</internalNodes>
      <leafValues>
        -1.6509640216827393e-01 2.7081876993179321e-01</leafValues></_>
    <_>
      <internalNodes>
        0 -1 160647 9.4319635536521673e-04</internalNodes>
      <leafValues>
        -1.5763123333454132e-01 2.4959722161293030e-01</leafValues></_>
    <_>
      <internalNodes>
        0 -1 151139 -4.4443103251978755e-04</internalNodes>
      <leafValues>
        -1.9850018620491028e-01 2.0306073129177094e-01</leafValues></_>
    <_>
      <internalNodes>
        0 -1 159832 -8.3149352576583624e-04</internalNodes>
      <leafValues>
        -3.5118737816810608e-01 1.2398970127105713e-01</leafValues></_>
    <_>
      <internalNodes>
        0 -1 69267 3.5587669117376208e-04</internalNodes>
      <leafValues>
        -1.5371794998645782e-01 2.9204738140106201e-01</leafValues></_>
    <_>
      <internalNodes>
        0 -1 12116 5.8352615684270859e-02</internalNodes>
      <leafValues>
        7.1831747889518738e-02 -5.6198585033416748e-01</leafValues></_>
    <_>
      <internalNodes>
        0 -1 126384 -2.2565950639545918e-03</internalNodes>
      <leafValues>
        3.3581998944282532e-01 -1.2067994475364685e-01</leafValues></_>
    <_>
      <internalNodes>
        0 -1 121153 1.0033861035481095e-03</internalNodes>
      <leafValues>
        -1.1611393094062805e-01 3.8855850696563721e-01</leafValues></_>
    <_>
      <internalNodes>
        0 -1 39957 3.2060989178717136e-03</internalNodes>
      <leafValues>
        7.7024243772029877e-02 -5.5124795436859131e-01</leafValues></_>
    <_>
      <internalNodes>
        0 -1 123892 1.6087824478745461e-03</internalNodes>
      <leafValues>
        -1.3699369132518768e-01 2.9324883222579956e-01</leafValues></_>
    <_>
      <internalNodes>
        0 -1 161077 -5.5079383309930563e-04</internalNodes>
      <leafValues>
        2.0736901462078094e-01 -1.7864035069942474e-01</leafValues></_>
    <_>
      <internalNodes>
        0 -1 31739 -1.3293829560279846e-01</internalNodes>
      <leafValues>
        2.8369385004043579e-01 -1.4556612074375153e-01</leafValues></_>
    <_>
      <internalNodes>
        0 -1 152313 3.8859457708895206e-04</internalNodes>
      <leafValues>
        -1.3329991698265076e-01 2.6861801743507385e-01</leafValues></_>
    <_>
      <internalNodes>
        0 -1 35864 1.4180298894643784e-03</internalNodes>
      <leafValues>
        -1.7253628373146057e-01 2.3130890727043152e-01</leafValues></_>
    <_>
      <internalNodes>
        0 -1 33243 -1.0417927987873554e-03</internalNodes>
      <leafValues>
        3.7705290317535400e-01 -1.1712037026882172e-01</leafValues></_>
    <_>
      <internalNodes>
        0 -1 135101 -2.3195813409984112e-03</internalNodes>
      <leafValues>
        2.8443834185600281e-01 -1.4313010871410370e-01</leafValues></_>
    <_>
      <internalNodes>
        0 -1 99839 1.9190388265997171e-03</internalNodes>
      <leafValues>
        -1.8576768040657043e-01 2.1511943638324738e-01</leafValues></_>
    <_>
      <internalNodes>
        0 -1 38989 1.0458448668941855e-03</internalNodes>
      <leafValues>
        -2.1957065165042877e-01 1.8377305567264557e-01</leafValues></_>
    <_>
      <internalNodes>
        0 -1 40736 -9.1010547475889325e-04</internalNodes>
      <leafValues>
        3.3952954411506653e-01 -1.3509649038314819e-01</leafValues></_>
    <_>
      <internalNodes>
        0 -1 155313 3.0338426586240530e-03</internalNodes>
      <leafValues>
        6.8251542747020721e-02 -6.4597141742706299e-01</leafValues></_>
    <_>
      <internalNodes>
        0 -1 15193 -6.8773351609706879e-02</internalNodes>
      <leafValues>
        6.9064724445343018e-01 -6.3034884631633759e-02</leafValues></_>
    <_>
      <internalNodes>
        0 -1 1002 1.8402871489524841e-01</internalNodes>
      <leafValues>
        -1.7930850386619568e-01 2.3384471237659454e-01</leafValues></_></weakClassifiers></stage12>
</opencv_storage>
