<?xml version="1.0"?>
<opencv_storage>
<stage4>
  <maxWeakCount>5</maxWeakCount>
  <stageThreshold>-3.2837051153182983e-01</stageThreshold>
  <weakClassifiers>
    <_>
      <internalNodes>
        0 -1 158103 7.1782123995944858e-04</internalNodes>
      <leafValues>
        4.7368422150611877e-01 -8.5185188055038452e-01</leafValues></_>
    <_>
      <internalNodes>
        0 -1 97137 -3.7720996886491776e-02</internalNodes>
      <leafValues>
        8.2477051019668579e-01 -4.0437188744544983e-01</leafValues></_>
    <_>
      <internalNodes>
        0 -1 71545 -1.5280093066394329e-04</internalNodes>
      <leafValues>
        -7.7250391244888306e-01 4.1500779986381531e-01</leafValues></_>
    <_>
      <internalNodes>
        0 -1 134871 2.4243917316198349e-02</internalNodes>
      <leafValues>
        -4.2673170566558838e-01 6.7084425687789917e-01</leafValues></_>
    <_>
      <internalNodes>
        0 -1 76676 -5.4901555180549622e-02</internalNodes>
      <leafValues>
        7.0993345975875854e-01 -3.8595893979072571e-01</leafValues></_></weakClassifiers></stage4>
</opencv_storage>
