<?xml version="1.0"?>
<opencv_storage>
<stage10>
  <maxWeakCount>5</maxWeakCount>
  <stageThreshold>9.6231117844581604e-02</stageThreshold>
  <weakClassifiers>
    <_>
      <internalNodes>
        0 -1 161237 -3.1004468910396099e-03</internalNodes>
      <leafValues>
        7.5000000000000000e-01 -5.0000000000000000e-01</leafValues></_>
    <_>
      <internalNodes>
        0 -1 112410 -5.8150358498096466e-02</internalNodes>
      <leafValues>
        7.9061466455459595e-01 -3.8897842168807983e-01</leafValues></_>
    <_>
      <internalNodes>
        0 -1 5851 4.2579881846904755e-04</internalNodes>
      <leafValues>
        -4.6069911122322083e-01 8.1434029340744019e-01</leafValues></_>
    <_>
      <internalNodes>
        0 -1 25009 -1.0857579036382958e-04</internalNodes>
      <leafValues>
        6.9111591577529907e-01 -4.0713495016098022e-01</leafValues></_>
    <_>
      <internalNodes>
        0 -1 119603 9.3822856433689594e-04</internalNodes>
      <leafValues>
        -4.2480033636093140e-01 8.4867203235626221e-01</leafValues></_></weakClassifiers></stage10>
</opencv_storage>
