<?xml version="1.0"?>
<opencv_storage>
<cascade>
  <stageType>BOOST</stageType>
  <featureType>HAAR</featureType>
  <height>24</height>
  <width>24</width>
  <stageParams>
    <boostType>GAB</boostType>
    <minHitRate>9.9999898672103882e-01</minHitRate>
    <maxFalseAlarm>1.5000000596046448e-01</maxFalseAlarm>
    <weightTrimRate>9.4999999999999996e-01</weightTrimRate>
    <maxDepth>1</maxDepth>
    <maxWeakCount>100</maxWeakCount></stageParams>
  <featureParams>
    <maxCatCount>0</maxCatCount>
    <featSize>1</featSize>
    <mode>BASIC</mode></featureParams>
  <stageNum>15</stageNum>
  <stages>
    <!-- stage 0 -->
    <_>
      <maxWeakCount>5</maxWeakCount>
      <stageThreshold>-6.5324014425277710e-01</stageThreshold>
      <weakClassifiers>
        <_>
          <internalNodes>
            0 -1 158 -1.3862106204032898e-01</internalNodes>
          <leafValues>
            9.2000001668930054e-01 -7.8181821107864380e-01</leafValues></_>
        <_>
          <internalNodes>
            0 -1 55 6.6096849739551544e-02</internalNodes>
          <leafValues>
            -6.5126258134841919e-01 8.2182776927947998e-01</leafValues></_>
        <_>
          <internalNodes>
            0 -1 79 -4.3086811900138855e-02</internalNodes>
          <leafValues>
            9.0768414735794067e-01 -4.1843247413635254e-01</leafValues></_>
        <_>
          <internalNodes>
            0 -1 39 8.6095988750457764e-02</internalNodes>
          <leafValues>
            -3.9921742677688599e-01 7.5280833244323730e-01</leafValues></_>
        <_>
          <internalNodes>
            0 -1 227 -4.2927507311105728e-03</internalNodes>
          <leafValues>
            4.4546478986740112e-01 -7.7961462736129761e-01</leafValues></_></weakClassifiers></_>
    <!-- stage 1 -->
    <_>
      <maxWeakCount>8</maxWeakCount>
      <stageThreshold>-2.5828507542610168e-01</stageThreshold>
      <weakClassifiers>
        <_>
          <internalNodes>
            0 -1 102 -1.3980355858802795e-01</internalNodes>
          <leafValues>
            7.5238096714019775e-01 -6.0677963495254517e-01</leafValues></_>
        <_>
          <internalNodes>
            0 -1 106 1.0350656509399414e-01</internalNodes>
          <leafValues>
            -5.0319576263427734e-01 5.1831543445587158e-01</leafValues></_>
        <_>
          <internalNodes>
            0 -1 108 -4.9107614904642105e-04</internalNodes>
          <leafValues>
            -7.7739500999450684e-01 2.8903141617774963e-01</leafValues></_>
        <_>
          <internalNodes>
            0 -1 40 8.9756399393081665e-04</internalNodes>
          <leafValues>
            2.0858058333396912e-01 -8.8079100847244263e-01</leafValues></_>
        <_>
          <internalNodes>
            0 -1 278 1.4875624328851700e-03</internalNodes>
          <leafValues>
            2.1380408108234406e-01 -8.2152473926544189e-01</leafValues></_>
        <_>
          <internalNodes>
            0 -1 131 -1.7713569104671478e-02</internalNodes>
          <leafValues>
            7.7542299032211304e-01 -3.3525273203849792e-01</leafValues></_>
        <_>
          <internalNodes>
            0 -1 49 -7.0452224463224411e-04</internalNodes>
          <leafValues>
            -7.5356626510620117e-01 3.1595259904861450e-01</leafValues></_>
        <_>
          <internalNodes>
            0 -1 86 -6.3159834826365113e-04</internalNodes>
          <leafValues>
            -8.4837424755096436e-01 2.2743478417396545e-01</leafValues></_></weakClassifiers></_>
    <!-- stage 2 -->
    <_>
      <maxWeakCount>13</maxWeakCount>
      <stageThreshold>-3.3962631225585938e-01</stageThreshold>
      <weakClassifiers>
        <_>
          <internalNodes>
            0 -1 6 3.5537758469581604e-01</internalNodes>
          <leafValues>
            -4.5222929120063782e-01 4.8837208747863770e-01</leafValues></_>
        <_>
          <internalNodes>
            0 -1 140 -2.0361211895942688e-01</internalNodes>
          <leafValues>
            5.0310456752777100e-01 -3.6169916391372681e-01</leafValues></_>
        <_>
          <internalNodes>
            0 -1 206 -9.2967203818261623e-04</internalNodes>
          <leafValues>
            -7.9169404506683350e-01 2.1695415675640106e-01</leafValues></_>
        <_>
          <internalNodes>
            0 -1 3 1.0121455416083336e-02</internalNodes>
          <leafValues>
            -5.6192183494567871e-01 3.2341617345809937e-01</leafValues></_>
        <_>
          <internalNodes>
            0 -1 199 -1.1632498353719711e-01</internalNodes>
          <leafValues>
            6.4271020889282227e-01 -2.6419797539710999e-01</leafValues></_>
        <_>
          <internalNodes>
            0 -1 261 5.6543350219726563e-03</internalNodes>
          <leafValues>
            2.4328094720840454e-01 -7.8578776121139526e-01</leafValues></_>
        <_>
          <internalNodes>
            0 -1 69 2.1831294894218445e-01</internalNodes>
          <leafValues>
            -2.1762789785861969e-01 8.8023561239242554e-01</leafValues></_>
        <_>
          <internalNodes>
            0 -1 30 -8.2147622015327215e-04</internalNodes>
          <leafValues>
            -7.4708187580108643e-01 2.8680652379989624e-01</leafValues></_>
        <_>
          <internalNodes>
            0 -1 107 -8.1942969700321555e-04</internalNodes>
          <leafValues>
            -7.9792797565460205e-01 1.9514544308185577e-01</leafValues></_>
        <_>
          <internalNodes>
            0 -1 239 -1.7068532761186361e-03</internalNodes>
          <leafValues>
            -7.2264164686203003e-01 1.7463427782058716e-01</leafValues></_>
        <_>
          <internalNodes>
            0 -1 167 -7.3287345003336668e-04</internalNodes>
          <leafValues>
            -7.1980273723602295e-01 1.2570758163928986e-01</leafValues></_>
        <_>
          <internalNodes>
            0 -1 295 -9.3098520301282406e-04</internalNodes>
          <leafValues>
            -8.5506200790405273e-01 1.9114582240581512e-01</leafValues></_>
        <_>
          <internalNodes>
            0 -1 190 -1.3419073075056076e-03</internalNodes>
          <leafValues>
            -5.9875953197479248e-01 2.5345972180366516e-01</leafValues></_></weakClassifiers></_>
    <!-- stage 3 -->
    <_>
      <maxWeakCount>18</maxWeakCount>
      <stageThreshold>-6.8182069063186646e-01</stageThreshold>
      <weakClassifiers>
        <_>
          <internalNodes>
            0 -1 56 1.8408623337745667e-01</internalNodes>
          <leafValues>
            -4.2089551687240601e-01 6.3076925277709961e-01</leafValues></_>
        <_>
          <internalNodes>
            0 -1 77 -1.6286025941371918e-01</internalNodes>
          <leafValues>
            4.7559875249862671e-01 -3.0569392442703247e-01</leafValues></_>
        <_>
          <internalNodes>
            0 -1 38 -4.7824473585933447e-04</internalNodes>
          <leafValues>
            -5.9354859590530396e-01 2.0307505130767822e-01</leafValues></_>
        <_>
          <internalNodes>
            0 -1 119 -4.1246190667152405e-03</internalNodes>
          <leafValues>
            4.8157462477684021e-01 -2.3847208917140961e-01</leafValues></_>
        <_>
          <internalNodes>
            0 -1 212 -6.0409228317439556e-03</internalNodes>
          <leafValues>
            -5.7487577199935913e-01 2.0695179700851440e-01</leafValues></_>
        <_>
          <internalNodes>
            0 -1 116 -4.8140245489776134e-03</internalNodes>
          <leafValues>
            -1. 1.3228380680084229e-01</leafValues></_>
        <_>
          <internalNodes>
            0 -1 285 -1.5553988050669432e-03</internalNodes>
          <leafValues>
            2.4450127780437469e-01 -4.8400458693504333e-01</leafValues></_>
        <_>
          <internalNodes>
            0 -1 5 -2.7537795249372721e-03</internalNodes>
          <leafValues>
            -5.6614917516708374e-01 2.3720237612724304e-01</leafValues></_>
        <_>
          <internalNodes>
            0 -1 198 -2.0224670879542828e-03</internalNodes>
          <leafValues>
            -5.2206957340240479e-01 2.1058075129985809e-01</leafValues></_>
        <_>
          <internalNodes>
            0 -1 111 -2.3346748203039169e-02</internalNodes>
          <leafValues>
            -7.7869123220443726e-01 1.3835975527763367e-01</leafValues></_>
        <_>
          <internalNodes>
            0 -1 188 -2.5008630473166704e-04</internalNodes>
          <leafValues>
            -3.3257216215133667e-01 3.4329685568809509e-01</leafValues></_>
        <_>
          <internalNodes>
            0 -1 232 1.5836175531148911e-02</internalNodes>
          <leafValues>
            1.1885660141706467e-01 -8.1191128492355347e-01</leafValues></_>
        <_>
          <internalNodes>
            0 -1 46 -1.5485676703974605e-03</internalNodes>
          <leafValues>
            -7.7907192707061768e-01 1.2713253498077393e-01</leafValues></_>
        <_>
          <internalNodes>
            0 -1 16 -4.0822148323059082e-02</internalNodes>
          <leafValues>
            2.9864054918289185e-01 -3.3501946926116943e-01</leafValues></_>
        <_>
          <internalNodes>
            0 -1 17 1.8166119698435068e-03</internalNodes>
          <leafValues>
            -4.5883569121360779e-01 2.4917562305927277e-01</leafValues></_>
        <_>
          <internalNodes>
            0 -1 105 -1.4897035434842110e-03</internalNodes>
          <leafValues>
            -8.0290120840072632e-01 1.4226080477237701e-01</leafValues></_>
        <_>
          <internalNodes>
            0 -1 117 -2.3969276808202267e-03</internalNodes>
          <leafValues>
            5.6594622135162354e-01 -2.1765920519828796e-01</leafValues></_>
        <_>
          <internalNodes>
            0 -1 224 2.7986343484371901e-03</internalNodes>
          <leafValues>
            2.2862692177295685e-01 -5.6534981727600098e-01</leafValues></_></weakClassifiers></_>
    <!-- stage 4 -->
    <_>
      <maxWeakCount>20</maxWeakCount>
      <stageThreshold>-7.3190462589263916e-01</stageThreshold>
      <weakClassifiers>
        <_>
          <internalNodes>
            0 -1 11 2.6934421621263027e-03</internalNodes>
          <leafValues>
            -5.4585152864456177e-01 1.4619882404804230e-01</leafValues></_>
        <_>
          <internalNodes>
            0 -1 26 4.1904121637344360e-02</internalNodes>
          <leafValues>
            -2.8097623586654663e-01 4.8281711339950562e-01</leafValues></_>
        <_>
          <internalNodes>
            0 -1 237 -5.8501891791820526e-02</internalNodes>
          <leafValues>
            4.5293641090393066e-01 -2.8018751740455627e-01</leafValues></_>
        <_>
          <internalNodes>
            0 -1 178 -4.4880482554435730e-01</internalNodes>
          <leafValues>
            3.2037517428398132e-01 -3.1783199310302734e-01</leafValues></_>
        <_>
          <internalNodes>
            0 -1 193 6.2280299607664347e-04</internalNodes>
          <leafValues>
            3.0217739939689636e-01 -3.7300741672515869e-01</leafValues></_>
        <_>
          <internalNodes>
            0 -1 187 1.0605249553918839e-02</internalNodes>
          <leafValues>
            1.6608613729476929e-01 -6.1853200197219849e-01</leafValues></_>
        <_>
          <internalNodes>
            0 -1 80 -9.2144235968589783e-03</internalNodes>
          <leafValues>
            4.9895873665809631e-01 -2.6237866282463074e-01</leafValues></_>
        <_>
          <internalNodes>
            0 -1 23 6.4257066696882248e-04</internalNodes>
          <leafValues>
            -4.4002720713615417e-01 2.6754072308540344e-01</leafValues></_>
        <_>
          <internalNodes>
            0 -1 129 -3.3001706004142761e-02</internalNodes>
          <leafValues>
            -5.3587621450424194e-01 1.9005103409290314e-01</leafValues></_>
        <_>
          <internalNodes>
            0 -1 1 4.1949311271309853e-03</internalNodes>
          <leafValues>
            1.4990919828414917e-01 -7.1095871925354004e-01</leafValues></_>
        <_>
          <internalNodes>
            0 -1 10 6.3118757680058479e-04</internalNodes>
          <leafValues>
            -4.5051917433738708e-01 2.4068857729434967e-01</leafValues></_>
        <_>
          <internalNodes>
            0 -1 209 -6.2568084103986621e-04</internalNodes>
          <leafValues>
            7.2312307357788086e-01 -1.8372540175914764e-01</leafValues></_>
        <_>
          <internalNodes>
            0 -1 210 3.8246582262217999e-03</internalNodes>
          <leafValues>
            2.8167569637298584e-01 -4.4340416789054871e-01</leafValues></_>
        <_>
          <internalNodes>
            0 -1 85 -1.3139666989445686e-02</internalNodes>
          <leafValues>
            -7.0409721136093140e-01 1.2557883560657501e-01</leafValues></_>
        <_>
          <internalNodes>
            0 -1 52 2.4731608573347330e-03</internalNodes>
          <leafValues>
            1.9091661274433136e-01 -5.0282484292984009e-01</leafValues></_>
        <_>
          <internalNodes>
            0 -1 293 -4.5391274616122246e-03</internalNodes>
          <leafValues>
            5.6589680910110474e-01 -1.8262919783592224e-01</leafValues></_>
        <_>
          <internalNodes>
            0 -1 172 3.6211179103702307e-03</internalNodes>
          <leafValues>
            2.0480203628540039e-01 -5.4760736227035522e-01</leafValues></_>
        <_>
          <internalNodes>
            0 -1 132 -3.6452906206250191e-03</internalNodes>
          <leafValues>
            -4.9464878439903259e-01 2.1466410160064697e-01</leafValues></_>
        <_>
          <internalNodes>
            0 -1 262 -3.8776861038058996e-03</internalNodes>
          <leafValues>
            4.7694772481918335e-01 -2.4795342981815338e-01</leafValues></_>
        <_>
          <internalNodes>
            0 -1 203 4.1597813367843628e-02</internalNodes>
          <leafValues>
            -1.4599193632602692e-01 8.9775478839874268e-01</leafValues></_></weakClassifiers></_>
    <!-- stage 5 -->
    <_>
      <maxWeakCount>19</maxWeakCount>
      <stageThreshold>-4.3691769242286682e-01</stageThreshold>
      <weakClassifiers>
        <_>
          <internalNodes>
            0 -1 28 8.2298694178462029e-03</internalNodes>
          <leafValues>
            -3.8823530077934265e-01 5.3333336114883423e-01</leafValues></_>
        <_>
          <internalNodes>
            0 -1 201 -5.3966999053955078e-02</internalNodes>
          <leafValues>
            3.2092571258544922e-01 -3.4361529350280762e-01</leafValues></_>
        <_>
          <internalNodes>
            0 -1 284 -1.1426078155636787e-02</internalNodes>
          <leafValues>
            6.6831910610198975e-01 -1.9873857498168945e-01</leafValues></_>
        <_>
          <internalNodes>
            0 -1 258 -8.6735060904175043e-04</internalNodes>
          <leafValues>
            3.9813384413719177e-01 -2.1924033761024475e-01</leafValues></_>
        <_>
          <internalNodes>
            0 -1 14 1.1941140890121460e-01</internalNodes>
          <leafValues>
            -2.1966896951198578e-01 4.1136968135833740e-01</leafValues></_>
        <_>
          <internalNodes>
            0 -1 149 7.4698461685329676e-04</internalNodes>
          <leafValues>
            -1.4271399378776550e-01 7.6384675502777100e-01</leafValues></_>
        <_>
          <internalNodes>
            0 -1 51 5.3729413775727153e-04</internalNodes>
          <leafValues>
            -1.0510126501321793e-01 6.3496917486190796e-01</leafValues></_>
        <_>
          <internalNodes>
            0 -1 245 -6.9975536316633224e-03</internalNodes>
          <leafValues>
            -4.0229189395904541e-01 2.1067294478416443e-01</leafValues></_>
        <_>
          <internalNodes>
            0 -1 58 -3.7043436896055937e-04</internalNodes>
          <leafValues>
            5.4575264453887939e-01 -1.5950463712215424e-01</leafValues></_>
        <_>
          <internalNodes>
            0 -1 147 1.5774202765896916e-03</internalNodes>
          <leafValues>
            1.9385063648223877e-01 -5.1688623428344727e-01</leafValues></_>
        <_>
          <internalNodes>
            0 -1 205 -5.5211009457707405e-03</internalNodes>
          <leafValues>
            7.3461848497390747e-01 -1.0414058715105057e-01</leafValues></_>
        <_>
          <internalNodes>
            0 -1 175 -5.1547504961490631e-02</internalNodes>
          <leafValues>
            8.0334794521331787e-01 -1.0579466074705124e-01</leafValues></_>
        <_>
          <internalNodes>
            0 -1 35 -6.7794474307447672e-04</internalNodes>
          <leafValues>
            -5.7972198724746704e-01 1.8135601282119751e-01</leafValues></_>
        <_>
          <internalNodes>
            0 -1 217 -1.8086789641529322e-03</internalNodes>
          <leafValues>
            8.4387260675430298e-01 -1.2924782931804657e-01</leafValues></_>
        <_>
          <internalNodes>
            0 -1 84 1.5626784414052963e-02</internalNodes>
          <leafValues>
            -2.4204784631729126e-01 3.5191509127616882e-01</leafValues></_>
        <_>
          <internalNodes>
            0 -1 47 5.0992565229535103e-04</internalNodes>
          <leafValues>
            -1.1707276850938797e-01 7.2860300540924072e-01</leafValues></_>
        <_>
          <internalNodes>
            0 -1 292 1.2084455229341984e-03</internalNodes>
          <leafValues>
            2.0640914142131805e-01 -4.4194659590721130e-01</leafValues></_>
        <_>
          <internalNodes>
            0 -1 277 7.5978692620992661e-04</internalNodes>
          <leafValues>
            -1.1843955516815186e-01 7.9189503192901611e-01</leafValues></_>
        <_>
          <internalNodes>
            0 -1 97 1.0530906729400158e-03</internalNodes>
          <leafValues>
            1.5301804244518280e-01 -6.9548225402832031e-01</leafValues></_></weakClassifiers></_>
    <!-- stage 6 -->
    <_>
      <maxWeakCount>21</maxWeakCount>
      <stageThreshold>-4.4605252146720886e-01</stageThreshold>
      <weakClassifiers>
        <_>
          <internalNodes>
            0 -1 7 -1.3405972160398960e-02</internalNodes>
          <leafValues>
            -8.5185188055038452e-01 1.5966387093067169e-01</leafValues></_>
        <_>
          <internalNodes>
            0 -1 9 -2.3966510593891144e-01</internalNodes>
          <leafValues>
            -9.0402561426162720e-01 3.0967876315116882e-02</leafValues></_>
        <_>
          <internalNodes>
            0 -1 274 -1.7603060230612755e-02</internalNodes>
          <leafValues>
            3.1812471151351929e-01 -3.0849891901016235e-01</leafValues></_>
        <_>
          <internalNodes>
            0 -1 162 4.7556101344525814e-04</internalNodes>
          <leafValues>
            -1.0681729018688202e-01 7.5477099418640137e-01</leafValues></_>
        <_>
          <internalNodes>
            0 -1 72 1.9679039716720581e-01</internalNodes>
          <leafValues>
            1.3145820796489716e-01 -9.4322127103805542e-01</leafValues></_>
        <_>
          <internalNodes>
            0 -1 268 -1.1451382888481021e-03</internalNodes>
          <leafValues>
            7.0513725280761719e-01 -1.7264603078365326e-01</leafValues></_>
        <_>
          <internalNodes>
            0 -1 141 1.5585876826662570e-04</internalNodes>
          <leafValues>
            2.8774237632751465e-01 -3.3562964200973511e-01</leafValues></_>
        <_>
          <internalNodes>
            0 -1 161 1.6850635409355164e-02</internalNodes>
          <leafValues>
            1.1984124779701233e-01 -7.5167876482009888e-01</leafValues></_>
        <_>
          <internalNodes>
            0 -1 45 3.4636870259419084e-04</internalNodes>
          <leafValues>
            -2.5583183765411377e-01 3.8191547989845276e-01</leafValues></_>
        <_>
          <internalNodes>
            0 -1 242 6.0739843174815178e-03</internalNodes>
          <leafValues>
            1.4987525343894958e-01 -6.0905140638351440e-01</leafValues></_>
        <_>
          <internalNodes>
            0 -1 70 9.0291164815425873e-04</internalNodes>
          <leafValues>
            -3.5218149423599243e-01 2.7660638093948364e-01</leafValues></_>
        <_>
          <internalNodes>
            0 -1 28 7.1380995213985443e-03</internalNodes>
          <leafValues>
            -1.9443419575691223e-01 5.8194220066070557e-01</leafValues></_>
        <_>
          <internalNodes>
            0 -1 225 2.3199763381853700e-04</internalNodes>
          <leafValues>
            -1.3840870559215546e-01 5.6955736875534058e-01</leafValues></_>
        <_>
          <internalNodes>
            0 -1 156 -3.0654935166239738e-02</internalNodes>
          <leafValues>
            -2.1335779130458832e-01 4.7629410028457642e-01</leafValues></_>
        <_>
          <internalNodes>
            0 -1 280 -2.3820048663765192e-03</internalNodes>
          <leafValues>
            5.8418655395507813e-01 -1.7647360265254974e-01</leafValues></_>
        <_>
          <internalNodes>
            0 -1 112 3.1052041798830032e-02</internalNodes>
          <leafValues>
            1.3932144641876221e-01 -8.3646303415298462e-01</leafValues></_>
        <_>
          <internalNodes>
            0 -1 144 -1.2593742576427758e-04</internalNodes>
          <leafValues>
            -4.1896563768386841e-01 2.0864176750183105e-01</leafValues></_>
        <_>
          <internalNodes>
            0 -1 64 -1.1034163832664490e-01</internalNodes>
          <leafValues>
            -8.4935182332992554e-01 1.1203158646821976e-01</leafValues></_>
        <_>
          <internalNodes>
            0 -1 213 2.5906297378242016e-03</internalNodes>
          <leafValues>
            -2.6568990945816040e-01 4.4976571202278137e-01</leafValues></_>
        <_>
          <internalNodes>
            0 -1 263 -2.9109660536050797e-03</internalNodes>
          <leafValues>
            4.8931130766868591e-01 -2.1905699372291565e-01</leafValues></_>
        <_>
          <internalNodes>
            0 -1 182 -1.1595716932788491e-03</internalNodes>
          <leafValues>
            -5.4052591323852539e-01 1.8976180255413055e-01</leafValues></_></weakClassifiers></_>
    <!-- stage 7 -->
    <_>
      <maxWeakCount>18</maxWeakCount>
      <stageThreshold>-6.6003328561782837e-01</stageThreshold>
      <weakClassifiers>
        <_>
          <internalNodes>
            0 -1 12 2.0323859527707100e-02</internalNodes>
          <leafValues>
            -6.1818182468414307e-01 2.0000000298023224e-01</leafValues></_>
        <_>
          <internalNodes>
            0 -1 128 -1.9711138308048248e-01</internalNodes>
          <leafValues>
            -4.2233392596244812e-01 3.4662899374961853e-01</leafValues></_>
        <_>
          <internalNodes>
            0 -1 121 -1.4407925307750702e-01</internalNodes>
          <leafValues>
            7.9942023754119873e-01 -1.4524835348129272e-01</leafValues></_>
        <_>
          <internalNodes>
            0 -1 236 9.5240762457251549e-03</internalNodes>
          <leafValues>
            -3.2347247004508972e-01 3.0474218726158142e-01</leafValues></_>
        <_>
          <internalNodes>
            0 -1 136 3.5493988543748856e-03</internalNodes>
          <leafValues>
            1.5936635434627533e-01 -9.5763093233108521e-01</leafValues></_>
        <_>
          <internalNodes>
            0 -1 27 9.7977668046951294e-02</internalNodes>
          <leafValues>
            -2.0727474987506866e-01 6.2559419870376587e-01</leafValues></_>
        <_>
          <internalNodes>
            0 -1 36 -2.4102662503719330e-01</internalNodes>
          <leafValues>
            8.7306684255599976e-01 -1.1652006208896637e-01</leafValues></_>
        <_>
          <internalNodes>
            0 -1 124 1.7677953466773033e-02</internalNodes>
          <leafValues>
            -2.2175998985767365e-01 4.4437825679779053e-01</leafValues></_>
        <_>
          <internalNodes>
            0 -1 230 3.6815239582210779e-05</internalNodes>
          <leafValues>
            -2.3749034106731415e-01 4.0758362412452698e-01</leafValues></_>
        <_>
          <internalNodes>
            0 -1 76 -2.9126437380909920e-02</internalNodes>
          <leafValues>
            5.1631265878677368e-01 -2.0787487924098969e-01</leafValues></_>
        <_>
          <internalNodes>
            0 -1 269 -1.2163836508989334e-02</internalNodes>
          <leafValues>
            3.5829234123229980e-01 -2.7994373440742493e-01</leafValues></_>
        <_>
          <internalNodes>
            0 -1 120 4.3435115367174149e-03</internalNodes>
          <leafValues>
            -3.2828783988952637e-01 3.4872129559516907e-01</leafValues></_>
        <_>
          <internalNodes>
            0 -1 194 1.4209854416549206e-03</internalNodes>
          <leafValues>
            1.7570407688617706e-01 -6.1229109764099121e-01</leafValues></_>
        <_>
          <internalNodes>
            0 -1 83 4.6473979949951172e-02</internalNodes>
          <leafValues>
            -2.2437238693237305e-01 5.2651792764663696e-01</leafValues></_>
        <_>
          <internalNodes>
            0 -1 196 -4.5550515642389655e-04</internalNodes>
          <leafValues>
            -4.9356693029403687e-01 2.4167943000793457e-01</leafValues></_>
        <_>
          <internalNodes>
            0 -1 66 -6.1214536428451538e-02</internalNodes>
          <leafValues>
            7.8142094612121582e-01 -1.6732688248157501e-01</leafValues></_>
        <_>
          <internalNodes>
            0 -1 214 -2.1977815777063370e-03</internalNodes>
          <leafValues>
            3.9535471796989441e-01 -2.7317261695861816e-01</leafValues></_>
        <_>
          <internalNodes>
            0 -1 157 1.1820270447060466e-04</internalNodes>
          <leafValues>
            -2.9337963461875916e-01 3.9174687862396240e-01</leafValues></_></weakClassifiers></_>
    <!-- stage 8 -->
    <_>
      <maxWeakCount>21</maxWeakCount>
      <stageThreshold>-6.6023296117782593e-01</stageThreshold>
      <weakClassifiers>
        <_>
          <internalNodes>
            0 -1 20 -2.0695632696151733e-01</internalNodes>
          <leafValues>
            -3.4059944748878479e-01 7.5757575035095215e-01</leafValues></_>
        <_>
          <internalNodes>
            0 -1 100 1.9007334485650063e-03</internalNodes>
          <leafValues>
            -3.6517530679702759e-01 2.9053971171379089e-01</leafValues></_>
        <_>
          <internalNodes>
            0 -1 54 5.7572883088141680e-04</internalNodes>
          <leafValues>
            -3.0078756809234619e-01 3.0413067340850830e-01</leafValues></_>
        <_>
          <internalNodes>
            0 -1 174 -1.6208488959819078e-03</internalNodes>
          <leafValues>
            4.4109258055686951e-01 -2.1392977237701416e-01</leafValues></_>
        <_>
          <internalNodes>
            0 -1 15 1.5479991212487221e-02</internalNodes>
          <leafValues>
            -3.5142576694488525e-01 2.7086806297302246e-01</leafValues></_>
        <_>
          <internalNodes>
            0 -1 238 4.7751101665198803e-03</internalNodes>
          <leafValues>
            1.4811541140079498e-01 -7.1021014451980591e-01</leafValues></_>
        <_>
          <internalNodes>
            0 -1 294 -2.0080676767975092e-04</internalNodes>
          <leafValues>
            4.1486382484436035e-01 -2.6121136546134949e-01</leafValues></_>
        <_>
          <internalNodes>
            0 -1 57 4.6582967042922974e-03</internalNodes>
          <leafValues>
            -2.9244714975357056e-01 3.4295803308486938e-01</leafValues></_>
        <_>
          <internalNodes>
            0 -1 41 3.9758924394845963e-03</internalNodes>
          <leafValues>
            -2.7406924962997437e-01 3.3713614940643311e-01</leafValues></_>
        <_>
          <internalNodes>
            0 -1 25 2.7964057400822639e-02</internalNodes>
          <leafValues>
            -2.5083494186401367e-01 3.7124344706535339e-01</leafValues></_>
        <_>
          <internalNodes>
            0 -1 286 1.7759019974619150e-03</internalNodes>
          <leafValues>
            -2.1700310707092285e-01 4.2913383245468140e-01</leafValues></_>
        <_>
          <internalNodes>
            0 -1 279 -1.4772641006857157e-03</internalNodes>
          <leafValues>
            3.1027597188949585e-01 -2.8285166621208191e-01</leafValues></_>
        <_>
          <internalNodes>
            0 -1 200 5.5856714025139809e-03</internalNodes>
          <leafValues>
            2.3732560873031616e-01 -4.4488814473152161e-01</leafValues></_>
        <_>
          <internalNodes>
            0 -1 247 3.7542115023825318e-05</internalNodes>
          <leafValues>
            -3.0518323183059692e-01 3.2948938012123108e-01</leafValues></_>
        <_>
          <internalNodes>
            0 -1 74 1.1580828577280045e-02</internalNodes>
          <leafValues>
            1.3457234203815460e-01 -8.0727148056030273e-01</leafValues></_>
        <_>
          <internalNodes>
            0 -1 73 -6.6799866035580635e-03</internalNodes>
          <leafValues>
            -5.8884125947952271e-01 1.2803235650062561e-01</leafValues></_>
        <_>
          <internalNodes>
            0 -1 32 8.4571237675845623e-04</internalNodes>
          <leafValues>
            -2.2099885344505310e-01 4.4506287574768066e-01</leafValues></_>
        <_>
          <internalNodes>
            0 -1 21 1.9784637261182070e-03</internalNodes>
          <leafValues>
            1.3546614348888397e-01 -7.1408015489578247e-01</leafValues></_>
        <_>
          <internalNodes>
            0 -1 271 -3.2454489264637232e-03</internalNodes>
          <leafValues>
            2.9705503582954407e-01 -3.2654532790184021e-01</leafValues></_>
        <_>
          <internalNodes>
            0 -1 253 -1.5904217958450317e-02</internalNodes>
          <leafValues>
            -3.1870800256729126e-01 3.1256058812141418e-01</leafValues></_>
        <_>
          <internalNodes>
            0 -1 87 1.2341486290097237e-03</internalNodes>
          <leafValues>
            -3.0111381411552429e-01 3.2508888840675354e-01</leafValues></_></weakClassifiers></_>
    <!-- stage 9 -->
    <_>
      <maxWeakCount>23</maxWeakCount>
      <stageThreshold>-5.2030068635940552e-01</stageThreshold>
      <weakClassifiers>
        <_>
          <internalNodes>
            0 -1 78 -5.0849862396717072e-02</internalNodes>
          <leafValues>
            6.4327485859394073e-02 -4.8471614718437195e-01</leafValues></_>
        <_>
          <internalNodes>
            0 -1 91 1.2039549648761749e-02</internalNodes>
          <leafValues>
            9.3690745532512665e-02 -6.8389630317687988e-01</leafValues></_>
        <_>
          <internalNodes>
            0 -1 281 -1.0645140428096056e-03</internalNodes>
          <leafValues>
            2.4038226902484894e-01 -3.4204944968223572e-01</leafValues></_>
        <_>
          <internalNodes>
            0 -1 150 -2.2960207425057888e-03</internalNodes>
          <leafValues>
            -7.5661796331405640e-01 1.2810155749320984e-01</leafValues></_>
        <_>
          <internalNodes>
            0 -1 60 -1.9514877349138260e-03</internalNodes>
          <leafValues>
            5.6337064504623413e-01 -1.8841187655925751e-01</leafValues></_>
        <_>
          <internalNodes>
            0 -1 123 -2.4031262844800949e-02</internalNodes>
          <leafValues>
            5.7535153627395630e-01 -1.9589892029762268e-01</leafValues></_>
        <_>
          <internalNodes>
            0 -1 110 1.8496619304642081e-03</internalNodes>
          <leafValues>
            1.0508215427398682e-01 -8.6665016412734985e-01</leafValues></_>
        <_>
          <internalNodes>
            0 -1 184 -9.8328277468681335e-02</internalNodes>
          <leafValues>
            -1.2005592137575150e-01 8.5952514410018921e-01</leafValues></_>
        <_>
          <internalNodes>
            0 -1 126 4.0068082511425018e-02</internalNodes>
          <leafValues>
            -1.0683583468198776e-01 6.6262519359588623e-01</leafValues></_>
        <_>
          <internalNodes>
            0 -1 82 2.4272184818983078e-02</internalNodes>
          <leafValues>
            -2.6935672760009766e-01 3.2100787758827209e-01</leafValues></_>
        <_>
          <internalNodes>
            0 -1 170 2.1886505419388413e-04</internalNodes>
          <leafValues>
            1.9785133004188538e-01 -4.2013823986053467e-01</leafValues></_>
        <_>
          <internalNodes>
            0 -1 219 1.6963179223239422e-04</internalNodes>
          <leafValues>
            -2.9691326618194580e-01 2.8910395503044128e-01</leafValues></_>
        <_>
          <internalNodes>
            0 -1 22 -1.1555320816114545e-04</internalNodes>
          <leafValues>
            -4.2458257079124451e-01 2.0528903603553772e-01</leafValues></_>
        <_>
          <internalNodes>
            0 -1 215 -3.9963796734809875e-02</internalNodes>
          <leafValues>
            3.5442489385604858e-01 -2.4434924125671387e-01</leafValues></_>
        <_>
          <internalNodes>
            0 -1 244 1.2187769636511803e-02</internalNodes>
          <leafValues>
            -1.3486339151859283e-01 7.3131906986236572e-01</leafValues></_>
        <_>
          <internalNodes>
            0 -1 272 8.8862935081124306e-04</internalNodes>
          <leafValues>
            1.4577519893646240e-01 -6.8591386079788208e-01</leafValues></_>
        <_>
          <internalNodes>
            0 -1 287 -6.4950408414006233e-03</internalNodes>
          <leafValues>
            3.7648445367813110e-01 -2.6116147637367249e-01</leafValues></_>
        <_>
          <internalNodes>
            0 -1 283 2.6758338790386915e-03</internalNodes>
          <leafValues>
            -1.1395258456468582e-01 7.5417780876159668e-01</leafValues></_>
        <_>
          <internalNodes>
            0 -1 151 -8.5848476737737656e-04</internalNodes>
          <leafValues>
            -7.6470720767974854e-01 1.2286087125539780e-01</leafValues></_>
        <_>
          <internalNodes>
            0 -1 19 2.1046865731477737e-03</internalNodes>
          <leafValues>
            -2.7501752972602844e-01 3.6426311731338501e-01</leafValues></_>
        <_>
          <internalNodes>
            0 -1 125 -1.2141130119562149e-01</internalNodes>
          <leafValues>
            8.7557625770568848e-01 -1.1649923026561737e-01</leafValues></_>
        <_>
          <internalNodes>
            0 -1 48 2.0449631847441196e-03</internalNodes>
          <leafValues>
            -1.5784409642219543e-01 4.8692533373832703e-01</leafValues></_>
        <_>
          <internalNodes>
            0 -1 254 1.8834382062777877e-03</internalNodes>
          <leafValues>
            1.1098853498697281e-01 -8.2543456554412842e-01</leafValues></_></weakClassifiers></_>
    <!-- stage 10 -->
    <_>
      <maxWeakCount>25</maxWeakCount>
      <stageThreshold>-5.4054957628250122e-01</stageThreshold>
      <weakClassifiers>
        <_>
          <internalNodes>
            0 -1 50 -1.7598217353224754e-02</internalNodes>
          <leafValues>
            2.2222222387790680e-01 -4.2465752363204956e-01</leafValues></_>
        <_>
          <internalNodes>
            0 -1 43 5.6560575962066650e-02</internalNodes>
          <leafValues>
            6.5603770315647125e-02 -9.0150851011276245e-01</leafValues></_>
        <_>
          <internalNodes>
            0 -1 59 5.9778783470392227e-03</internalNodes>
          <leafValues>
            -2.1529096364974976e-01 3.4817692637443542e-01</leafValues></_>
        <_>
          <internalNodes>
            0 -1 189 1.8707536160945892e-02</internalNodes>
          <leafValues>
            -1.4021024107933044e-01 5.5269062519073486e-01</leafValues></_>
        <_>
          <internalNodes>
            0 -1 133 -1.3847467489540577e-03</internalNodes>
          <leafValues>
            -2.8352817893028259e-01 2.7075719833374023e-01</leafValues></_>
        <_>
          <internalNodes>
            0 -1 252 3.1218957155942917e-03</internalNodes>
          <leafValues>
            -1.5196855366230011e-01 5.0247728824615479e-01</leafValues></_>
        <_>
          <internalNodes>
            0 -1 176 5.4949923651292920e-04</internalNodes>
          <leafValues>
            -1.4075843989849091e-01 4.9887922406196594e-01</leafValues></_>
        <_>
          <internalNodes>
            0 -1 270 -6.2458310276269913e-04</internalNodes>
          <leafValues>
            2.5915333628654480e-01 -3.2913196086883545e-01</leafValues></_>
        <_>
          <internalNodes>
            0 -1 282 -5.9324942529201508e-02</internalNodes>
          <leafValues>
            -3.7331593036651611e-01 2.4164424836635590e-01</leafValues></_>
        <_>
          <internalNodes>
            0 -1 163 -3.8374261930584908e-04</internalNodes>
          <leafValues>
            -6.0787767171859741e-01 1.3710609078407288e-01</leafValues></_>
        <_>
          <internalNodes>
            0 -1 98 3.4293990582227707e-02</internalNodes>
          <leafValues>
            -1.5931391716003418e-01 6.3345360755920410e-01</leafValues></_>
        <_>
          <internalNodes>
            0 -1 113 9.4603765755891800e-03</internalNodes>
          <leafValues>
            -1.1799574643373489e-01 5.6994754076004028e-01</leafValues></_>
        <_>
          <internalNodes>
            0 -1 223 2.8314897790551186e-03</internalNodes>
          <leafValues>
            -2.1595083177089691e-01 4.1324120759963989e-01</leafValues></_>
        <_>
          <internalNodes>
            0 -1 101 1.7970375716686249e-02</internalNodes>
          <leafValues>
            -1.7947316169738770e-01 4.0427184104919434e-01</leafValues></_>
        <_>
          <internalNodes>
            0 -1 207 7.1950671263039112e-03</internalNodes>
          <leafValues>
            -2.3001518845558167e-01 3.5796368122100830e-01</leafValues></_>
        <_>
          <internalNodes>
            0 -1 248 5.3762225434184074e-03</internalNodes>
          <leafValues>
            -1.6832582652568817e-01 4.4171819090843201e-01</leafValues></_>
        <_>
          <internalNodes>
            0 -1 44 -2.8269847389310598e-03</internalNodes>
          <leafValues>
            -3.5568591952323914e-01 2.3822338879108429e-01</leafValues></_>
        <_>
          <internalNodes>
            0 -1 68 -1.2471388617996126e-04</internalNodes>
          <leafValues>
            -3.9938595890998840e-01 1.9631266593933105e-01</leafValues></_>
        <_>
          <internalNodes>
            0 -1 34 5.0668539479374886e-03</internalNodes>
          <leafValues>
            9.8206311464309692e-02 -7.5480818748474121e-01</leafValues></_>
        <_>
          <internalNodes>
            0 -1 33 -4.4446326792240143e-03</internalNodes>
          <leafValues>
            2.2479666769504547e-01 -3.4501361846923828e-01</leafValues></_>
        <_>
          <internalNodes>
            0 -1 18 -5.2502613514661789e-02</internalNodes>
          <leafValues>
            7.4111932516098022e-01 -9.4914704561233521e-02</leafValues></_>
        <_>
          <internalNodes>
            0 -1 231 2.5540625210851431e-04</internalNodes>
          <leafValues>
            1.8426521122455597e-01 -4.4453543424606323e-01</leafValues></_>
        <_>
          <internalNodes>
            0 -1 226 -1.4250321546569467e-03</internalNodes>
          <leafValues>
            3.1816279888153076e-01 -2.5990697741508484e-01</leafValues></_>
        <_>
          <internalNodes>
            0 -1 251 -2.2338348207995296e-04</internalNodes>
          <leafValues>
            -3.9258360862731934e-01 2.3085577785968781e-01</leafValues></_>
        <_>
          <internalNodes>
            0 -1 181 -1.8235202878713608e-03</internalNodes>
          <leafValues>
            -7.1850484609603882e-01 1.3431051373481750e-01</leafValues></_></weakClassifiers></_>
    <!-- stage 11 -->
    <_>
      <maxWeakCount>22</maxWeakCount>
      <stageThreshold>-3.5047686100006104e-01</stageThreshold>
      <weakClassifiers>
        <_>
          <internalNodes>
            0 -1 13 -3.3121719956398010e-02</internalNodes>
          <leafValues>
            3.2142856717109680e-01 -3.4302327036857605e-01</leafValues></_>
        <_>
          <internalNodes>
            0 -1 166 -4.2878266423940659e-02</internalNodes>
          <leafValues>
            -8.0927574634552002e-01 5.9453226625919342e-02</leafValues></_>
        <_>
          <internalNodes>
            0 -1 95 9.0272389352321625e-03</internalNodes>
          <leafValues>
            -1.6483171284198761e-01 3.6750578880310059e-01</leafValues></_>
        <_>
          <internalNodes>
            0 -1 31 -1.9077438861131668e-02</internalNodes>
          <leafValues>
            -5.7805275917053223e-01 8.7138429284095764e-02</leafValues></_>
        <_>
          <internalNodes>
            0 -1 290 1.7379856435582042e-03</internalNodes>
          <leafValues>
            1.0687845945358276e-01 -8.0870360136032104e-01</leafValues></_>
        <_>
          <internalNodes>
            0 -1 197 -1.5551253454759717e-03</internalNodes>
          <leafValues>
            5.9280925989151001e-01 -1.3167650997638702e-01</leafValues></_>
        <_>
          <internalNodes>
            0 -1 65 -1.6023386269807816e-03</internalNodes>
          <leafValues>
            -6.0284072160720825e-01 1.1480971425771713e-01</leafValues></_>
        <_>
          <internalNodes>
            0 -1 235 2.0128788310103118e-04</internalNodes>
          <leafValues>
            -1.6230672597885132e-01 4.5652765035629272e-01</leafValues></_>
        <_>
          <internalNodes>
            0 -1 222 5.5396831594407558e-03</internalNodes>
          <leafValues>
            -1.5925265848636627e-01 3.9857408404350281e-01</leafValues></_>
        <_>
          <internalNodes>
            0 -1 109 2.4470294010825455e-04</internalNodes>
          <leafValues>
            1.5182642638683319e-01 -4.6681553125381470e-01</leafValues></_>
        <_>
          <internalNodes>
            0 -1 138 1.7848091665655375e-03</internalNodes>
          <leafValues>
            -1.8133945763111115e-01 3.9666494727134705e-01</leafValues></_>
        <_>
          <internalNodes>
            0 -1 267 1.0883497446775436e-01</internalNodes>
          <leafValues>
            -6.5344102680683136e-02 9.0487229824066162e-01</leafValues></_>
        <_>
          <internalNodes>
            0 -1 53 7.4233231134712696e-04</internalNodes>
          <leafValues>
            1.5153479576110840e-01 -4.9785462021827698e-01</leafValues></_>
        <_>
          <internalNodes>
            0 -1 264 6.5395148703828454e-04</internalNodes>
          <leafValues>
            -1.8129685521125793e-01 4.5565417408943176e-01</leafValues></_>
        <_>
          <internalNodes>
            0 -1 276 3.0606525251641870e-04</internalNodes>
          <leafValues>
            -2.4012745916843414e-01 3.0550432205200195e-01</leafValues></_>
        <_>
          <internalNodes>
            0 -1 153 -3.1767343170940876e-03</internalNodes>
          <leafValues>
            5.1255321502685547e-01 -1.3563053309917450e-01</leafValues></_>
        <_>
          <internalNodes>
            0 -1 148 -5.4060027468949556e-04</internalNodes>
          <leafValues>
            6.0852831602096558e-01 -1.0234764218330383e-01</leafValues></_>
        <_>
          <internalNodes>
            0 -1 146 -4.5500928536057472e-03</internalNodes>
          <leafValues>
            -6.4459490776062012e-01 1.1464116722345352e-01</leafValues></_>
        <_>
          <internalNodes>
            0 -1 249 1.2072416575392708e-04</internalNodes>
          <leafValues>
            2.5729531049728394e-01 -2.7907836437225342e-01</leafValues></_>
        <_>
          <internalNodes>
            0 -1 246 -3.5160903353244066e-03</internalNodes>
          <leafValues>
            3.2061424851417542e-01 -2.2046494483947754e-01</leafValues></_>
        <_>
          <internalNodes>
            0 -1 165 -1.3882583379745483e-01</internalNodes>
          <leafValues>
            -8.6838585138320923e-01 9.8879769444465637e-02</leafValues></_>
        <_>
          <internalNodes>
            0 -1 134 4.7786746290512383e-04</internalNodes>
          <leafValues>
            8.9713491499423981e-02 -7.4415731430053711e-01</leafValues></_></weakClassifiers></_>
    <!-- stage 12 -->
    <_>
      <maxWeakCount>30</maxWeakCount>
      <stageThreshold>-4.3497645854949951e-01</stageThreshold>
      <weakClassifiers>
        <_>
          <internalNodes>
            0 -1 250 -9.3917911872267723e-03</internalNodes>
          <leafValues>
            5.7575756311416626e-01 -3.2425066828727722e-01</leafValues></_>
        <_>
          <internalNodes>
            0 -1 177 1.6126755625009537e-02</internalNodes>
          <leafValues>
            5.8919176459312439e-02 -8.6498111486434937e-01</leafValues></_>
        <_>
          <internalNodes>
            0 -1 130 8.1911021843552589e-03</internalNodes>
          <leafValues>
            1.3853532075881958e-01 -7.5285392999649048e-01</leafValues></_>
        <_>
          <internalNodes>
            0 -1 115 1.6064227093011141e-03</internalNodes>
          <leafValues>
            2.1491986513137817e-01 -2.8739753365516663e-01</leafValues></_>
        <_>
          <internalNodes>
            0 -1 94 -2.5611335877329111e-03</internalNodes>
          <leafValues>
            3.0968251824378967e-01 -2.4227680265903473e-01</leafValues></_>
        <_>
          <internalNodes>
            0 -1 220 2.7071489021182060e-03</internalNodes>
          <leafValues>
            1.3542048633098602e-01 -5.3346860408782959e-01</leafValues></_>
        <_>
          <internalNodes>
            0 -1 159 1.8415567465126514e-03</internalNodes>
          <leafValues>
            -1.1863970011472702e-01 5.6711202859878540e-01</leafValues></_>
        <_>
          <internalNodes>
            0 -1 71 -6.9253966212272644e-02</internalNodes>
          <leafValues>
            2.8430980443954468e-01 -2.3306447267532349e-01</leafValues></_>
        <_>
          <internalNodes>
            0 -1 96 1.2677500024437904e-02</internalNodes>
          <leafValues>
            -2.0677986741065979e-01 3.6545267701148987e-01</leafValues></_>
        <_>
          <internalNodes>
            0 -1 191 -3.7517398595809937e-02</internalNodes>
          <leafValues>
            -7.4007368087768555e-01 8.2775175571441650e-02</leafValues></_>
        <_>
          <internalNodes>
            0 -1 195 -2.8881151229143143e-04</internalNodes>
          <leafValues>
            3.2839825749397278e-01 -2.1087908744812012e-01</leafValues></_>
        <_>
          <internalNodes>
            0 -1 99 1.8924194574356079e-01</internalNodes>
          <leafValues>
            -9.1055445373058319e-02 7.3402285575866699e-01</leafValues></_>
        <_>
          <internalNodes>
            0 -1 266 -4.4349625706672668e-02</internalNodes>
          <leafValues>
            -5.3903937339782715e-01 1.2720939517021179e-01</leafValues></_>
        <_>
          <internalNodes>
            0 -1 211 -3.0985649209469557e-04</internalNodes>
          <leafValues>
            -2.7982440590858459e-01 2.2653019428253174e-01</leafValues></_>
        <_>
          <internalNodes>
            0 -1 218 -2.2029217798262835e-03</internalNodes>
          <leafValues>
            3.5596954822540283e-01 -1.9447238743305206e-01</leafValues></_>
        <_>
          <internalNodes>
            0 -1 142 -1.6186013817787170e-01</internalNodes>
          <leafValues>
            6.4626312255859375e-01 -1.1155733466148376e-01</leafValues></_>
        <_>
          <internalNodes>
            0 -1 256 3.3807845320552588e-03</internalNodes>
          <leafValues>
            1.7963382601737976e-01 -4.0734356641769409e-01</leafValues></_>
        <_>
          <internalNodes>
            0 -1 118 -5.0380927859805524e-05</internalNodes>
          <leafValues>
            3.4996438026428223e-01 -2.2907787561416626e-01</leafValues></_>
        <_>
          <internalNodes>
            0 -1 171 -4.3775318190455437e-03</internalNodes>
          <leafValues>
            6.5697360038757324e-01 -1.2445129454135895e-01</leafValues></_>
        <_>
          <internalNodes>
            0 -1 63 -7.2683754842728376e-04</internalNodes>
          <leafValues>
            3.3414769172668457e-01 -1.9157353043556213e-01</leafValues></_>
        <_>
          <internalNodes>
            0 -1 234 -3.5273048561066389e-03</internalNodes>
          <leafValues>
            6.7979711294174194e-01 -1.0148862004280090e-01</leafValues></_>
        <_>
          <internalNodes>
            0 -1 61 -1.7787478864192963e-02</internalNodes>
          <leafValues>
            3.6917382478713989e-01 -2.0516002178192139e-01</leafValues></_>
        <_>
          <internalNodes>
            0 -1 143 2.4007980525493622e-01</internalNodes>
          <leafValues>
            -1.1467790603637695e-01 7.1931284666061401e-01</leafValues></_>
        <_>
          <internalNodes>
            0 -1 103 1.4286028221249580e-02</internalNodes>
          <leafValues>
            1.9557571411132813e-01 -4.1735172271728516e-01</leafValues></_>
        <_>
          <internalNodes>
            0 -1 155 2.8588809072971344e-03</internalNodes>
          <leafValues>
            1.0588110238313675e-01 -6.3201439380645752e-01</leafValues></_>
        <_>
          <internalNodes>
            0 -1 164 -3.9853667840361595e-03</internalNodes>
          <leafValues>
            -4.7493800520896912e-01 1.5504018962383270e-01</leafValues></_>
        <_>
          <internalNodes>
            0 -1 257 2.1078428253531456e-03</internalNodes>
          <leafValues>
            -1.3395449519157410e-01 5.6051439046859741e-01</leafValues></_>
        <_>
          <internalNodes>
            0 -1 8 -3.2054595649242401e-02</internalNodes>
          <leafValues>
            6.6763865947723389e-01 -9.8392128944396973e-02</leafValues></_>
        <_>
          <internalNodes>
            0 -1 42 -6.8157722125761211e-05</internalNodes>
          <leafValues>
            -4.0483671426773071e-01 2.2509759664535522e-01</leafValues></_>
        <_>
          <internalNodes>
            0 -1 93 1.2870124191977084e-04</internalNodes>
          <leafValues>
            -4.0353491902351379e-01 1.9063986837863922e-01</leafValues></_></weakClassifiers></_>
    <!-- stage 13 -->
    <_>
      <maxWeakCount>29</maxWeakCount>
      <stageThreshold>-4.8408263921737671e-01</stageThreshold>
      <weakClassifiers>
        <_>
          <internalNodes>
            0 -1 92 -7.5908690632786602e-05</internalNodes>
          <leafValues>
            1.4851485192775726e-01 -3.8461539149284363e-01</leafValues></_>
        <_>
          <internalNodes>
            0 -1 24 6.0721259564161301e-02</internalNodes>
          <leafValues>
            6.7872144281864166e-02 -8.3057165145874023e-01</leafValues></_>
        <_>
          <internalNodes>
            0 -1 127 5.0403758883476257e-02</internalNodes>
          <leafValues>
            -6.3450343906879425e-02 7.5241512060165405e-01</leafValues></_>
        <_>
          <internalNodes>
            0 -1 37 4.4936440885066986e-02</internalNodes>
          <leafValues>
            9.2460542917251587e-02 -5.7873648405075073e-01</leafValues></_>
        <_>
          <internalNodes>
            0 -1 168 2.1166622173041105e-03</internalNodes>
          <leafValues>
            1.4020875096321106e-01 -4.4358953833580017e-01</leafValues></_>
        <_>
          <internalNodes>
            0 -1 183 -6.3104205764830112e-05</internalNodes>
          <leafValues>
            -3.1192305684089661e-01 2.0642374455928802e-01</leafValues></_>
        <_>
          <internalNodes>
            0 -1 137 -1.7279442399740219e-03</internalNodes>
          <leafValues>
            3.7639939785003662e-01 -1.9891658425331116e-01</leafValues></_>
        <_>
          <internalNodes>
            0 -1 2 -1.1918834934476763e-04</internalNodes>
          <leafValues>
            -3.8150772452354431e-01 1.5485049784183502e-01</leafValues></_>
        <_>
          <internalNodes>
            0 -1 229 9.5212580636143684e-03</internalNodes>
          <leafValues>
            -7.4334762990474701e-02 8.0142611265182495e-01</leafValues></_>
        <_>
          <internalNodes>
            0 -1 273 -1.5529723605141044e-03</internalNodes>
          <leafValues>
            -2.5255665183067322e-01 3.0000808835029602e-01</leafValues></_>
        <_>
          <internalNodes>
            0 -1 260 -6.5244631841778755e-03</internalNodes>
          <leafValues>
            4.1563093662261963e-01 -1.7001661658287048e-01</leafValues></_>
        <_>
          <internalNodes>
            0 -1 204 6.4017507247626781e-03</internalNodes>
          <leafValues>
            9.2747122049331665e-02 -7.1879404783248901e-01</leafValues></_>
        <_>
          <internalNodes>
            0 -1 139 1.1680298484861851e-02</internalNodes>
          <leafValues>
            -1.4525596797466278e-01 5.7514971494674683e-01</leafValues></_>
        <_>
          <internalNodes>
            0 -1 135 7.4714224319905043e-04</internalNodes>
          <leafValues>
            -1.4667290449142456e-01 5.6520950794219971e-01</leafValues></_>
        <_>
          <internalNodes>
            0 -1 241 -6.3266127835959196e-04</internalNodes>
          <leafValues>
            -3.5254821181297302e-01 1.9622862339019775e-01</leafValues></_>
        <_>
          <internalNodes>
            0 -1 275 -7.8722357284277678e-04</internalNodes>
          <leafValues>
            3.0976471304893494e-01 -2.5218948721885681e-01</leafValues></_>
        <_>
          <internalNodes>
            0 -1 173 5.8823578001465648e-05</internalNodes>
          <leafValues>
            -2.4008665978908539e-01 3.1471163034439087e-01</leafValues></_>
        <_>
          <internalNodes>
            0 -1 228 -1.1318961158394814e-02</internalNodes>
          <leafValues>
            -7.1019697189331055e-01 1.2864315509796143e-01</leafValues></_>
        <_>
          <internalNodes>
            0 -1 90 1.1062144767493010e-03</internalNodes>
          <leafValues>
            1.2274225801229477e-01 -4.4373676180839539e-01</leafValues></_>
        <_>
          <internalNodes>
            0 -1 186 -3.5739354789257050e-03</internalNodes>
          <leafValues>
            7.8380763530731201e-01 -9.4459556043148041e-02</leafValues></_>
        <_>
          <internalNodes>
            0 -1 289 -3.8507528370246291e-04</internalNodes>
          <leafValues>
            3.3921709656715393e-01 -2.3067241907119751e-01</leafValues></_>
        <_>
          <internalNodes>
            0 -1 259 -1.6660077963024378e-03</internalNodes>
          <leafValues>
            -4.3711340427398682e-01 1.8153333663940430e-01</leafValues></_>
        <_>
          <internalNodes>
            0 -1 169 2.8772700577974319e-02</internalNodes>
          <leafValues>
            8.4370695054531097e-02 -8.6498010158538818e-01</leafValues></_>
        <_>
          <internalNodes>
            0 -1 122 -1.2364485301077366e-03</internalNodes>
          <leafValues>
            6.5273070335388184e-01 -1.4846350252628326e-01</leafValues></_>
        <_>
          <internalNodes>
            0 -1 265 -2.8479350730776787e-03</internalNodes>
          <leafValues>
            5.2801203727722168e-01 -1.3176454603672028e-01</leafValues></_>
        <_>
          <internalNodes>
            0 -1 208 1.6035407315939665e-04</internalNodes>
          <leafValues>
            1.9754986464977264e-01 -3.7801530957221985e-01</leafValues></_>
        <_>
          <internalNodes>
            0 -1 216 -3.2479610294103622e-02</internalNodes>
          <leafValues>
            3.3502513170242310e-01 -1.9788539409637451e-01</leafValues></_>
        <_>
          <internalNodes>
            0 -1 179 -1.4898324012756348e-01</internalNodes>
          <leafValues>
            -8.7849669158458710e-02 8.4083366394042969e-01</leafValues></_>
        <_>
          <internalNodes>
            0 -1 114 2.4287123233079910e-03</internalNodes>
          <leafValues>
            -2.2995710372924805e-01 3.1672871112823486e-01</leafValues></_></weakClassifiers></_>
    <!-- stage 14 -->
    <_>
      <maxWeakCount>25</maxWeakCount>
      <stageThreshold>-4.0124186873435974e-01</stageThreshold>
      <weakClassifiers>
        <_>
          <internalNodes>
            0 -1 89 -9.9038362503051758e-02</internalNodes>
          <leafValues>
            7.5999999046325684e-01 -3.1733334064483643e-01</leafValues></_>
        <_>
          <internalNodes>
            0 -1 180 -4.3642716482281685e-03</internalNodes>
          <leafValues>
            -6.8203300237655640e-01 8.0274581909179688e-02</leafValues></_>
        <_>
          <internalNodes>
            0 -1 243 6.0548889450728893e-05</internalNodes>
          <leafValues>
            2.1989591419696808e-01 -3.1359350681304932e-01</leafValues></_>
        <_>
          <internalNodes>
            0 -1 233 -1.5857844846323133e-04</internalNodes>
          <leafValues>
            -3.8643640279769897e-01 1.7445939779281616e-01</leafValues></_>
        <_>
          <internalNodes>
            0 -1 0 8.0240220995619893e-05</internalNodes>
          <leafValues>
            2.5001254677772522e-01 -2.2718763351440430e-01</leafValues></_>
        <_>
          <internalNodes>
            0 -1 192 -8.5749812424182892e-02</internalNodes>
          <leafValues>
            4.0623694658279419e-01 -1.8132312595844269e-01</leafValues></_>
        <_>
          <internalNodes>
            0 -1 240 7.5672082602977753e-03</internalNodes>
          <leafValues>
            -8.3568625152111053e-02 7.7372413873672485e-01</leafValues></_>
        <_>
          <internalNodes>
            0 -1 88 1.1579977581277490e-05</internalNodes>
          <leafValues>
            -2.8814658522605896e-01 2.4998638033866882e-01</leafValues></_>
        <_>
          <internalNodes>
            0 -1 67 1.6248649917542934e-03</internalNodes>
          <leafValues>
            1.6270917654037476e-01 -3.9873176813125610e-01</leafValues></_>
        <_>
          <internalNodes>
            0 -1 160 1.4887417200952768e-03</internalNodes>
          <leafValues>
            1.8952535092830658e-01 -3.5279810428619385e-01</leafValues></_>
        <_>
          <internalNodes>
            0 -1 185 -1.1214602738618851e-02</internalNodes>
          <leafValues>
            3.0442360043525696e-01 -2.2245813906192780e-01</leafValues></_>
        <_>
          <internalNodes>
            0 -1 255 -5.6379626039415598e-04</internalNodes>
          <leafValues>
            -2.6821547746658325e-01 2.5645586848258972e-01</leafValues></_>
        <_>
          <internalNodes>
            0 -1 75 -7.7063660137355328e-04</internalNodes>
          <leafValues>
            -6.1855065822601318e-01 1.0140804201364517e-01</leafValues></_>
        <_>
          <internalNodes>
            0 -1 104 1.6052367165684700e-02</internalNodes>
          <leafValues>
            -9.4216644763946533e-02 8.9021801948547363e-01</leafValues></_>
        <_>
          <internalNodes>
            0 -1 154 -3.0921116471290588e-02</internalNodes>
          <leafValues>
            7.6535224914550781e-01 -7.3774896562099457e-02</leafValues></_>
        <_>
          <internalNodes>
            0 -1 29 -6.5099995117634535e-04</internalNodes>
          <leafValues>
            -2.2803647816181183e-01 3.0434772372245789e-01</leafValues></_>
        <_>
          <internalNodes>
            0 -1 4 1.2825915217399597e-01</internalNodes>
          <leafValues>
            -2.2102427482604980e-01 3.3992582559585571e-01</leafValues></_>
        <_>
          <internalNodes>
            0 -1 62 -2.4006101302802563e-03</internalNodes>
          <leafValues>
            5.3367882966995239e-01 -1.0654170066118240e-01</leafValues></_>
        <_>
          <internalNodes>
            0 -1 221 -2.8553998097777367e-02</internalNodes>
          <leafValues>
            1.0779275000095367e-01 -6.2852197885513306e-01</leafValues></_>
        <_>
          <internalNodes>
            0 -1 152 -1.7116084927693009e-04</internalNodes>
          <leafValues>
            -3.8309964537620544e-01 1.7976805567741394e-01</leafValues></_>
        <_>
          <internalNodes>
            0 -1 145 5.5847410112619400e-04</internalNodes>
          <leafValues>
            1.0798475891351700e-01 -6.1182570457458496e-01</leafValues></_>
        <_>
          <internalNodes>
            0 -1 202 -1.2139234459027648e-03</internalNodes>
          <leafValues>
            3.8286107778549194e-01 -1.9460558891296387e-01</leafValues></_>
        <_>
          <internalNodes>
            0 -1 288 -5.6384754134342074e-04</internalNodes>
          <leafValues>
            -6.3738685846328735e-01 1.2284334003925323e-01</leafValues></_>
        <_>
          <internalNodes>
            0 -1 291 -3.9851274341344833e-03</internalNodes>
          <leafValues>
            5.7767158746719360e-01 -1.3671642541885376e-01</leafValues></_>
        <_>
          <internalNodes>
            0 -1 81 -7.6670181006193161e-03</internalNodes>
          <leafValues>
            3.2866597175598145e-01 -2.2582392394542694e-01</leafValues></_></weakClassifiers></_></stages>
  <features>
    <_>
      <rects>
        <_>
          0 0 2 8 -1.</_>
        <_>
          0 0 1 4 2.</_>
        <_>
          1 4 1 4 2.</_></rects>
      <tilted>0</tilted></_>
    <_>
      <rects>
        <_>
          0 0 2 10 -1.</_>
        <_>
          0 0 1 5 2.</_>
        <_>
          1 5 1 5 2.</_></rects>
      <tilted>0</tilted></_>
    <_>
      <rects>
        <_>
          0 0 2 4 -1.</_>
        <_>
          0 2 2 2 2.</_></rects>
      <tilted>0</tilted></_>
    <_>
      <rects>
        <_>
          0 0 6 24 -1.</_>
        <_>
          3 0 3 24 2.</_></rects>
      <tilted>0</tilted></_>
    <_>
      <rects>
        <_>
          0 0 7 20 -1.</_>
        <_>
          0 10 7 10 2.</_></rects>
      <tilted>0</tilted></_>
    <_>
      <rects>
        <_>
          0 0 8 8 -1.</_>
        <_>
          0 4 8 4 2.</_></rects>
      <tilted>0</tilted></_>
    <_>
      <rects>
        <_>
          0 0 23 20 -1.</_>
        <_>
          0 10 23 10 2.</_></rects>
      <tilted>0</tilted></_>
    <_>
      <rects>
        <_>
          0 1 1 3 -1.</_>
        <_>
          0 2 1 1 2.</_></rects>
      <tilted>0</tilted></_>
    <_>
      <rects>
        <_>
          0 1 10 10 -1.</_>
        <_>
          0 1 5 5 2.</_>
        <_>
          5 6 5 5 2.</_></rects>
      <tilted>0</tilted></_>
    <_>
      <rects>
        <_>
          0 1 18 2 -1.</_>
        <_>
          6 1 6 2 2.</_></rects>
      <tilted>0</tilted></_>
    <_>
      <rects>
        <_>
          0 1 13 2 -1.</_>
        <_>
          0 2 13 1 2.</_></rects>
      <tilted>0</tilted></_>
    <_>
      <rects>
        <_>
          0 2 13 2 -1.</_>
        <_>
          0 3 13 1 2.</_></rects>
      <tilted>0</tilted></_>
    <_>
      <rects>
        <_>
          0 3 6 13 -1.</_>
        <_>
          3 3 3 13 2.</_></rects>
      <tilted>0</tilted></_>
    <_>
      <rects>
        <_>
          0 3 10 14 -1.</_>
        <_>
          0 3 5 7 2.</_>
        <_>
          5 10 5 7 2.</_></rects>
      <tilted>0</tilted></_>
    <_>
      <rects>
        <_>
          0 3 14 15 -1.</_>
        <_>
          7 3 7 15 2.</_></rects>
      <tilted>0</tilted></_>
    <_>
      <rects>
        <_>
          0 3 12 10 -1.</_>
        <_>
          0 8 12 5 2.</_></rects>
      <tilted>0</tilted></_>
    <_>
      <rects>
        <_>
          0 4 6 3 -1.</_>
        <_>
          2 4 2 3 2.</_></rects>
      <tilted>0</tilted></_>
    <_>
      <rects>
        <_>
          0 4 11 4 -1.</_>
        <_>
          0 6 11 2 2.</_></rects>
      <tilted>0</tilted></_>
    <_>
      <rects>
        <_>
          0 5 12 9 -1.</_>
        <_>
          6 5 6 9 2.</_></rects>
      <tilted>0</tilted></_>
    <_>
      <rects>
        <_>
          0 6 2 6 -1.</_>
        <_>
          1 6 1 6 2.</_></rects>
      <tilted>0</tilted></_>
    <_>
      <rects>
        <_>
          0 6 15 10 -1.</_>
        <_>
          5 6 5 10 2.</_></rects>
      <tilted>0</tilted></_>
    <_>
      <rects>
        <_>
          0 7 2 2 -1.</_>
        <_>
          1 7 1 2 2.</_></rects>
      <tilted>0</tilted></_>
    <_>
      <rects>
        <_>
          0 8 2 2 -1.</_>
        <_>
          0 8 1 1 2.</_>
        <_>
          1 9 1 1 2.</_></rects>
      <tilted>0</tilted></_>
    <_>
      <rects>
        <_>
          0 8 2 16 -1.</_>
        <_>
          1 8 1 16 2.</_></rects>
      <tilted>0</tilted></_>
    <_>
      <rects>
        <_>
          0 9 18 2 -1.</_>
        <_>
          9 9 9 2 2.</_></rects>
      <tilted>0</tilted></_>
    <_>
      <rects>
        <_>
          0 9 24 6 -1.</_>
        <_>
          0 12 24 3 2.</_></rects>
      <tilted>0</tilted></_>
    <_>
      <rects>
        <_>
          0 10 6 12 -1.</_>
        <_>
          3 10 3 12 2.</_></rects>
      <tilted>0</tilted></_>
    <_>
      <rects>
        <_>
          0 11 10 11 -1.</_>
        <_>
          5 11 5 11 2.</_></rects>
      <tilted>0</tilted></_>
    <_>
      <rects>
        <_>
          0 12 2 11 -1.</_>
        <_>
          1 12 1 11 2.</_></rects>
      <tilted>0</tilted></_>
    <_>
      <rects>
        <_>
          0 13 8 4 -1.</_>
        <_>
          0 13 4 2 2.</_>
        <_>
          4 15 4 2 2.</_></rects>
      <tilted>0</tilted></_>
    <_>
      <rects>
        <_>
          0 16 2 2 -1.</_>
        <_>
          1 16 1 2 2.</_></rects>
      <tilted>0</tilted></_>
    <_>
      <rects>
        <_>
          0 16 5 6 -1.</_>
        <_>
          0 19 5 3 2.</_></rects>
      <tilted>0</tilted></_>
    <_>
      <rects>
        <_>
          0 20 4 4 -1.</_>
        <_>
          0 20 2 2 2.</_>
        <_>
          2 22 2 2 2.</_></rects>
      <tilted>0</tilted></_>
    <_>
      <rects>
        <_>
          0 22 24 2 -1.</_>
        <_>
          0 23 24 1 2.</_></rects>
      <tilted>0</tilted></_>
    <_>
      <rects>
        <_>
          1 0 2 6 -1.</_>
        <_>
          2 0 1 6 2.</_></rects>
      <tilted>0</tilted></_>
    <_>
      <rects>
        <_>
          1 0 4 2 -1.</_>
        <_>
          1 1 4 1 2.</_></rects>
      <tilted>0</tilted></_>
    <_>
      <rects>
        <_>
          1 0 20 24 -1.</_>
        <_>
          1 0 10 12 2.</_>
        <_>
          11 12 10 12 2.</_></rects>
      <tilted>0</tilted></_>
    <_>
      <rects>
        <_>
          1 0 22 2 -1.</_>
        <_>
          12 0 11 2 2.</_></rects>
      <tilted>0</tilted></_>
    <_>
      <rects>
        <_>
          1 0 12 2 -1.</_>
        <_>
          1 1 12 1 2.</_></rects>
      <tilted>0</tilted></_>
    <_>
      <rects>
        <_>
          1 0 13 20 -1.</_>
        <_>
          1 10 13 10 2.</_></rects>
      <tilted>0</tilted></_>
    <_>
      <rects>
        <_>
          1 1 2 2 -1.</_>
        <_>
          1 1 1 1 2.</_>
        <_>
          2 2 1 1 2.</_></rects>
      <tilted>0</tilted></_>
    <_>
      <rects>
        <_>
          1 2 2 22 -1.</_>
        <_>
          2 2 1 22 2.</_></rects>
      <tilted>0</tilted></_>
    <_>
      <rects>
        <_>
          1 3 2 2 -1.</_>
        <_>
          1 3 1 1 2.</_>
        <_>
          2 4 1 1 2.</_></rects>
      <tilted>0</tilted></_>
    <_>
      <rects>
        <_>
          1 5 6 8 -1.</_>
        <_>
          4 5 3 8 2.</_></rects>
      <tilted>0</tilted></_>
    <_>
      <rects>
        <_>
          1 6 8 8 -1.</_>
        <_>
          1 6 4 4 2.</_>
        <_>
          5 10 4 4 2.</_></rects>
      <tilted>0</tilted></_>
    <_>
      <rects>
        <_>
          1 9 4 2 -1.</_>
        <_>
          1 9 2 1 2.</_>
        <_>
          3 10 2 1 2.</_></rects>
      <tilted>0</tilted></_>
    <_>
      <rects>
        <_>
          1 10 4 1 -1.</_>
        <_>
          3 10 2 1 2.</_></rects>
      <tilted>0</tilted></_>
    <_>
      <rects>
        <_>
          1 12 2 2 -1.</_>
        <_>
          1 12 1 1 2.</_>
        <_>
          2 13 1 1 2.</_></rects>
      <tilted>0</tilted></_>
    <_>
      <rects>
        <_>
          1 18 6 6 -1.</_>
        <_>
          1 18 3 3 2.</_>
        <_>
          4 21 3 3 2.</_></rects>
      <tilted>0</tilted></_>
    <_>
      <rects>
        <_>
          1 20 2 1 -1.</_>
        <_>
          2 20 1 1 2.</_></rects>
      <tilted>0</tilted></_>
    <_>
      <rects>
        <_>
          1 20 10 4 -1.</_>
        <_>
          1 22 10 2 2.</_></rects>
      <tilted>0</tilted></_>
    <_>
      <rects>
        <_>
          1 22 2 2 -1.</_>
        <_>
          1 22 1 1 2.</_>
        <_>
          2 23 1 1 2.</_></rects>
      <tilted>0</tilted></_>
    <_>
      <rects>
        <_>
          1 23 6 1 -1.</_>
        <_>
          4 23 3 1 2.</_></rects>
      <tilted>0</tilted></_>
    <_>
      <rects>
        <_>
          2 0 1 2 -1.</_>
        <_>
          2 1 1 1 2.</_></rects>
      <tilted>0</tilted></_>
    <_>
      <rects>
        <_>
          2 0 2 8 -1.</_>
        <_>
          3 0 1 8 2.</_></rects>
      <tilted>0</tilted></_>
    <_>
      <rects>
        <_>
          2 0 16 10 -1.</_>
        <_>
          2 5 16 5 2.</_></rects>
      <tilted>0</tilted></_>
    <_>
      <rects>
        <_>
          2 0 22 10 -1.</_>
        <_>
          2 5 22 5 2.</_></rects>
      <tilted>0</tilted></_>
    <_>
      <rects>
        <_>
          2 1 20 2 -1.</_>
        <_>
          2 2 20 1 2.</_></rects>
      <tilted>0</tilted></_>
    <_>
      <rects>
        <_>
          2 3 2 2 -1.</_>
        <_>
          2 3 1 1 2.</_>
        <_>
          3 4 1 1 2.</_></rects>
      <tilted>0</tilted></_>
    <_>
      <rects>
        <_>
          2 6 2 17 -1.</_>
        <_>
          3 6 1 17 2.</_></rects>
      <tilted>0</tilted></_>
    <_>
      <rects>
        <_>
          2 8 6 3 -1.</_>
        <_>
          5 8 3 3 2.</_></rects>
      <tilted>0</tilted></_>
    <_>
      <rects>
        <_>
          2 12 3 12 -1.</_>
        <_>
          2 18 3 6 2.</_></rects>
      <tilted>0</tilted></_>
    <_>
      <rects>
        <_>
          2 14 8 2 -1.</_>
        <_>
          2 14 4 1 2.</_>
        <_>
          6 15 4 1 2.</_></rects>
      <tilted>0</tilted></_>
    <_>
      <rects>
        <_>
          2 16 12 2 -1.</_>
        <_>
          2 16 6 1 2.</_>
        <_>
          8 17 6 1 2.</_></rects>
      <tilted>0</tilted></_>
    <_>
      <rects>
        <_>
          3 0 9 2 -1.</_>
        <_>
          6 0 3 2 2.</_></rects>
      <tilted>0</tilted></_>
    <_>
      <rects>
        <_>
          3 0 13 2 -1.</_>
        <_>
          3 1 13 1 2.</_></rects>
      <tilted>0</tilted></_>
    <_>
      <rects>
        <_>
          3 2 12 7 -1.</_>
        <_>
          9 2 6 7 2.</_></rects>
      <tilted>0</tilted></_>
    <_>
      <rects>
        <_>
          3 3 1 4 -1.</_>
        <_>
          3 5 1 2 2.</_></rects>
      <tilted>0</tilted></_>
    <_>
      <rects>
        <_>
          3 3 2 4 -1.</_>
        <_>
          4 3 1 4 2.</_></rects>
      <tilted>0</tilted></_>
    <_>
      <rects>
        <_>
          3 4 20 20 -1.</_>
        <_>
          3 4 10 10 2.</_>
        <_>
          13 14 10 10 2.</_></rects>
      <tilted>0</tilted></_>
    <_>
      <rects>
        <_>
          3 6 8 6 -1.</_>
        <_>
          3 6 4 3 2.</_>
        <_>
          7 9 4 3 2.</_></rects>
      <tilted>0</tilted></_>
    <_>
      <rects>
        <_>
          3 6 20 13 -1.</_>
        <_>
          13 6 10 13 2.</_></rects>
      <tilted>0</tilted></_>
    <_>
      <rects>
        <_>
          3 7 19 10 -1.</_>
        <_>
          3 12 19 5 2.</_></rects>
      <tilted>0</tilted></_>
    <_>
      <rects>
        <_>
          3 8 10 4 -1.</_>
        <_>
          3 8 5 2 2.</_>
        <_>
          8 10 5 2 2.</_></rects>
      <tilted>0</tilted></_>
    <_>
      <rects>
        <_>
          3 12 16 2 -1.</_>
        <_>
          3 13 16 1 2.</_></rects>
      <tilted>0</tilted></_>
    <_>
      <rects>
        <_>
          3 13 1 2 -1.</_>
        <_>
          3 14 1 1 2.</_></rects>
      <tilted>0</tilted></_>
    <_>
      <rects>
        <_>
          3 14 12 10 -1.</_>
        <_>
          3 14 6 5 2.</_>
        <_>
          9 19 6 5 2.</_></rects>
      <tilted>0</tilted></_>
    <_>
      <rects>
        <_>
          3 16 18 3 -1.</_>
        <_>
          3 17 18 1 2.</_></rects>
      <tilted>0</tilted></_>
    <_>
      <rects>
        <_>
          3 16 19 8 -1.</_>
        <_>
          3 20 19 4 2.</_></rects>
      <tilted>0</tilted></_>
    <_>
      <rects>
        <_>
          3 19 7 3 -1.</_>
        <_>
          3 20 7 1 2.</_></rects>
      <tilted>0</tilted></_>
    <_>
      <rects>
        <_>
          3 21 21 2 -1.</_>
        <_>
          3 22 21 1 2.</_></rects>
      <tilted>0</tilted></_>
    <_>
      <rects>
        <_>
          3 22 21 2 -1.</_>
        <_>
          3 23 21 1 2.</_></rects>
      <tilted>0</tilted></_>
    <_>
      <rects>
        <_>
          4 0 3 12 -1.</_>
        <_>
          4 6 3 6 2.</_></rects>
      <tilted>0</tilted></_>
    <_>
      <rects>
        <_>
          4 1 16 6 -1.</_>
        <_>
          12 1 8 6 2.</_></rects>
      <tilted>0</tilted></_>
    <_>
      <rects>
        <_>
          4 1 16 12 -1.</_>
        <_>
          4 1 8 6 2.</_>
        <_>
          12 7 8 6 2.</_></rects>
      <tilted>0</tilted></_>
    <_>
      <rects>
        <_>
          4 2 4 21 -1.</_>
        <_>
          6 2 2 21 2.</_></rects>
      <tilted>0</tilted></_>
    <_>
      <rects>
        <_>
          4 4 2 2 -1.</_>
        <_>
          4 4 1 1 2.</_>
        <_>
          5 5 1 1 2.</_></rects>
      <tilted>0</tilted></_>
    <_>
      <rects>
        <_>
          4 4 2 9 -1.</_>
        <_>
          5 4 1 9 2.</_></rects>
      <tilted>0</tilted></_>
    <_>
      <rects>
        <_>
          4 5 1 2 -1.</_>
        <_>
          4 6 1 1 2.</_></rects>
      <tilted>0</tilted></_>
    <_>
      <rects>
        <_>
          4 7 12 14 -1.</_>
        <_>
          4 7 6 7 2.</_>
        <_>
          10 14 6 7 2.</_></rects>
      <tilted>0</tilted></_>
    <_>
      <rects>
        <_>
          4 8 2 6 -1.</_>
        <_>
          4 8 1 3 2.</_>
        <_>
          5 11 1 3 2.</_></rects>
      <tilted>0</tilted></_>
    <_>
      <rects>
        <_>
          4 10 19 2 -1.</_>
        <_>
          4 11 19 1 2.</_></rects>
      <tilted>0</tilted></_>
    <_>
      <rects>
        <_>
          4 12 2 1 -1.</_>
        <_>
          5 12 1 1 2.</_></rects>
      <tilted>0</tilted></_>
    <_>
      <rects>
        <_>
          4 12 4 1 -1.</_>
        <_>
          6 12 2 1 2.</_></rects>
      <tilted>0</tilted></_>
    <_>
      <rects>
        <_>
          4 13 20 2 -1.</_>
        <_>
          4 13 10 1 2.</_>
        <_>
          14 14 10 1 2.</_></rects>
      <tilted>0</tilted></_>
    <_>
      <rects>
        <_>
          4 14 10 10 -1.</_>
        <_>
          4 14 5 5 2.</_>
        <_>
          9 19 5 5 2.</_></rects>
      <tilted>0</tilted></_>
    <_>
      <rects>
        <_>
          4 19 12 3 -1.</_>
        <_>
          10 19 6 3 2.</_></rects>
      <tilted>0</tilted></_>
    <_>
      <rects>
        <_>
          5 0 2 2 -1.</_>
        <_>
          6 0 1 2 2.</_></rects>
      <tilted>0</tilted></_>
    <_>
      <rects>
        <_>
          5 2 12 8 -1.</_>
        <_>
          5 2 6 4 2.</_>
        <_>
          11 6 6 4 2.</_></rects>
      <tilted>0</tilted></_>
    <_>
      <rects>
        <_>
          5 3 18 14 -1.</_>
        <_>
          14 3 9 14 2.</_></rects>
      <tilted>0</tilted></_>
    <_>
      <rects>
        <_>
          5 3 11 2 -1.</_>
        <_>
          5 4 11 1 2.</_></rects>
      <tilted>0</tilted></_>
    <_>
      <rects>
        <_>
          5 11 9 8 -1.</_>
        <_>
          5 15 9 4 2.</_></rects>
      <tilted>0</tilted></_>
    <_>
      <rects>
        <_>
          5 11 16 3 -1.</_>
        <_>
          5 12 16 1 2.</_></rects>
      <tilted>0</tilted></_>
    <_>
      <rects>
        <_>
          5 12 19 4 -1.</_>
        <_>
          5 14 19 2 2.</_></rects>
      <tilted>0</tilted></_>
    <_>
      <rects>
        <_>
          5 19 10 4 -1.</_>
        <_>
          5 21 10 2 2.</_></rects>
      <tilted>0</tilted></_>
    <_>
      <rects>
        <_>
          5 20 2 2 -1.</_>
        <_>
          6 20 1 2 2.</_></rects>
      <tilted>0</tilted></_>
    <_>
      <rects>
        <_>
          6 0 14 14 -1.</_>
        <_>
          6 7 14 7 2.</_></rects>
      <tilted>0</tilted></_>
    <_>
      <rects>
        <_>
          6 1 2 1 -1.</_>
        <_>
          7 1 1 1 2.</_></rects>
      <tilted>0</tilted></_>
    <_>
      <rects>
        <_>
          6 1 2 2 -1.</_>
        <_>
          6 2 2 1 2.</_></rects>
      <tilted>0</tilted></_>
    <_>
      <rects>
        <_>
          6 2 2 2 -1.</_>
        <_>
          6 2 1 1 2.</_>
        <_>
          7 3 1 1 2.</_></rects>
      <tilted>0</tilted></_>
    <_>
      <rects>
        <_>
          6 3 4 2 -1.</_>
        <_>
          6 3 2 1 2.</_>
        <_>
          8 4 2 1 2.</_></rects>
      <tilted>0</tilted></_>
    <_>
      <rects>
        <_>
          6 5 4 16 -1.</_>
        <_>
          8 5 2 16 2.</_></rects>
      <tilted>0</tilted></_>
    <_>
      <rects>
        <_>
          6 7 14 4 -1.</_>
        <_>
          6 9 14 2 2.</_></rects>
      <tilted>0</tilted></_>
    <_>
      <rects>
        <_>
          6 8 14 4 -1.</_>
        <_>
          6 8 7 2 2.</_>
        <_>
          13 10 7 2 2.</_></rects>
      <tilted>0</tilted></_>
    <_>
      <rects>
        <_>
          6 9 8 12 -1.</_>
        <_>
          6 9 4 6 2.</_>
        <_>
          10 15 4 6 2.</_></rects>
      <tilted>0</tilted></_>
    <_>
      <rects>
        <_>
          6 10 1 8 -1.</_>
        <_>
          6 14 1 4 2.</_></rects>
      <tilted>0</tilted></_>
    <_>
      <rects>
        <_>
          6 17 2 7 -1.</_>
        <_>
          7 17 1 7 2.</_></rects>
      <tilted>0</tilted></_>
    <_>
      <rects>
        <_>
          6 18 5 2 -1.</_>
        <_>
          6 19 5 1 2.</_></rects>
      <tilted>0</tilted></_>
    <_>
      <rects>
        <_>
          6 19 14 2 -1.</_>
        <_>
          6 19 7 1 2.</_>
        <_>
          13 20 7 1 2.</_></rects>
      <tilted>0</tilted></_>
    <_>
      <rects>
        <_>
          6 20 12 2 -1.</_>
        <_>
          6 21 12 1 2.</_></rects>
      <tilted>0</tilted></_>
    <_>
      <rects>
        <_>
          7 0 5 4 -1.</_>
        <_>
          7 2 5 2 2.</_></rects>
      <tilted>0</tilted></_>
    <_>
      <rects>
        <_>
          7 0 14 24 -1.</_>
        <_>
          7 0 7 12 2.</_>
        <_>
          14 12 7 12 2.</_></rects>
      <tilted>0</tilted></_>
    <_>
      <rects>
        <_>
          7 1 4 2 -1.</_>
        <_>
          7 1 2 1 2.</_>
        <_>
          9 2 2 1 2.</_></rects>
      <tilted>0</tilted></_>
    <_>
      <rects>
        <_>
          7 1 8 10 -1.</_>
        <_>
          11 1 4 10 2.</_></rects>
      <tilted>0</tilted></_>
    <_>
      <rects>
        <_>
          7 1 10 16 -1.</_>
        <_>
          7 1 5 8 2.</_>
        <_>
          12 9 5 8 2.</_></rects>
      <tilted>0</tilted></_>
    <_>
      <rects>
        <_>
          7 1 10 22 -1.</_>
        <_>
          7 1 5 11 2.</_>
        <_>
          12 12 5 11 2.</_></rects>
      <tilted>0</tilted></_>
    <_>
      <rects>
        <_>
          7 3 6 14 -1.</_>
        <_>
          10 3 3 14 2.</_></rects>
      <tilted>0</tilted></_>
    <_>
      <rects>
        <_>
          7 3 6 15 -1.</_>
        <_>
          10 3 3 15 2.</_></rects>
      <tilted>0</tilted></_>
    <_>
      <rects>
        <_>
          7 4 15 4 -1.</_>
        <_>
          12 4 5 4 2.</_></rects>
      <tilted>0</tilted></_>
    <_>
      <rects>
        <_>
          7 6 17 10 -1.</_>
        <_>
          7 11 17 5 2.</_></rects>
      <tilted>0</tilted></_>
    <_>
      <rects>
        <_>
          7 9 16 2 -1.</_>
        <_>
          7 9 8 1 2.</_>
        <_>
          15 10 8 1 2.</_></rects>
      <tilted>0</tilted></_>
    <_>
      <rects>
        <_>
          7 10 2 3 -1.</_>
        <_>
          7 11 2 1 2.</_></rects>
      <tilted>0</tilted></_>
    <_>
      <rects>
        <_>
          7 15 4 6 -1.</_>
        <_>
          7 15 2 3 2.</_>
        <_>
          9 18 2 3 2.</_></rects>
      <tilted>0</tilted></_>
    <_>
      <rects>
        <_>
          7 16 6 4 -1.</_>
        <_>
          7 18 6 2 2.</_></rects>
      <tilted>0</tilted></_>
    <_>
      <rects>
        <_>
          7 20 1 2 -1.</_>
        <_>
          7 21 1 1 2.</_></rects>
      <tilted>0</tilted></_>
    <_>
      <rects>
        <_>
          7 20 8 2 -1.</_>
        <_>
          7 21 8 1 2.</_></rects>
      <tilted>0</tilted></_>
    <_>
      <rects>
        <_>
          7 22 5 2 -1.</_>
        <_>
          7 23 5 1 2.</_></rects>
      <tilted>0</tilted></_>
    <_>
      <rects>
        <_>
          8 1 6 4 -1.</_>
        <_>
          8 1 3 2 2.</_>
        <_>
          11 3 3 2 2.</_></rects>
      <tilted>0</tilted></_>
    <_>
      <rects>
        <_>
          8 3 4 6 -1.</_>
        <_>
          8 3 2 3 2.</_>
        <_>
          10 6 2 3 2.</_></rects>
      <tilted>0</tilted></_>
    <_>
      <rects>
        <_>
          8 4 2 6 -1.</_>
        <_>
          8 7 2 3 2.</_></rects>
      <tilted>0</tilted></_>
    <_>
      <rects>
        <_>
          8 5 6 11 -1.</_>
        <_>
          10 5 2 11 2.</_></rects>
      <tilted>0</tilted></_>
    <_>
      <rects>
        <_>
          8 5 6 2 -1.</_>
        <_>
          8 5 3 1 2.</_>
        <_>
          11 6 3 1 2.</_></rects>
      <tilted>0</tilted></_>
    <_>
      <rects>
        <_>
          8 6 16 8 -1.</_>
        <_>
          16 6 8 8 2.</_></rects>
      <tilted>0</tilted></_>
    <_>
      <rects>
        <_>
          8 6 16 18 -1.</_>
        <_>
          8 15 16 9 2.</_></rects>
      <tilted>0</tilted></_>
    <_>
      <rects>
        <_>
          8 9 10 2 -1.</_>
        <_>
          8 10 10 1 2.</_></rects>
      <tilted>0</tilted></_>
    <_>
      <rects>
        <_>
          8 13 2 2 -1.</_>
        <_>
          8 13 1 1 2.</_>
        <_>
          9 14 1 1 2.</_></rects>
      <tilted>0</tilted></_>
    <_>
      <rects>
        <_>
          8 17 10 2 -1.</_>
        <_>
          8 17 5 1 2.</_>
        <_>
          13 18 5 1 2.</_></rects>
      <tilted>0</tilted></_>
    <_>
      <rects>
        <_>
          8 18 2 4 -1.</_>
        <_>
          8 20 2 2 2.</_></rects>
      <tilted>0</tilted></_>
    <_>
      <rects>
        <_>
          8 21 2 2 -1.</_>
        <_>
          8 21 1 1 2.</_>
        <_>
          9 22 1 1 2.</_></rects>
      <tilted>0</tilted></_>
    <_>
      <rects>
        <_>
          8 22 2 2 -1.</_>
        <_>
          8 22 1 1 2.</_>
        <_>
          9 23 1 1 2.</_></rects>
      <tilted>0</tilted></_>
    <_>
      <rects>
        <_>
          9 1 2 3 -1.</_>
        <_>
          10 1 1 3 2.</_></rects>
      <tilted>0</tilted></_>
    <_>
      <rects>
        <_>
          9 2 2 1 -1.</_>
        <_>
          10 2 1 1 2.</_></rects>
      <tilted>0</tilted></_>
    <_>
      <rects>
        <_>
          9 5 2 1 -1.</_>
        <_>
          10 5 1 1 2.</_></rects>
      <tilted>0</tilted></_>
    <_>
      <rects>
        <_>
          9 5 10 2 -1.</_>
        <_>
          9 5 5 1 2.</_>
        <_>
          14 6 5 1 2.</_></rects>
      <tilted>0</tilted></_>
    <_>
      <rects>
        <_>
          9 9 3 10 -1.</_>
        <_>
          9 14 3 5 2.</_></rects>
      <tilted>0</tilted></_>
    <_>
      <rects>
        <_>
          9 11 4 2 -1.</_>
        <_>
          9 12 4 1 2.</_></rects>
      <tilted>0</tilted></_>
    <_>
      <rects>
        <_>
          9 11 12 1 -1.</_>
        <_>
          13 11 4 1 2.</_></rects>
      <tilted>0</tilted></_>
    <_>
      <rects>
        <_>
          9 12 2 2 -1.</_>
        <_>
          9 12 1 1 2.</_>
        <_>
          10 13 1 1 2.</_></rects>
      <tilted>0</tilted></_>
    <_>
      <rects>
        <_>
          9 12 11 6 -1.</_>
        <_>
          9 14 11 2 2.</_></rects>
      <tilted>0</tilted></_>
    <_>
      <rects>
        <_>
          9 13 6 2 -1.</_>
        <_>
          9 13 3 1 2.</_>
        <_>
          12 14 3 1 2.</_></rects>
      <tilted>0</tilted></_>
    <_>
      <rects>
        <_>
          9 13 6 4 -1.</_>
        <_>
          9 13 3 2 2.</_>
        <_>
          12 15 3 2 2.</_></rects>
      <tilted>0</tilted></_>
    <_>
      <rects>
        <_>
          9 14 10 4 -1.</_>
        <_>
          9 16 10 2 2.</_></rects>
      <tilted>0</tilted></_>
    <_>
      <rects>
        <_>
          9 22 2 2 -1.</_>
        <_>
          9 22 1 1 2.</_>
        <_>
          10 23 1 1 2.</_></rects>
      <tilted>0</tilted></_>
    <_>
      <rects>
        <_>
          10 0 2 1 -1.</_>
        <_>
          11 0 1 1 2.</_></rects>
      <tilted>0</tilted></_>
    <_>
      <rects>
        <_>
          10 0 10 1 -1.</_>
        <_>
          15 0 5 1 2.</_></rects>
      <tilted>0</tilted></_>
    <_>
      <rects>
        <_>
          10 0 10 16 -1.</_>
        <_>
          15 0 5 16 2.</_></rects>
      <tilted>0</tilted></_>
    <_>
      <rects>
        <_>
          10 1 6 12 -1.</_>
        <_>
          13 1 3 12 2.</_></rects>
      <tilted>0</tilted></_>
    <_>
      <rects>
        <_>
          10 3 2 2 -1.</_>
        <_>
          11 3 1 2 2.</_></rects>
      <tilted>0</tilted></_>
    <_>
      <rects>
        <_>
          10 3 2 12 -1.</_>
        <_>
          10 3 1 6 2.</_>
        <_>
          11 9 1 6 2.</_></rects>
      <tilted>0</tilted></_>
    <_>
      <rects>
        <_>
          10 4 4 20 -1.</_>
        <_>
          10 4 2 10 2.</_>
        <_>
          12 14 2 10 2.</_></rects>
      <tilted>0</tilted></_>
    <_>
      <rects>
        <_>
          10 7 2 1 -1.</_>
        <_>
          11 7 1 1 2.</_></rects>
      <tilted>0</tilted></_>
    <_>
      <rects>
        <_>
          10 11 2 8 -1.</_>
        <_>
          11 11 1 8 2.</_></rects>
      <tilted>0</tilted></_>
    <_>
      <rects>
        <_>
          10 12 8 1 -1.</_>
        <_>
          14 12 4 1 2.</_></rects>
      <tilted>0</tilted></_>
    <_>
      <rects>
        <_>
          10 17 2 2 -1.</_>
        <_>
          10 17 1 1 2.</_>
        <_>
          11 18 1 1 2.</_></rects>
      <tilted>0</tilted></_>
    <_>
      <rects>
        <_>
          10 18 14 2 -1.</_>
        <_>
          10 18 7 1 2.</_>
        <_>
          17 19 7 1 2.</_></rects>
      <tilted>0</tilted></_>
    <_>
      <rects>
        <_>
          10 20 9 1 -1.</_>
        <_>
          13 20 3 1 2.</_></rects>
      <tilted>0</tilted></_>
    <_>
      <rects>
        <_>
          10 21 2 2 -1.</_>
        <_>
          10 22 2 1 2.</_></rects>
      <tilted>0</tilted></_>
    <_>
      <rects>
        <_>
          11 2 12 4 -1.</_>
        <_>
          11 2 6 2 2.</_>
        <_>
          17 4 6 2 2.</_></rects>
      <tilted>0</tilted></_>
    <_>
      <rects>
        <_>
          11 5 12 15 -1.</_>
        <_>
          15 5 4 15 2.</_></rects>
      <tilted>0</tilted></_>
    <_>
      <rects>
        <_>
          11 5 8 18 -1.</_>
        <_>
          11 11 8 6 2.</_></rects>
      <tilted>0</tilted></_>
    <_>
      <rects>
        <_>
          11 6 2 16 -1.</_>
        <_>
          11 6 1 8 2.</_>
        <_>
          12 14 1 8 2.</_></rects>
      <tilted>0</tilted></_>
    <_>
      <rects>
        <_>
          11 7 4 1 -1.</_>
        <_>
          13 7 2 1 2.</_></rects>
      <tilted>0</tilted></_>
    <_>
      <rects>
        <_>
          11 8 5 2 -1.</_>
        <_>
          11 9 5 1 2.</_></rects>
      <tilted>0</tilted></_>
    <_>
      <rects>
        <_>
          11 10 2 1 -1.</_>
        <_>
          12 10 1 1 2.</_></rects>
      <tilted>0</tilted></_>
    <_>
      <rects>
        <_>
          11 12 6 10 -1.</_>
        <_>
          13 12 2 10 2.</_></rects>
      <tilted>0</tilted></_>
    <_>
      <rects>
        <_>
          11 16 3 8 -1.</_>
        <_>
          11 20 3 4 2.</_></rects>
      <tilted>0</tilted></_>
    <_>
      <rects>
        <_>
          11 16 4 2 -1.</_>
        <_>
          11 17 4 1 2.</_></rects>
      <tilted>0</tilted></_>
    <_>
      <rects>
        <_>
          11 16 10 4 -1.</_>
        <_>
          11 16 5 2 2.</_>
        <_>
          16 18 5 2 2.</_></rects>
      <tilted>0</tilted></_>
    <_>
      <rects>
        <_>
          11 17 13 2 -1.</_>
        <_>
          11 18 13 1 2.</_></rects>
      <tilted>0</tilted></_>
    <_>
      <rects>
        <_>
          11 18 6 6 -1.</_>
        <_>
          14 18 3 6 2.</_></rects>
      <tilted>0</tilted></_>
    <_>
      <rects>
        <_>
          12 0 4 2 -1.</_>
        <_>
          14 0 2 2 2.</_></rects>
      <tilted>0</tilted></_>
    <_>
      <rects>
        <_>
          12 0 6 10 -1.</_>
        <_>
          15 0 3 10 2.</_></rects>
      <tilted>0</tilted></_>
    <_>
      <rects>
        <_>
          12 0 10 16 -1.</_>
        <_>
          17 0 5 16 2.</_></rects>
      <tilted>0</tilted></_>
    <_>
      <rects>
        <_>
          12 1 4 1 -1.</_>
        <_>
          14 1 2 1 2.</_></rects>
      <tilted>0</tilted></_>
    <_>
      <rects>
        <_>
          12 1 2 2 -1.</_>
        <_>
          12 2 2 1 2.</_></rects>
      <tilted>0</tilted></_>
    <_>
      <rects>
        <_>
          12 1 4 2 -1.</_>
        <_>
          12 1 2 1 2.</_>
        <_>
          14 2 2 1 2.</_></rects>
      <tilted>0</tilted></_>
    <_>
      <rects>
        <_>
          12 3 2 4 -1.</_>
        <_>
          12 3 1 2 2.</_>
        <_>
          13 5 1 2 2.</_></rects>
      <tilted>0</tilted></_>
    <_>
      <rects>
        <_>
          12 6 4 2 -1.</_>
        <_>
          12 6 2 1 2.</_>
        <_>
          14 7 2 1 2.</_></rects>
      <tilted>0</tilted></_>
    <_>
      <rects>
        <_>
          12 6 4 2 -1.</_>
        <_>
          14 6 2 2 2.</_></rects>
      <tilted>0</tilted></_>
    <_>
      <rects>
        <_>
          12 6 12 12 -1.</_>
        <_>
          18 6 6 12 2.</_></rects>
      <tilted>0</tilted></_>
    <_>
      <rects>
        <_>
          12 7 4 4 -1.</_>
        <_>
          12 9 4 2 2.</_></rects>
      <tilted>0</tilted></_>
    <_>
      <rects>
        <_>
          12 7 12 11 -1.</_>
        <_>
          18 7 6 11 2.</_></rects>
      <tilted>0</tilted></_>
    <_>
      <rects>
        <_>
          12 9 4 4 -1.</_>
        <_>
          12 9 2 2 2.</_>
        <_>
          14 11 2 2 2.</_></rects>
      <tilted>0</tilted></_>
    <_>
      <rects>
        <_>
          12 9 12 5 -1.</_>
        <_>
          18 9 6 5 2.</_></rects>
      <tilted>0</tilted></_>
    <_>
      <rects>
        <_>
          12 14 12 2 -1.</_>
        <_>
          12 14 6 1 2.</_>
        <_>
          18 15 6 1 2.</_></rects>
      <tilted>0</tilted></_>
    <_>
      <rects>
        <_>
          12 22 5 2 -1.</_>
        <_>
          12 23 5 1 2.</_></rects>
      <tilted>0</tilted></_>
    <_>
      <rects>
        <_>
          13 0 4 2 -1.</_>
        <_>
          13 1 4 1 2.</_></rects>
      <tilted>0</tilted></_>
    <_>
      <rects>
        <_>
          13 2 4 22 -1.</_>
        <_>
          13 2 2 11 2.</_>
        <_>
          15 13 2 11 2.</_></rects>
      <tilted>0</tilted></_>
    <_>
      <rects>
        <_>
          13 5 2 1 -1.</_>
        <_>
          14 5 1 1 2.</_></rects>
      <tilted>0</tilted></_>
    <_>
      <rects>
        <_>
          13 12 2 2 -1.</_>
        <_>
          13 12 1 1 2.</_>
        <_>
          14 13 1 1 2.</_></rects>
      <tilted>0</tilted></_>
    <_>
      <rects>
        <_>
          13 12 8 4 -1.</_>
        <_>
          13 12 4 2 2.</_>
        <_>
          17 14 4 2 2.</_></rects>
      <tilted>0</tilted></_>
    <_>
      <rects>
        <_>
          13 14 8 2 -1.</_>
        <_>
          13 14 4 1 2.</_>
        <_>
          17 15 4 1 2.</_></rects>
      <tilted>0</tilted></_>
    <_>
      <rects>
        <_>
          13 15 10 4 -1.</_>
        <_>
          13 15 5 2 2.</_>
        <_>
          18 17 5 2 2.</_></rects>
      <tilted>0</tilted></_>
    <_>
      <rects>
        <_>
          14 0 2 22 -1.</_>
        <_>
          14 0 1 11 2.</_>
        <_>
          15 11 1 11 2.</_></rects>
      <tilted>0</tilted></_>
    <_>
      <rects>
        <_>
          14 0 4 6 -1.</_>
        <_>
          16 0 2 6 2.</_></rects>
      <tilted>0</tilted></_>
    <_>
      <rects>
        <_>
          14 2 8 13 -1.</_>
        <_>
          18 2 4 13 2.</_></rects>
      <tilted>0</tilted></_>
    <_>
      <rects>
        <_>
          14 5 1 9 -1.</_>
        <_>
          14 8 1 3 2.</_></rects>
      <tilted>0</tilted></_>
    <_>
      <rects>
        <_>
          14 7 4 2 -1.</_>
        <_>
          14 7 2 1 2.</_>
        <_>
          16 8 2 1 2.</_></rects>
      <tilted>0</tilted></_>
    <_>
      <rects>
        <_>
          14 10 4 12 -1.</_>
        <_>
          14 10 2 6 2.</_>
        <_>
          16 16 2 6 2.</_></rects>
      <tilted>0</tilted></_>
    <_>
      <rects>
        <_>
          14 13 2 10 -1.</_>
        <_>
          14 13 1 5 2.</_>
        <_>
          15 18 1 5 2.</_></rects>
      <tilted>0</tilted></_>
    <_>
      <rects>
        <_>
          14 17 6 2 -1.</_>
        <_>
          14 18 6 1 2.</_></rects>
      <tilted>0</tilted></_>
    <_>
      <rects>
        <_>
          14 18 6 3 -1.</_>
        <_>
          16 18 2 3 2.</_></rects>
      <tilted>0</tilted></_>
    <_>
      <rects>
        <_>
          14 20 8 4 -1.</_>
        <_>
          14 20 4 2 2.</_>
        <_>
          18 22 4 2 2.</_></rects>
      <tilted>0</tilted></_>
    <_>
      <rects>
        <_>
          15 0 4 10 -1.</_>
        <_>
          15 0 2 5 2.</_>
        <_>
          17 5 2 5 2.</_></rects>
      <tilted>0</tilted></_>
    <_>
      <rects>
        <_>
          15 0 8 1 -1.</_>
        <_>
          19 0 4 1 2.</_></rects>
      <tilted>0</tilted></_>
    <_>
      <rects>
        <_>
          15 2 2 2 -1.</_>
        <_>
          15 2 1 1 2.</_>
        <_>
          16 3 1 1 2.</_></rects>
      <tilted>0</tilted></_>
    <_>
      <rects>
        <_>
          15 7 6 8 -1.</_>
        <_>
          15 7 3 4 2.</_>
        <_>
          18 11 3 4 2.</_></rects>
      <tilted>0</tilted></_>
    <_>
      <rects>
        <_>
          15 12 1 3 -1.</_>
        <_>
          15 13 1 1 2.</_></rects>
      <tilted>0</tilted></_>
    <_>
      <rects>
        <_>
          15 14 8 1 -1.</_>
        <_>
          19 14 4 1 2.</_></rects>
      <tilted>0</tilted></_>
    <_>
      <rects>
        <_>
          15 16 6 4 -1.</_>
        <_>
          15 16 3 2 2.</_>
        <_>
          18 18 3 2 2.</_></rects>
      <tilted>0</tilted></_>
    <_>
      <rects>
        <_>
          15 16 3 6 -1.</_>
        <_>
          15 19 3 3 2.</_></rects>
      <tilted>0</tilted></_>
    <_>
      <rects>
        <_>
          15 18 2 2 -1.</_>
        <_>
          15 18 1 1 2.</_>
        <_>
          16 19 1 1 2.</_></rects>
      <tilted>0</tilted></_>
    <_>
      <rects>
        <_>
          16 0 4 12 -1.</_>
        <_>
          16 0 2 6 2.</_>
        <_>
          18 6 2 6 2.</_></rects>
      <tilted>0</tilted></_>
    <_>
      <rects>
        <_>
          16 2 1 6 -1.</_>
        <_>
          16 5 1 3 2.</_></rects>
      <tilted>0</tilted></_>
    <_>
      <rects>
        <_>
          16 6 6 2 -1.</_>
        <_>
          16 6 3 1 2.</_>
        <_>
          19 7 3 1 2.</_></rects>
      <tilted>0</tilted></_>
    <_>
      <rects>
        <_>
          16 7 2 2 -1.</_>
        <_>
          16 7 1 1 2.</_>
        <_>
          17 8 1 1 2.</_></rects>
      <tilted>0</tilted></_>
    <_>
      <rects>
        <_>
          16 7 6 12 -1.</_>
        <_>
          16 13 6 6 2.</_></rects>
      <tilted>0</tilted></_>
    <_>
      <rects>
        <_>
          16 8 8 15 -1.</_>
        <_>
          20 8 4 15 2.</_></rects>
      <tilted>0</tilted></_>
    <_>
      <rects>
        <_>
          16 8 7 2 -1.</_>
        <_>
          16 9 7 1 2.</_></rects>
      <tilted>0</tilted></_>
    <_>
      <rects>
        <_>
          16 9 2 4 -1.</_>
        <_>
          16 9 1 2 2.</_>
        <_>
          17 11 1 2 2.</_></rects>
      <tilted>0</tilted></_>
    <_>
      <rects>
        <_>
          16 12 6 2 -1.</_>
        <_>
          19 12 3 2 2.</_></rects>
      <tilted>0</tilted></_>
    <_>
      <rects>
        <_>
          16 16 8 2 -1.</_>
        <_>
          16 16 4 1 2.</_>
        <_>
          20 17 4 1 2.</_></rects>
      <tilted>0</tilted></_>
    <_>
      <rects>
        <_>
          16 22 6 2 -1.</_>
        <_>
          19 22 3 2 2.</_></rects>
      <tilted>0</tilted></_>
    <_>
      <rects>
        <_>
          17 0 2 2 -1.</_>
        <_>
          17 0 1 1 2.</_>
        <_>
          18 1 1 1 2.</_></rects>
      <tilted>0</tilted></_>
    <_>
      <rects>
        <_>
          17 0 4 24 -1.</_>
        <_>
          19 0 2 24 2.</_></rects>
      <tilted>0</tilted></_>
    <_>
      <rects>
        <_>
          17 1 4 10 -1.</_>
        <_>
          17 1 2 5 2.</_>
        <_>
          19 6 2 5 2.</_></rects>
      <tilted>0</tilted></_>
    <_>
      <rects>
        <_>
          17 3 2 11 -1.</_>
        <_>
          18 3 1 11 2.</_></rects>
      <tilted>0</tilted></_>
    <_>
      <rects>
        <_>
          17 4 2 2 -1.</_>
        <_>
          17 4 1 1 2.</_>
        <_>
          18 5 1 1 2.</_></rects>
      <tilted>0</tilted></_>
    <_>
      <rects>
        <_>
          17 9 6 6 -1.</_>
        <_>
          17 9 3 3 2.</_>
        <_>
          20 12 3 3 2.</_></rects>
      <tilted>0</tilted></_>
    <_>
      <rects>
        <_>
          17 12 2 6 -1.</_>
        <_>
          17 12 1 3 2.</_>
        <_>
          18 15 1 3 2.</_></rects>
      <tilted>0</tilted></_>
    <_>
      <rects>
        <_>
          17 14 1 8 -1.</_>
        <_>
          17 18 1 4 2.</_></rects>
      <tilted>0</tilted></_>
    <_>
      <rects>
        <_>
          17 18 2 1 -1.</_>
        <_>
          18 18 1 1 2.</_></rects>
      <tilted>0</tilted></_>
    <_>
      <rects>
        <_>
          18 1 6 2 -1.</_>
        <_>
          18 2 6 1 2.</_></rects>
      <tilted>0</tilted></_>
    <_>
      <rects>
        <_>
          18 6 6 7 -1.</_>
        <_>
          21 6 3 7 2.</_></rects>
      <tilted>0</tilted></_>
    <_>
      <rects>
        <_>
          18 12 2 4 -1.</_>
        <_>
          18 12 1 2 2.</_>
        <_>
