<?xml version="1.0"?>
<opencv_storage>
<stage10>
  <maxWeakCount>9</maxWeakCount>
  <stageThreshold>-3.7794861197471619e-01</stageThreshold>
  <weakClassifiers>
    <_>
      <internalNodes>
        0 -1 18073 5.0357002764940262e-03</internalNodes>
      <leafValues>
        -4.8623853921890259e-01 4.6478873491287231e-01</leafValues></_>
    <_>
      <internalNodes>
        0 -1 122454 2.0209886133670807e-03</internalNodes>
      <leafValues>
        -2.9267042875289917e-01 6.6270530223846436e-01</leafValues></_>
    <_>
      <internalNodes>
        0 -1 99732 -1.9855402410030365e-02</internalNodes>
      <leafValues>
        5.9192073345184326e-01 -4.1843506693840027e-01</leafValues></_>
    <_>
      <internalNodes>
        0 -1 159361 2.2531325521413237e-04</internalNodes>
      <leafValues>
        -2.8020536899566650e-01 6.6788548231124878e-01</leafValues></_>
    <_>
      <internalNodes>
        0 -1 155652 -2.5877519510686398e-03</internalNodes>
      <leafValues>
        5.7006740570068359e-01 -3.3159089088439941e-01</leafValues></_>
    <_>
      <internalNodes>
        0 -1 53581 1.5137786976993084e-03</internalNodes>
      <leafValues>
        -3.5509443283081055e-01 5.5890083312988281e-01</leafValues></_>
    <_>
      <internalNodes>
        0 -1 159796 -4.1971751488745213e-03</internalNodes>
      <leafValues>
        6.1614596843719482e-01 -2.8903251886367798e-01</leafValues></_>
    <_>
      <internalNodes>
        0 -1 160292 -2.3396738106384873e-04</internalNodes>
      <leafValues>
        5.1107603311538696e-01 -4.9964308738708496e-01</leafValues></_>
    <_>
      <internalNodes>
        0 -1 72 8.7569449096918106e-03</internalNodes>
      <leafValues>
        -2.8866338729858398e-01 8.5955643653869629e-01</leafValues></_></weakClassifiers></stage10>
</opencv_storage>
