<?xml version="1.0"?>
<opencv_storage>
<stage4>
  <maxWeakCount>17</maxWeakCount>
  <stageThreshold>-7.4466174840927124e-01</stageThreshold>
  <weakClassifiers>
    <_>
      <internalNodes>
        0 -1 89810 -4.5304759405553341e-03</internalNodes>
      <leafValues>
        9.6045196056365967e-02 -5.4798763990402222e-01</leafValues></_>
    <_>
      <internalNodes>
        0 -1 65558 -1.7838295549154282e-02</internalNodes>
      <leafValues>
        3.4291628003120422e-01 -3.1582200527191162e-01</leafValues></_>
    <_>
      <internalNodes>
        0 -1 5890 3.3522311132401228e-03</internalNodes>
      <leafValues>
        -3.2731416821479797e-01 3.0192777514457703e-01</leafValues></_>
    <_>
      <internalNodes>
        0 -1 159238 2.3531061597168446e-03</internalNodes>
      <leafValues>
        1.3954681158065796e-01 -6.8595910072326660e-01</leafValues></_>
    <_>
      <internalNodes>
        0 -1 70425 -1.4618833083659410e-03</internalNodes>
      <leafValues>
        -5.6606924533843994e-01 1.7469593882560730e-01</leafValues></_>
    <_>
      <internalNodes>
        0 -1 89072 -1.1227084323763847e-03</internalNodes>
      <leafValues>
        -3.9420098066329956e-01 2.3739576339721680e-01</leafValues></_>
    <_>
      <internalNodes>
        0 -1 104155 1.8663443624973297e-02</internalNodes>
      <leafValues>
        9.8526433110237122e-02 -8.4578633308410645e-01</leafValues></_>
    <_>
      <internalNodes>
        0 -1 80766 -1.6490781854372472e-04</internalNodes>
      <leafValues>
        -5.3257220983505249e-01 1.3038109242916107e-01</leafValues></_>
    <_>
      <internalNodes>
        0 -1 79368 -6.4448928460478783e-03</internalNodes>
      <leafValues>
        -7.7785289287567139e-01 8.9442931115627289e-02</leafValues></_>
    <_>
      <internalNodes>
        0 -1 98762 -1.1948911473155022e-02</internalNodes>
      <leafValues>
        -7.6829987764358521e-01 1.1886349320411682e-01</leafValues></_>
    <_>
      <internalNodes>
        0 -1 151899 -3.1360061839222908e-03</internalNodes>
      <leafValues>
        -7.4816930294036865e-01 8.2148849964141846e-02</leafValues></_>
    <_>
      <internalNodes>
        0 -1 24612 -1.7209658399224281e-02</internalNodes>
      <leafValues>
        -6.3193172216415405e-01 1.2126518040895462e-01</leafValues></_>
    <_>
      <internalNodes>
        0 -1 124961 -4.3870631605386734e-02</internalNodes>
      <leafValues>
        2.6282593607902527e-01 -3.3420524001121521e-01</leafValues></_>
    <_>
      <internalNodes>
        0 -1 37235 -5.0116423517465591e-04</internalNodes>
      <leafValues>
        -3.6013075709342957e-01 2.5489994883537292e-01</leafValues></_>
    <_>
      <internalNodes>
        0 -1 47564 1.4376327395439148e-02</internalNodes>
      <leafValues>
        1.2259421497583389e-01 -6.4547723531723022e-01</leafValues></_>
    <_>
      <internalNodes>
        0 -1 150990 -2.0858440548181534e-03</internalNodes>
      <leafValues>
        -5.9029400348663330e-01 1.3074935972690582e-01</leafValues></_>
    <_>
      <internalNodes>
        0 -1 134705 6.8533886224031448e-04</internalNodes>
      <leafValues>
        2.0116022229194641e-01 -3.8886272907257080e-01</leafValues></_></weakClassifiers></stage4>
</opencv_storage>
