<?xml version="1.0"?>
<opencv_storage>
<stage14>
  <maxWeakCount>25</maxWeakCount>
  <stageThreshold>-4.0124186873435974e-01</stageThreshold>
  <weakClassifiers>
    <_>
      <internalNodes>
        0 -1 55235 -9.9038362503051758e-02</internalNodes>
      <leafValues>
        7.5999999046325684e-01 -3.1733334064483643e-01</leafValues></_>
    <_>
      <internalNodes>
        0 -1 117469 -4.3642716482281685e-03</internalNodes>
      <leafValues>
        -6.8203300237655640e-01 8.0274581909179688e-02</leafValues></_>
    <_>
      <internalNodes>
        0 -1 148304 6.0548889450728893e-05</internalNodes>
      <leafValues>
        2.1989591419696808e-01 -3.1359350681304932e-01</leafValues></_>
    <_>
      <internalNodes>
        0 -1 144725 -1.5857844846323133e-04</internalNodes>
      <leafValues>
        -3.8643640279769897e-01 1.7445939779281616e-01</leafValues></_>
    <_>
      <internalNodes>
        0 -1 19 8.0240220995619893e-05</internalNodes>
      <leafValues>
        2.5001254677772522e-01 -2.2718763351440430e-01</leafValues></_>
    <_>
      <internalNodes>
        0 -1 121711 -8.5749812424182892e-02</internalNodes>
      <leafValues>
        4.0623694658279419e-01 -1.8132312595844269e-01</leafValues></_>
    <_>
      <internalNodes>
        0 -1 147308 7.5672082602977753e-03</internalNodes>
      <leafValues>
        -8.3568625152111053e-02 7.7372413873672485e-01</leafValues></_>
    <_>
      <internalNodes>
        0 -1 53557 1.1579977581277490e-05</internalNodes>
      <leafValues>
        -2.8814658522605896e-01 2.4998638033866882e-01</leafValues></_>
    <_>
      <internalNodes>
        0 -1 40675 1.6248649917542934e-03</internalNodes>
      <leafValues>
        1.6270917654037476e-01 -3.9873176813125610e-01</leafValues></_>
    <_>
      <internalNodes>
        0 -1 105157 1.4887417200952768e-03</internalNodes>
      <leafValues>
        1.8952535092830658e-01 -3.5279810428619385e-01</leafValues></_>
    <_>
      <internalNodes>
        0 -1 120630 -1.1214602738618851e-02</internalNodes>
      <leafValues>
        3.0442360043525696e-01 -2.2245813906192780e-01</leafValues></_>
    <_>
      <internalNodes>
        0 -1 154774 -5.6379626039415598e-04</internalNodes>
      <leafValues>
        -2.6821547746658325e-01 2.5645586848258972e-01</leafValues></_>
    <_>
      <internalNodes>
        0 -1 47047 -7.7063660137355328e-04</internalNodes>
      <leafValues>
        -6.1855065822601318e-01 1.0140804201364517e-01</leafValues></_>
    <_>
      <internalNodes>
        0 -1 70388 1.6052367165684700e-02</internalNodes>
      <leafValues>
        -9.4216644763946533e-02 8.9021801948547363e-01</leafValues></_>
    <_>
      <internalNodes>
        0 -1 103722 -3.0921116471290588e-02</internalNodes>
      <leafValues>
        7.6535224914550781e-01 -7.3774896562099457e-02</leafValues></_>
    <_>
      <internalNodes>
        0 -1 10674 -6.5099995117634535e-04</internalNodes>
      <leafValues>
        -2.2803647816181183e-01 3.0434772372245789e-01</leafValues></_>
    <_>
      <internalNodes>
        0 -1 525 1.2825915217399597e-01</internalNodes>
      <leafValues>
        -2.2102427482604980e-01 3.3992582559585571e-01</leafValues></_>
    <_>
      <internalNodes>
        0 -1 35938 -2.4006101302802563e-03</internalNodes>
      <leafValues>
        5.3367882966995239e-01 -1.0654170066118240e-01</leafValues></_>
    <_>
      <internalNodes>
        0 -1 138915 -2.8553998097777367e-02</internalNodes>
      <leafValues>
        1.0779275000095367e-01 -6.2852197885513306e-01</leafValues></_>
    <_>
      <internalNodes>
        0 -1 101685 -1.7116084927693009e-04</internalNodes>
      <leafValues>
        -3.8309964537620544e-01 1.7976805567741394e-01</leafValues></_>
    <_>
      <internalNodes>
        0 -1 96790 5.5847410112619400e-04</internalNodes>
      <leafValues>
        1.0798475891351700e-01 -6.1182570457458496e-01</leafValues></_>
    <_>
      <internalNodes>
        0 -1 125470 -1.2139234459027648e-03</internalNodes>
      <leafValues>
        3.8286107778549194e-01 -1.9460558891296387e-01</leafValues></_>
    <_>
      <internalNodes>
        0 -1 161789 -5.6384754134342074e-04</internalNodes>
      <leafValues>
        -6.3738685846328735e-01 1.2284334003925323e-01</leafValues></_>
    <_>
      <internalNodes>
        0 -1 161957 -3.9851274341344833e-03</internalNodes>
      <leafValues>
        5.7767158746719360e-01 -1.3671642541885376e-01</leafValues></_>
    <_>
      <internalNodes>
        0 -1 49458 -7.6670181006193161e-03</internalNodes>
      <leafValues>
        3.2866597175598145e-01 -2.2582392394542694e-01</leafValues></_></weakClassifiers></stage14>
</opencv_storage>
