<?xml version="1.0"?>
<opencv_storage>
<stage7>
  <maxWeakCount>9</maxWeakCount>
  <stageThreshold>-5.9765714406967163e-01</stageThreshold>
  <weakClassifiers>
    <_>
      <internalNodes>
        0 -1 9584 -2.5274604558944702e-01</internalNodes>
      <leafValues>
        -7.7304965257644653e-01 5.7983195781707764e-01</leafValues></_>
    <_>
      <internalNodes>
        0 -1 162254 -1.1341162770986557e-01</internalNodes>
      <leafValues>
        -1. 2.0523825287818909e-01</leafValues></_>
    <_>
      <internalNodes>
        0 -1 153875 -2.4297552183270454e-02</internalNodes>
      <leafValues>
        4.6352276206016541e-01 -5.8544194698333740e-01</leafValues></_>
    <_>
      <internalNodes>
        0 -1 96289 1.5654817223548889e-02</internalNodes>
      <leafValues>
        2.4007233977317810e-01 -7.1686708927154541e-01</leafValues></_>
    <_>
      <internalNodes>
        0 -1 162107 -7.5632810592651367e-02</internalNodes>
      <leafValues>
        -9.2462211847305298e-01 1.1235056817531586e-01</leafValues></_>
    <_>
      <internalNodes>
        0 -1 103094 -7.0862412452697754e-02</internalNodes>
      <leafValues>
        -5.9349238872528076e-01 3.2618522644042969e-01</leafValues></_>
    <_>
      <internalNodes>
        0 -1 44344 6.0891812609042972e-05</internalNodes>
      <leafValues>
        -3.0406621098518372e-01 5.9869194030761719e-01</leafValues></_>
    <_>
      <internalNodes>
        0 -1 121180 -7.1905598044395447e-02</internalNodes>
      <leafValues>
        -1.8355198204517365e-01 1.</leafValues></_>
    <_>
      <internalNodes>
        0 -1 158742 -4.4547952711582184e-03</internalNodes>
      <leafValues>
        3.6460623145103455e-01 -5.2008605003356934e-01</leafValues></_></weakClassifiers></stage7>
</opencv_storage>
