<?xml version="1.0"?>
<opencv_storage>
<stage9>
  <maxWeakCount>20</maxWeakCount>
  <stageThreshold>-5.1651620864868164e-01</stageThreshold>
  <weakClassifiers>
    <_>
      <internalNodes>
        0 -1 161311 -1.8788104644045234e-03</internalNodes>
      <leafValues>
        -2.2222222760319710e-02 -6.6153848171234131e-01</leafValues></_>
    <_>
      <internalNodes>
        0 -1 57445 -5.7792019844055176e-01</internalNodes>
      <leafValues>
        -4.0746644139289856e-01 2.9668879508972168e-01</leafValues></_>
    <_>
      <internalNodes>
        0 -1 89785 3.6341412924230099e-03</internalNodes>
      <leafValues>
        7.0882968604564667e-02 -1.</leafValues></_>
    <_>
      <internalNodes>
        0 -1 25299 1.8306010169908404e-03</internalNodes>
      <leafValues>
        -1.9282746315002441e-01 4.2717999219894409e-01</leafValues></_>
    <_>
      <internalNodes>
        0 -1 146322 -7.5703803449869156e-03</internalNodes>
      <leafValues>
        2.3374791443347931e-01 -3.8653320074081421e-01</leafValues></_>
    <_>
      <internalNodes>
        0 -1 97889 -3.8043194217607379e-04</internalNodes>
      <leafValues>
        -4.4026741385459900e-01 2.2865021228790283e-01</leafValues></_>
    <_>
      <internalNodes>
        0 -1 38112 1.5022617764770985e-02</internalNodes>
      <leafValues>
        -1.8324834108352661e-01 5.0476086139678955e-01</leafValues></_>
    <_>
      <internalNodes>
        0 -1 69957 8.7164774537086487e-02</internalNodes>
      <leafValues>
        -1.3202948868274689e-01 7.7793926000595093e-01</leafValues></_>
    <_>
      <internalNodes>
        0 -1 67022 -1.6040548682212830e-02</internalNodes>
      <leafValues>
        4.9441742897033691e-01 -2.1814563870429993e-01</leafValues></_>
    <_>
      <internalNodes>
        0 -1 80332 -3.8472013548016548e-03</internalNodes>
      <leafValues>
        -9.4681799411773682e-01 1.1315109580755234e-01</leafValues></_>
    <_>
      <internalNodes>
        0 -1 100799 2.9070677235722542e-02</internalNodes>
      <leafValues>
        -1.9252549111843109e-01 5.5883121490478516e-01</leafValues></_>
    <_>
      <internalNodes>
        0 -1 24526 -1.3759341090917587e-02</internalNodes>
      <leafValues>
        4.1250899434089661e-01 -2.7274373173713684e-01</leafValues></_>
    <_>
      <internalNodes>
        0 -1 150935 -8.3446840289980173e-04</internalNodes>
      <leafValues>
        -1.5610258281230927e-01 6.2531864643096924e-01</leafValues></_>
    <_>
      <internalNodes>
        0 -1 35858 2.4414882063865662e-03</internalNodes>
      <leafValues>
        -2.6887360215187073e-01 4.2904049158096313e-01</leafValues></_>
    <_>
      <internalNodes>
        0 -1 161443 -1.1856140568852425e-02</internalNodes>
      <leafValues>
        7.0659184455871582e-01 -1.4640495181083679e-01</leafValues></_>
    <_>
      <internalNodes>
        0 -1 109839 -3.1072270125150681e-02</internalNodes>
      <leafValues>
        8.8583546876907349e-01 -1.1072575300931931e-01</leafValues></_>
    <_>
      <internalNodes>
        0 -1 137337 4.8195311683230102e-04</internalNodes>
      <leafValues>
        -3.8073769211769104e-01 2.9597112536430359e-01</leafValues></_>
    <_>
      <internalNodes>
        0 -1 134040 -3.7902131676673889e-02</internalNodes>
      <leafValues>
        3.8300672173500061e-01 -3.0951672792434692e-01</leafValues></_>
    <_>
      <internalNodes>
        0 -1 134909 1.1821901425719261e-02</internalNodes>
      <leafValues>
        -1.6432458162307739e-01 7.6422804594039917e-01</leafValues></_>
    <_>
      <internalNodes>
        0 -1 162099 -1.4916359214112163e-04</internalNodes>
      <leafValues>
        3.3199673891067505e-01 -3.3652117848396301e-01</leafValues></_></weakClassifiers></stage9>
</opencv_storage>
