<?xml version="1.0"?>
<opencv_storage>
<stage10>
  <maxWeakCount>27</maxWeakCount>
  <stageThreshold>-5.8456540107727051e-01</stageThreshold>
  <weakClassifiers>
    <_>
      <internalNodes>
        0 -1 10459 -6.6973909735679626e-02</internalNodes>
      <leafValues>
        7.2289153933525085e-02 -4.6710526943206787e-01</leafValues></_>
    <_>
      <internalNodes>
        0 -1 162055 -5.6326994672417641e-03</internalNodes>
      <leafValues>
        5.3768384456634521e-01 -1.3956269621849060e-01</leafValues></_>
    <_>
      <internalNodes>
        0 -1 127774 9.2322956770658493e-03</internalNodes>
      <leafValues>
        -1.1863192170858383e-01 5.5477094650268555e-01</leafValues></_>
    <_>
      <internalNodes>
        0 -1 127474 -1.1889087036252022e-03</internalNodes>
      <leafValues>
        4.5607075095176697e-01 -1.2834471464157104e-01</leafValues></_>
    <_>
      <internalNodes>
        0 -1 90700 3.2344453036785126e-02</internalNodes>
      <leafValues>
        -1.0192766040563583e-01 6.1897617578506470e-01</leafValues></_>
    <_>
      <internalNodes>
        0 -1 43359 -4.7693714499473572e-02</internalNodes>
      <leafValues>
        -5.2272293716669083e-02 8.7144321203231812e-01</leafValues></_>
    <_>
      <internalNodes>
        0 -1 80116 -4.2496476089581847e-04</internalNodes>
      <leafValues>
        -5.1514136791229248e-01 1.3514050841331482e-01</leafValues></_>
    <_>
      <internalNodes>
        0 -1 4490 1.8098644912242889e-02</internalNodes>
      <leafValues>
        -1.3355863094329834e-01 4.7848129272460938e-01</leafValues></_>
    <_>
      <internalNodes>
        0 -1 6319 -1.2205924838781357e-02</internalNodes>
      <leafValues>
        5.4639571905136108e-01 -1.5099719166755676e-01</leafValues></_>
    <_>
      <internalNodes>
        0 -1 6070 -3.2919272780418396e-02</internalNodes>
      <leafValues>
        8.6894232034683228e-01 -8.4819890558719635e-02</leafValues></_>
    <_>
      <internalNodes>
        0 -1 119919 -2.3026505368761718e-04</internalNodes>
      <leafValues>
        -3.2894310355186462e-01 2.2378171980381012e-01</leafValues></_>
    <_>
      <internalNodes>
        0 -1 63991 3.6663409322500229e-02</internalNodes>
      <leafValues>
        -1.7625384032726288e-01 4.1351264715194702e-01</leafValues></_>
    <_>
      <internalNodes>
        0 -1 92867 -1.1899909004569054e-02</internalNodes>
      <leafValues>
        2.7560800313949585e-01 -2.6572403311729431e-01</leafValues></_>
    <_>
      <internalNodes>
        0 -1 3062 5.0583489239215851e-02</internalNodes>
      <leafValues>
        -6.0667324811220169e-02 8.1025218963623047e-01</leafValues></_>
    <_>
      <internalNodes>
        0 -1 1150 4.5825019478797913e-03</internalNodes>
      <leafValues>
        -1.5181745588779449e-01 4.4256123900413513e-01</leafValues></_>
    <_>
      <internalNodes>
        0 -1 155640 1.7430333420634270e-02</internalNodes>
      <leafValues>
        -1.2903675436973572e-01 5.0708401203155518e-01</leafValues></_>
    <_>
      <internalNodes>
        0 -1 22876 -3.4823738969862461e-03</internalNodes>
      <leafValues>
        3.8656720519065857e-01 -1.7401543259620667e-01</leafValues></_>
    <_>
      <internalNodes>
        0 -1 88940 1.2160410406067967e-03</internalNodes>
      <leafValues>
        2.4038015305995941e-01 -3.1457117199897766e-01</leafValues></_>
    <_>
      <internalNodes>
        0 -1 58405 -2.2868309170007706e-03</internalNodes>
      <leafValues>
        3.3971205353736877e-01 -2.2416932880878448e-01</leafValues></_>
    <_>
      <internalNodes>
        0 -1 126826 2.8197869658470154e-02</internalNodes>
      <leafValues>
        -1.2578822672367096e-01 5.7301998138427734e-01</leafValues></_>
    <_>
      <internalNodes>
        0 -1 16300 -7.2123904828913510e-05</internalNodes>
      <leafValues>
        -3.6459967494010925e-01 1.9041298329830170e-01</leafValues></_>
    <_>
      <internalNodes>
        0 -1 135610 -3.3388301730155945e-02</internalNodes>
      <leafValues>
        4.1684272885322571e-01 -1.6500379145145416e-01</leafValues></_>
    <_>
      <internalNodes>
        0 -1 39739 -1.8169892951846123e-02</internalNodes>
      <leafValues>
        7.2081482410430908e-01 -9.6131108701229095e-02</leafValues></_>
    <_>
      <internalNodes>
        0 -1 104743 3.7890774547122419e-04</internalNodes>
      <leafValues>
        1.7441290616989136e-01 -4.3881279230117798e-01</leafValues></_>
    <_>
      <internalNodes>
        0 -1 47166 3.9373949170112610e-02</internalNodes>
      <leafValues>
        -1.0180469602346420e-01 7.3228842020034790e-01</leafValues></_>
    <_>
      <internalNodes>
        0 -1 10033 -7.0152739062905312e-03</internalNodes>
      <leafValues>
        5.0883579254150391e-01 -1.5600810945034027e-01</leafValues></_>
    <_>
      <internalNodes>
        0 -1 18898 4.4013779610395432e-02</internalNodes>
      <leafValues>
        -1.0987427830696106e-01 6.4105552434921265e-01</leafValues></_></weakClassifiers></stage10>
</opencv_storage>
