<?xml version="1.0"?>
<opencv_storage>
<stage8>
  <maxWeakCount>7</maxWeakCount>
  <stageThreshold>7.5056187808513641e-02</stageThreshold>
  <weakClassifiers>
    <_>
      <internalNodes>
        0 -1 70646 -8.4346497897058725e-04</internalNodes>
      <leafValues>
        1. -3.0434781312942505e-01</leafValues></_>
    <_>
      <internalNodes>
        0 -1 41553 1.3017565943300724e-03</internalNodes>
      <leafValues>
        -1.8109127879142761e-01 9.2828178405761719e-01</leafValues></_>
    <_>
      <internalNodes>
        0 -1 57116 4.7489263117313385e-02</internalNodes>
      <leafValues>
        3.0326840281486511e-01 -9.3277508020401001e-01</leafValues></_>
    <_>
      <internalNodes>
        0 -1 161954 -8.8163698092103004e-04</internalNodes>
      <leafValues>
        5.3970944881439209e-01 -5.0046622753143311e-01</leafValues></_>
    <_>
      <internalNodes>
        0 -1 153257 1.7342506907880306e-03</internalNodes>
      <leafValues>
        -3.1536397337913513e-01 9.3750518560409546e-01</leafValues></_>
    <_>
      <internalNodes>
        0 -1 155984 8.5417844820767641e-04</internalNodes>
      <leafValues>
        -3.5735702514648438e-01 7.3747593164443970e-01</leafValues></_>
    <_>
      <internalNodes>
        0 -1 161404 3.4745951415970922e-04</internalNodes>
      <leafValues>
        5.1690888404846191e-01 -6.7244410514831543e-01</leafValues></_></weakClassifiers></stage8>
</opencv_storage>
