<?xml version="1.0"?>
<opencv_storage>
<stage6>
  <maxWeakCount>24</maxWeakCount>
  <stageThreshold>-1.0176182985305786e+00</stageThreshold>
  <weakClassifiers>
    <_>
      <internalNodes>
        0 -1 71921 -5.1060359925031662e-02</internalNodes>
      <leafValues>
        -6.3809525966644287e-01 2.2162161767482758e-01</leafValues></_>
    <_>
      <internalNodes>
        0 -1 159259 -2.1398507058620453e-02</internalNodes>
      <leafValues>
        5.9341293573379517e-01 -2.5933796167373657e-01</leafValues></_>
    <_>
      <internalNodes>
        0 -1 258 -3.3622670173645020e-01</internalNodes>
      <leafValues>
        -9.4541001319885254e-01 1.1575037986040115e-01</leafValues></_>
    <_>
      <internalNodes>
        0 -1 122485 -9.2496676370501518e-04</internalNodes>
      <leafValues>
        6.6759312152862549e-01 -1.4799375832080841e-01</leafValues></_>
    <_>
      <internalNodes>
        0 -1 9476 1.0755725204944611e-02</internalNodes>
      <leafValues>
        -1.2851165235042572e-01 7.1457368135452271e-01</leafValues></_>
    <_>
      <internalNodes>
        0 -1 112808 3.4447055077180266e-04</internalNodes>
      <leafValues>
        -1.4012968540191650e-01 6.9096738100051880e-01</leafValues></_>
    <_>
      <internalNodes>
        0 -1 148520 1.5761365648359060e-03</internalNodes>
      <leafValues>
        -3.7750101089477539e-01 2.6053595542907715e-01</leafValues></_>
    <_>
      <internalNodes>
        0 -1 128044 -2.4798722006380558e-04</internalNodes>
      <leafValues>
        5.3626638650894165e-01 -1.8806260824203491e-01</leafValues></_>
    <_>
      <internalNodes>
        0 -1 64552 1.5477747365366668e-04</internalNodes>
      <leafValues>
        -2.7446568012237549e-01 3.2693004608154297e-01</leafValues></_>
    <_>
      <internalNodes>
        0 -1 134943 -3.2644778490066528e-02</internalNodes>
      <leafValues>
        2.6427710056304932e-01 -3.4904447197914124e-01</leafValues></_>
    <_>
      <internalNodes>
        0 -1 159643 -2.3342424537986517e-04</internalNodes>
      <leafValues>
        5.3435122966766357e-01 -1.6970278322696686e-01</leafValues></_>
    <_>
      <internalNodes>
        0 -1 20264 1.5936187992338091e-05</internalNodes>
      <leafValues>
        -2.5454744696617126e-01 3.3533319830894470e-01</leafValues></_>
    <_>
      <internalNodes>
        0 -1 149397 1.3089702406432480e-05</internalNodes>
      <leafValues>
        -2.7777373790740967e-01 3.4550720453262329e-01</leafValues></_>
    <_>
      <internalNodes>
        0 -1 160459 3.9912070496939123e-04</internalNodes>
      <leafValues>
        -1.5185163915157318e-01 6.3623625040054321e-01</leafValues></_>
    <_>
      <internalNodes>
        0 -1 156806 -2.1049004863016307e-04</internalNodes>
      <leafValues>
        -3.3156943321228027e-01 2.7669134736061096e-01</leafValues></_>
    <_>
      <internalNodes>
        0 -1 132428 -3.0897831544280052e-02</internalNodes>
      <leafValues>
        -5.6098371744155884e-01 1.1762640625238419e-01</leafValues></_>
    <_>
      <internalNodes>
        0 -1 131593 5.0368150696158409e-03</internalNodes>
      <leafValues>
        1.8063125014305115e-01 -4.9046355485916138e-01</leafValues></_>
    <_>
      <internalNodes>
        0 -1 159198 -1.7192700397572480e-05</internalNodes>
      <leafValues>
        3.3485656976699829e-01 -3.2595780491828918e-01</leafValues></_>
    <_>
      <internalNodes>
        0 -1 31685 -3.9357457309961319e-02</internalNodes>
      <leafValues>
        3.8278311491012573e-01 -2.3402832448482513e-01</leafValues></_>
    <_>
      <internalNodes>
        0 -1 60699 -1.0976971685886383e-01</internalNodes>
      <leafValues>
        -1.5695804357528687e-01 6.0526686906814575e-01</leafValues></_>
    <_>
      <internalNodes>
        0 -1 31111 1.3505843526218086e-04</internalNodes>
      <leafValues>
        -1.9862294197082520e-01 4.3740248680114746e-01</leafValues></_>
    <_>
      <internalNodes>
        0 -1 120744 -8.9184969663619995e-02</internalNodes>
      <leafValues>
        -5.8667039871215820e-01 1.6019423305988312e-01</leafValues></_>
    <_>
      <internalNodes>
        0 -1 96049 1.7490913160145283e-04</internalNodes>
      <leafValues>
        -1.9629760086536407e-01 4.5765882730484009e-01</leafValues></_>
    <_>
      <internalNodes>
        0 -1 155252 -6.1475540860556066e-05</internalNodes>
      <leafValues>
        3.2683375477790833e-01 -2.7005672454833984e-01</leafValues></_></weakClassifiers></stage6>
</opencv_storage>
