<?xml version="1.0"?>
<opencv_storage>
<stage9>
  <maxWeakCount>14</maxWeakCount>
  <stageThreshold>-4.1864809393882751e-01</stageThreshold>
  <weakClassifiers>
    <_>
      <internalNodes>
        0 -1 30380 1.4175870455801487e-03</internalNodes>
      <leafValues>
        -5.8139532804489136e-01 2.6717558503150940e-01</leafValues></_>
    <_>
      <internalNodes>
        0 -1 49456 -3.1326669268310070e-03</internalNodes>
      <leafValues>
        2.7826374769210815e-01 -4.3559259176254272e-01</leafValues></_>
    <_>
      <internalNodes>
        0 -1 137131 1.4335092855617404e-03</internalNodes>
      <leafValues>
        -2.8929021954536438e-01 4.7497630119323730e-01</leafValues></_>
    <_>
      <internalNodes>
        0 -1 25820 -9.1113860253244638e-04</internalNodes>
      <leafValues>
        -5.6676208972930908e-01 2.6773291826248169e-01</leafValues></_>
    <_>
      <internalNodes>
        0 -1 61351 9.5917773433029652e-04</internalNodes>
      <leafValues>
        -4.4344872236251831e-01 3.8215765357017517e-01</leafValues></_>
    <_>
      <internalNodes>
        0 -1 50399 2.4964573094621301e-04</internalNodes>
      <leafValues>
        -3.8405337929725647e-01 4.4912222027778625e-01</leafValues></_>
    <_>
      <internalNodes>
        0 -1 67013 -5.0627842545509338e-02</internalNodes>
      <leafValues>
        -1.8561169505119324e-01 8.5801780223846436e-01</leafValues></_>
    <_>
      <internalNodes>
        0 -1 161891 -3.4510530531406403e-04</internalNodes>
      <leafValues>
        4.3831968307495117e-01 -3.6118078231811523e-01</leafValues></_>
    <_>
      <internalNodes>
        0 -1 127100 -5.9223512653261423e-04</internalNodes>
      <leafValues>
        5.2733069658279419e-01 -2.7991396188735962e-01</leafValues></_>
    <_>
      <internalNodes>
        0 -1 94497 4.4878134503960609e-03</internalNodes>
      <leafValues>
        3.0796232819557190e-01 -5.3884100914001465e-01</leafValues></_>
    <_>
      <internalNodes>
        0 -1 37802 3.1438816804438829e-03</internalNodes>
      <leafValues>
        2.2936883568763733e-01 -5.4418855905532837e-01</leafValues></_>
    <_>
      <internalNodes>
        0 -1 33849 7.4895814759656787e-04</internalNodes>
      <leafValues>
        -5.1403903961181641e-01 3.5593703389167786e-01</leafValues></_>
    <_>
      <internalNodes>
        0 -1 23217 -2.7294759638607502e-04</internalNodes>
      <leafValues>
        5.8946764469146729e-01 -2.8473189473152161e-01</leafValues></_>
    <_>
      <internalNodes>
        0 -1 58239 -2.0730391144752502e-02</internalNodes>
      <leafValues>
        -9.2859381437301636e-01 1.8875381350517273e-01</leafValues></_></weakClassifiers></stage9>
</opencv_storage>
