<?xml version="1.0"?>
<opencv_storage>
<stage4>
  <maxWeakCount>5</maxWeakCount>
  <stageThreshold>-1.6604240238666534e-01</stageThreshold>
  <weakClassifiers>
    <_>
      <internalNodes>
        0 -1 4336 2.5218069553375244e-02</internalNodes>
      <leafValues>
        -6.7346936464309692e-01 3.7704917788505554e-01</leafValues></_>
    <_>
      <internalNodes>
        0 -1 80845 -7.5633515371009707e-04</internalNodes>
      <leafValues>
        -6.4528101682662964e-01 4.4970691204071045e-01</leafValues></_>
    <_>
      <internalNodes>
        0 -1 49278 -1.9944684579968452e-02</internalNodes>
      <leafValues>
        6.7181146144866943e-01 -5.1500624418258667e-01</leafValues></_>
    <_>
      <internalNodes>
        0 -1 152631 -3.2970184111036360e-04</internalNodes>
      <leafValues>
        -8.5502433776855469e-01 4.6751713752746582e-01</leafValues></_>
    <_>
      <internalNodes>
        0 -1 151893 -4.9498997395858169e-04</internalNodes>
      <leafValues>
        -8.0958563089370728e-01 3.4378761053085327e-01</leafValues></_></weakClassifiers></stage4>
</opencv_storage>
