<?xml version="1.0"?>
<opencv_storage>
<stage13>
  <maxWeakCount>7</maxWeakCount>
  <stageThreshold>-4.3923714756965637e-01</stageThreshold>
  <weakClassifiers>
    <_>
      <internalNodes>
        0 -1 16461 -1.0009436309337616e-01</internalNodes>
      <leafValues>
        -3.6585366725921631e-01 7.1428573131561279e-01</leafValues></_>
    <_>
      <internalNodes>
        0 -1 147319 -1.7366264946758747e-03</internalNodes>
      <leafValues>
        -5.5094546079635620e-01 4.4812554121017456e-01</leafValues></_>
    <_>
      <internalNodes>
        0 -1 159856 -1.8184495274908841e-04</internalNodes>
      <leafValues>
        5.6730747222900391e-01 -3.9226314425468445e-01</leafValues></_>
    <_>
      <internalNodes>
        0 -1 113923 -8.3617761265486479e-04</internalNodes>
      <leafValues>
        -8.9143639802932739e-01 3.2283541560173035e-01</leafValues></_>
    <_>
      <internalNodes>
        0 -1 133612 -2.3475992493331432e-03</internalNodes>
      <leafValues>
        -5.1988470554351807e-01 5.0673162937164307e-01</leafValues></_>
    <_>
      <internalNodes>
        0 -1 150405 -1.4445945620536804e-02</internalNodes>
      <leafValues>
        8.6517536640167236e-01 -3.5379236936569214e-01</leafValues></_>
    <_>
      <internalNodes>
        0 -1 119312 -5.9539231006056070e-04</internalNodes>
      <leafValues>
        -8.1380033493041992e-01 3.9405041933059692e-01</leafValues></_></weakClassifiers></stage13>
</opencv_storage>
