<?xml version="1.0"?>
<opencv_storage>
<stage7>
  <maxWeakCount>7</maxWeakCount>
  <stageThreshold>-3.5139277577400208e-01</stageThreshold>
  <weakClassifiers>
    <_>
      <internalNodes>
        0 -1 567 -2.8798803687095642e-01</internalNodes>
      <leafValues>
        -9.8591548204421997e-01 4.7297295928001404e-01</leafValues></_>
    <_>
      <internalNodes>
        0 -1 74704 -5.2583377808332443e-02</internalNodes>
      <leafValues>
        -6.6696339845657349e-01 5.5504226684570313e-01</leafValues></_>
    <_>
      <internalNodes>
        0 -1 161897 -6.2370002269744873e-03</internalNodes>
      <leafValues>
        6.6896301507949829e-01 -3.5226222872734070e-01</leafValues></_>
    <_>
      <internalNodes>
        0 -1 162334 -2.0586952567100525e-02</internalNodes>
      <leafValues>
        -1. 2.5729069113731384e-01</leafValues></_>
    <_>
      <internalNodes>
        0 -1 144614 -1.2510675005614758e-02</internalNodes>
      <leafValues>
        5.6233000755310059e-01 -4.6631139516830444e-01</leafValues></_>
    <_>
      <internalNodes>
        0 -1 9150 1.8655657768249512e-02</internalNodes>
      <leafValues>
        -4.1428327560424805e-01 5.3854411840438843e-01</leafValues></_>
    <_>
      <internalNodes>
        0 -1 58330 -4.1628386825323105e-03</internalNodes>
      <leafValues>
        8.1816381216049194e-01 -3.1183251738548279e-01</leafValues></_></weakClassifiers></stage7>
</opencv_storage>
