<?xml version="1.0"?>
<opencv_storage>
<stage3>
  <maxWeakCount>5</maxWeakCount>
  <stageThreshold>1.1976748704910278e-02</stageThreshold>
  <weakClassifiers>
    <_>
      <internalNodes>
        0 -1 60993 4.9136631190776825e-02</internalNodes>
      <leafValues>
        -6.3934427499771118e-01 5.9183675050735474e-01</leafValues></_>
    <_>
      <internalNodes>
        0 -1 160494 1.4897903893142939e-03</internalNodes>
      <leafValues>
        3.9174652099609375e-01 -8.1487405300140381e-01</leafValues></_>
    <_>
      <internalNodes>
        0 -1 107433 -9.2584278900176287e-04</internalNodes>
      <leafValues>
        -8.4773004055023193e-01 3.5153362154960632e-01</leafValues></_>
    <_>
      <internalNodes>
        0 -1 48456 -5.5371649563312531e-02</internalNodes>
      <leafValues>
        7.7981060743331909e-01 -5.0774037837982178e-01</leafValues></_>
    <_>
      <internalNodes>
        0 -1 157619 2.4540908634662628e-03</internalNodes>
      <leafValues>
        3.9122086763381958e-01 -9.6246773004531860e-01</leafValues></_></weakClassifiers></stage3>
</opencv_storage>
