<?xml version="1.0"?>
<opencv_storage>
<stage4>
  <maxWeakCount>26</maxWeakCount>
  <stageThreshold>-4.4663855433464050e-01</stageThreshold>
  <weakClassifiers>
    <_>
      <internalNodes>
        0 -1 146793 -3.9686910808086395e-02</internalNodes>
      <leafValues>
        -1.2658228166401386e-02 -5.9695816040039063e-01</leafValues></_>
    <_>
      <internalNodes>
        0 -1 866 8.4673995152115822e-03</internalNodes>
      <leafValues>
        -3.6730325222015381e-01 2.0598018169403076e-01</leafValues></_>
    <_>
      <internalNodes>
        0 -1 11511 4.9001816660165787e-03</internalNodes>
      <leafValues>
        -1.7724917829036713e-01 4.5563006401062012e-01</leafValues></_>
    <_>
      <internalNodes>
        0 -1 138089 5.3371610119938850e-03</internalNodes>
      <leafValues>
        1.1909088492393494e-01 -7.5834304094314575e-01</leafValues></_>
    <_>
      <internalNodes>
        0 -1 7388 1.4140266180038452e-01</internalNodes>
      <leafValues>
        1.2027468532323837e-01 -8.8035207986831665e-01</leafValues></_>
    <_>
      <internalNodes>
        0 -1 89040 -3.3455878496170044e-02</internalNodes>
      <leafValues>
        2.6199921965599060e-01 -3.6683624982833862e-01</leafValues></_>
    <_>
      <internalNodes>
        0 -1 58586 -9.3980915844440460e-03</internalNodes>
      <leafValues>
        -5.5605465173721313e-01 1.2662023305892944e-01</leafValues></_>
    <_>
      <internalNodes>
        0 -1 133294 -1.5709325671195984e-03</internalNodes>
      <leafValues>
        -4.4390088319778442e-01 1.8194855749607086e-01</leafValues></_>
    <_>
      <internalNodes>
        0 -1 106745 4.7684670425951481e-04</internalNodes>
      <leafValues>
        -1.5499065816402435e-01 5.4774665832519531e-01</leafValues></_>
    <_>
      <internalNodes>
        0 -1 162027 -9.7767007537186146e-04</internalNodes>
      <leafValues>
        -3.7827008962631226e-01 2.1114929020404816e-01</leafValues></_>
    <_>
      <internalNodes>
        0 -1 148290 1.5456645633094013e-04</internalNodes>
      <leafValues>
        1.9787107408046722e-01 -3.6301884055137634e-01</leafValues></_>
    <_>
      <internalNodes>
        0 -1 33873 3.7385199684649706e-03</internalNodes>
      <leafValues>
        1.5975783765316010e-01 -4.9510434269905090e-01</leafValues></_>
    <_>
      <internalNodes>
        0 -1 144816 -8.5059553384780884e-03</internalNodes>
      <leafValues>
        -5.1402068138122559e-01 1.6376598179340363e-01</leafValues></_>
    <_>
      <internalNodes>
        0 -1 6809 1.1407534591853619e-02</internalNodes>
      <leafValues>
        -3.8403072953224182e-01 2.3408220708370209e-01</leafValues></_>
    <_>
      <internalNodes>
        0 -1 4356 -2.5926044583320618e-01</internalNodes>
      <leafValues>
        9.2823040485382080e-01 -9.6567988395690918e-02</leafValues></_>
    <_>
      <internalNodes>
        0 -1 28727 6.2334286049008369e-03</internalNodes>
      <leafValues>
        1.2869709730148315e-01 -7.0601314306259155e-01</leafValues></_>
    <_>
      <internalNodes>
        0 -1 41487 -5.4262479534372687e-04</internalNodes>
      <leafValues>
        6.8356245756149292e-01 -1.4494174718856812e-01</leafValues></_>
    <_>
      <internalNodes>
        0 -1 124264 3.6086537875235081e-05</internalNodes>
      <leafValues>
        -2.4401405453681946e-01 3.3025240898132324e-01</leafValues></_>
    <_>
      <internalNodes>
        0 -1 5524 5.1465583965182304e-05</internalNodes>
      <leafValues>
        -3.6244955658912659e-01 2.1964633464813232e-01</leafValues></_>
    <_>
      <internalNodes>
        0 -1 75830 6.2934949528425932e-04</internalNodes>
      <leafValues>
        -2.4617378413677216e-01 2.9222163558006287e-01</leafValues></_>
    <_>
      <internalNodes>
        0 -1 151268 -7.4342766311019659e-04</internalNodes>
      <leafValues>
        -4.4448220729827881e-01 1.9507518410682678e-01</leafValues></_>
    <_>
      <internalNodes>
        0 -1 24612 -1.7176456749439240e-02</internalNodes>
      <leafValues>
        -6.5560072660446167e-01 1.1706312745809555e-01</leafValues></_>
    <_>
      <internalNodes>
        0 -1 80689 -3.4583767410367727e-04</internalNodes>
      <leafValues>
        3.3287858963012695e-01 -2.5039649009704590e-01</leafValues></_>
    <_>
      <internalNodes>
        0 -1 110432 -7.7018022537231445e-02</internalNodes>
      <leafValues>
        4.6002343297004700e-01 -1.8120485544204712e-01</leafValues></_>
    <_>
      <internalNodes>
        0 -1 76689 -8.5656844079494476e-02</internalNodes>
      <leafValues>
        5.4018878936767578e-01 -1.8632481992244720e-01</leafValues></_>
    <_>
      <internalNodes>
        0 -1 98558 -2.4171268159989268e-04</internalNodes>
      <leafValues>
        3.5686996579170227e-01 -2.8853413462638855e-01</leafValues></_></weakClassifiers></stage4>
</opencv_storage>
