<?xml version="1.0"?>
<opencv_storage>
<stage8>
  <maxWeakCount>17</maxWeakCount>
  <stageThreshold>-4.8365274071693420e-01</stageThreshold>
  <weakClassifiers>
    <_>
      <internalNodes>
        0 -1 26877 4.7399764880537987e-03</internalNodes>
      <leafValues>
        -5.2650177478790283e-01 2.3353293538093567e-01</leafValues></_>
    <_>
      <internalNodes>
        0 -1 161311 -1.8463339656591415e-03</internalNodes>
      <leafValues>
        2.9698237776756287e-01 -3.9929157495498657e-01</leafValues></_>
    <_>
      <internalNodes>
        0 -1 91282 -9.6850609406828880e-04</internalNodes>
      <leafValues>
        5.1576554775238037e-01 -2.3453854024410248e-01</leafValues></_>
    <_>
      <internalNodes>
        0 -1 98087 1.3194102211855352e-04</internalNodes>
      <leafValues>
        -2.5619074702262878e-01 4.5863795280456543e-01</leafValues></_>
    <_>
      <internalNodes>
        0 -1 81565 1.4954821672290564e-03</internalNodes>
      <leafValues>
        -3.0384248495101929e-01 4.0497702360153198e-01</leafValues></_>
    <_>
      <internalNodes>
        0 -1 124285 9.0406264644116163e-04</internalNodes>
      <leafValues>
        -2.0014151930809021e-01 5.6494289636611938e-01</leafValues></_>
    <_>
      <internalNodes>
        0 -1 86297 1.0477225296199322e-03</internalNodes>
      <leafValues>
        -2.3440778255462646e-01 4.9997711181640625e-01</leafValues></_>
    <_>
      <internalNodes>
        0 -1 158314 -8.2719995407387614e-04</internalNodes>
      <leafValues>
        2.4158374965190887e-01 -4.1143313050270081e-01</leafValues></_>
    <_>
      <internalNodes>
        0 -1 159613 6.8504665978252888e-04</internalNodes>
      <leafValues>
        -1.7894075810909271e-01 6.1924576759338379e-01</leafValues></_>
    <_>
      <internalNodes>
        0 -1 15329 4.6413680538535118e-03</internalNodes>
      <leafValues>
        -3.5554933547973633e-01 3.0858510732650757e-01</leafValues></_>
    <_>
      <internalNodes>
        0 -1 86755 -9.0461375657469034e-04</internalNodes>
      <leafValues>
        3.8728693127632141e-01 -2.3522964119911194e-01</leafValues></_>
    <_>
      <internalNodes>
        0 -1 11633 -4.9162926152348518e-03</internalNodes>
      <leafValues>
        -6.9916474819183350e-01 1.5950444340705872e-01</leafValues></_>
    <_>
      <internalNodes>
        0 -1 25446 -2.5392556563019753e-04</internalNodes>
      <leafValues>
        5.1429420709609985e-01 -2.2221465408802032e-01</leafValues></_>
    <_>
      <internalNodes>
        0 -1 151962 -5.1527917385101318e-03</internalNodes>
      <leafValues>
        4.1562309861183167e-01 -2.4617604911327362e-01</leafValues></_>
    <_>
      <internalNodes>
        0 -1 41014 -3.3829261083155870e-03</internalNodes>
      <leafValues>
        5.2852660417556763e-01 -2.0051495730876923e-01</leafValues></_>
    <_>
      <internalNodes>
        0 -1 150984 -1.8297816495760344e-05</internalNodes>
      <leafValues>
        4.0175291895866394e-01 -2.7381855249404907e-01</leafValues></_>
    <_>
      <internalNodes>
        0 -1 54306 7.9360557720065117e-04</internalNodes>
      <leafValues>
        -3.7092617154121399e-01 2.6650100946426392e-01</leafValues></_></weakClassifiers></stage8>
</opencv_storage>
