<?xml version="1.0"?>
<opencv_storage>
<stage8>
  <maxWeakCount>14</maxWeakCount>
  <stageThreshold>-7.3987394571304321e-01</stageThreshold>
  <weakClassifiers>
    <_>
      <internalNodes>
        0 -1 146793 -3.9525218307971954e-02</internalNodes>
      <leafValues>
        1.7587940394878387e-01 -6.4784055948257446e-01</leafValues></_>
    <_>
      <internalNodes>
        0 -1 228 2.5832533836364746e-02</internalNodes>
      <leafValues>
        -4.0944844484329224e-01 2.5893166661262512e-01</leafValues></_>
    <_>
      <internalNodes>
        0 -1 71351 2.0640875399112701e-01</internalNodes>
      <leafValues>
        -1.3698086142539978e-01 8.0355960130691528e-01</leafValues></_>
    <_>
      <internalNodes>
        0 -1 82981 2.3398265242576599e-02</internalNodes>
      <leafValues>
        -1.9202250242233276e-01 6.2188690900802612e-01</leafValues></_>
    <_>
      <internalNodes>
        0 -1 161447 2.5033566635102034e-03</internalNodes>
      <leafValues>
        1.5034005045890808e-01 -8.8758188486099243e-01</leafValues></_>
    <_>
      <internalNodes>
        0 -1 151702 6.1551071703433990e-03</internalNodes>
      <leafValues>
        -1.5003569424152374e-01 6.7877870798110962e-01</leafValues></_>
    <_>
      <internalNodes>
        0 -1 123583 -1.3387914514169097e-03</internalNodes>
      <leafValues>
        -5.8753317594528198e-01 2.0064194500446320e-01</leafValues></_>
    <_>
      <internalNodes>
        0 -1 161446 -2.2317962720990181e-03</internalNodes>
      <leafValues>
        3.1398397684097290e-01 -3.1428590416908264e-01</leafValues></_>
    <_>
      <internalNodes>
        0 -1 11183 -8.6284577846527100e-03</internalNodes>
      <leafValues>
        6.2716013193130493e-01 -1.8924462795257568e-01</leafValues></_>
    <_>
      <internalNodes>
        0 -1 34472 -1.5539384912699461e-03</internalNodes>
      <leafValues>
        -6.3207060098648071e-01 1.9546152651309967e-01</leafValues></_>
    <_>
      <internalNodes>
        0 -1 69778 -3.6370590329170227e-02</internalNodes>
      <leafValues>
        3.7666961550712585e-01 -3.2383260130882263e-01</leafValues></_>
    <_>
      <internalNodes>
        0 -1 96275 4.9231875687837601e-02</internalNodes>
      <leafValues>
        -1.4522346854209900e-01 8.5873353481292725e-01</leafValues></_>
    <_>
      <internalNodes>
        0 -1 11569 2.0515717566013336e-02</internalNodes>
      <leafValues>
        -2.3219180107116699e-01 4.5742616057395935e-01</leafValues></_>
    <_>
      <internalNodes>
        0 -1 49006 2.9723639599978924e-03</internalNodes>
      <leafValues>
        1.2982907891273499e-01 -8.3917313814163208e-01</leafValues></_></weakClassifiers></stage8>
</opencv_storage>
