<?xml version="1.0"?>
<opencv_storage>
<stage9>
  <maxWeakCount>22</maxWeakCount>
  <stageThreshold>-7.0982152223587036e-01</stageThreshold>
  <weakClassifiers>
    <_>
      <internalNodes>
        0 -1 49925 7.6691277325153351e-02</internalNodes>
      <leafValues>
        -4.7115385532379150e-01 2.2950819134712219e-01</leafValues></_>
    <_>
      <internalNodes>
        0 -1 80119 -9.3522164970636368e-03</internalNodes>
      <leafValues>
        -1.4498744904994965e-01 7.5546240806579590e-01</leafValues></_>
    <_>
      <internalNodes>
        0 -1 157297 -6.0083752032369375e-04</internalNodes>
      <leafValues>
        4.7293150424957275e-01 -2.0867070555686951e-01</leafValues></_>
    <_>
      <internalNodes>
        0 -1 143702 3.2275081612169743e-03</internalNodes>
      <leafValues>
        1.4605252444744110e-01 -6.6831827163696289e-01</leafValues></_>
    <_>
      <internalNodes>
        0 -1 162070 -2.4974921252578497e-03</internalNodes>
      <leafValues>
        3.9218673110008240e-01 -2.2211535274982452e-01</leafValues></_>
    <_>
      <internalNodes>
        0 -1 156984 4.4039776548743248e-03</internalNodes>
      <leafValues>
        1.2457607686519623e-01 -8.4591740369796753e-01</leafValues></_>
    <_>
      <internalNodes>
        0 -1 153764 4.3005475890822709e-04</internalNodes>
      <leafValues>
        -3.0650451779365540e-01 3.0887931585311890e-01</leafValues></_>
    <_>
      <internalNodes>
        0 -1 50149 1.2468281388282776e-01</internalNodes>
      <leafValues>
        -2.2011025249958038e-01 4.4604575634002686e-01</leafValues></_>
    <_>
      <internalNodes>
        0 -1 11884 -1.3928940461482853e-04</internalNodes>
      <leafValues>
        4.1089677810668945e-01 -2.7638262510299683e-01</leafValues></_>
    <_>
      <internalNodes>
        0 -1 26228 2.7887813746929169e-02</internalNodes>
      <leafValues>
        2.1179883182048798e-01 -5.1662874221801758e-01</leafValues></_>
    <_>
      <internalNodes>
        0 -1 160887 2.9613974038511515e-04</internalNodes>
      <leafValues>
        -2.3370961844921112e-01 4.0828686952590942e-01</leafValues></_>
    <_>
      <internalNodes>
        0 -1 88864 5.9749311767518520e-03</internalNodes>
      <leafValues>
        -1.4531266689300537e-01 6.9487518072128296e-01</leafValues></_>
    <_>
      <internalNodes>
        0 -1 89833 -4.5642536133527756e-04</internalNodes>
      <leafValues>
        -4.8074835538864136e-01 2.2382242977619171e-01</leafValues></_>
    <_>
      <internalNodes>
        0 -1 1006 9.3529466539621353e-03</internalNodes>
      <leafValues>
        -3.8027948141098022e-01 2.6370993256568909e-01</leafValues></_>
    <_>
      <internalNodes>
        0 -1 135084 8.6010951781645417e-04</internalNodes>
      <leafValues>
        -3.1992477178573608e-01 3.2778862118721008e-01</leafValues></_>
    <_>
      <internalNodes>
        0 -1 92238 3.5740425810217857e-03</internalNodes>
      <leafValues>
        -2.6448047161102295e-01 3.9792793989181519e-01</leafValues></_>
    <_>
      <internalNodes>
        0 -1 138373 3.7766690365970135e-03</internalNodes>
      <leafValues>
        1.4041295647621155e-01 -7.2643578052520752e-01</leafValues></_>
    <_>
      <internalNodes>
        0 -1 144783 -1.1957022361457348e-03</internalNodes>
      <leafValues>
        2.7597534656524658e-01 -4.1333806514739990e-01</leafValues></_>
    <_>
      <internalNodes>
        0 -1 143026 -7.2671464295126498e-05</internalNodes>
      <leafValues>
        4.3057882785797119e-01 -2.6108294725418091e-01</leafValues></_>
    <_>
      <internalNodes>
        0 -1 56120 -3.2886043190956116e-03</internalNodes>
      <leafValues>
        -3.6588320136070251e-01 3.2365393638610840e-01</leafValues></_>
    <_>
      <internalNodes>
        0 -1 124845 -1.9761202856898308e-03</internalNodes>
      <leafValues>
        -4.7763082385063171e-01 2.3483778536319733e-01</leafValues></_>
    <_>
      <internalNodes>
        0 -1 132318 -5.3617358207702637e-04</internalNodes>
      <leafValues>
        6.1506277322769165e-01 -2.1303783357143402e-01</leafValues></_></weakClassifiers></stage9>
</opencv_storage>
