<?xml version="1.0"?>
<opencv_storage>
<stage3>
  <maxWeakCount>25</maxWeakCount>
  <stageThreshold>-7.7687305212020874e-01</stageThreshold>
  <weakClassifiers>
    <_>
      <internalNodes>
        0 -1 153501 -2.1854069083929062e-02</internalNodes>
      <leafValues>
        5.3097344934940338e-02 -6.2773722410202026e-01</leafValues></_>
    <_>
      <internalNodes>
        0 -1 15347 4.3050800450146198e-03</internalNodes>
      <leafValues>
        -3.9064988493919373e-01 2.7370405197143555e-01</leafValues></_>
    <_>
      <internalNodes>
        0 -1 6707 2.6372738648205996e-04</internalNodes>
      <leafValues>
        -4.5750680565834045e-01 2.0148134231567383e-01</leafValues></_>
    <_>
      <internalNodes>
        0 -1 5524 8.1425928510725498e-04</internalNodes>
      <leafValues>
        -2.8786790370941162e-01 3.2684546709060669e-01</leafValues></_>
    <_>
      <internalNodes>
        0 -1 68602 -7.3061850853264332e-03</internalNodes>
      <leafValues>
        -6.2006461620330811e-01 1.6517764329910278e-01</leafValues></_>
    <_>
      <internalNodes>
        0 -1 35864 -4.4715628027915955e-03</internalNodes>
      <leafValues>
        -8.0037885904312134e-01 1.0944321006536484e-01</leafValues></_>
    <_>
      <internalNodes>
        0 -1 112264 -2.0464945584535599e-02</internalNodes>
      <leafValues>
        -8.5260391235351563e-01 7.6965436339378357e-02</leafValues></_>
    <_>
      <internalNodes>
        0 -1 54969 -2.7917819097638130e-03</internalNodes>
      <leafValues>
        -5.9159970283508301e-01 1.3051275908946991e-01</leafValues></_>
    <_>
      <internalNodes>
        0 -1 25146 -1.2065356131643057e-03</internalNodes>
      <leafValues>
        3.5585311055183411e-01 -2.5735133886337280e-01</leafValues></_>
    <_>
      <internalNodes>
        0 -1 149397 -3.3047454053303227e-05</internalNodes>
      <leafValues>
        -3.8150480389595032e-01 2.3121231794357300e-01</leafValues></_>
    <_>
      <internalNodes>
        0 -1 60356 -3.1584261450916529e-03</internalNodes>
      <leafValues>
        3.1118360161781311e-01 -2.9744106531143188e-01</leafValues></_>
    <_>
      <internalNodes>
        0 -1 99413 2.0869902800768614e-03</internalNodes>
      <leafValues>
        2.0253145694732666e-01 -4.8357811570167542e-01</leafValues></_>
    <_>
      <internalNodes>
        0 -1 98164 2.3997412063181400e-04</internalNodes>
      <leafValues>
        -2.8643292188644409e-01 3.2882130146026611e-01</leafValues></_>
    <_>
      <internalNodes>
        0 -1 113833 -1.7333369702100754e-02</internalNodes>
      <leafValues>
        -8.5238903760910034e-01 1.2427467107772827e-01</leafValues></_>
    <_>
      <internalNodes>
        0 -1 84756 -1.0276779532432556e-01</internalNodes>
      <leafValues>
        2.8260293602943420e-01 -3.3617439866065979e-01</leafValues></_>
    <_>
      <internalNodes>
        0 -1 13474 -3.7482825573533773e-03</internalNodes>
      <leafValues>
        -1.6220363974571228e-01 7.6749509572982788e-01</leafValues></_>
    <_>
      <internalNodes>
        0 -1 121425 -4.7472055302932858e-04</internalNodes>
      <leafValues>
        -5.3431260585784912e-01 2.1769848465919495e-01</leafValues></_>
    <_>
      <internalNodes>
        0 -1 66521 -9.4723813235759735e-03</internalNodes>
      <leafValues>
        -6.2312459945678711e-01 1.3412652909755707e-01</leafValues></_>
    <_>
      <internalNodes>
        0 -1 26776 1.8776962161064148e-01</internalNodes>
      <leafValues>
        -1.6380025446414948e-01 6.7322474718093872e-01</leafValues></_>
    <_>
      <internalNodes>
        0 -1 68070 2.9250823426991701e-03</internalNodes>
      <leafValues>
        -2.0310305058956146e-01 4.4349274039268494e-01</leafValues></_>
    <_>
      <internalNodes>
        0 -1 146232 -7.1701323613524437e-03</internalNodes>
      <leafValues>
        -6.5019631385803223e-01 1.5580432116985321e-01</leafValues></_>
    <_>
      <internalNodes>
        0 -1 98067 -4.0576450526714325e-02</internalNodes>
      <leafValues>
        5.0146806240081787e-01 -2.0258459448814392e-01</leafValues></_>
    <_>
      <internalNodes>
        0 -1 132318 -5.3857965394854546e-04</internalNodes>
      <leafValues>
        6.3448274135589600e-01 -1.3084849715232849e-01</leafValues></_>
    <_>
      <internalNodes>
        0 -1 113136 1.9549515098333359e-02</internalNodes>
      <leafValues>
        1.4223997294902802e-01 -7.7588480710983276e-01</leafValues></_>
    <_>
      <internalNodes>
        0 -1 89817 -3.9546713232994080e-03</internalNodes>
      <leafValues>
        -6.0625606775283813e-01 1.5739807486534119e-01</leafValues></_></weakClassifiers></stage3>
</opencv_storage>
