<?xml version="1.0"?>
<opencv_storage>
<stage1>
  <maxWeakCount>8</maxWeakCount>
  <stageThreshold>-2.5828507542610168e-01</stageThreshold>
  <weakClassifiers>
    <_>
      <internalNodes>
        0 -1 68081 -1.3980355858802795e-01</internalNodes>
      <leafValues>
        7.5238096714019775e-01 -6.0677963495254517e-01</leafValues></_>
    <_>
      <internalNodes>
        0 -1 71456 1.0350656509399414e-01</internalNodes>
      <leafValues>
        -5.0319576263427734e-01 5.1831543445587158e-01</leafValues></_>
    <_>
      <internalNodes>
        0 -1 71620 -4.9107614904642105e-04</internalNodes>
      <leafValues>
        -7.7739500999450684e-01 2.8903141617774963e-01</leafValues></_>
    <_>
      <internalNodes>
        0 -1 14420 8.9756399393081665e-04</internalNodes>
      <leafValues>
        2.0858058333396912e-01 -8.8079100847244263e-01</leafValues></_>
    <_>
      <internalNodes>
        0 -1 159973 1.4875624328851700e-03</internalNodes>
      <leafValues>
        2.1380408108234406e-01 -8.2152473926544189e-01</leafValues></_>
    <_>
      <internalNodes>
        0 -1 86773 -1.7713569104671478e-02</internalNodes>
      <leafValues>
        7.7542299032211304e-01 -3.3525273203849792e-01</leafValues></_>
    <_>
      <internalNodes>
        0 -1 25442 -7.0452224463224411e-04</internalNodes>
      <leafValues>
        -7.5356626510620117e-01 3.1595259904861450e-01</leafValues></_>
    <_>
      <internalNodes>
        0 -1 52820 -6.3159834826365113e-04</internalNodes>
      <leafValues>
        -8.4837424755096436e-01 2.2743478417396545e-01</leafValues></_></weakClassifiers></stage1>
</opencv_storage>
