<?xml version="1.0"?>
<opencv_storage>
<stage6>
  <maxWeakCount>10</maxWeakCount>
  <stageThreshold>-4.9240207672119141e-01</stageThreshold>
  <weakClassifiers>
    <_>
      <internalNodes>
        0 -1 562 -8.6166083812713623e-02</internalNodes>
      <leafValues>
        -8.0804955959320068e-01 5.7062149047851563e-01</leafValues></_>
    <_>
      <internalNodes>
        0 -1 1106 -2.5261148810386658e-02</internalNodes>
      <leafValues>
        -1. 2.3038844764232635e-01</leafValues></_>
    <_>
      <internalNodes>
        0 -1 159260 -2.1472845226526260e-02</internalNodes>
      <leafValues>
        7.4605524539947510e-01 -3.5974025726318359e-01</leafValues></_>
    <_>
      <internalNodes>
        0 -1 418 -5.0858378410339355e-01</internalNodes>
      <leafValues>
        -9.5350682735443115e-01 1.9196642935276031e-01</leafValues></_>
    <_>
      <internalNodes>
        0 -1 160601 -1.9214730709791183e-02</internalNodes>
      <leafValues>
        -5.7789409160614014e-01 3.9762508869171143e-01</leafValues></_>
    <_>
      <internalNodes>
        0 -1 38580 -6.8974047899246216e-02</internalNodes>
      <leafValues>
        6.5769523382186890e-01 -3.4229886531829834e-01</leafValues></_>
    <_>
      <internalNodes>
        0 -1 114677 -1.3418509624898434e-02</internalNodes>
      <leafValues>
        7.8549242019653320e-01 -2.2369185090065002e-01</leafValues></_>
    <_>
      <internalNodes>
        0 -1 76476 3.0398214235901833e-02</internalNodes>
      <leafValues>
        -2.3971731960773468e-01 6.7748385667800903e-01</leafValues></_>
    <_>
      <internalNodes>
        0 -1 12138 -7.5335256755352020e-02</internalNodes>
      <leafValues>
        8.5537755489349365e-01 -1.3239367306232452e-01</leafValues></_>
    <_>
      <internalNodes>
        0 -1 119494 5.1364921033382416e-02</internalNodes>
      <leafValues>
        -1.4816661179065704e-01 8.7125998735427856e-01</leafValues></_></weakClassifiers></stage6>
</opencv_storage>
