<?xml version="1.0"?>
<opencv_storage>
<stage8>
  <maxWeakCount>25</maxWeakCount>
  <stageThreshold>-5.1461780071258545e-01</stageThreshold>
  <weakClassifiers>
    <_>
      <internalNodes>
        0 -1 161380 -1.5659101773053408e-03</internalNodes>
      <leafValues>
        -1.8867924809455872e-02 -6.5957444906234741e-01</leafValues></_>
    <_>
      <internalNodes>
        0 -1 80746 -4.1458802297711372e-03</internalNodes>
      <leafValues>
        -1.8741641938686371e-01 6.4790529012680054e-01</leafValues></_>
    <_>
      <internalNodes>
        0 -1 4029 4.0025874041020870e-03</internalNodes>
      <leafValues>
        -2.5393772125244141e-01 3.5712015628814697e-01</leafValues></_>
    <_>
      <internalNodes>
        0 -1 161700 1.1517941020429134e-03</internalNodes>
      <leafValues>
        -1.3128705322742462e-01 6.2995356321334839e-01</leafValues></_>
    <_>
      <internalNodes>
        0 -1 27792 1.8259009812027216e-03</internalNodes>
      <leafValues>
        -3.0133387446403503e-01 2.8614774346351624e-01</leafValues></_>
    <_>
      <internalNodes>
        0 -1 93623 6.6927850246429443e-02</internalNodes>
      <leafValues>
        -1.4314432442188263e-01 4.8665323853492737e-01</leafValues></_>
    <_>
      <internalNodes>
        0 -1 70631 -1.7252941615879536e-03</internalNodes>
      <leafValues>
        2.4653065204620361e-01 -4.2304146289825439e-01</leafValues></_>
    <_>
      <internalNodes>
        0 -1 162096 -1.9913897267542779e-04</internalNodes>
      <leafValues>
        4.3947878479957581e-01 -1.6536542773246765e-01</leafValues></_>
    <_>
      <internalNodes>
        0 -1 106746 1.7846116679720581e-04</internalNodes>
      <leafValues>
        -2.0890377461910248e-01 3.4131121635437012e-01</leafValues></_>
    <_>
      <internalNodes>
        0 -1 154549 7.5964501593261957e-04</internalNodes>
      <leafValues>
        -1.8687935173511505e-01 4.3592503666877747e-01</leafValues></_>
    <_>
      <internalNodes>
        0 -1 58 9.4946712488308549e-04</internalNodes>
      <leafValues>
        -2.8233423829078674e-01 2.6912966370582581e-01</leafValues></_>
    <_>
      <internalNodes>
        0 -1 5046 1.8872723449021578e-03</internalNodes>
      <leafValues>
        1.8275728821754456e-01 -5.7009011507034302e-01</leafValues></_>
    <_>
      <internalNodes>
        0 -1 25900 -1.0296978143742308e-04</internalNodes>
      <leafValues>
        -4.4614130258560181e-01 1.5210089087486267e-01</leafValues></_>
    <_>
      <internalNodes>
        0 -1 151927 -5.3130567539483309e-04</internalNodes>
      <leafValues>
        2.8845316171646118e-01 -2.7821353077888489e-01</leafValues></_>
    <_>
      <internalNodes>
        0 -1 101726 -3.8387661334127188e-03</internalNodes>
      <leafValues>
        5.4618811607360840e-01 -1.3028205931186676e-01</leafValues></_>
    <_>
      <internalNodes>
        0 -1 98986 -1.3662924990057945e-02</internalNodes>
      <leafValues>
        -5.4643940925598145e-01 1.3520751893520355e-01</leafValues></_>
    <_>
      <internalNodes>
        0 -1 89432 -8.9876644778996706e-05</internalNodes>
      <leafValues>
        3.2764390110969543e-01 -2.6346489787101746e-01</leafValues></_>
    <_>
      <internalNodes>
        0 -1 144027 2.1594476129394025e-04</internalNodes>
      <leafValues>
        1.9334386289119720e-01 -4.2278060317039490e-01</leafValues></_>
    <_>
      <internalNodes>
        0 -1 37239 4.3272532639093697e-04</internalNodes>
      <leafValues>
        1.9800429046154022e-01 -3.8133040070533752e-01</leafValues></_>
    <_>
      <internalNodes>
        0 -1 149406 -1.4473947696387768e-02</internalNodes>
      <leafValues>
        -1.1968272179365158e-01 6.3972669839859009e-01</leafValues></_>
    <_>
      <internalNodes>
        0 -1 155969 -4.1743303881958127e-04</internalNodes>
      <leafValues>
        3.5616084933280945e-01 -2.0042744278907776e-01</leafValues></_>
    <_>
      <internalNodes>
        0 -1 157981 -3.6495793610811234e-03</internalNodes>
      <leafValues>
        4.7848290205001831e-01 -1.4680130779743195e-01</leafValues></_>
    <_>
      <internalNodes>
        0 -1 153055 -5.7463455013930798e-03</internalNodes>
      <leafValues>
        -3.8987484574317932e-01 2.5239208340644836e-01</leafValues></_>
    <_>
      <internalNodes>
        0 -1 121148 -5.6894710287451744e-03</internalNodes>
      <leafValues>
        8.7392801046371460e-01 -8.8200151920318604e-02</leafValues></_>
    <_>
      <internalNodes>
        0 -1 12534 1.0079946368932724e-03</internalNodes>
      <leafValues>
        1.9220791757106781e-01 -4.3552544713020325e-01</leafValues></_></weakClassifiers></stage8>
</opencv_storage>
