<?xml version="1.0"?>
<opencv_storage>
<stage14>
  <maxWeakCount>30</maxWeakCount>
  <stageThreshold>-4.4243261218070984e-01</stageThreshold>
  <weakClassifiers>
    <_>
      <internalNodes>
        0 -1 141642 -6.9414535537362099e-03</internalNodes>
      <leafValues>
        -3.1004366278648376e-01 1.</leafValues></_>
    <_>
      <internalNodes>
        0 -1 100066 2.8396632522344589e-02</internalNodes>
      <leafValues>
        5.2662704139947891e-02 -8.2592046260833740e-01</leafValues></_>
    <_>
      <internalNodes>
        0 -1 18014 6.3971517374739051e-04</internalNodes>
      <leafValues>
        1.2943185865879059e-01 -3.8428866863250732e-01</leafValues></_>
    <_>
      <internalNodes>
        0 -1 162096 -2.0132985082454979e-04</internalNodes>
      <leafValues>
        3.1441748142242432e-01 -1.4574824273586273e-01</leafValues></_>
    <_>
      <internalNodes>
        0 -1 21746 4.8202946782112122e-03</internalNodes>
      <leafValues>
        8.1085301935672760e-02 -5.5988126993179321e-01</leafValues></_>
    <_>
      <internalNodes>
        0 -1 8488 -1.8134927377104759e-02</internalNodes>
      <leafValues>
        -6.8108958005905151e-01 8.2122668623924255e-02</leafValues></_>
    <_>
      <internalNodes>
        0 -1 62196 -1.5341896563768387e-02</internalNodes>
      <leafValues>
        5.0896286964416504e-01 -1.0352009534835815e-01</leafValues></_>
    <_>
      <internalNodes>
        0 -1 84160 -3.3117725979536772e-04</internalNodes>
      <leafValues>
        -3.0936244130134583e-01 1.7446431517601013e-01</leafValues></_>
    <_>
      <internalNodes>
        0 -1 106559 -8.2855187356472015e-03</internalNodes>
      <leafValues>
        4.2955443263053894e-01 -1.3213072717189789e-01</leafValues></_>
    <_>
      <internalNodes>
        0 -1 125869 3.0481565743684769e-02</internalNodes>
      <leafValues>
        -7.9698152840137482e-02 6.7006701231002808e-01</leafValues></_>
    <_>
      <internalNodes>
        0 -1 4844 4.4639598578214645e-02</internalNodes>
      <leafValues>
        -1.4657077193260193e-01 3.7256136536598206e-01</leafValues></_>
    <_>
      <internalNodes>
        0 -1 124674 -2.1728061255998909e-04</internalNodes>
      <leafValues>
        -3.8116297125816345e-01 1.5821360051631927e-01</leafValues></_>
    <_>
      <internalNodes>
        0 -1 16503 2.6626074686646461e-03</internalNodes>
      <leafValues>
        -1.9807370007038116e-01 2.8458398580551147e-01</leafValues></_>
    <_>
      <internalNodes>
        0 -1 155959 8.9855893747881055e-05</internalNodes>
      <leafValues>
        -1.9419483840465546e-01 3.2363480329513550e-01</leafValues></_>
    <_>
      <internalNodes>
        0 -1 50381 -1.5943171456456184e-04</internalNodes>
      <leafValues>
        -4.2757827043533325e-01 1.5688139200210571e-01</leafValues></_>
    <_>
      <internalNodes>
        0 -1 5112 -1.1943145655095577e-03</internalNodes>
      <leafValues>
        -4.6363773941993713e-01 1.2187314033508301e-01</leafValues></_>
    <_>
      <internalNodes>
        0 -1 137641 5.0472361035645008e-03</internalNodes>
      <leafValues>
        -1.0087313503026962e-01 6.6861629486083984e-01</leafValues></_>
    <_>
      <internalNodes>
        0 -1 154855 9.0169755276292562e-04</internalNodes>
      <leafValues>
        1.0553335398435593e-01 -6.6032636165618896e-01</leafValues></_>
    <_>
      <internalNodes>
        0 -1 102746 5.1657739095389843e-03</internalNodes>
      <leafValues>
        -1.3444440066814423e-01 5.8141481876373291e-01</leafValues></_>
    <_>
      <internalNodes>
        0 -1 143508 1.7019114457070827e-03</internalNodes>
      <leafValues>
        1.3701225817203522e-01 -4.5601287484169006e-01</leafValues></_>
    <_>
      <internalNodes>
        0 -1 106776 1.0142746381461620e-02</internalNodes>
      <leafValues>
        -1.3583029806613922e-01 4.7437888383865356e-01</leafValues></_>
    <_>
      <internalNodes>
        0 -1 156549 -3.3884795848280191e-03</internalNodes>
      <leafValues>
        7.8904324769973755e-01 -6.9658122956752777e-02</leafValues></_>
    <_>
      <internalNodes>
        0 -1 31137 9.0394821017980576e-03</internalNodes>
      <leafValues>
        7.2529368102550507e-02 -9.4651937484741211e-01</leafValues></_>
    <_>
      <internalNodes>
        0 -1 147766 9.1852918267250061e-03</internalNodes>
      <leafValues>
        1.3727010786533356e-01 -3.8375273346900940e-01</leafValues></_>
    <_>
      <internalNodes>
        0 -1 106379 -3.2053880393505096e-02</internalNodes>
      <leafValues>
        6.4318037033081055e-01 -1.0153112560510635e-01</leafValues></_>
    <_>
      <internalNodes>
        0 -1 160369 1.3632433547172695e-04</internalNodes>
      <leafValues>
        1.6706193983554840e-01 -3.4818011522293091e-01</leafValues></_>
    <_>
      <internalNodes>
        0 -1 150500 4.3165339156985283e-03</internalNodes>
      <leafValues>
        -1.6981844604015350e-01 3.3482301235198975e-01</leafValues></_>
    <_>
      <internalNodes>
        0 -1 27648 -3.2177066802978516e-01</internalNodes>
      <leafValues>
        7.3585963249206543e-01 -8.5618853569030762e-02</leafValues></_>
    <_>
      <internalNodes>
        0 -1 6754 1.7792761325836182e-02</internalNodes>
      <leafValues>
        -1.6155943274497986e-01 3.5674482583999634e-01</leafValues></_>
    <_>
      <internalNodes>
        0 -1 5090 1.9333371892571449e-03</internalNodes>
      <leafValues>
        4.8220837116241455e-01 -1.7693260312080383e-01</leafValues></_></weakClassifiers></stage14>
</opencv_storage>
