<?xml version="1.0"?>
<opencv_storage>
<stage11>
  <maxWeakCount>10</maxWeakCount>
  <stageThreshold>-4.5465099811553955e-01</stageThreshold>
  <weakClassifiers>
    <_>
      <internalNodes>
        0 -1 113756 -4.2933495715260506e-03</internalNodes>
      <leafValues>
        -2.3456789553165436e-01 1.</leafValues></_>
    <_>
      <internalNodes>
        0 -1 13353 -3.3470373600721359e-03</internalNodes>
      <leafValues>
        4.0659084916114807e-01 -4.0075877308845520e-01</leafValues></_>
    <_>
      <internalNodes>
        0 -1 124270 -1.7405653488822281e-04</internalNodes>
      <leafValues>
        -4.4301551580429077e-01 3.4282580018043518e-01</leafValues></_>
    <_>
      <internalNodes>
        0 -1 157880 4.5376241207122803e-02</internalNodes>
      <leafValues>
        -2.0992346107959747e-01 6.6388899087905884e-01</leafValues></_>
    <_>
      <internalNodes>
        0 -1 156321 -1.4622896560467780e-04</internalNodes>
      <leafValues>
        3.0798688530921936e-01 -5.6617051362991333e-01</leafValues></_>
    <_>
      <internalNodes>
        0 -1 149479 2.4279956705868244e-03</internalNodes>
      <leafValues>
        -2.3029011487960815e-01 7.3490303754806519e-01</leafValues></_>
    <_>
      <internalNodes>
        0 -1 144028 5.2390136988833547e-04</internalNodes>
      <leafValues>
        2.5029790401458740e-01 -7.0106559991836548e-01</leafValues></_>
    <_>
      <internalNodes>
        0 -1 80490 -1.9971597939729691e-03</internalNodes>
      <leafValues>
        6.8718636035919189e-01 -2.8023597598075867e-01</leafValues></_>
    <_>
      <internalNodes>
        0 -1 146422 -5.2103260532021523e-03</internalNodes>
      <leafValues>
        -6.6584140062332153e-01 3.3000317215919495e-01</leafValues></_>
    <_>
      <internalNodes>
        0 -1 74041 1.0479878401383758e-03</internalNodes>
      <leafValues>
        -4.1795969009399414e-01 4.5398122072219849e-01</leafValues></_></weakClassifiers></stage11>
</opencv_storage>
