<?xml version="1.0"?>
<opencv_storage>
<stage13>
  <maxWeakCount>20</maxWeakCount>
  <stageThreshold>-5.5068999528884888e-01</stageThreshold>
  <weakClassifiers>
    <_>
      <internalNodes>
        0 -1 96460 -3.4545566886663437e-03</internalNodes>
      <leafValues>
        4.6666666865348816e-01 -2.8372094035148621e-01</leafValues></_>
    <_>
      <internalNodes>
        0 -1 57388 -7.0820590481162071e-03</internalNodes>
      <leafValues>
        -4.5788273215293884e-01 1.7895185947418213e-01</leafValues></_>
    <_>
      <internalNodes>
        0 -1 31871 3.5464447137201205e-05</internalNodes>
      <leafValues>
        -3.0363380908966064e-01 3.4073355793952942e-01</leafValues></_>
    <_>
      <internalNodes>
        0 -1 106462 1.1260636383667588e-03</internalNodes>
      <leafValues>
        2.0441681146621704e-01 -5.6317508220672607e-01</leafValues></_>
    <_>
      <internalNodes>
        0 -1 89529 2.0899508148431778e-02</internalNodes>
      <leafValues>
        -2.0059341192245483e-01 6.1299008131027222e-01</leafValues></_>
    <_>
      <internalNodes>
        0 -1 158849 -2.1319007501006126e-03</internalNodes>
      <leafValues>
        2.9085642099380493e-01 -4.0270420908927917e-01</leafValues></_>
    <_>
      <internalNodes>
        0 -1 146866 -1.0211173212155700e-03</internalNodes>
      <leafValues>
        3.1561717391014099e-01 -3.2239481806755066e-01</leafValues></_>
    <_>
      <internalNodes>
        0 -1 156796 -6.7871325882151723e-05</internalNodes>
      <leafValues>
        3.9478805661201477e-01 -2.4587692320346832e-01</leafValues></_>
    <_>
      <internalNodes>
        0 -1 60086 6.0509238392114639e-04</internalNodes>
      <leafValues>
        -2.0830167829990387e-01 4.7512197494506836e-01</leafValues></_>
    <_>
      <internalNodes>
        0 -1 59953 -2.1984100341796875e-02</internalNodes>
      <leafValues>
        4.2846843600273132e-01 -2.9249495267868042e-01</leafValues></_>
    <_>
      <internalNodes>
        0 -1 4920 1.2732037343084812e-02</internalNodes>
      <leafValues>
        1.9660975039005280e-01 -5.6955403089523315e-01</leafValues></_>
    <_>
      <internalNodes>
        0 -1 26614 3.4588005393743515e-02</internalNodes>
      <leafValues>
        -5.3269463777542114e-01 2.7961379289627075e-01</leafValues></_>
    <_>
      <internalNodes>
        0 -1 118334 1.1945575533900410e-04</internalNodes>
      <leafValues>
        -3.1366077065467834e-01 3.2188239693641663e-01</leafValues></_>
    <_>
      <internalNodes>
        0 -1 78008 -2.3867242038249969e-02</internalNodes>
      <leafValues>
        7.8465759754180908e-01 -1.7685003578662872e-01</leafValues></_>
    <_>
      <internalNodes>
        0 -1 95681 1.2873502782895230e-05</internalNodes>
      <leafValues>
        -3.6701875925064087e-01 3.1814682483673096e-01</leafValues></_>
    <_>
      <internalNodes>
        0 -1 7127 6.7179568111896515e-02</internalNodes>
      <leafValues>
        -1.2975853681564331e-01 7.1645873785018921e-01</leafValues></_>
    <_>
      <internalNodes>
        0 -1 1448 -6.7782565951347351e-02</internalNodes>
      <leafValues>
        6.6267931461334229e-01 -1.8064637482166290e-01</leafValues></_>
    <_>
      <internalNodes>
        0 -1 121064 -2.4719408247619867e-03</internalNodes>
      <leafValues>
        -6.1261421442031860e-01 1.9661447405815125e-01</leafValues></_>
    <_>
      <internalNodes>
        0 -1 10289 -7.4177794158458710e-04</internalNodes>
      <leafValues>
        -4.6330708265304565e-01 2.6804646849632263e-01</leafValues></_>
    <_>
      <internalNodes>
        0 -1 10472 2.9468915890902281e-03</internalNodes>
      <leafValues>
        3.2256147265434265e-01 -4.0426677465438843e-01</leafValues></_></weakClassifiers></stage13>
</opencv_storage>
