<?xml version="1.0"?>
<opencv_storage>
<stage4>
  <maxWeakCount>7</maxWeakCount>
  <stageThreshold>-2.6851004362106323e-01</stageThreshold>
  <weakClassifiers>
    <_>
      <internalNodes>
        0 -1 13365 -4.5142732560634613e-03</internalNodes>
      <leafValues>
        1.5625000000000000e-01 -6.9767439365386963e-01</leafValues></_>
    <_>
      <internalNodes>
        0 -1 131806 3.6585616180673242e-04</internalNodes>
      <leafValues>
        -3.7822830677032471e-01 6.1906105279922485e-01</leafValues></_>
    <_>
      <internalNodes>
        0 -1 148394 -5.4485867731273174e-03</internalNodes>
      <leafValues>
        -7.6910448074340820e-01 2.9691749811172485e-01</leafValues></_>
    <_>
      <internalNodes>
        0 -1 98547 -2.1252867300063372e-03</internalNodes>
      <leafValues>
        6.1878687143325806e-01 -4.2310830950737000e-01</leafValues></_>
    <_>
      <internalNodes>
        0 -1 96835 3.7702810950577259e-03</internalNodes>
      <leafValues>
        2.6420652866363525e-01 -8.3530163764953613e-01</leafValues></_>
    <_>
      <internalNodes>
        0 -1 35451 -2.7861497364938259e-03</internalNodes>
      <leafValues>
        -8.0534636974334717e-01 2.7775016427040100e-01</leafValues></_>
    <_>
      <internalNodes>
        0 -1 125512 -1.1157998815178871e-02</internalNodes>
      <leafValues>
        -3.1887745857238770e-01 8.6450946331024170e-01</leafValues></_></weakClassifiers></stage4>
</opencv_storage>
