<?xml version="1.0"?>
<opencv_storage>
<stage8>
  <maxWeakCount>10</maxWeakCount>
  <stageThreshold>-1.8298114836215973e-01</stageThreshold>
  <weakClassifiers>
    <_>
      <internalNodes>
        0 -1 80743 -7.5751114636659622e-03</internalNodes>
      <leafValues>
        5.1724135875701904e-01 -4.0983605384826660e-01</leafValues></_>
    <_>
      <internalNodes>
        0 -1 30710 -6.1576496809720993e-02</internalNodes>
      <leafValues>
        -5.8785063028335571e-01 3.4388256072998047e-01</leafValues></_>
    <_>
      <internalNodes>
        0 -1 12809 1.8101811874657869e-03</internalNodes>
      <leafValues>
        -2.4592447280883789e-01 8.8381975889205933e-01</leafValues></_>
    <_>
      <internalNodes>
        0 -1 4084 3.4087587846443057e-04</internalNodes>
      <leafValues>
        -1.8321835994720459e-01 8.8013559579849243e-01</leafValues></_>
    <_>
      <internalNodes>
        0 -1 124384 2.9710418311879039e-04</internalNodes>
      <leafValues>
        -4.3710488080978394e-01 5.7162719964981079e-01</leafValues></_>
    <_>
      <internalNodes>
        0 -1 151546 1.0784155689179897e-02</internalNodes>
      <leafValues>
        4.0634530782699585e-01 -5.9805196523666382e-01</leafValues></_>
    <_>
      <internalNodes>
        0 -1 6774 1.3060847995802760e-03</internalNodes>
      <leafValues>
        -3.6926060914993286e-01 7.3121750354766846e-01</leafValues></_>
    <_>
      <internalNodes>
        0 -1 162046 -1.0831317631527781e-03</internalNodes>
      <leafValues>
        6.1180728673934937e-01 -3.0009067058563232e-01</leafValues></_>
    <_>
      <internalNodes>
        0 -1 11036 2.8322049183771014e-04</internalNodes>
      <leafValues>
        -1.7432911694049835e-01 8.9694172143936157e-01</leafValues></_>
    <_>
      <internalNodes>
        0 -1 57867 -5.6670069694519043e-01</internalNodes>
      <leafValues>
        -5.8724296092987061e-01 3.5197708010673523e-01</leafValues></_></weakClassifiers></stage8>
</opencv_storage>
