<?xml version="1.0"?>
<opencv_storage>
<stage1>
  <maxWeakCount>10</maxWeakCount>
  <stageThreshold>-3.4922990202903748e-01</stageThreshold>
  <weakClassifiers>
    <_>
      <internalNodes>
        0 -1 87823 -1.6717189550399780e-01</internalNodes>
      <leafValues>
        8.7179487943649292e-01 -5.8088237047195435e-01</leafValues></_>
    <_>
      <internalNodes>
        0 -1 71456 1.0350656509399414e-01</internalNodes>
      <leafValues>
        -4.8663899302482605e-01 6.0807496309280396e-01</leafValues></_>
    <_>
      <internalNodes>
        0 -1 157604 -7.3469779454171658e-04</internalNodes>
      <leafValues>
        -9.2142349481582642e-01 2.3641732335090637e-01</leafValues></_>
    <_>
      <internalNodes>
        0 -1 1705 -1.0415141005069017e-03</internalNodes>
      <leafValues>
        -8.0944448709487915e-01 3.0750826001167297e-01</leafValues></_>
    <_>
      <internalNodes>
        0 -1 148380 1.0860431939363480e-03</internalNodes>
      <leafValues>
        2.0450019836425781e-01 -8.5112762451171875e-01</leafValues></_>
    <_>
      <internalNodes>
        0 -1 105734 -6.7495346069335938e-02</internalNodes>
      <leafValues>
        7.3739647865295410e-01 -3.2160460948944092e-01</leafValues></_>
    <_>
      <internalNodes>
        0 -1 135711 -6.4714550971984863e-02</internalNodes>
      <leafValues>
        5.7939392328262329e-01 -4.6139338612556458e-01</leafValues></_>
    <_>
      <internalNodes>
        0 -1 149866 6.0927541926503181e-04</internalNodes>
      <leafValues>
        3.1382638216018677e-01 -8.3579105138778687e-01</leafValues></_>
    <_>
      <internalNodes>
        0 -1 161568 2.3774374276399612e-03</internalNodes>
      <leafValues>
        3.1543523073196411e-01 -7.5574904680252075e-01</leafValues></_>
    <_>
      <internalNodes>
        0 -1 144040 4.9808697076514363e-04</internalNodes>
      <leafValues>
        2.5467091798782349e-01 -8.6533343791961670e-01</leafValues></_></weakClassifiers></stage1>
</opencv_storage>
