<?xml version="1.0"?>
<opencv_storage>
<stage11>
  <maxWeakCount>9</maxWeakCount>
  <stageThreshold>-2.8287181258201599e-01</stageThreshold>
  <weakClassifiers>
    <_>
      <internalNodes>
        0 -1 152427 4.7645400627516210e-04</internalNodes>
      <leafValues>
        -6.9999998807907104e-01 8.5714288055896759e-02</leafValues></_>
    <_>
      <internalNodes>
        0 -1 13527 -1.9119039177894592e-02</internalNodes>
      <leafValues>
        -8.1153070926666260e-01 1.4346824586391449e-01</leafValues></_>
    <_>
      <internalNodes>
        0 -1 36313 -3.6276755854487419e-03</internalNodes>
      <leafValues>
        -6.8133783340454102e-01 2.8432530164718628e-01</leafValues></_>
    <_>
      <internalNodes>
        0 -1 123121 -4.4206139864400029e-04</internalNodes>
      <leafValues>
        -5.5597907304763794e-01 2.6426181197166443e-01</leafValues></_>
    <_>
      <internalNodes>
        0 -1 124674 2.1110095985932276e-05</internalNodes>
      <leafValues>
        -4.4997265934944153e-01 4.0915626287460327e-01</leafValues></_>
    <_>
      <internalNodes>
        0 -1 25116 -1.3428045436739922e-02</internalNodes>
      <leafValues>
        4.7967594861984253e-01 -4.1479673981666565e-01</leafValues></_>
    <_>
      <internalNodes>
        0 -1 113264 3.1985379755496979e-03</internalNodes>
      <leafValues>
        5.7094395160675049e-01 -3.8021528720855713e-01</leafValues></_>
    <_>
      <internalNodes>
        0 -1 79905 -1.6794648021459579e-02</internalNodes>
      <leafValues>
        -2.5393083691596985e-01 9.2423206567764282e-01</leafValues></_>
    <_>
      <internalNodes>
        0 -1 130535 -4.6347736497409642e-04</internalNodes>
      <leafValues>
        6.1273950338363647e-01 -3.4966444969177246e-01</leafValues></_></weakClassifiers></stage11>
</opencv_storage>
