<?xml version="1.0"?>
<opencv_storage>
<stage10>
  <maxWeakCount>25</maxWeakCount>
  <stageThreshold>-5.4054957628250122e-01</stageThreshold>
  <weakClassifiers>
    <_>
      <internalNodes>
        0 -1 25556 -1.7598217353224754e-02</internalNodes>
      <leafValues>
        2.2222222387790680e-01 -4.2465752363204956e-01</leafValues></_>
    <_>
      <internalNodes>
        0 -1 18171 5.6560575962066650e-02</internalNodes>
      <leafValues>
        6.5603770315647125e-02 -9.0150851011276245e-01</leafValues></_>
    <_>
      <internalNodes>
        0 -1 31163 5.9778783470392227e-03</internalNodes>
      <leafValues>
        -2.1529096364974976e-01 3.4817692637443542e-01</leafValues></_>
    <_>
      <internalNodes>
        0 -1 120956 1.8707536160945892e-02</internalNodes>
      <leafValues>
        -1.4021024107933044e-01 5.5269062519073486e-01</leafValues></_>
    <_>
      <internalNodes>
        0 -1 88938 -1.3847467489540577e-03</internalNodes>
      <leafValues>
        -2.8352817893028259e-01 2.7075719833374023e-01</leafValues></_>
    <_>
      <internalNodes>
        0 -1 152398 3.1218957155942917e-03</internalNodes>
      <leafValues>
        -1.5196855366230011e-01 5.0247728824615479e-01</leafValues></_>
    <_>
      <internalNodes>
        0 -1 114300 5.4949923651292920e-04</internalNodes>
      <leafValues>
        -1.4075843989849091e-01 4.9887922406196594e-01</leafValues></_>
    <_>
      <internalNodes>
        0 -1 156483 -6.2458310276269913e-04</internalNodes>
      <leafValues>
        2.5915333628654480e-01 -3.2913196086883545e-01</leafValues></_>
    <_>
      <internalNodes>
        0 -1 161282 -5.9324942529201508e-02</internalNodes>
      <leafValues>
        -3.7331593036651611e-01 2.4164424836635590e-01</leafValues></_>
    <_>
      <internalNodes>
        0 -1 106800 -3.8374261930584908e-04</internalNodes>
      <leafValues>
        -6.0787767171859741e-01 1.3710609078407288e-01</leafValues></_>
    <_>
      <internalNodes>
        0 -1 62454 3.4293990582227707e-02</internalNodes>
      <leafValues>
        -1.5931391716003418e-01 6.3345360755920410e-01</leafValues></_>
    <_>
      <internalNodes>
        0 -1 76597 9.4603765755891800e-03</internalNodes>
      <leafValues>
        -1.1799574643373489e-01 5.6994754076004028e-01</leafValues></_>
    <_>
      <internalNodes>
        0 -1 139340 2.8314897790551186e-03</internalNodes>
      <leafValues>
        -2.1595083177089691e-01 4.1324120759963989e-01</leafValues></_>
    <_>
      <internalNodes>
        0 -1 68004 1.7970375716686249e-02</internalNodes>
      <leafValues>
        -1.7947316169738770e-01 4.0427184104919434e-01</leafValues></_>
    <_>
      <internalNodes>
        0 -1 129072 7.1950671263039112e-03</internalNodes>
      <leafValues>
        -2.3001518845558167e-01 3.5796368122100830e-01</leafValues></_>
    <_>
      <internalNodes>
        0 -1 150588 5.3762225434184074e-03</internalNodes>
      <leafValues>
        -1.6832582652568817e-01 4.4171819090843201e-01</leafValues></_>
    <_>
      <internalNodes>
        0 -1 18998 -2.8269847389310598e-03</internalNodes>
      <leafValues>
        -3.5568591952323914e-01 2.3822338879108429e-01</leafValues></_>
    <_>
      <internalNodes>
        0 -1 40684 -1.2471388617996126e-04</internalNodes>
      <leafValues>
        -3.9938595890998840e-01 1.9631266593933105e-01</leafValues></_>
    <_>
      <internalNodes>
        0 -1 13417 5.0668539479374886e-03</internalNodes>
      <leafValues>
        9.8206311464309692e-02 -7.5480818748474121e-01</leafValues></_>
    <_>
      <internalNodes>
        0 -1 13371 -4.4446326792240143e-03</internalNodes>
      <leafValues>
        2.2479666769504547e-01 -3.4501361846923828e-01</leafValues></_>
    <_>
      <internalNodes>
        0 -1 5332 -5.2502613514661789e-02</internalNodes>
      <leafValues>
        7.4111932516098022e-01 -9.4914704561233521e-02</leafValues></_>
    <_>
      <internalNodes>
        0 -1 143731 2.5540625210851431e-04</internalNodes>
      <leafValues>
        1.8426521122455597e-01 -4.4453543424606323e-01</leafValues></_>
    <_>
      <internalNodes>
        0 -1 141753 -1.4250321546569467e-03</internalNodes>
      <leafValues>
        3.1816279888153076e-01 -2.5990697741508484e-01</leafValues></_>
    <_>
      <internalNodes>
        0 -1 151654 -2.2338348207995296e-04</internalNodes>
      <leafValues>
        -3.9258360862731934e-01 2.3085577785968781e-01</leafValues></_>
    <_>
      <internalNodes>
        0 -1 117916 -1.8235202878713608e-03</internalNodes>
      <leafValues>
        -7.1850484609603882e-01 1.3431051373481750e-01</leafValues></_></weakClassifiers></stage10>
</opencv_storage>
