<?xml version="1.0"?>
<opencv_storage>
<stage5>
  <maxWeakCount>9</maxWeakCount>
  <stageThreshold>-2.6340952515602112e-01</stageThreshold>
  <weakClassifiers>
    <_>
      <internalNodes>
        0 -1 150263 -1.6298735141754150e-01</internalNodes>
      <leafValues>
        5.8333331346511841e-01 -3.6363637447357178e-01</leafValues></_>
    <_>
      <internalNodes>
        0 -1 139368 4.6538347378373146e-03</internalNodes>
      <leafValues>
        2.6140692830085754e-01 -6.9902700185775757e-01</leafValues></_>
    <_>
      <internalNodes>
        0 -1 59925 -7.4997097253799438e-03</internalNodes>
      <leafValues>
        2.9957768321037292e-01 -5.3854733705520630e-01</leafValues></_>
    <_>
      <internalNodes>
        0 -1 77349 -4.9137696623802185e-03</internalNodes>
      <leafValues>
        -9.3348789215087891e-01 2.3881904780864716e-01</leafValues></_>
    <_>
      <internalNodes>
        0 -1 10968 1.5292239841073751e-03</internalNodes>
      <leafValues>
        -4.1346248984336853e-01 5.0149643421173096e-01</leafValues></_>
    <_>
      <internalNodes>
        0 -1 139996 8.9588552713394165e-02</internalNodes>
      <leafValues>
        -3.3732676506042480e-01 6.0573381185531616e-01</leafValues></_>
    <_>
      <internalNodes>
        0 -1 42987 -3.2448922866024077e-05</internalNodes>
      <leafValues>
        -7.7723544836044312e-01 2.8137466311454773e-01</leafValues></_>
    <_>
      <internalNodes>
        0 -1 124961 -4.2712762951850891e-02</internalNodes>
      <leafValues>
        3.9365759491920471e-01 -5.5962055921554565e-01</leafValues></_>
    <_>
      <internalNodes>
        0 -1 148890 -3.4847627393901348e-03</internalNodes>
      <leafValues>
        -8.7092280387878418e-01 2.2061362862586975e-01</leafValues></_></weakClassifiers></stage5>
</opencv_storage>
