<?xml version="1.0"?>
<opencv_storage>
<stage9>
  <maxWeakCount>25</maxWeakCount>
  <stageThreshold>-5.0693148374557495e-01</stageThreshold>
  <weakClassifiers>
    <_>
      <internalNodes>
        0 -1 71951 -3.3459985256195068e-01</internalNodes>
      <leafValues>
        -5.3691273927688599e-01 1.7441859841346741e-01</leafValues></_>
    <_>
      <internalNodes>
        0 -1 158498 -2.3107033222913742e-02</internalNodes>
      <leafValues>
        2.9437559843063354e-01 -2.5060522556304932e-01</leafValues></_>
    <_>
      <internalNodes>
        0 -1 89785 3.6160782910883427e-03</internalNodes>
      <leafValues>
        7.6723553240299225e-02 -9.3005669116973877e-01</leafValues></_>
    <_>
      <internalNodes>
        0 -1 107976 8.5836853832006454e-03</internalNodes>
      <leafValues>
        -2.7924457192420959e-01 3.0345690250396729e-01</leafValues></_>
    <_>
      <internalNodes>
        0 -1 121064 3.3613917184993625e-04</internalNodes>
      <leafValues>
        -2.2076730430126190e-01 3.1568256020545959e-01</leafValues></_>
    <_>
      <internalNodes>
        0 -1 86668 2.3236483335494995e-02</internalNodes>
      <leafValues>
        -1.9103452563285828e-01 3.8516753911972046e-01</leafValues></_>
    <_>
      <internalNodes>
        0 -1 104521 3.4067314118146896e-03</internalNodes>
      <leafValues>
        1.4689128100872040e-01 -7.4446541070938110e-01</leafValues></_>
    <_>
      <internalNodes>
        0 -1 10044 8.1970999017357826e-03</internalNodes>
      <leafValues>
        -1.9725614786148071e-01 4.4460070133209229e-01</leafValues></_>
    <_>
      <internalNodes>
        0 -1 18171 5.6241795420646667e-02</internalNodes>
      <leafValues>
        6.6183894872665405e-02 -1.</leafValues></_>
    <_>
      <internalNodes>
        0 -1 122412 1.0599401139188558e-04</internalNodes>
      <leafValues>
        1.6606301069259644e-01 -3.9827719330787659e-01</leafValues></_>
    <_>
      <internalNodes>
        0 -1 68457 -9.8941743373870850e-02</internalNodes>
      <leafValues>
        -5.1179230213165283e-02 1.</leafValues></_>
    <_>
      <internalNodes>
        0 -1 106691 -3.5322739277034998e-03</internalNodes>
      <leafValues>
        -7.4081420898437500e-01 1.1560258269309998e-01</leafValues></_>
    <_>
      <internalNodes>
        0 -1 27748 -4.7921443183440715e-05</internalNodes>
      <leafValues>
        2.7692827582359314e-01 -2.4354362487792969e-01</leafValues></_>
    <_>
      <internalNodes>
        0 -1 132473 -6.4635383896529675e-03</internalNodes>
      <leafValues>
        3.9572331309318542e-01 -1.8437011539936066e-01</leafValues></_>
    <_>
      <internalNodes>
        0 -1 58414 -4.0926769375801086e-02</internalNodes>
      <leafValues>
        3.8432601094245911e-01 -1.7855341732501984e-01</leafValues></_>
    <_>
      <internalNodes>
        0 -1 138396 -4.2595453560352325e-03</internalNodes>
      <leafValues>
        -7.1659874916076660e-01 1.0524239391088486e-01</leafValues></_>
    <_>
      <internalNodes>
        0 -1 161181 -3.1917015439830720e-04</internalNodes>
      <leafValues>
        2.6108509302139282e-01 -3.0600374937057495e-01</leafValues></_>
    <_>
      <internalNodes>
        0 -1 12909 5.0245746970176697e-03</internalNodes>
      <leafValues>
        -2.7561178803443909e-01 2.9551348090171814e-01</leafValues></_>
    <_>
      <internalNodes>
        0 -1 48241 -2.4259947240352631e-03</internalNodes>
      <leafValues>
        4.7910970449447632e-01 -1.8025919795036316e-01</leafValues></_>
    <_>
      <internalNodes>
        0 -1 157106 -6.4050481887534261e-04</internalNodes>
      <leafValues>
        -6.6871076822280884e-01 1.4052625000476837e-01</leafValues></_>
    <_>
      <internalNodes>
        0 -1 45617 -3.6508042365312576e-02</internalNodes>
      <leafValues>
        -6.4005470275878906e-01 8.8844895362854004e-02</leafValues></_>
    <_>
      <internalNodes>
        0 -1 48185 -3.6524527240544558e-04</internalNodes>
      <leafValues>
        2.7570417523384094e-01 -2.7581098675727844e-01</leafValues></_>
    <_>
      <internalNodes>
        0 -1 123388 -6.3588499324396253e-04</internalNodes>
      <leafValues>
        -7.8296387195587158e-01 9.4360142946243286e-02</leafValues></_>
    <_>
      <internalNodes>
        0 -1 129168 -2.5212219916284084e-03</internalNodes>
      <leafValues>
        3.3247822523117065e-01 -1.9789539277553558e-01</leafValues></_>
    <_>
      <internalNodes>
        0 -1 77680 -5.2837811410427094e-02</internalNodes>
      <leafValues>
        5.2988117933273315e-01 -1.3649430871009827e-01</leafValues></_></weakClassifiers></stage9>
</opencv_storage>
