<?xml version="1.0"?>
<opencv_storage>
<stage3>
  <maxWeakCount>18</maxWeakCount>
  <stageThreshold>-7.5455182790756226e-01</stageThreshold>
  <weakClassifiers>
    <_>
      <internalNodes>
        0 -1 26796 1.8391937017440796e-01</internalNodes>
      <leafValues>
        -4.1798943281173706e-01 6.6666668653488159e-01</leafValues></_>
    <_>
      <internalNodes>
        0 -1 158212 -1.1069722473621368e-02</internalNodes>
      <leafValues>
        3.6990877985954285e-01 -4.0133506059646606e-01</leafValues></_>
    <_>
      <internalNodes>
        0 -1 58181 -1.1440795660018921e-01</internalNodes>
      <leafValues>
        3.2941803336143494e-01 -3.7885323166847229e-01</leafValues></_>
    <_>
      <internalNodes>
        0 -1 25946 -1.0509438812732697e-02</internalNodes>
      <leafValues>
        -6.5586811304092407e-01 1.8087907135486603e-01</leafValues></_>
    <_>
      <internalNodes>
        0 -1 90627 -2.5003026239573956e-03</internalNodes>
      <leafValues>
        -8.1166547536849976e-01 1.3403919339179993e-01</leafValues></_>
    <_>
      <internalNodes>
        0 -1 75805 -1.1211410164833069e-02</internalNodes>
      <leafValues>
        -6.5088933706283569e-01 1.5753495693206787e-01</leafValues></_>
    <_>
      <internalNodes>
        0 -1 38001 -7.2906864807009697e-04</internalNodes>
      <leafValues>
        -4.5734158158302307e-01 2.0618563890457153e-01</leafValues></_>
    <_>
      <internalNodes>
        0 -1 143794 3.9476128295063972e-03</internalNodes>
      <leafValues>
        2.0867869257926941e-01 -4.9339720606803894e-01</leafValues></_>
    <_>
      <internalNodes>
        0 -1 15347 4.4142282567918301e-03</internalNodes>
      <leafValues>
        -3.0897378921508789e-01 3.3605894446372986e-01</leafValues></_>
    <_>
      <internalNodes>
        0 -1 106615 -2.9293382540345192e-03</internalNodes>
      <leafValues>
        5.1907896995544434e-01 -2.3202331364154816e-01</leafValues></_>
    <_>
      <internalNodes>
        0 -1 138333 -1.5407005324959755e-02</internalNodes>
      <leafValues>
        -6.7051720619201660e-01 1.8618029356002808e-01</leafValues></_>
    <_>
      <internalNodes>
        0 -1 11967 1.8480904400348663e-03</internalNodes>
      <leafValues>
        2.0869457721710205e-01 -4.7196966409683228e-01</leafValues></_>
    <_>
      <internalNodes>
        0 -1 36273 -5.1807537674903870e-03</internalNodes>
      <leafValues>
        -8.7679111957550049e-01 1.3730362057685852e-01</leafValues></_>
    <_>
      <internalNodes>
        0 -1 144116 1.2021366273984313e-03</internalNodes>
      <leafValues>
        2.0677417516708374e-01 -5.8455801010131836e-01</leafValues></_>
    <_>
      <internalNodes>
        0 -1 154523 5.3014758974313736e-02</internalNodes>
      <leafValues>
        -1.6417288780212402e-01 6.9458842277526855e-01</leafValues></_>
    <_>
      <internalNodes>
        0 -1 13292 -2.0783948712050915e-03</internalNodes>
      <leafValues>
        3.1575810909271240e-01 -3.6498782038688660e-01</leafValues></_>
    <_>
      <internalNodes>
        0 -1 49222 -2.0803483203053474e-03</internalNodes>
      <leafValues>
        5.2110463380813599e-01 -2.2616326808929443e-01</leafValues></_>
    <_>
      <internalNodes>
        0 -1 80766 -3.9279059274122119e-04</internalNodes>
      <leafValues>
        -6.1181324720382690e-01 2.0814619958400726e-01</leafValues></_></weakClassifiers></stage3>
</opencv_storage>
