<?xml version="1.0"?>
<opencv_storage>
<stage4>
  <maxWeakCount>20</maxWeakCount>
  <stageThreshold>-7.0296835899353027e-01</stageThreshold>
  <weakClassifiers>
    <_>
      <internalNodes>
        0 -1 60419 -4.2079421691596508e-03</internalNodes>
      <leafValues>
        5.3191490471363068e-02 -5.7851237058639526e-01</leafValues></_>
    <_>
      <internalNodes>
        0 -1 126867 -2.7994222939014435e-02</internalNodes>
      <leafValues>
        7.2426491975784302e-01 -1.7315955460071564e-01</leafValues></_>
    <_>
      <internalNodes>
        0 -1 26768 2.7237529866397381e-03</internalNodes>
      <leafValues>
        -3.5851088166236877e-01 3.1345403194427490e-01</leafValues></_>
    <_>
      <internalNodes>
        0 -1 3321 2.0378097891807556e-02</internalNodes>
      <leafValues>
        -3.3644518256187439e-01 3.0437350273132324e-01</leafValues></_>
    <_>
      <internalNodes>
        0 -1 53651 -1.1522483080625534e-02</internalNodes>
      <leafValues>
        -5.2764445543289185e-01 2.2037616372108459e-01</leafValues></_>
    <_>
      <internalNodes>
        0 -1 5051 1.5576800797134638e-03</internalNodes>
      <leafValues>
        2.4320337176322937e-01 -3.7152805924415588e-01</leafValues></_>
    <_>
      <internalNodes>
        0 -1 2191 6.3526597805321217e-03</internalNodes>
      <leafValues>
        -2.4533483386039734e-01 4.1726368665695190e-01</leafValues></_>
    <_>
      <internalNodes>
        0 -1 133156 4.4740241719409823e-04</internalNodes>
      <leafValues>
        -2.9721659421920776e-01 3.0390965938568115e-01</leafValues></_>
    <_>
      <internalNodes>
        0 -1 139013 -1.1743465438485146e-02</internalNodes>
      <leafValues>
        2.2260594367980957e-01 -4.4945347309112549e-01</leafValues></_>
    <_>
      <internalNodes>
        0 -1 38060 -6.6081143449991941e-04</internalNodes>
      <leafValues>
        -4.7796821594238281e-01 2.1239967644214630e-01</leafValues></_>
    <_>
      <internalNodes>
        0 -1 72532 -9.3592774646822363e-05</internalNodes>
      <leafValues>
        -5.8490478992462158e-01 2.0192542672157288e-01</leafValues></_>
    <_>
      <internalNodes>
        0 -1 53681 -1.4349870616570115e-04</internalNodes>
      <leafValues>
        -4.7687485814094543e-01 1.9717574119567871e-01</leafValues></_>
    <_>
      <internalNodes>
        0 -1 88564 9.4625167548656464e-04</internalNodes>
      <leafValues>
        2.1101132035255432e-01 -4.7081008553504944e-01</leafValues></_>
    <_>
      <internalNodes>
        0 -1 69865 -9.9513120949268341e-03</internalNodes>
      <leafValues>
        -7.8351068496704102e-01 1.3277874886989594e-01</leafValues></_>
    <_>
      <internalNodes>
        0 -1 87555 2.9567698948085308e-03</internalNodes>
      <leafValues>
        1.1427208036184311e-01 -6.6521424055099487e-01</leafValues></_>
    <_>
      <internalNodes>
        0 -1 25439 -3.7202662788331509e-03</internalNodes>
      <leafValues>
        3.1623893976211548e-01 -2.9680737853050232e-01</leafValues></_>
    <_>
      <internalNodes>
        0 -1 59871 -2.6701766997575760e-02</internalNodes>
      <leafValues>
        -9.2183816432952881e-01 1.1120282113552094e-01</leafValues></_>
    <_>
      <internalNodes>
        0 -1 68658 -1.6480064019560814e-02</internalNodes>
      <leafValues>
        -9.3815571069717407e-01 5.6201767176389694e-02</leafValues></_>
    <_>
      <internalNodes>
        0 -1 126148 -2.5518141686916351e-02</internalNodes>
      <leafValues>
        3.1781259179115295e-01 -3.3645525574684143e-01</leafValues></_>
    <_>
      <internalNodes>
        0 -1 133860 1.4674916863441467e-02</internalNodes>
      <leafValues>
        1.2825514376163483e-01 -8.8136970996856689e-01</leafValues></_></weakClassifiers></stage4>
</opencv_storage>
