<?xml version="1.0"?>
<opencv_storage>
<stage0>
  <maxWeakCount>5</maxWeakCount>
  <stageThreshold>-7.0144546031951904e-01</stageThreshold>
  <weakClassifiers>
    <_>
      <internalNodes>
        0 -1 105031 -1.3862106204032898e-01</internalNodes>
      <leafValues>
        9.0209788084030151e-01 -7.7850162982940674e-01</leafValues></_>
    <_>
      <internalNodes>
        0 -1 1052 7.6203145086765289e-02</internalNodes>
      <leafValues>
        -6.2242710590362549e-01 7.8183323144912720e-01</leafValues></_>
    <_>
      <internalNodes>
        0 -1 126361 -2.0581949502229691e-02</internalNodes>
      <leafValues>
        8.4534865617752075e-01 -4.3217673897743225e-01</leafValues></_>
    <_>
      <internalNodes>
        0 -1 71077 4.1172794997692108e-02</internalNodes>
      <leafValues>
        -5.2888453006744385e-01 7.1445083618164063e-01</leafValues></_>
    <_>
      <internalNodes>
        0 -1 139240 2.6185202295891941e-04</internalNodes>
      <leafValues>
        4.1720911860466003e-01 -7.9547858238220215e-01</leafValues></_></weakClassifiers></stage0>
</opencv_storage>
