<?xml version="1.0"?>
<opencv_storage>
<stage4>
  <maxWeakCount>16</maxWeakCount>
  <stageThreshold>-6.3595485687255859e-01</stageThreshold>
  <weakClassifiers>
    <_>
      <internalNodes>
        0 -1 96484 -9.7630873322486877e-02</internalNodes>
      <leafValues>
        2.1495327353477478e-01 -5.5665022134780884e-01</leafValues></_>
    <_>
      <internalNodes>
        0 -1 131423 -2.4955166503787041e-02</internalNodes>
      <leafValues>
        3.2310760021209717e-01 -4.2883214354515076e-01</leafValues></_>
    <_>
      <internalNodes>
        0 -1 4210 7.3859295807778835e-03</internalNodes>
      <leafValues>
        -4.7461923956871033e-01 2.5333678722381592e-01</leafValues></_>
    <_>
      <internalNodes>
        0 -1 15046 3.4342025173828006e-04</internalNodes>
      <leafValues>
        -5.0159662961959839e-01 2.7086627483367920e-01</leafValues></_>
    <_>
      <internalNodes>
        0 -1 17377 -7.5958162778988481e-04</internalNodes>
      <leafValues>
        -5.4637628793716431e-01 2.2261160612106323e-01</leafValues></_>
    <_>
      <internalNodes>
        0 -1 148293 2.7282500013825484e-05</internalNodes>
      <leafValues>
        2.0178328454494476e-01 -5.7809567451477051e-01</leafValues></_>
    <_>
      <internalNodes>
        0 -1 139754 4.6768407337367535e-03</internalNodes>
      <leafValues>
        1.8976747989654541e-01 -6.4297252893447876e-01</leafValues></_>
    <_>
      <internalNodes>
        0 -1 146163 -5.7853397447615862e-04</internalNodes>
      <leafValues>
        -4.3719473481178284e-01 2.4695245921611786e-01</leafValues></_>
    <_>
      <internalNodes>
        0 -1 155848 -5.4320674389600754e-03</internalNodes>
      <leafValues>
        4.5133849978446960e-01 -2.5364315509796143e-01</leafValues></_>
    <_>
      <internalNodes>
        0 -1 56690 -5.0897459004772827e-05</internalNodes>
      <leafValues>
        3.9210373163223267e-01 -3.1258517503738403e-01</leafValues></_>
    <_>
      <internalNodes>
        0 -1 104025 -2.8908994048833847e-02</internalNodes>
      <leafValues>
        5.2631980180740356e-01 -2.4579380452632904e-01</leafValues></_>
    <_>
      <internalNodes>
        0 -1 160681 -1.1062556877732277e-02</internalNodes>
      <leafValues>
        -1.1455649882555008e-01 9.6408843994140625e-01</leafValues></_>
    <_>
      <internalNodes>
        0 -1 20053 8.7051406502723694e-02</internalNodes>
      <leafValues>
        -2.1078811585903168e-01 5.5084908008575439e-01</leafValues></_>
    <_>
      <internalNodes>
        0 -1 7459 4.0618730708956718e-03</internalNodes>
      <leafValues>
        -3.0583313107490540e-01 4.1821408271789551e-01</leafValues></_>
    <_>
      <internalNodes>
        0 -1 10292 2.2060512565076351e-03</internalNodes>
      <leafValues>
        2.4259302020072937e-01 -5.3664410114288330e-01</leafValues></_>
    <_>
      <internalNodes>
        0 -1 24404 2.7459533885121346e-02</internalNodes>
      <leafValues>
        2.2625178098678589e-01 -5.7355356216430664e-01</leafValues></_></weakClassifiers></stage4>
</opencv_storage>
