<?xml version="1.0"?>
<opencv_storage>
<stage7>
  <maxWeakCount>20</maxWeakCount>
  <stageThreshold>-7.7269703149795532e-01</stageThreshold>
  <weakClassifiers>
    <_>
      <internalNodes>
        0 -1 136067 -6.0413591563701630e-02</internalNodes>
      <leafValues>
        1.1009174585342407e-01 -6.5248227119445801e-01</leafValues></_>
    <_>
      <internalNodes>
        0 -1 5998 1.1601384729146957e-02</internalNodes>
      <leafValues>
        -4.5300832390785217e-01 2.2893980145454407e-01</leafValues></_>
    <_>
      <internalNodes>
        0 -1 135741 -3.5102611780166626e-01</internalNodes>
      <leafValues>
        -3.0876046419143677e-01 3.4245717525482178e-01</leafValues></_>
    <_>
      <internalNodes>
        0 -1 125674 5.1880512386560440e-02</internalNodes>
      <leafValues>
        -1.5517960488796234e-01 6.3969624042510986e-01</leafValues></_>
    <_>
      <internalNodes>
        0 -1 77117 -9.4937011599540710e-03</internalNodes>
      <leafValues>
        -5.8354687690734863e-01 2.0920559763908386e-01</leafValues></_>
    <_>
      <internalNodes>
        0 -1 156366 -1.4098783954977989e-02</internalNodes>
      <leafValues>
        2.7689012885093689e-01 -2.9105576872825623e-01</leafValues></_>
    <_>
      <internalNodes>
        0 -1 36135 2.2435685619711876e-02</internalNodes>
      <leafValues>
        -1.1930581182241440e-01 7.5237619876861572e-01</leafValues></_>
    <_>
      <internalNodes>
        0 -1 28482 4.4779676944017410e-02</internalNodes>
      <leafValues>
        -2.6970764994621277e-01 3.3303028345108032e-01</leafValues></_>
    <_>
      <internalNodes>
        0 -1 109096 -1.3009776175022125e-01</internalNodes>
      <leafValues>
        8.9265966415405273e-01 -9.4197407364845276e-02</leafValues></_>
    <_>
      <internalNodes>
        0 -1 4643 1.2783265113830566e-01</internalNodes>
      <leafValues>
        -1.4744749665260315e-01 5.4919201135635376e-01</leafValues></_>
    <_>
      <internalNodes>
        0 -1 33672 -2.5968622416257858e-02</internalNodes>
      <leafValues>
        4.1053596138954163e-01 -2.6075905561447144e-01</leafValues></_>
    <_>
      <internalNodes>
        0 -1 102575 1.5143537521362305e-01</internalNodes>
      <leafValues>
        -1.0556583106517792e-01 8.8262426853179932e-01</leafValues></_>
    <_>
      <internalNodes>
        0 -1 162156 1.1599742574617267e-03</internalNodes>
      <leafValues>
        1.2275587767362595e-01 -8.3081668615341187e-01</leafValues></_>
    <_>
      <internalNodes>
        0 -1 148800 3.2810717821121216e-03</internalNodes>
      <leafValues>
        -2.6939782500267029e-01 2.9587569832801819e-01</leafValues></_>
    <_>
      <internalNodes>
        0 -1 17857 7.6118424534797668e-02</internalNodes>
      <leafValues>
        9.7599610686302185e-02 -7.4316602945327759e-01</leafValues></_>
    <_>
      <internalNodes>
        0 -1 53561 -6.9800607161596417e-04</internalNodes>
      <leafValues>
        -5.7066512107849121e-01 1.2792453169822693e-01</leafValues></_>
    <_>
      <internalNodes>
        0 -1 160620 -2.2014882415533066e-03</internalNodes>
      <leafValues>
        -7.5217533111572266e-01 9.0137764811515808e-02</leafValues></_>
    <_>
      <internalNodes>
        0 -1 12030 8.8789522647857666e-02</internalNodes>
      <leafValues>
        -1.2890550494194031e-01 7.5092405080795288e-01</leafValues></_>
    <_>
      <internalNodes>
        0 -1 117246 -1.5504639304708689e-04</internalNodes>
      <leafValues>
        -3.2685887813568115e-01 2.7119877934455872e-01</leafValues></_>
    <_>
      <internalNodes>
        0 -1 130064 5.0345286726951599e-02</internalNodes>
      <leafValues>
        -1.4323958754539490e-01 6.7266255617141724e-01</leafValues></_></weakClassifiers></stage7>
</opencv_storage>
