<?xml version="1.0"?>
<opencv_storage>
<stage1>
  <maxWeakCount>5</maxWeakCount>
  <stageThreshold>-2.7449613809585571e-01</stageThreshold>
  <weakClassifiers>
    <_>
      <internalNodes>
        0 -1 120198 -4.5117564499378204e-02</internalNodes>
      <leafValues>
        8.9189189672470093e-01 -5.8904111385345459e-01</leafValues></_>
    <_>
      <internalNodes>
        0 -1 69802 -5.1959112286567688e-02</internalNodes>
      <leafValues>
        7.6843637228012085e-01 -4.7799485921859741e-01</leafValues></_>
    <_>
      <internalNodes>
        0 -1 13636 -1.9212388433516026e-03</internalNodes>
      <leafValues>
        -8.0147266387939453e-01 5.3295481204986572e-01</leafValues></_>
    <_>
      <internalNodes>
        0 -1 124961 -6.6712677478790283e-02</internalNodes>
      <leafValues>
        7.5686210393905640e-01 -5.4028183221817017e-01</leafValues></_>
    <_>
      <internalNodes>
        0 -1 90429 1.4198702573776245e-01</internalNodes>
      <leafValues>
        -4.9727708101272583e-01 9.2965233325958252e-01</leafValues></_></weakClassifiers></stage1>
</opencv_storage>
